{"scaler": {"mean": [-0.8430076675215397, -2.7080661077134827, 523.1413297494538, 138.364048313278, 6.663327678043077, -0.36019574538041105, 91.9903682514682, 163.39303011113608, 443.0285131847184, -0.004638331031761667, 6.975889656079395, 443.76939567303754, -0.5020477280199912, 91.84547839811088, 153.35787400539198, 839.4106917866787, 96.3545209443002], "scale": [7.454581646229141, 2.7801902496270703, 409.6288665885035, 128.02429318356067, 1.960236818190061, 1.4701494022140507, 2.5944621983418648, 125.0634933343329, 39.93908880455614, 0.6121519510918371, 2.292326478711776, 36.33116117908869, 0.716259501793392, 2.7114447688590317, 46.38529624146921, 989.3995152506338, 0.808642842992353]}, "random_forest": {"n_estimators": 10, "classes": [0.0, 1.0], "trees": [{"children_left": [1, 2, 3, 4, 5, -1, 7, 8, -1, -1, -1, 12, -1, -1, 15, 16, 17, 18, -1, 20, 21, 22, -1, -1, -1, 26, 27, 28, 29, -1, -1, -1, -1, 34, 35, -1, 37, -1, 39, -1, -1, 42, 43, -1, -1, -1, 47, 48, -1, -1, 51, -1, -1, 54, 55, 56, -1, -1, 59, -1, -1, 62, 63, -1, -1, 66, -1, 68, -1, -1, 71, 72, 73, -1, 75, 76, -1, 78, -1, -1, 81, -1, 83, 84, 85, -1, -1, 88, -1, -1, 91, -1, 93, -1, 95, -1, 97, -1, -1, 100, 101, 102, 103, 104, -1, -1, -1, 108, -1, 110, -1, -1, 113, 114, -1, -1, 117, -1, 119, -1, 121, -1, 123, -1, 125, -1, -1, 128, -1, -1, 131, 132, 133, 134, 135, 136, -1, -1, -1, 140, -1, 142, -1, 144, -1, 146, -1, 148, -1, 150, -1, 152, -1, -1, 155, 156, 157, 158, -1, -1, 161, -1, 163, 164, -1, -1, 167, -1, -1, -1, 171, 172, -1, 174, -1, -1, 177, -1, 179, -1, 181, -1, 183, 184, -1, -1, -1, -1, 189, 190, 191, 192, 193, 194, 195, -1, -1, -1, -1, -1, 201, 202, 203, -1, -1, 206, 207, 208, 209, -1, 211, -1, -1, 214, 215, -1, -1, -1, 219, 220, 221, 222, -1, -1, -1, -1, 227, 228, 229, -1, 231, -1, 233, 234, -1, -1, 237, -1, -1, 240, -1, -1, 243, 244, 245, 246, -1, -1, -1, 250, 251, 252, 253, -1, 255, -1, -1, -1, 259, 260, -1, -1, 263, -1, -1, -1, 267, 268, -1, -1, 271, -1, 273, -1, -1, 276, -1, 278, 279, -1, 281, 282, 283, -1, -1, -1, -1, 288, -1, 290, 291, 292, -1, -1, -1, 296, 297, 298, -1, 300, -1, -1, -1, -1, 305, 306, 307, 308, 309, 310, 311, 312, 313, -1, -1, -1, 317, -1, -1, 320, -1, 322, 323, -1, -1, -1, 327, 328, -1, -1, -1, -1, 333, 334, 335, 336, -1, 338, -1, -1, -1, 342, -1, -1, -1, -1, -1, 348, 349, 350, 351, 352, 353, -1, 355, -1, -1, -1, 359, -1, 361, -1, 363, -1, -1, 366, -1, -1, -1, 370, 371, 372, -1, 374, -1, 376, -1, -1, 379, 380, 381, -1, -1, 384, 385, 386, -1, -1, -1, -1, -1, 392, 393, 394, -1, -1, 397, -1, 399, 400, 401, -1, -1, -1, 405, 406, -1, -1, -1, 410, 411, 412, -1, 414, 415, -1, 417, -1, 419, -1, 421, -1, -1, -1, -1, -1, 427, 428, 429, 430, 431, -1, -1, 434, -1, 436, -1, -1, 439, -1, 441, -1, -1, 444, 445, 446, 447, -1, 449, 450, -1, -1, -1, -1, -1, -1, -1, 458, -1, 460, -1, -1, 463, 464, 465, -1, -1, 468, 469, -1, -1, 472, -1, -1, 475, 476, 477, -1, 479, -1, -1, 482, 483, 484, 485, 486, -1, 488, 489, -1, -1, 492, 493, 494, -1, -1, 497, 498, -1, 500, -1, -1, -1, 504, -1, -1, -1, 508, 509, 510, -1, -1, 513, 514, 515, 516, -1, -1, 519, -1, 521, 522, -1, -1, -1, 526, -1, -1, 529, 530, -1, -1, 533, 534, -1, 536, -1, -1, -1, 540, 541, 542, -1, 544, 545, 546, -1, -1, -1, 550, 551, -1, -1, -1, 555, 556, 557, -1, 559, -1, -1, 562, -1, 564, -1, -1, 567, 568, 569, -1, -1, 572, -1, -1, 575, 576, -1, -1, 579, -1, 581, -1, -1, 584, 585, -1, 587, -1, 589, 590, -1, 592, -1, -1, -1, 596, 597, -1, 599, -1, 601, -1, -1, -1, 605, 606, -1, -1, 609, 610, 611, -1, 613, -1, 615, 616, -1, -1, 619, -1, 621, -1, 623, -1, -1, -1, 627, -1, 629, 630, 631, -1, -1, -1, -1, 636, 637, 638, 639, 640, 641, -1, 643, -1, 645, 646, -1, -1, -1, 650, 651, 652, -1, -1, -1, 656, -1, -1, 659, 660, -1, 662, 663, 664, -1, 666, 667, -1, -1, 670, 671, -1, 673, -1, -1, 676, -1, -1, 679, 680, -1, -1, 683, 684, -1, 686, -1, -1, 689, -1, -1, 692, 693, 694, -1, -1, 697, 698, 699, -1, -1, -1, 703, 704, 705, 706, 707, -1, 709, 710, -1, -1, -1, -1, 715, -1, 717, -1, -1, 720, -1, 722, 723, -1, 725, -1, -1, -1, 729, 730, -1, 732, -1, 734, -1, -1, -1, 738, -1, -1, 741, 742, 743, 744, 745, -1, -1, -1, 749, -1, 751, -1, -1, -1, 755, -1, 757, -1, 759, -1, -1, 762, 763, -1, 765, 766, -1, -1, 769, -1, 771, -1, -1, 774, -1, -1, -1, 778, 779, 780, 781, -1, -1, 784, 785, -1, 787, -1, -1, 790, -1, -1, 793, 794, -1, -1, 797, -1, -1, 800, 801, -1, -1, 804, 805, -1, -1, -1, 809, 810, 811, 812, 813, 814, 815, 816, 817, 818, 819, -1, -1, -1, 823, 824, -1, 826, -1, 828, -1, -1, 831, 832, -1, -1, -1, -1, 837, -1, -1, -1, 841, 842, -1, -1, 845, -1, -1, 848, -1, -1, 851, -1, -1, 854, 855, 856, 857, -1, -1, -1, 861, -1, 863, -1, -1, 866, 867, 868, -1, -1, -1, -1, 873, 874, 875, 876, 877, -1, -1, -1, -1, 882, 883, -1, 885, -1, -1, -1, 889, 890, 891, 892, -1, -1, -1, 896, 897, -1, -1, -1, 901, 902, -1, 904, -1, 906, -1, -1, 909, 910, 911, -1, -1, -1, -1], "children_right": [462, 457, 14, 11, 6, -1, 10, 9, -1, -1, -1, 13, -1, -1, 70, 53, 46, 19, -1, 25, 24, 23, -1, -1, -1, 33, 32, 31, 30, -1, -1, -1, -1, 41, 36, -1, 38, -1, 40, -1, -1, 45, 44, -1, -1, -1, 50, 49, -1, -1, 52, -1, -1, 61, 58, 57, -1, -1, 60, -1, -1, 65, 64, -1, -1, 67, -1, 69, -1, -1, 130, 99, 74, -1, 80, 77, -1, 79, -1, -1, 82, -1, 90, 87, 86, -1, -1, 89, -1, -1, 92, -1, 94, -1, 96, -1, 98, -1, -1, 127, 112, 107, 106, 105, -1, -1, -1, 109, -1, 111, -1, -1, 116, 115, -1, -1, 118, -1, 120, -1, 122, -1, 124, -1, 126, -1, -1, 129, -1, -1, 188, 187, 154, 139, 138, 137, -1, -1, -1, 141, -1, 143, -1, 145, -1, 147, -1, 149, -1, 151, -1, 153, -1, -1, 170, 169, 160, 159, -1, -1, 162, -1, 166, 165, -1, -1, 168, -1, -1, -1, 176, 173, -1, 175, -1, -1, 178, -1, 180, -1, 182, -1, 186, 185, -1, -1, -1, -1, 426, 347, 200, 199, 198, 197, 196, -1, -1, -1, -1, -1, 304, 205, 204, -1, -1, 275, 218, 213, 210, -1, 212, -1, -1, 217, 216, -1, -1, -1, 226, 225, 224, 223, -1, -1, -1, -1, 242, 239, 230, -1, 232, -1, 236, 235, -1, -1, 238, -1, -1, 241, -1, -1, 266, 249, 248, 247, -1, -1, -1, 265, 258, 257, 254, -1, 256, -1, -1, -1, 262, 261, -1, -1, 264, -1, -1, -1, 270, 269, -1, -1, 272, -1, 274, -1, -1, 277, -1, 287, 280, -1, 286, 285, 284, -1, -1, -1, -1, 289, -1, 295, 294, 293, -1, -1, -1, 303, 302, 299, -1, 301, -1, -1, -1, -1, 346, 345, 332, 331, 326, 319, 316, 315, 314, -1, -1, -1, 318, -1, -1, 321, -1, 325, 324, -1, -1, -1, 330, 329, -1, -1, -1, -1, 344, 341, 340, 337, -1, 339, -1, -1, -1, 343, -1, -1, -1, -1, -1, 369, 368, 365, 358, 357, 354, -1, 356, -1, -1, -1, 360, -1, 362, -1, 364, -1, -1, 367, -1, -1, -1, 391, 378, 373, -1, 375, -1, 377, -1, -1, 390, 383, 382, -1, -1, 389, 388, 387, -1, -1, -1, -1, -1, 409, 396, 395, -1, -1, 398, -1, 404, 403, 402, -1, -1, -1, 408, 407, -1, -1, -1, 425, 424, 413, -1, 423, 416, -1, 418, -1, 420, -1, 422, -1, -1, -1, -1, -1, 456, 443, 438, 433, 432, -1, -1, 435, -1, 437, -1, -1, 440, -1, 442, -1, -1, 455, 454, 453, 448, -1, 452, 451, -1, -1, -1, -1, -1, -1, -1, 459, -1, 461, -1, -1, 474, 467, 466, -1, -1, 471, 470, -1, -1, 473, -1, -1, 808, 481, 478, -1, 480, -1, -1, 635, 604, 507, 506, 487, -1, 491, 490, -1, -1, 503, 496, 495, -1, -1, 502, 499, -1, 501, -1, -1, -1, 505, -1, -1, -1, 539, 512, 511, -1, -1, 528, 525, 518, 517, -1, -1, 520, -1, 524, 523, -1, -1, -1, 527, -1, -1, 532, 531, -1, -1, 538, 535, -1, 537, -1, -1, -1, 583, 554, 543, -1, 549, 548, 547, -1, -1, -1, 553, 552, -1, -1, -1, 566, 561, 558, -1, 560, -1, -1, 563, -1, 565, -1, -1, 574, 571, 570, -1, -1, 573, -1, -1, 578, 577, -1, -1, 580, -1, 582, -1, -1, 595, 586, -1, 588, -1, 594, 591, -1, 593, -1, -1, -1, 603, 598, -1, 600, -1, 602, -1, -1, -1, 608, 607, -1, -1, 626, 625, 612, -1, 614, -1, 618, 617, -1, -1, 620, -1, 622, -1, 624, -1, -1, -1, 628, -1, 634, 633, 632, -1, -1, -1, -1, 777, 776, 761, 658, 649, 642, -1, 644, -1, 648, 647, -1, -1, -1, 655, 654, 653, -1, -1, -1, 657, -1, -1, 740, 661, -1, 691, 678, 665, -1, 669, 668, -1, -1, 675, 672, -1, 674, -1, -1, 677, -1, -1, 682, 681, -1, -1, 688, 685, -1, 687, -1, -1, 690, -1, -1, 737, 696, 695, -1, -1, 702, 701, 700, -1, -1, -1, 728, 719, 714, 713, 708, -1, 712, 711, -1, -1, -1, -1, 716, -1, 718, -1, -1, 721, -1, 727, 724, -1, 726, -1, -1, -1, 736, 731, -1, 733, -1, 735, -1, -1, -1, 739, -1, -1, 754, 753, 748, 747, 746, -1, -1, -1, 750, -1, 752, -1, -1, -1, 756, -1, 758, -1, 760, -1, -1, 773, 764, -1, 768, 767, -1, -1, 770, -1, 772, -1, -1, 775, -1, -1, -1, 799, 792, 783, 782, -1, -1, 789, 786, -1, 788, -1, -1, 791, -1, -1, 796, 795, -1, -1, 798, -1, -1, 803, 802, -1, -1, 807, 806, -1, -1, -1, 872, 853, 850, 847, 840, 839, 836, 835, 822, 821, 820, -1, -1, -1, 830, 825, -1, 827, -1, 829, -1, -1, 834, 833, -1, -1, -1, -1, 838, -1, -1, -1, 844, 843, -1, -1, 846, -1, -1, 849, -1, -1, 852, -1, -1, 865, 860, 859, 858, -1, -1, -1, 862, -1, 864, -1, -1, 871, 870, 869, -1, -1, -1, -1, 888, 881, 880, 879, 878, -1, -1, -1, -1, 887, 884, -1, 886, -1, -1, -1, 900, 895, 894, 893, -1, -1, -1, 899, 898, -1, -1, -1, 908, 903, -1, 905, -1, 907, -1, -1, 914, 913, 912, -1, -1, -1, -1], "feature": [6, 7, 7, 10, 6, -2, 11, 8, -2, -2, -2, 11, -2, -2, 15, 5, 10, 7, -2, 9, 4, 4, -2, -2, -2, 3, 15, 8, 16, -2, -2, -2, -2, 13, 1, -2, 14, -2, 3, -2, -2, 12, 14, -2, -2, -2, 16, 9, -2, -2, 12, -2, -2, 3, 15, 4, -2, -2, 14, -2, -2, 7, 5, -2, -2, 1, -2, 1, -2, -2, 3, 9, 4, -2, 1, 7, -2, 12, -2, -2, 11, -2, 7, 2, 13, -2, -2, 7, -2, -2, 13, -2, 16, -2, 0, -2, 10, -2, -2, 5, 8, 13, 12, 2, -2, -2, -2, 3, -2, 12, -2, -2, 15, 6, -2, -2, 10, -2, 4, -2, 14, -2, 6, -2, 4, -2, -2, 13, -2, -2, 3, 7, 10, 16, 8, 5, -2, -2, -2, 3, -2, 5, -2, 2, -2, 0, -2, 5, -2, 1, -2, 10, -2, -2, 12, 7, 7, 16, -2, -2, 6, -2, 3, 13, -2, -2, 10, -2, -2, -2, 3, 15, -2, 8, -2, -2, 7, -2, 0, -2, 7, -2, 7, 10, -2, -2, -2, -2, 4, 6, 9, 15, 2, 7, 3, -2, -2, -2, -2, -2, 2, 12, 1, -2, -2, 14, 8, 12, 5, -2, 5, -2, -2, 15, 3, -2, -2, -2, 11, 2, 12, 0, -2, -2, -2, -2, 4, 10, 0, -2, 2, -2, 3, 8, -2, -2, 7, -2, -2, 7, -2, -2, 1, 13, 1, 10, -2, -2, -2, 4, 11, 7, 6, -2, 8, -2, -2, -2, 2, 7, -2, -2, 3, -2, -2, -2, 12, 7, -2, -2, 3, -2, 4, -2, -2, 6, -2, 9, 4, -2, 9, 5, 11, -2, -2, -2, -2, 15, -2, 12, 9, 4, -2, -2, -2, 7, 10, 1, -2, 4, -2, -2, -2, -2, 15, 2, 12, 3, 4, 4, 0, 9, 9, -2, -2, -2, 2, -2, -2, 9, -2, 6, 4, -2, -2, -2, 4, 9, -2, -2, -2, -2, 3, 12, 9, 9, -2, 15, -2, -2, -2, 7, -2, -2, -2, -2, -2, 8, 2, 3, 15, 7, 8, -2, 4, -2, -2, -2, 0, -2, 11, -2, 11, -2, -2, 16, -2, -2, -2, 3, 11, 7, -2, 9, -2, 15, -2, -2, 10, 11, 7, -2, -2, 9, 0, 6, -2, -2, -2, -2, -2, 2, 2, 13, -2, -2, 8, -2, 5, 14, 12, -2, -2, -2, 1, 6, -2, -2, -2, 15, 14, 13, -2, 0, 15, -2, 6, -2, 10, -2, 13, -2, -2, -2, -2, -2, 2, 3, 15, 14, 3, -2, -2, 4, -2, 14, -2, -2, 2, -2, 1, -2, -2, 11, 14, 7, 11, -2, 8, 2, -2, -2, -2, -2, -2, -2, -2, 9, -2, 0, -2, -2, 7, 8, 10, -2, -2, 0, 16, -2, -2, 10, -2, -2, 15, 3, 5, -2, 14, -2, -2, 14, 10, 10, 9, 3, -2, 15, 3, -2, -2, 1, 12, 11, -2, -2, 14, 16, -2, 9, -2, -2, -2, 14, -2, -2, -2, 10, 15, 11, -2, -2, 10, 0, 5, 6, -2, -2, 11, -2, 6, 13, -2, -2, -2, 11, -2, -2, 11, 10, -2, -2, 2, 4, -2, 13, -2, -2, -2, 13, 2, 0, -2, 5, 9, 2, -2, -2, -2, 15, 12, -2, -2, -2, 7, 15, 2, -2, 8, -2, -2, 8, -2, 14, -2, -2, 1, 6, 13, -2, -2, 0, -2, -2, 3, 5, -2, -2, 15, -2, 2, -2, -2, 3, 2, -2, 11, -2, 7, 1, -2, 3, -2, -2, -2, 15, 15, -2, 9, -2, 15, -2, -2, -2, 12, 4, -2, -2, 1, 3, 16, -2, 0, -2, 0, 5, -2, -2, 1, -2, 13, -2, 4, -2, -2, -2, 4, -2, 2, 14, 3, -2, -2, -2, -2, 1, 2, 8, 15, 12, 6, -2, 14, -2, 2, 11, -2, -2, -2, 16, 14, 8, -2, -2, -2, 10, -2, -2, 0, 7, -2, 16, 14, 15, -2, 12, 3, -2, -2, 6, 7, -2, 12, -2, -2, 1, -2, -2, 3, 1, -2, -2, 0, 10, -2, 7, -2, -2, 14, -2, -2, 3, 2, 10, -2, -2, 7, 4, 11, -2, -2, -2, 15, 0, 16, 1, 1, -2, 4, 1, -2, -2, -2, -2, 3, -2, 13, -2, -2, 7, -2, 11, 0, -2, 2, -2, -2, -2, 12, 3, -2, 10, -2, 1, -2, -2, -2, 5, -2, -2, 10, 13, 3, 7, 11, -2, -2, -2, 0, -2, 16, -2, -2, -2, 2, -2, 14, -2, 16, -2, -2, 5, 3, -2, 3, 12, -2, -2, 5, -2, 13, -2, -2, 5, -2, -2, -2, 7, 15, 4, 2, -2, -2, 6, 16, -2, 7, -2, -2, 12, -2, -2, 16, 12, -2, -2, 7, -2, -2, 7, 3, -2, -2, 0, 3, -2, -2, -2, 1, 11, 12, 9, 8, 15, 14, 7, 0, 5, 1, -2, -2, -2, 16, 13, -2, 6, -2, 8, -2, -2, 5, 5, -2, -2, -2, -2, 10, -2, -2, -2, 13, 11, -2, -2, 15, -2, -2, 7, -2, -2, 13, -2, -2, 4, 15, 12, 9, -2, -2, -2, 8, -2, 4, -2, -2, 2, 1, 6, -2, -2, -2, -2, 15, 12, 10, 5, 14, -2, -2, -2, -2, 9, 4, -2, 14, -2, -2, -2, 1, 7, 16, 15, -2, -2, -2, 3, 2, -2, -2, -2, 10, 2, -2, 7, -2, 1, -2, -2, 15, 10, 8, -2, -2, -2, -2], "threshold": [0.13861514627933502, 0.8432274162769318, -1.291848063468933, 0.8742691576480865, -2.9294580221176147, -2.0, -1.4772276282310486, -1.4091086387634277, -2.0, -2.0, -2.0, 0.2031480371952057, -2.0, -2.0, -0.7062977850437164, 0.37152397632598877, -0.29266758263111115, -0.2941548228263855, -2.0, -0.2881011366844177, -1.432647168636322, -1.4428499937057495, -2.0, -2.0, -2.0, -1.0581120252609253, -0.732273131608963, -0.9734451472759247, -1.6132226586341858, -2.0, -2.0, -2.0, -2.0, -0.14585522562265396, 1.6520689725875854, -2.0, -1.8492470979690552, -2.0, 0.9622076451778412, -2.0, -2.0, -0.9674597978591919, -2.264357089996338, -2.0, -2.0, -2.0, -1.9223825931549072, -1.7060496807098389, -2.0, -2.0, -1.0114382803440094, -2.0, -2.0, -1.0492075085639954, -0.8593553006649017, -1.2770537286996841, -2.0, -2.0, -0.8560444116592407, -2.0, -2.0, 0.6957023739814758, 0.5813665986061096, -2.0, -2.0, 1.8822690844535828, -2.0, 1.9218347072601318, -2.0, -2.0, -1.0494027733802795, -0.02917848899960518, -2.7870752811431885, -2.0, 0.9003218710422516, -0.24102181196212769, -2.0, 0.7860946357250214, -2.0, -2.0, -1.9355119466781616, -2.0, -1.2778551578521729, -0.5261868834495544, -2.1208170652389526, -2.0, -2.0, -1.2800140380859375, -2.0, -2.0, -0.4962219297885895, -2.0, 0.6127291768789291, -2.0, -0.6542275100946426, -2.0, 0.3616894483566284, -2.0, -2.0, 0.8762345612049103, -0.5678274929523468, -1.1748269200325012, 0.8040350377559662, 1.6963127851486206, -2.0, -2.0, -2.0, -1.0817052125930786, -2.0, 1.1525819301605225, -2.0, -2.0, -0.4827278405427933, -0.5166266113519669, -2.0, -2.0, -0.8336027562618256, -2.0, -1.060243159532547, -2.0, 0.7069508731365204, -2.0, -0.2853648290038109, -2.0, 0.5084448605775833, -2.0, -2.0, 0.16763078421354294, -2.0, -2.0, 0.9294013679027557, 0.74647656083107, -0.8423275053501129, -1.7368866205215454, -0.9684375524520874, -0.021293246187269688, -2.0, -2.0, -2.0, -0.10165295004844666, -2.0, -1.7146585583686829, -2.0, -0.4899345487356186, -2.0, -0.6904468536376953, -2.0, -0.16175516322255135, -2.0, 0.8456493616104126, -2.0, -1.1651436686515808, -2.0, -2.0, -0.44879303872585297, 0.7432782351970673, 0.7164918184280396, 0.17990520596504211, -2.0, -2.0, -0.9540968835353851, -2.0, 0.89893838763237, -0.36713946610689163, -2.0, -2.0, 0.33551517128944397, -2.0, -2.0, -2.0, -1.047957718372345, -0.5928451418876648, -2.0, -0.8182087689638138, -2.0, -2.0, -0.24126166105270386, -2.0, -3.068179130554199, -2.0, 0.7128936350345612, -2.0, 0.7356820702552795, 0.8131958497688174, -2.0, -2.0, -2.0, -2.0, -0.2567688077688217, -0.5744420886039734, -1.0354646444320679, -0.18643701821565628, -0.09909294173121452, 0.7476759552955627, 0.9583021104335785, -2.0, -2.0, -2.0, -2.0, -2.0, -0.7877651154994965, -0.7301156520843506, 0.42733266949653625, -2.0, -2.0, -0.845265120267868, -1.7633980512619019, 0.6797783970832825, 0.34465596079826355, -2.0, 0.3558793067932129, -2.0, -2.0, -0.6110379993915558, 0.9637698531150818, -2.0, -2.0, -2.0, -1.3175851106643677, -1.0943353176116943, 1.0080811977386475, -0.3530704230070114, -2.0, -2.0, -2.0, -2.0, -1.351024329662323, -1.2349417209625244, -0.030450042337179184, -2.0, -1.1481645107269287, -2.0, 0.9547871649265289, -0.8307278454303741, -2.0, -2.0, 0.6633188426494598, -2.0, -2.0, 0.7488753497600555, -2.0, -2.0, 1.5639455318450928, -1.1748269200325012, 1.2452622652053833, -0.9492058455944061, -2.0, -2.0, -2.0, -1.027083933353424, -0.9515081346035004, 0.7496749460697174, -0.9540968835353851, -2.0, -0.7856592237949371, -2.0, -2.0, -2.0, -1.0700938701629639, 0.7060971260070801, -2.0, -2.0, 0.9461950361728668, -2.0, -2.0, -2.0, 0.36445970833301544, 0.7212893664836884, -2.0, -2.0, 0.9543966054916382, -2.0, -1.0959531366825104, -2.0, -2.0, -1.8483091592788696, -2.0, -0.41797085106372833, -1.2872565388679504, -2.0, -0.6221685111522675, -0.054963293951004744, -1.7056816220283508, -2.0, -2.0, -2.0, -2.0, -0.6543470919132233, -2.0, 0.7637563347816467, -0.2864675521850586, -1.330618679523468, -2.0, -2.0, -2.0, 0.7480757534503937, -1.2807467579841614, -0.004292473196983337, -2.0, -1.4479514360427856, -2.0, -2.0, -2.0, -2.0, -0.19735272973775864, 0.7072466909885406, -0.5472210347652435, 0.9622076451778412, -0.9556639492511749, -1.3076622486114502, -0.6361178159713745, -0.046902842819690704, -0.3436429053544998, -2.0, -2.0, -2.0, -0.6288407444953918, -2.0, -2.0, -0.6728095412254333, -2.0, -0.9078445136547089, -1.1214602589607239, -2.0, -2.0, -2.0, -0.9148525595664978, -0.25869666785001755, -2.0, -2.0, -2.0, -2.0, 0.9614265263080597, 0.43217259645462036, -0.3893831670284271, -0.599298357963562, -2.0, -0.44164231419563293, -2.0, -2.0, -2.0, 0.7484755516052246, -2.0, -2.0, -2.0, -2.0, -2.0, -0.8620254993438721, -0.10275478847324848, 0.9637698233127594, -0.5756124556064606, 0.6805101037025452, -0.9809565842151642, -2.0, -0.5934628248214722, -2.0, -2.0, -2.0, 0.29485325515270233, -2.0, -0.5235009044408798, -2.0, -0.3666107952594757, -2.0, -2.0, -1.3040626794099808, -2.0, -2.0, -2.0, 0.945023387670517, -0.25788869708776474, 0.7488753497600555, -2.0, 0.22427165415138006, -2.0, -0.511886939406395, -2.0, -2.0, -0.8663206100463867, -0.22348296642303467, 0.7488753497600555, -2.0, -2.0, -0.9668541848659515, 0.1432686150074005, -0.01555938832461834, -2.0, -2.0, -2.0, -2.0, -2.0, -0.9549896419048309, -1.2188260555267334, -0.44090087711811066, -2.0, -2.0, -0.6391861736774445, -2.0, 0.4000924974679947, -0.6792642772197723, 0.40662319492548704, -2.0, -2.0, -2.0, 1.1395141780376434, -0.169733926653862, -2.0, -2.0, -2.0, -0.32389412820339203, 0.7349769920110703, -0.5884236991405487, -2.0, 2.5458179712295532, -0.6149797737598419, -2.0, -0.11191847175359726, -2.0, -0.7659858465194702, -2.0, -0.18273593857884407, -2.0, -2.0, -2.0, -2.0, -2.0, 1.5217645168304443, 0.9395556747913361, -0.17193326354026794, -1.2444217801094055, 0.9317446649074554, -2.0, -2.0, 0.3885613828897476, -2.0, 0.7910292595624924, -2.0, -2.0, 0.7238471210002899, -2.0, 1.480677843093872, -2.0, -2.0, 0.4990372955799103, 0.7241977155208588, 0.7804593145847321, -0.15329528599977493, -2.0, 0.15201865881681442, -1.160553753376007, -2.0, -2.0, -2.0, -2.0, -2.0, -2.0, -2.0, 1.358548879623413, -2.0, 2.7074634432792664, -2.0, -2.0, -1.2840920090675354, 0.48878148198127747, 0.6779620470479131, -2.0, -2.0, -1.6925151348114014, 0.6127291768789291, -2.0, -2.0, 1.7140274047851562, -2.0, -2.0, -0.17597612738609314, -1.057018518447876, 0.79869145154953, -2.0, 1.0572774410247803, -2.0, -2.0, -0.3321715146303177, 0.15229520946741104, -0.9797424972057343, 2.1394007205963135, 0.9336974322795868, -2.0, -0.5616646111011505, 0.9516627490520477, -2.0, -2.0, 2.6340161561965942, -0.11022858694195747, 0.8252035975456238, -2.0, -2.0, -0.41732780635356903, -0.5620787441730499, -2.0, 1.0694049298763275, -2.0, -2.0, -2.0, -2.3001441955566406, -2.0, -2.0, -2.0, -0.5587727725505829, -0.7802214324474335, 0.5829872786998749, -2.0, -2.0, -0.9143067896366119, 0.30893854796886444, 0.22579048573970795, 0.8709441721439362, -2.0, -2.0, 0.4137110859155655, -2.0, 0.9287596046924591, 0.6655203104019165, -2.0, -2.0, -2.0, 0.9119060039520264, -2.0, -2.0, -0.39551159739494324, -0.6852818131446838, -2.0, -2.0, -1.2686882615089417, -0.4888836145401001, -2.0, 0.49955715239048004, -2.0, -2.0, -2.0, 1.0343274176120758, -1.2669916152954102, 0.20363418757915497, -2.0, -0.32670438289642334, 0.20769083499908447, -1.2679070830345154, -2.0, -2.0, -2.0, -0.7880898416042328, 1.248217612504959, -2.0, -2.0, -2.0, 0.7128936350345612, -0.6661219000816345, -1.190165936946869, -2.0, -0.41008730232715607, -2.0, -2.0, -0.43262162804603577, -2.0, -1.5251142084598541, -2.0, -2.0, 2.218577027320862, 1.0251187086105347, -0.14585522562265396, -2.0, -2.0, 0.25219491869211197, -2.0, -2.0, -1.0110116600990295, -0.7446891367435455, -2.0, -2.0, -0.7723530232906342, -2.0, -1.1795099377632141, -2.0, -2.0, -0.983790248632431, -1.2736635208129883, -2.0, 1.4486353993415833, -2.0, 0.8724126219749451, 1.7060221433639526, -2.0, -0.9967955648899078, -2.0, -2.0, -2.0, -0.3820607140660286, -0.7329806387424469, -2.0, 0.5368574410676956, -2.0, -0.7173145711421967, -2.0, -2.0, -2.0, -1.400263786315918, 0.7048496901988983, -2.0, -2.0, 1.8840675354003906, 1.003996580839157, -2.7261985540390015, -2.0, -1.5637352466583252, -2.0, -0.8279461562633514, 0.23276256769895554, -2.0, -2.0, 1.4740236401557922, -2.0, 1.0896484553813934, -2.0, 0.4344742000102997, -2.0, -2.0, -2.0, 0.32734429091215134, -2.0, -1.2390272617340088, -2.1705774068832397, -1.0019508600234985, -2.0, -2.0, -2.0, -2.0, 0.26547324657440186, 1.5571624040603638, 1.1435285210609436, -0.5713674426078796, -0.38875891268253326, 0.2349742278456688, -2.0, -0.23300214856863022, -2.0, -1.0017881393432617, 0.8664904534816742, -2.0, -2.0, -2.0, 0.42723318934440613, -0.23408007621765137, -0.20352274179458618, -2.0, -2.0, -2.0, -0.5216925591230392, -2.0, -2.0, 1.1587514877319336, -0.30271047353744507, -2.0, -0.5620787441730499, 0.30703966319561005, -0.49167266488075256, -2.0, 0.2765027582645416, 0.9372123777866364, -2.0, -2.0, 0.6974978148937225, 0.7488753497600555, -2.0, 0.8506661653518677, -2.0, -2.0, -0.27405818551778793, -2.0, -2.0, -1.0561983585357666, -1.613894522190094, -2.0, -2.0, 0.4243038445711136, 0.9811474978923798, -2.0, 0.8168408572673798, -2.0, -2.0, 0.655210331082344, -2.0, -2.0, 0.96533203125, -1.1428792476654053, -0.9012196362018585, -2.0, -2.0, 0.6845080852508545, -0.019552575424313545, 0.18525706883519888, -2.0, -2.0, -2.0, -0.29241038858890533, 0.4980839788913727, -0.2529187649488449, 0.06404817383736372, -0.6715129911899567, -2.0, 0.5543576776981354, -0.6337457895278931, -2.0, -2.0, -2.0, -2.0, 0.9629887342453003, -2.0, 0.4073553681373596, -2.0, -2.0, 0.714093029499054, -2.0, -0.05145433358848095, 0.521559476852417, -2.0, -0.8784569501876831, -2.0, -2.0, -2.0, 0.875447690486908, -0.06619095802307129, -2.0, -0.2970299571752548, -2.0, -0.5600098371505737, -2.0, -2.0, -2.0, -1.5969834439456463, -2.0, -2.0, -0.03528714459389448, 0.9421256482601166, 0.9598643183708191, 0.7468763589859009, 0.45224549248814583, -2.0, -2.0, -2.0, 1.958930492401123, -2.0, -0.2529187649488449, -2.0, -2.0, -2.0, -0.9670737683773041, -2.0, 0.14750634878873825, -2.0, -1.1803986728191376, -2.0, -2.0, 0.7412143051624298, 0.9372123777866364, -2.0, 0.9594737589359283, 0.4746851176023483, -2.0, -2.0, -0.09135415032505989, -2.0, 0.7392817437648773, -2.0, -2.0, 0.9272498190402985, -2.0, -2.0, -2.0, 0.7496749460697174, -0.5146664083003998, -0.16749388724565506, -0.8074170649051666, -2.0, -2.0, 0.8709441721439362, -0.005590781569480896, -2.0, 0.6921041905879974, -2.0, -2.0, -1.044247567653656, -2.0, -2.0, 1.2928811311721802, 1.0332117676734924, -2.0, -2.0, -0.2540551722049713, -2.0, -2.0, 0.7680656015872955, 0.961035966873169, -2.0, -2.0, 0.3880845010280609, 0.9501005709171295, -2.0, -2.0, -2.0, 0.6886457204818726, 1.149993658065796, 1.2838192582130432, 2.1394007205963135, 0.9582463502883911, 2.611269950866699, 0.9645756185054779, 0.9123923182487488, -3.761712431907654, 0.03618390392512083, -0.2111128568649292, -2.0, -2.0, -2.0, -1.4895586371421814, 1.0343274176120758, -2.0, 1.217836856842041, -2.0, 0.046858519315719604, -2.0, -2.0, -0.13080593198537827, -0.1420292779803276, -2.0, -2.0, -2.0, -2.0, 0.8829939067363739, -2.0, -2.0, -2.0, 0.6655203104019165, 0.7784118056297302, -2.0, -2.0, 2.442986249923706, -2.0, -2.0, 0.7376810312271118, -2.0, -2.0, 0.6655203104019165, -2.0, -2.0, 1.6103525161743164, 2.0351630449295044, -1.3304566740989685, 0.4746996574103832, -2.0, -2.0, -2.0, 1.1986123621463776, -2.0, -0.6164192855358124, -2.0, -2.0, 1.7146219611167908, -0.6175598800182343, 1.2563804984092712, -2.0, -2.0, -2.0, -2.0, 0.04936257563531399, -0.06345782801508904, 0.3486023396253586, -0.14475008472800255, -0.5053945183753967, -2.0, -2.0, -2.0, -2.0, -0.9929915070533752, -0.33839160203933716, -2.0, -2.3294639587402344, -2.0, -2.0, -2.0, 1.1713464856147766, 0.7740625739097595, -0.8712387084960938, 0.31593839824199677, -2.0, -2.0, -2.0, -1.0401076674461365, 1.527867615222931, -2.0, -2.0, -2.0, 0.15665759146213531, -1.0767095983028412, -2.0, -1.214807152748108, -2.0, 2.125058174133301, -2.0, -2.0, 1.9138773083686829, 0.2678982838988304, 0.20084300637245178, -2.0, -2.0, -2.0, -2.0], "value": [[[8584.0, 6623.0]], [[2938.0, 3980.0]], [[2594.0, 3979.0]], [[510.0, 129.0]], [[509.0, 31.0]], [[0.0, 25.0]], [[509.0, 6.0]], [[15.0, 6.0]], [[15.0, 0.0]], [[0.0, 6.0]], [[494.0, 0.0]], [[1.0, 98.0]], [[0.0, 98.0]], [[1.0, 0.0]], [[2084.0, 3850.0]], [[91.0, 884.0]], [[35.0, 803.0]], [[33.0, 293.0]], [[16.0, 0.0]], [[17.0, 293.0]], [[2.0, 142.0]], [[2.0, 25.0]], [[0.0, 25.0]], [[2.0, 0.0]], [[0.0, 117.0]], [[15.0, 151.0]], [[12.0, 48.0]], [[1.0, 48.0]], [[1.0, 3.0]], [[1.0, 0.0]], [[0.0, 3.0]], [[0.0, 45.0]], [[11.0, 0.0]], [[3.0, 103.0]], [[1.0, 87.0]], [[0.0, 61.0]], [[1.0, 26.0]], [[0.0, 23.0]], [[1.0, 3.0]], [[1.0, 0.0]], [[0.0, 3.0]], [[2.0, 16.0]], [[2.0, 4.0]], [[0.0, 4.0]], [[2.0, 0.0]], [[0.0, 12.0]], [[2.0, 510.0]], [[1.0, 2.0]], [[1.0, 0.0]], [[0.0, 2.0]], [[1.0, 508.0]], [[1.0, 0.0]], [[0.0, 508.0]], [[56.0, 81.0]], [[52.0, 3.0]], [[1.0, 2.0]], [[1.0, 0.0]], [[0.0, 2.0]], [[51.0, 1.0]], [[0.0, 1.0]], [[51.0, 0.0]], [[4.0, 78.0]], [[3.0, 4.0]], [[0.0, 4.0]], [[3.0, 0.0]], [[1.0, 74.0]], [[0.0, 63.0]], [[1.0, 11.0]], [[1.0, 0.0]], [[0.0, 11.0]], [[1993.0, 2966.0]], [[250.0, 1298.0]], [[67.0, 1029.0]], [[6.0, 0.0]], [[61.0, 1029.0]], [[4.0, 882.0]], [[0.0, 867.0]], [[4.0, 15.0]], [[4.0, 0.0]], [[0.0, 15.0]], [[57.0, 147.0]], [[19.0, 0.0]], [[38.0, 147.0]], [[34.0, 11.0]], [[33.0, 1.0]], [[0.0, 1.0]], [[33.0, 0.0]], [[1.0, 10.0]], [[0.0, 10.0]], [[1.0, 0.0]], [[4.0, 136.0]], [[0.0, 109.0]], [[4.0, 27.0]], [[0.0, 21.0]], [[4.0, 6.0]], [[0.0, 4.0]], [[4.0, 2.0]], [[4.0, 0.0]], [[0.0, 2.0]], [[183.0, 269.0]], [[181.0, 188.0]], [[160.0, 102.0]], [[16.0, 92.0]], [[16.0, 5.0]], [[16.0, 0.0]], [[0.0, 5.0]], [[0.0, 87.0]], [[144.0, 10.0]], [[0.0, 3.0]], [[144.0, 7.0]], [[144.0, 0.0]], [[0.0, 7.0]], [[21.0, 86.0]], [[12.0, 2.0]], [[0.0, 2.0]], [[12.0, 0.0]], [[9.0, 84.0]], [[5.0, 0.0]], [[4.0, 84.0]], [[1.0, 0.0]], [[3.0, 84.0]], [[0.0, 82.0]], [[3.0, 2.0]], [[2.0, 0.0]], [[1.0, 2.0]], [[0.0, 2.0]], [[1.0, 0.0]], [[2.0, 81.0]], [[0.0, 81.0]], [[2.0, 0.0]], [[1743.0, 1668.0]], [[879.0, 233.0]], [[341.0, 233.0]], [[60.0, 126.0]], [[28.0, 7.0]], [[28.0, 3.0]], [[28.0, 0.0]], [[0.0, 3.0]], [[0.0, 4.0]], [[32.0, 119.0]], [[11.0, 0.0]], [[21.0, 119.0]], [[15.0, 0.0]], [[6.0, 119.0]], [[0.0, 70.0]], [[6.0, 49.0]], [[2.0, 0.0]], [[4.0, 49.0]], [[1.0, 0.0]], [[3.0, 49.0]], [[0.0, 44.0]], [[3.0, 5.0]], [[3.0, 0.0]], [[0.0, 5.0]], [[281.0, 107.0]], [[24.0, 72.0]], [[13.0, 72.0]], [[9.0, 4.0]], [[0.0, 4.0]], [[9.0, 0.0]], [[4.0, 68.0]], [[2.0, 0.0]], [[2.0, 68.0]], [[1.0, 1.0]], [[0.0, 1.0]], [[1.0, 0.0]], [[1.0, 67.0]], [[0.0, 67.0]], [[1.0, 0.0]], [[11.0, 0.0]], [[257.0, 35.0]], [[7.0, 15.0]], [[5.0, 0.0]], [[2.0, 15.0]], [[2.0, 0.0]], [[0.0, 15.0]], [[250.0, 20.0]], [[0.0, 6.0]], [[250.0, 14.0]], [[0.0, 1.0]], [[250.0, 13.0]], [[204.0, 0.0]], [[46.0, 13.0]], [[1.0, 13.0]], [[0.0, 13.0]], [[1.0, 0.0]], [[45.0, 0.0]], [[538.0, 0.0]], [[864.0, 1435.0]], [[660.0, 1299.0]], [[360.0, 985.0]], [[79.0, 55.0]], [[79.0, 9.0]], [[21.0, 9.0]], [[2.0, 9.0]], [[0.0, 9.0]], [[2.0, 0.0]], [[19.0, 0.0]], [[58.0, 0.0]], [[0.0, 46.0]], [[281.0, 930.0]], [[206.0, 259.0]], [[50.0, 6.0]], [[0.0, 6.0]], [[50.0, 0.0]], [[156.0, 253.0]], [[96.0, 216.0]], [[8.0, 77.0]], [[1.0, 73.0]], [[0.0, 67.0]], [[1.0, 6.0]], [[1.0, 0.0]], [[0.0, 6.0]], [[7.0, 4.0]], [[7.0, 1.0]], [[7.0, 0.0]], [[0.0, 1.0]], [[0.0, 3.0]], [[88.0, 139.0]], [[6.0, 37.0]], [[6.0, 3.0]], [[6.0, 1.0]], [[0.0, 1.0]], [[6.0, 0.0]], [[0.0, 2.0]], [[0.0, 34.0]], [[82.0, 102.0]], [[58.0, 35.0]], [[48.0, 6.0]], [[25.0, 0.0]], [[23.0, 6.0]], [[0.0, 2.0]], [[23.0, 4.0]], [[1.0, 3.0]], [[0.0, 3.0]], [[1.0, 0.0]], [[22.0, 1.0]], [[0.0, 1.0]], [[22.0, 0.0]], [[10.0, 29.0]], [[0.0, 29.0]], [[10.0, 0.0]], [[24.0, 67.0]], [[15.0, 62.0]], [[6.0, 5.0]], [[6.0, 1.0]], [[6.0, 0.0]], [[0.0, 1.0]], [[0.0, 4.0]], [[9.0, 57.0]], [[9.0, 30.0]], [[2.0, 25.0]], [[1.0, 25.0]], [[0.0, 22.0]], [[1.0, 3.0]], [[1.0, 0.0]], [[0.0, 3.0]], [[1.0, 0.0]], [[7.0, 5.0]], [[1.0, 4.0]], [[1.0, 0.0]], [[0.0, 4.0]], [[6.0, 1.0]], [[0.0, 1.0]], [[6.0, 0.0]], [[0.0, 27.0]], [[9.0, 5.0]], [[1.0, 4.0]], [[1.0, 0.0]], [[0.0, 4.0]], [[8.0, 1.0]], [[7.0, 0.0]], [[1.0, 1.0]], [[0.0, 1.0]], [[1.0, 0.0]], [[60.0, 37.0]], [[0.0, 9.0]], [[60.0, 28.0]], [[10.0, 18.0]], [[0.0, 8.0]], [[10.0, 10.0]], [[10.0, 3.0]], [[2.0, 3.0]], [[2.0, 0.0]], [[0.0, 3.0]], [[8.0, 0.0]], [[0.0, 7.0]], [[50.0, 10.0]], [[0.0, 2.0]], [[50.0, 8.0]], [[32.0, 1.0]], [[7.0, 1.0]], [[0.0, 1.0]], [[7.0, 0.0]], [[25.0, 0.0]], [[18.0, 7.0]], [[8.0, 7.0]], [[8.0, 1.0]], [[7.0, 0.0]], [[1.0, 1.0]], [[1.0, 0.0]], [[0.0, 1.0]], [[0.0, 6.0]], [[10.0, 0.0]], [[75.0, 671.0]], [[75.0, 384.0]], [[45.0, 384.0]], [[34.0, 125.0]], [[34.0, 42.0]], [[33.0, 20.0]], [[9.0, 16.0]], [[4.0, 15.0]], [[4.0, 2.0]], [[0.0, 2.0]], [[4.0, 0.0]], [[0.0, 13.0]], [[5.0, 1.0]], [[5.0, 0.0]], [[0.0, 1.0]], [[24.0, 4.0]], [[0.0, 2.0]], [[24.0, 2.0]], [[6.0, 2.0]], [[6.0, 0.0]], [[0.0, 2.0]], [[18.0, 0.0]], [[1.0, 22.0]], [[1.0, 4.0]], [[1.0, 0.0]], [[0.0, 4.0]], [[0.0, 18.0]], [[0.0, 83.0]], [[11.0, 259.0]], [[11.0, 141.0]], [[10.0, 40.0]], [[10.0, 6.0]], [[0.0, 5.0]], [[10.0, 1.0]], [[10.0, 0.0]], [[0.0, 1.0]], [[0.0, 34.0]], [[1.0, 101.0]], [[0.0, 101.0]], [[1.0, 0.0]], [[0.0, 118.0]], [[30.0, 0.0]], [[0.0, 287.0]], [[300.0, 314.0]], [[79.0, 24.0]], [[79.0, 9.0]], [[73.0, 5.0]], [[15.0, 4.0]], [[5.0, 4.0]], [[0.0, 2.0]], [[5.0, 2.0]], [[5.0, 0.0]], [[0.0, 2.0]], [[10.0, 0.0]], [[58.0, 1.0]], [[55.0, 0.0]], [[3.0, 1.0]], [[2.0, 0.0]], [[1.0, 1.0]], [[0.0, 1.0]], [[1.0, 0.0]], [[6.0, 4.0]], [[6.0, 0.0]], [[0.0, 4.0]], [[0.0, 15.0]], [[221.0, 290.0]], [[84.0, 180.0]], [[51.0, 152.0]], [[0.0, 148.0]], [[51.0, 4.0]], [[50.0, 0.0]], [[1.0, 4.0]], [[1.0, 0.0]], [[0.0, 4.0]], [[33.0, 28.0]], [[17.0, 28.0]], [[12.0, 5.0]], [[0.0, 5.0]], [[12.0, 0.0]], [[5.0, 23.0]], [[5.0, 2.0]], [[5.0, 1.0]], [[5.0, 0.0]], [[0.0, 1.0]], [[0.0, 1.0]], [[0.0, 21.0]], [[16.0, 0.0]], [[137.0, 110.0]], [[112.0, 10.0]], [[3.0, 3.0]], [[3.0, 0.0]], [[0.0, 3.0]], [[109.0, 7.0]], [[0.0, 2.0]], [[109.0, 5.0]], [[95.0, 1.0]], [[6.0, 1.0]], [[0.0, 1.0]], [[6.0, 0.0]], [[89.0, 0.0]], [[14.0, 4.0]], [[1.0, 4.0]], [[0.0, 4.0]], [[1.0, 0.0]], [[13.0, 0.0]], [[25.0, 100.0]], [[25.0, 71.0]], [[17.0, 71.0]], [[7.0, 0.0]], [[10.0, 71.0]], [[9.0, 71.0]], [[1.0, 0.0]], [[8.0, 71.0]], [[0.0, 51.0]], [[8.0, 20.0]], [[6.0, 0.0]], [[2.0, 20.0]], [[2.0, 0.0]], [[0.0, 20.0]], [[1.0, 0.0]], [[8.0, 0.0]], [[0.0, 29.0]], [[204.0, 136.0]], [[204.0, 80.0]], [[193.0, 24.0]], [[182.0, 2.0]], [[1.0, 1.0]], [[0.0, 1.0]], [[1.0, 0.0]], [[181.0, 1.0]], [[180.0, 0.0]], [[1.0, 1.0]], [[0.0, 1.0]], [[1.0, 0.0]], [[11.0, 22.0]], [[10.0, 0.0]], [[1.0, 22.0]], [[0.0, 22.0]], [[1.0, 0.0]], [[11.0, 56.0]], [[8.0, 56.0]], [[4.0, 56.0]], [[2.0, 56.0]], [[0.0, 43.0]], [[2.0, 13.0]], [[2.0, 2.0]], [[0.0, 2.0]], [[2.0, 0.0]], [[0.0, 11.0]], [[2.0, 0.0]], [[4.0, 0.0]], [[3.0, 0.0]], [[0.0, 56.0]], [[344.0, 1.0]], [[318.0, 0.0]], [[26.0, 1.0]], [[26.0, 0.0]], [[0.0, 1.0]], [[5646.0, 2643.0]], [[2245.0, 45.0]], [[5.0, 27.0]], [[5.0, 0.0]], [[0.0, 27.0]], [[2240.0, 18.0]], [[8.0, 6.0]], [[8.0, 0.0]], [[0.0, 6.0]], [[2232.0, 12.0]], [[2232.0, 0.0]], [[0.0, 12.0]], [[3401.0, 2598.0]], [[2721.0, 986.0]], [[1.0, 194.0]], [[0.0, 186.0]], [[1.0, 8.0]], [[0.0, 8.0]], [[1.0, 0.0]], [[2720.0, 792.0]], [[337.0, 506.0]], [[319.0, 245.0]], [[24.0, 52.0]], [[19.0, 52.0]], [[5.0, 0.0]], [[14.0, 52.0]], [[4.0, 1.0]], [[0.0, 1.0]], [[4.0, 0.0]], [[10.0, 51.0]], [[7.0, 50.0]], [[4.0, 2.0]], [[0.0, 2.0]], [[4.0, 0.0]], [[3.0, 48.0]], [[1.0, 48.0]], [[0.0, 44.0]], [[1.0, 4.0]], [[0.0, 4.0]], [[1.0, 0.0]], [[2.0, 0.0]], [[3.0, 1.0]], [[0.0, 1.0]], [[3.0, 0.0]], [[5.0, 0.0]], [[295.0, 193.0]], [[141.0, 38.0]], [[6.0, 13.0]], [[0.0, 13.0]], [[6.0, 0.0]], [[135.0, 25.0]], [[21.0, 19.0]], [[9.0, 18.0]], [[6.0, 1.0]], [[6.0, 0.0]], [[0.0, 1.0]], [[3.0, 17.0]], [[2.0, 0.0]], [[1.0, 17.0]], [[1.0, 2.0]], [[1.0, 0.0]], [[0.0, 2.0]], [[0.0, 15.0]], [[12.0, 1.0]], [[12.0, 0.0]], [[0.0, 1.0]], [[114.0, 6.0]], [[2.0, 3.0]], [[0.0, 3.0]], [[2.0, 0.0]], [[112.0, 3.0]], [[19.0, 3.0]], [[0.0, 2.0]], [[19.0, 1.0]], [[0.0, 1.0]], [[19.0, 0.0]], [[93.0, 0.0]], [[154.0, 155.0]], [[79.0, 130.0]], [[40.0, 10.0]], [[21.0, 0.0]], [[19.0, 10.0]], [[2.0, 7.0]], [[1.0, 7.0]], [[0.0, 7.0]], [[1.0, 0.0]], [[1.0, 0.0]], [[17.0, 3.0]], [[3.0, 3.0]], [[0.0, 3.0]], [[3.0, 0.0]], [[14.0, 0.0]], [[39.0, 120.0]], [[27.0, 24.0]], [[23.0, 2.0]], [[20.0, 0.0]], [[3.0, 2.0]], [[3.0, 0.0]], [[0.0, 2.0]], [[4.0, 22.0]], [[0.0, 20.0]], [[4.0, 2.0]], [[0.0, 2.0]], [[4.0, 0.0]], [[12.0, 96.0]], [[6.0, 88.0]], [[2.0, 86.0]], [[2.0, 0.0]], [[0.0, 86.0]], [[4.0, 2.0]], [[0.0, 2.0]], [[4.0, 0.0]], [[6.0, 8.0]], [[3.0, 1.0]], [[0.0, 1.0]], [[3.0, 0.0]], [[3.0, 7.0]], [[0.0, 5.0]], [[3.0, 2.0]], [[3.0, 0.0]], [[0.0, 2.0]], [[75.0, 25.0]], [[18.0, 22.0]], [[9.0, 0.0]], [[9.0, 22.0]], [[6.0, 0.0]], [[3.0, 22.0]], [[2.0, 22.0]], [[0.0, 18.0]], [[2.0, 4.0]], [[0.0, 4.0]], [[2.0, 0.0]], [[1.0, 0.0]], [[57.0, 3.0]], [[57.0, 2.0]], [[50.0, 0.0]], [[7.0, 2.0]], [[6.0, 0.0]], [[1.0, 2.0]], [[0.0, 2.0]], [[1.0, 0.0]], [[0.0, 1.0]], [[18.0, 261.0]], [[3.0, 1.0]], [[0.0, 1.0]], [[3.0, 0.0]], [[15.0, 260.0]], [[7.0, 240.0]], [[5.0, 240.0]], [[1.0, 0.0]], [[4.0, 240.0]], [[2.0, 0.0]], [[2.0, 240.0]], [[1.0, 2.0]], [[1.0, 0.0]], [[0.0, 2.0]], [[1.0, 238.0]], [[0.0, 201.0]], [[1.0, 37.0]], [[0.0, 30.0]], [[1.0, 7.0]], [[1.0, 0.0]], [[0.0, 7.0]], [[2.0, 0.0]], [[8.0, 20.0]], [[0.0, 12.0]], [[8.0, 8.0]], [[8.0, 4.0]], [[2.0, 4.0]], [[0.0, 4.0]], [[2.0, 0.0]], [[6.0, 0.0]], [[0.0, 4.0]], [[2383.0, 286.0]], [[2212.0, 177.0]], [[2212.0, 159.0]], [[2154.0, 127.0]], [[60.0, 25.0]], [[5.0, 18.0]], [[3.0, 0.0]], [[2.0, 18.0]], [[1.0, 0.0]], [[1.0, 18.0]], [[1.0, 3.0]], [[0.0, 3.0]], [[1.0, 0.0]], [[0.0, 15.0]], [[55.0, 7.0]], [[51.0, 2.0]], [[2.0, 2.0]], [[2.0, 0.0]], [[0.0, 2.0]], [[49.0, 0.0]], [[4.0, 5.0]], [[4.0, 0.0]], [[0.0, 5.0]], [[2094.0, 102.0]], [[2025.0, 80.0]], [[0.0, 18.0]], [[2025.0, 62.0]], [[403.0, 35.0]], [[45.0, 31.0]], [[24.0, 0.0]], [[21.0, 31.0]], [[5.0, 20.0]], [[5.0, 0.0]], [[0.0, 20.0]], [[16.0, 11.0]], [[15.0, 5.0]], [[0.0, 4.0]], [[15.0, 1.0]], [[15.0, 0.0]], [[0.0, 1.0]], [[1.0, 6.0]], [[1.0, 0.0]], [[0.0, 6.0]], [[358.0, 4.0]], [[1.0, 1.0]], [[1.0, 0.0]], [[0.0, 1.0]], [[357.0, 3.0]], [[345.0, 1.0]], [[342.0, 0.0]], [[3.0, 1.0]], [[3.0, 0.0]], [[0.0, 1.0]], [[12.0, 2.0]], [[0.0, 2.0]], [[12.0, 0.0]], [[1622.0, 27.0]], [[1610.0, 21.0]], [[14.0, 6.0]], [[0.0, 6.0]], [[14.0, 0.0]], [[1596.0, 15.0]], [[14.0, 3.0]], [[2.0, 3.0]], [[2.0, 0.0]], [[0.0, 3.0]], [[12.0, 0.0]], [[1582.0, 12.0]], [[1494.0, 8.0]], [[1445.0, 5.0]], [[206.0, 4.0]], [[206.0, 2.0]], [[158.0, 0.0]], [[48.0, 2.0]], [[48.0, 1.0]], [[0.0, 1.0]], [[48.0, 0.0]], [[0.0, 1.0]], [[0.0, 2.0]], [[1239.0, 1.0]], [[1164.0, 0.0]], [[75.0, 1.0]], [[0.0, 1.0]], [[75.0, 0.0]], [[49.0, 3.0]], [[0.0, 1.0]], [[49.0, 2.0]], [[8.0, 2.0]], [[0.0, 1.0]], [[8.0, 1.0]], [[8.0, 0.0]], [[0.0, 1.0]], [[41.0, 0.0]], [[88.0, 4.0]], [[88.0, 2.0]], [[0.0, 1.0]], [[88.0, 1.0]], [[87.0, 0.0]], [[1.0, 1.0]], [[1.0, 0.0]], [[0.0, 1.0]], [[0.0, 2.0]], [[12.0, 6.0]], [[12.0, 0.0]], [[0.0, 6.0]], [[69.0, 22.0]], [[64.0, 10.0]], [[64.0, 7.0]], [[60.0, 1.0]], [[5.0, 1.0]], [[5.0, 0.0]], [[0.0, 1.0]], [[55.0, 0.0]], [[4.0, 6.0]], [[0.0, 5.0]], [[4.0, 1.0]], [[0.0, 1.0]], [[4.0, 0.0]], [[0.0, 3.0]], [[5.0, 12.0]], [[4.0, 0.0]], [[1.0, 12.0]], [[0.0, 9.0]], [[1.0, 3.0]], [[1.0, 0.0]], [[0.0, 3.0]], [[58.0, 32.0]], [[11.0, 30.0]], [[0.0, 18.0]], [[11.0, 12.0]], [[9.0, 2.0]], [[9.0, 0.0]], [[0.0, 2.0]], [[2.0, 10.0]], [[0.0, 8.0]], [[2.0, 2.0]], [[0.0, 2.0]], [[2.0, 0.0]], [[47.0, 2.0]], [[47.0, 0.0]], [[0.0, 2.0]], [[0.0, 18.0]], [[171.0, 109.0]], [[46.0, 100.0]], [[42.0, 31.0]], [[32.0, 3.0]], [[0.0, 3.0]], [[32.0, 0.0]], [[10.0, 28.0]], [[2.0, 27.0]], [[1.0, 0.0]], [[1.0, 27.0]], [[1.0, 0.0]], [[0.0, 27.0]], [[8.0, 1.0]], [[8.0, 0.0]], [[0.0, 1.0]], [[4.0, 69.0]], [[2.0, 68.0]], [[0.0, 68.0]], [[2.0, 0.0]], [[2.0, 1.0]], [[2.0, 0.0]], [[0.0, 1.0]], [[125.0, 9.0]], [[118.0, 3.0]], [[118.0, 0.0]], [[0.0, 3.0]], [[7.0, 6.0]], [[7.0, 1.0]], [[7.0, 0.0]], [[0.0, 1.0]], [[0.0, 5.0]], [[680.0, 1612.0]], [[153.0, 1389.0]], [[34.0, 1263.0]], [[25.0, 1236.0]], [[20.0, 1215.0]], [[10.0, 996.0]], [[6.0, 996.0]], [[5.0, 990.0]], [[4.0, 990.0]], [[1.0, 10.0]], [[1.0, 2.0]], [[1.0, 0.0]], [[0.0, 2.0]], [[0.0, 8.0]], [[3.0, 980.0]], [[2.0, 45.0]], [[0.0, 41.0]], [[2.0, 4.0]], [[0.0, 3.0]], [[2.0, 1.0]], [[0.0, 1.0]], [[2.0, 0.0]], [[1.0, 935.0]], [[1.0, 100.0]], [[0.0, 100.0]], [[1.0, 0.0]], [[0.0, 835.0]], [[1.0, 0.0]], [[1.0, 6.0]], [[1.0, 0.0]], [[0.0, 6.0]], [[4.0, 0.0]], [[10.0, 219.0]], [[8.0, 9.0]], [[0.0, 9.0]], [[8.0, 0.0]], [[2.0, 210.0]], [[0.0, 210.0]], [[2.0, 0.0]], [[5.0, 21.0]], [[0.0, 21.0]], [[5.0, 0.0]], [[9.0, 27.0]], [[0.0, 27.0]], [[9.0, 0.0]], [[119.0, 126.0]], [[10.0, 115.0]], [[4.0, 107.0]], [[4.0, 1.0]], [[0.0, 1.0]], [[4.0, 0.0]], [[0.0, 106.0]], [[6.0, 8.0]], [[0.0, 6.0]], [[6.0, 2.0]], [[0.0, 2.0]], [[6.0, 0.0]], [[109.0, 11.0]], [[109.0, 3.0]], [[3.0, 3.0]], [[3.0, 0.0]], [[0.0, 3.0]], [[106.0, 0.0]], [[0.0, 8.0]], [[527.0, 223.0]], [[45.0, 87.0]], [[33.0, 12.0]], [[33.0, 2.0]], [[8.0, 2.0]], [[8.0, 0.0]], [[0.0, 2.0]], [[25.0, 0.0]], [[0.0, 10.0]], [[12.0, 75.0]], [[12.0, 24.0]], [[11.0, 0.0]], [[1.0, 24.0]], [[1.0, 0.0]], [[0.0, 24.0]], [[0.0, 51.0]], [[482.0, 136.0]], [[126.0, 100.0]], [[13.0, 98.0]], [[13.0, 8.0]], [[13.0, 0.0]], [[0.0, 8.0]], [[0.0, 90.0]], [[113.0, 2.0]], [[6.0, 2.0]], [[0.0, 2.0]], [[6.0, 0.0]], [[107.0, 0.0]], [[356.0, 36.0]], [[314.0, 7.0]], [[0.0, 1.0]], [[314.0, 6.0]], [[313.0, 0.0]], [[1.0, 6.0]], [[0.0, 6.0]], [[1.0, 0.0]], [[42.0, 29.0]], [[2.0, 29.0]], [[2.0, 1.0]], [[0.0, 1.0]], [[2.0, 0.0]], [[0.0, 28.0]], [[40.0, 0.0]]]}, {"children_left": [1, 2, 3, -1, 5, 6, -1, -1, 9, -1, 11, 12, -1, 14, -1, 16, -1, -1, -1, 20, 21, 22, 23, -1, -1, -1, 27, -1, 29, 30, -1, -1, -1, -1, 35, 36, 37, 38, 39, 40, 41, -1, 43, -1, -1, 46, 47, -1, 49, -1, -1, -1, 53, 54, -1, 56, -1, -1, 59, -1, -1, 62, 63, 64, -1, -1, -1, 68, 69, 70, 71, 72, -1, -1, 75, -1, -1, 78, -1, -1, 81, -1, -1, 84, 85, 86, -1, -1, 89, 90, 91, -1, 93, -1, -1, 96, -1, -1, 99, 100, -1, -1, -1, 104, -1, -1, 107, 108, 109, 110, 111, -1, 113, -1, -1, 116, 117, 118, 119, -1, -1, -1, -1, 124, 125, -1, 127, -1, -1, 130, -1, -1, 133, -1, -1, 136, 137, 138, 139, -1, 141, -1, -1, 144, -1, -1, 147, -1, -1, 150, -1, 152, 153, 154, -1, -1, -1, -1, 159, 160, -1, -1, 163, 164, -1, -1, -1, 168, 169, 170, 171, -1, -1, 174, -1, -1, 177, 178, 179, 180, 181, -1, -1, 184, 185, 186, 187, 188, 189, -1, -1, -1, 193, -1, -1, 196, -1, 198, 199, 200, -1, -1, -1, 204, -1, 206, -1, -1, 209, 210, 211, 212, -1, 214, -1, 216, -1, -1, -1, -1, 221, 222, 223, 224, 225, 226, -1, 228, 229, 230, -1, -1, 233, 234, -1, -1, 237, -1, 239, -1, 241, 242, -1, -1, -1, 246, 247, -1, -1, 250, -1, -1, 253, 254, 255, -1, 257, 258, -1, -1, -1, 262, -1, 264, 265, -1, 267, -1, -1, -1, 271, 272, 273, -1, -1, 276, 277, -1, -1, -1, 281, -1, -1, 284, 285, 286, -1, -1, 289, -1, -1, -1, -1, 294, 295, 296, 297, -1, -1, -1, 301, -1, -1, -1, 305, -1, -1, 308, 309, 310, 311, -1, 313, -1, 315, -1, 317, -1, -1, 320, -1, 322, 323, -1, -1, 326, 327, 328, -1, -1, 331, 332, 333, 334, -1, -1, -1, -1, 339, -1, -1, -1, 343, 344, -1, -1, -1, 348, 349, -1, 351, -1, -1, 354, 355, -1, -1, 358, 359, -1, -1, -1, 363, 364, 365, -1, 367, 368, 369, 370, 371, -1, -1, 374, 375, 376, -1, -1, -1, 380, -1, -1, 383, 384, 385, -1, -1, -1, -1, 390, 391, -1, -1, -1, 395, 396, 397, 398, 399, 400, 401, 402, 403, 404, -1, -1, 407, -1, -1, -1, -1, 412, -1, -1, 415, -1, -1, 418, 419, -1, 421, -1, -1, 424, 425, -1, -1, -1, 429, 430, -1, -1, 433, 434, -1, -1, 437, 438, -1, -1, -1, 442, -1, 444, -1, -1, 447, 448, -1, 450, -1, 452, -1, -1, -1, 456, -1, 458, -1, 460, -1, -1, 463, 464, -1, 466, -1, 468, -1, -1, 471, 472, 473, -1, 475, 476, -1, -1, 479, -1, -1, 482, 483, 484, 485, -1, 487, -1, -1, 490, 491, 492, -1, -1, -1, -1, -1, 498, -1, -1, 501, 502, -1, 504, 505, -1, 507, -1, -1, -1, 511, -1, -1, -1, 515, 516, 517, -1, 519, 520, -1, -1, -1, 524, 525, 526, 527, 528, -1, -1, 531, -1, -1, 534, -1, 536, 537, -1, -1, -1, 541, 542, 543, -1, -1, -1, -1, 548, 549, -1, -1, 552, 553, -1, -1, 556, -1, 558, 559, -1, -1, -1, 563, 564, 565, -1, -1, 568, -1, -1, 571, -1, 573, 574, 575, 576, -1, 578, -1, -1, 581, -1, -1, -1, 585, 586, 587, -1, -1, 590, 591, 592, 593, -1, -1, 596, -1, -1, 599, -1, 601, -1, -1, 604, 605, 606, 607, -1, -1, -1, -1, 612, -1, 614, -1, -1, 617, -1, 619, -1, 621, -1, -1, 624, 625, -1, -1, 628, 629, 630, 631, 632, -1, 634, -1, 636, -1, -1, 639, -1, 641, 642, 643, 644, 645, -1, -1, -1, 649, 650, -1, -1, 653, -1, -1, -1, -1, 658, -1, -1, 661, -1, -1, 664, 665, 666, 667, 668, -1, -1, -1, -1, 673, 674, -1, 676, 677, -1, -1, 680, -1, -1, 683, 684, -1, -1, -1, 688, 689, 690, 691, -1, -1, 694, -1, 696, -1, -1, -1, 700, -1, -1, 703, 704, 705, -1, 707, -1, -1, 710, -1, 712, -1, -1, 715, 716, -1, -1, 719, 720, -1, -1, -1], "children_right": [34, 19, 4, -1, 8, 7, -1, -1, 10, -1, 18, 13, -1, 15, -1, 17, -1, -1, -1, 33, 26, 25, 24, -1, -1, -1, 28, -1, 32, 31, -1, -1, -1, -1, 702, 167, 106, 61, 52, 45, 42, -1, 44, -1, -1, 51, 48, -1, 50, -1, -1, -1, 58, 55, -1, 57, -1, -1, 60, -1, -1, 67, 66, 65, -1, -1, -1, 83, 80, 77, 74, 73, -1, -1, 76, -1, -1, 79, -1, -1, 82, -1, -1, 103, 88, 87, -1, -1, 98, 95, 92, -1, 94, -1, -1, 97, -1, -1, 102, 101, -1, -1, -1, 105, -1, -1, 158, 135, 132, 115, 112, -1, 114, -1, -1, 123, 122, 121, 120, -1, -1, -1, -1, 129, 126, -1, 128, -1, -1, 131, -1, -1, 134, -1, -1, 149, 146, 143, 140, -1, 142, -1, -1, 145, -1, -1, 148, -1, -1, 151, -1, 157, 156, 155, -1, -1, -1, -1, 162, 161, -1, -1, 166, 165, -1, -1, -1, 623, 176, 173, 172, -1, -1, 175, -1, -1, 514, 513, 362, 183, 182, -1, -1, 307, 208, 195, 192, 191, 190, -1, -1, -1, 194, -1, -1, 197, -1, 203, 202, 201, -1, -1, -1, 205, -1, 207, -1, -1, 220, 219, 218, 213, -1, 215, -1, 217, -1, -1, -1, -1, 304, 293, 292, 283, 252, 227, -1, 245, 232, 231, -1, -1, 236, 235, -1, -1, 238, -1, 240, -1, 244, 243, -1, -1, -1, 249, 248, -1, -1, 251, -1, -1, 270, 261, 256, -1, 260, 259, -1, -1, -1, 263, -1, 269, 266, -1, 268, -1, -1, -1, 280, 275, 274, -1, -1, 279, 278, -1, -1, -1, 282, -1, -1, 291, 288, 287, -1, -1, 290, -1, -1, -1, -1, 303, 300, 299, 298, -1, -1, -1, 302, -1, -1, -1, 306, -1, -1, 347, 342, 319, 312, -1, 314, -1, 316, -1, 318, -1, -1, 321, -1, 325, 324, -1, -1, 341, 330, 329, -1, -1, 338, 337, 336, 335, -1, -1, -1, -1, 340, -1, -1, -1, 346, 345, -1, -1, -1, 353, 350, -1, 352, -1, -1, 357, 356, -1, -1, 361, 360, -1, -1, -1, 462, 455, 366, -1, 394, 389, 382, 373, 372, -1, -1, 379, 378, 377, -1, -1, -1, 381, -1, -1, 388, 387, 386, -1, -1, -1, -1, 393, 392, -1, -1, -1, 446, 441, 428, 417, 414, 411, 410, 409, 406, 405, -1, -1, 408, -1, -1, -1, -1, 413, -1, -1, 416, -1, -1, 423, 420, -1, 422, -1, -1, 427, 426, -1, -1, -1, 432, 431, -1, -1, 436, 435, -1, -1, 440, 439, -1, -1, -1, 443, -1, 445, -1, -1, 454, 449, -1, 451, -1, 453, -1, -1, -1, 457, -1, 459, -1, 461, -1, -1, 470, 465, -1, 467, -1, 469, -1, -1, 500, 481, 474, -1, 478, 477, -1, -1, 480, -1, -1, 497, 496, 489, 486, -1, 488, -1, -1, 495, 494, 493, -1, -1, -1, -1, -1, 499, -1, -1, 510, 503, -1, 509, 506, -1, 508, -1, -1, -1, 512, -1, -1, -1, 562, 523, 518, -1, 522, 521, -1, -1, -1, 547, 540, 533, 530, 529, -1, -1, 532, -1, -1, 535, -1, 539, 538, -1, -1, -1, 546, 545, 544, -1, -1, -1, -1, 551, 550, -1, -1, 555, 554, -1, -1, 557, -1, 561, 560, -1, -1, -1, 570, 567, 566, -1, -1, 569, -1, -1, 572, -1, 584, 583, 580, 577, -1, 579, -1, -1, 582, -1, -1, -1, 616, 589, 588, -1, -1, 603, 598, 595, 594, -1, -1, 597, -1, -1, 600, -1, 602, -1, -1, 611, 610, 609, 608, -1, -1, -1, -1, 613, -1, 615, -1, -1, 618, -1, 620, -1, 622, -1, -1, 627, 626, -1, -1, 663, 660, 657, 638, 633, -1, 635, -1, 637, -1, -1, 640, -1, 656, 655, 648, 647, 646, -1, -1, -1, 652, 651, -1, -1, 654, -1, -1, -1, -1, 659, -1, -1, 662, -1, -1, 687, 672, 671, 670, 669, -1, -1, -1, -1, 682, 675, -1, 679, 678, -1, -1, 681, -1, -1, 686, 685, -1, -1, -1, 699, 698, 693, 692, -1, -1, 695, -1, 697, -1, -1, -1, 701, -1, -1, 714, 709, 706, -1, 708, -1, -1, 711, -1, 713, -1, -1, 718, 717, -1, -1, 722, 721, -1, -1, -1], "feature": [7, 9, 15, -2, 8, 11, -2, -2, 4, -2, 8, 13, -2, 1, -2, 0, -2, -2, -2, 10, 6, 5, 10, -2, -2, -2, 7, -2, 11, 3, -2, -2, -2, -2, 10, 15, 2, 13, 9, 9, 8, -2, 0, -2, -2, 15, 11, -2, 14, -2, -2, -2, 15, 8, -2, 10, -2, -2, 11, -2, -2, 5, 3, 11, -2, -2, -2, 12, 2, 7, 4, 7, -2, -2, 1, -2, -2, 15, -2, -2, 7, -2, -2, 4, 4, 12, -2, -2, 16, 9, 15, -2, 4, -2, -2, 14, -2, -2, 1, 7, -2, -2, -2, 3, -2, -2, 9, 7, 13, 7, 8, -2, 13, -2, -2, 1, 10, 10, 13, -2, -2, -2, -2, 13, 2, -2, 2, -2, -2, 10, -2, -2, 2, -2, -2, 2, 5, 6, 7, -2, 15, -2, -2, 15, -2, -2, 7, -2, -2, 5, -2, 1, 16, 11, -2, -2, -2, -2, 7, 7, -2, -2, 5, 2, -2, -2, -2, 2, 5, 9, 8, -2, -2, 14, -2, -2, 7, 14, 10, 7, 0, -2, -2, 10, 12, 1, 11, 14, 11, -2, -2, -2, 7, -2, -2, 11, -2, 2, 0, 6, -2, -2, -2, 8, -2, 6, -2, -2, 5, 12, 14, 16, -2, 15, -2, 9, -2, -2, -2, -2, 7, 13, 4, 5, 12, 9, -2, 13, 10, 5, -2, -2, 13, 8, -2, -2, 16, -2, 1, -2, 4, 10, -2, -2, -2, 15, 6, -2, -2, 8, -2, -2, 3, 3, 8, -2, 10, 15, -2, -2, -2, 10, -2, 10, 4, -2, 16, -2, -2, -2, 12, 13, 4, -2, -2, 3, 3, -2, -2, -2, 5, -2, -2, 15, 0, 9, -2, -2, 9, -2, -2, -2, -2, 15, 1, 7, 1, -2, -2, -2, 4, -2, -2, -2, 3, -2, -2, 14, 13, 8, 14, -2, 12, -2, 15, -2, 6, -2, -2, 0, -2, 16, 0, -2, -2, 0, 14, 7, -2, -2, 15, 7, 4, 14, -2, -2, -2, -2, 4, -2, -2, -2, 12, 7, -2, -2, -2, 7, 9, -2, 7, -2, -2, 15, 3, -2, -2, 13, 7, -2, -2, -2, 10, 15, 4, -2, 2, 14, 9, 8, 8, -2, -2, 2, 13, 4, -2, -2, -2, 4, -2, -2, 8, 9, 15, -2, -2, -2, -2, 8, 6, -2, -2, -2, 6, 12, 3, 7, 15, 1, 0, 8, 13, 11, -2, -2, 7, -2, -2, -2, -2, 4, -2, -2, 7, -2, -2, 1, 11, -2, 15, -2, -2, 9, 3, -2, -2, -2, 15, 1, -2, -2, 4, 2, -2, -2, 10, 11, -2, -2, -2, 7, -2, 13, -2, -2, 16, 4, -2, 8, -2, 12, -2, -2, -2, 3, -2, 1, -2, 4, -2, -2, 13, 4, -2, 9, -2, 9, -2, -2, 0, 10, 7, -2, 8, 1, -2, -2, 15, -2, -2, 15, 6, 6, 7, -2, 2, -2, -2, 7, 15, 7, -2, -2, -2, -2, -2, 15, -2, -2, 6, 16, -2, 4, 3, -2, 10, -2, -2, -2, 4, -2, -2, -2, 12, 15, 15, -2, 8, 13, -2, -2, -2, 7, 3, 14, 9, 4, -2, -2, 15, -2, -2, 5, -2, 15, 3, -2, -2, -2, 12, 7, 0, -2, -2, -2, -2, 13, 2, -2, -2, 3, 1, -2, -2, 1, -2, 3, 9, -2, -2, -2, 14, 15, 7, -2, -2, 0, -2, -2, 3, -2, 3, 4, 9, 0, -2, 7, -2, -2, 2, -2, -2, -2, 2, 8, 14, -2, -2, 6, 5, 1, 7, -2, -2, 16, -2, -2, 15, -2, 8, -2, -2, 16, 10, 2, 15, -2, -2, -2, -2, 13, -2, 2, -2, -2, 12, -2, 4, -2, 5, -2, -2, 15, 7, -2, -2, 1, 2, 15, 16, 16, -2, 4, -2, 8, -2, -2, 12, -2, 2, 15, 15, 6, 4, -2, -2, -2, 12, 16, -2, -2, 1, -2, -2, -2, -2, 3, -2, -2, 3, -2, -2, 11, 13, 4, 1, 9, -2, -2, -2, -2, 4, 15, -2, 13, 3, -2, -2, 3, -2, -2, 14, 10, -2, -2, -2, 5, 13, 14, 2, -2, -2, 1, -2, 7, -2, -2, -2, 14, -2, -2, 7, 11, 11, -2, 7, -2, -2, 14, -2, 2, -2, -2, 15, 10, -2, -2, 10, 9, -2, -2, -2], "threshold": [-1.2840520143508911, 0.32204149663448334, -0.5369526743888855, -2.0, -1.4566810131072998, -1.7483447790145874, -2.0, -2.0, -1.5729362964630127, -2.0, 1.1197423040866852, -0.4962219297885895, -2.0, 0.8395346701145172, -2.0, 0.29149961471557617, -2.0, -2.0, -2.0, 1.5046331286430359, -1.2836449146270752, 0.8252193629741669, 0.16974472999572754, -2.0, -2.0, -2.0, -1.3342305421829224, -2.0, -1.3919014930725098, -1.0752033591270447, -2.0, -2.0, -2.0, -2.0, 1.0640327334403992, -0.6985658407211304, -1.194901943206787, 0.6655203104019165, -0.22929219924844801, -1.9935600757598877, 0.14826294407248497, -2.0, 0.031122827902436256, -2.0, -2.0, -0.8760371208190918, 0.10543578304350376, -2.0, -2.1190524101257324, -2.0, -2.0, -2.0, -0.7526794672012329, -0.4038277715444565, -2.0, -0.54350446164608, -2.0, -2.0, -0.7010344564914703, -2.0, -2.0, -0.7276840507984161, -1.0137454867362976, 1.1527461111545563, -2.0, -2.0, -2.0, 0.7727614641189575, -1.217642068862915, 0.7184908092021942, -0.4888836145401001, 0.7120940387248993, -2.0, -2.0, 0.740260899066925, -2.0, -2.0, -0.7684213519096375, -2.0, -2.0, 0.7116942405700684, -2.0, -2.0, 0.17940297722816467, -0.21340670436620712, 0.8344011306762695, -2.0, -2.0, -0.5620787441730499, -0.2717653065919876, -0.9495261311531067, -2.0, 0.13604087382555008, -2.0, -2.0, -2.804075598716736, -2.0, -2.0, 1.2380685210227966, 0.773662805557251, -2.0, -2.0, -2.0, -0.991288810968399, -2.0, -2.0, 1.4728995561599731, 0.8192396461963654, 1.1449695229530334, 0.691304624080658, -1.5818716883659363, -2.0, -1.1748269498348236, -2.0, -2.0, 1.1148755550384521, -0.297029972076416, -0.3122982978820801, 0.6286396235227585, -2.0, -2.0, -2.0, -2.0, -0.55891914665699, -1.0675916075706482, -2.0, -1.0389681458473206, -2.0, -2.0, -0.31011710315942764, -2.0, -2.0, -1.107725441455841, -2.0, -2.0, -0.7373536229133606, 0.4868183732032776, -1.6363191604614258, 0.8220382034778595, -2.0, -0.8757490813732147, -2.0, -2.0, -0.7062977850437164, -2.0, -2.0, 0.8324329257011414, -2.0, -2.0, 0.07478542253375053, -2.0, -0.016881540417671204, -1.7368866205215454, 0.28847424127161503, -2.0, -2.0, -2.0, -2.0, 0.7784603536128998, 0.7144928276538849, -2.0, -2.0, -1.136145919561386, -1.0372714698314667, -2.0, -2.0, -2.0, 0.2978517413139343, -1.414689064025879, 1.021214336156845, 0.6565369535237551, -2.0, -2.0, -0.5865624696016312, -2.0, -2.0, 0.7488753497600555, 0.924692302942276, -0.8510522544384003, -1.2778551578521729, -2.070135235786438, -2.0, -2.0, -1.1040703058242798, -0.5395422577857971, 0.7582452893257141, -0.5950648188591003, -0.7331606447696686, -1.034081906080246, -2.0, -2.0, -2.0, 0.6805101037025452, -2.0, -2.0, -1.4923661947250366, -2.0, -0.7053734362125397, -1.7488563656806946, -1.4243292212486267, -2.0, -2.0, -2.0, -1.6269403100013733, -2.0, -0.9078445136547089, -2.0, -2.0, -0.09271455928683281, 1.1993526220321655, -0.4345746487379074, -1.7368866205215454, -2.0, -0.3842843025922775, -2.0, -0.9358161389827728, -2.0, -2.0, -2.0, -2.0, 0.7472761571407318, -0.747010737657547, -0.6648827493190765, 0.4878386855125427, 0.5714377760887146, -1.2666163742542267, -2.0, -0.9055977761745453, -2.1226861476898193, 0.2969056963920593, -2.0, -2.0, -2.0138630867004395, -1.3452613353729248, -2.0, -2.0, 0.6127291768789291, -2.0, 1.418272078037262, -2.0, -1.5372263193130493, -1.8347690105438232, -2.0, -2.0, -2.0, -0.5913796126842499, -1.1198344826698303, -2.0, -2.0, -0.7593691647052765, -2.0, -2.0, 0.95908322930336, 0.9286202490329742, -0.9696894288063049, -2.0, -1.1738684177398682, -0.35108232498168945, -2.0, -2.0, -2.0, -1.8892987966537476, -2.0, -1.422524094581604, -1.5091685056686401, -2.0, -0.005590781569480896, -2.0, -2.0, -2.0, 0.7932847440242767, -1.3334140181541443, -2.0575716495513916, -2.0, -2.0, 0.9622076451778412, 0.9606454074382782, -2.0, -2.0, -2.0, 0.07760826498270035, -2.0, -2.0, -0.549738198518753, -0.32087545096874237, 0.5842313170433044, -2.0, -2.0, 1.9106993675231934, -2.0, -2.0, -2.0, -2.0, -0.49844445288181305, 0.1719544529914856, 0.6717145442962646, -0.6283504962921143, -2.0, -2.0, -2.0, -1.00922891497612, -2.0, -2.0, -2.0, 0.9329163134098053, -2.0, -2.0, 0.03432393819093704, -0.14585522562265396, -1.3064522743225098, -1.2796700596809387, -2.0, -0.36921294033527374, -2.0, -0.5179006904363632, -2.0, -1.6787171959877014, -2.0, -2.0, -3.1661055088043213, -2.0, -2.4170385599136353, 0.12871382012963295, -2.0, -2.0, 0.11442730203270912, -1.957794427871704, -1.2721380591392517, -2.0, -2.0, -0.5520122945308685, 0.7256871461868286, -0.6699841916561127, -0.820472776889801, -2.0, -2.0, -2.0, -2.0, -0.29758021235466003, -2.0, -2.0, -2.0, -0.08998452685773373, 0.7228885591030121, -2.0, -2.0, -2.0, 0.6717145442962646, -0.5478405654430389, -2.0, 0.662519246339798, -2.0, -2.0, -0.5520122945308685, 0.9594737589359283, -2.0, -2.0, -0.6843135356903076, 0.7480757534503937, -2.0, -2.0, -2.0, -0.10072284936904907, 0.1495748683810234, -1.1546195149421692, -2.0, -0.9192255735397339, -0.6997448801994324, 0.0230961125344038, -0.848254531621933, -1.2300859689712524, -2.0, -2.0, -1.1343227624893188, -0.14585522562265396, 0.4140685051679611, -2.0, -2.0, -2.0, -0.18534886837005615, -2.0, -2.0, 0.1169652882963419, 1.9678747653961182, -0.6582383513450623, -2.0, -2.0, -2.0, -2.0, -0.46767500042915344, 0.6011387407779694, -2.0, -2.0, -2.0, 0.2542460411787033, 0.581629604101181, 0.9629887342453003, 0.7384806573390961, -0.5342742502689362, 0.30863575637340546, 0.4383891522884369, -0.7668806314468384, -0.21961664408445358, -0.42441241443157196, -2.0, -2.0, 0.6461275815963745, -2.0, -2.0, -2.0, -2.0, -0.3843044191598892, -2.0, -2.0, 0.6769119203090668, -2.0, -2.0, -0.5276379585266113, -0.2812845930457115, -2.0, -0.34805018454790115, -2.0, -2.0, -0.6793438792228699, 0.9575210213661194, -2.0, -2.0, -2.0, -0.618921548128128, 0.8756832778453827, -2.0, -2.0, -0.6725349128246307, -0.27547211945056915, -2.0, -2.0, -0.7572610974311829, -0.11200842261314392, -2.0, -2.0, -2.0, 0.7456769943237305, -2.0, -0.14585523307323456, -2.0, -2.0, 2.096696972846985, -0.0705668181180954, -2.0, -0.4263620972633362, -2.0, 0.24857991933822632, -2.0, -2.0, -2.0, -1.0737497210502625, -2.0, 1.5477595925331116, -2.0, -0.31288447603583336, -2.0, -2.0, -0.21961664408445358, -0.0016975849866867065, -2.0, 0.5687122642993927, -2.0, 1.7702113687992096, -2.0, -2.0, 0.4404013305902481, -0.044011905789375305, -1.2192849516868591, -2.0, -0.30617907643318176, 1.7222080826759338, -2.0, -2.0, -0.3404698446393013, -2.0, -2.0, -0.23106004297733307, 1.2949241399765015, 0.7167696356773376, 0.7396800518035889, -2.0, -0.9853097796440125, -2.0, -2.0, 0.7300849258899689, -0.6622306704521179, 0.7048977315425873, -2.0, -2.0, -2.0, -2.0, -2.0, 0.24215628951787949, -2.0, -2.0, 0.9865750670433044, -1.2422306537628174, -2.0, 1.1129636764526367, 0.9586926698684692, -2.0, -0.030924764461815357, -2.0, -2.0, -2.0, 0.6359804719686508, -2.0, -2.0, -2.0, 0.3260658085346222, -0.5549938976764679, -0.5727319121360779, -2.0, -0.3249576687812805, -0.6511209011077881, -2.0, -2.0, -2.0, 0.7636678814888, 0.945023387670517, -1.0274349749088287, 1.67464679479599, -0.10882750153541565, -2.0, -2.0, -0.5195683836936951, -2.0, -2.0, 0.033122990280389786, -2.0, -0.04296615347266197, 0.9391651451587677, -2.0, -2.0, -2.0, -0.6861371994018555, 0.7616688907146454, 0.4149136543273926, -2.0, -2.0, -2.0, -2.0, 0.4073553681373596, -1.2580078840255737, -2.0, -2.0, 0.9575210213661194, 1.915540099143982, -2.0, -2.0, 1.8085331320762634, -2.0, 0.9801729619503021, 1.2662515044212341, -2.0, -2.0, -2.0, -2.4181774854660034, -0.5616646111011505, 0.7652670443058014, -2.0, -2.0, -0.010730624198913574, -2.0, -2.0, -1.0605335235595703, -2.0, 0.9379934668540955, 1.452208399772644, 1.92703515291214, 2.188319683074951, -2.0, 0.7984501719474792, -2.0, -2.0, 0.18421228229999542, -2.0, -2.0, -2.0, -0.7585923671722412, -0.550300806760788, -1.6249303221702576, -2.0, -2.0, 0.8324005305767059, -0.09883638471364975, -0.25247692316770554, 0.7512741386890411, -2.0, -2.0, 0.6745611876249313, -2.0, -2.0, -0.46549515426158905, -2.0, 0.1307362550869584, -2.0, -2.0, -0.5620787441730499, -0.6656510978937149, -0.8729641735553741, -0.5540337264537811, -2.0, -2.0, -2.0, -2.0, 1.0896484553813934, -2.0, -1.186162292957306, -2.0, -2.0, 0.39168447256088257, -2.0, -0.5909121036529541, -2.0, 0.055229585617780685, -2.0, -2.0, -0.1945732682943344, 0.7756617665290833, -2.0, -2.0, 0.909853607416153, 1.643826186656952, 2.5187896490097046, -2.107878565788269, -2.4170385599136353, -2.0, 0.10543232038617134, -2.0, 0.4700028747320175, -2.0, -2.0, -1.8609907031059265, -2.0, 0.7909810543060303, 0.577208012342453, 0.1361323818564415, -1.0716549754142761, -0.3332901671528816, -2.0, -2.0, -2.0, -0.1458302140235901, -0.0055907368659973145, -2.0, -2.0, -1.6300804615020752, -2.0, -2.0, -2.0, -2.0, -0.08767125010490417, -2.0, -2.0, -1.066313624382019, -2.0, -2.0, 0.5155520439147949, -1.1029095649719238, -1.0296346545219421, 1.0339458286762238, -0.6172677576541901, -2.0, -2.0, -2.0, -2.0, 0.44722776114940643, 0.10909577459096909, -2.0, -0.747010737657547, -1.0508087277412415, -2.0, -2.0, 0.9247147440910339, -2.0, -2.0, -0.142456223256886, -0.3079359009861946, -2.0, -2.0, -2.0, 0.34224122762680054, 0.8499238789081573, -0.7590309381484985, 1.2175867557525635, -2.0, -2.0, 1.599914312362671, -2.0, 0.7500747740268707, -2.0, -2.0, -2.0, -0.27611926943063736, -2.0, -2.0, -0.21303603053092957, 1.3977148532867432, 1.1802706718444824, -2.0, -1.2802139520645142, -2.0, -2.0, 0.8837310075759888, -2.0, 0.6124047711491585, -2.0, -2.0, 2.044764757156372, 1.5264450311660767, -2.0, -2.0, 1.3039636015892029, -1.104075014591217, -2.0, -2.0, -2.0], "value": [[[8468.0, 6739.0]], [[2727.0, 354.0]], [[150.0, 285.0]], [[121.0, 0.0]], [[29.0, 285.0]], [[20.0, 86.0]], [[0.0, 86.0]], [[20.0, 0.0]], [[9.0, 199.0]], [[5.0, 0.0]], [[4.0, 199.0]], [[3.0, 199.0]], [[0.0, 170.0]], [[3.0, 29.0]], [[0.0, 28.0]], [[3.0, 1.0]], [[3.0, 0.0]], [[0.0, 1.0]], [[1.0, 0.0]], [[2577.0, 69.0]], [[2577.0, 26.0]], [[30.0, 16.0]], [[30.0, 6.0]], [[30.0, 0.0]], [[0.0, 6.0]], [[0.0, 10.0]], [[2547.0, 10.0]], [[0.0, 9.0]], [[2547.0, 1.0]], [[1.0, 1.0]], [[1.0, 0.0]], [[0.0, 1.0]], [[2546.0, 0.0]], [[0.0, 43.0]], [[5741.0, 6385.0]], [[5447.0, 4725.0]], [[294.0, 1149.0]], [[186.0, 171.0]], [[41.0, 127.0]], [[31.0, 11.0]], [[4.0, 7.0]], [[0.0, 6.0]], [[4.0, 1.0]], [[0.0, 1.0]], [[4.0, 0.0]], [[27.0, 4.0]], [[9.0, 4.0]], [[6.0, 0.0]], [[3.0, 4.0]], [[3.0, 0.0]], [[0.0, 4.0]], [[18.0, 0.0]], [[10.0, 116.0]], [[1.0, 110.0]], [[0.0, 104.0]], [[1.0, 6.0]], [[1.0, 0.0]], [[0.0, 6.0]], [[9.0, 6.0]], [[0.0, 6.0]], [[9.0, 0.0]], [[145.0, 44.0]], [[1.0, 7.0]], [[1.0, 1.0]], [[0.0, 1.0]], [[1.0, 0.0]], [[0.0, 6.0]], [[144.0, 37.0]], [[101.0, 9.0]], [[96.0, 5.0]], [[95.0, 3.0]], [[1.0, 2.0]], [[0.0, 2.0]], [[1.0, 0.0]], [[94.0, 1.0]], [[0.0, 1.0]], [[94.0, 0.0]], [[1.0, 2.0]], [[0.0, 2.0]], [[1.0, 0.0]], [[5.0, 4.0]], [[5.0, 0.0]], [[0.0, 4.0]], [[43.0, 28.0]], [[28.0, 27.0]], [[12.0, 1.0]], [[0.0, 1.0]], [[12.0, 0.0]], [[16.0, 26.0]], [[15.0, 8.0]], [[12.0, 3.0]], [[0.0, 2.0]], [[12.0, 1.0]], [[12.0, 0.0]], [[0.0, 1.0]], [[3.0, 5.0]], [[3.0, 0.0]], [[0.0, 5.0]], [[1.0, 18.0]], [[1.0, 1.0]], [[1.0, 0.0]], [[0.0, 1.0]], [[0.0, 17.0]], [[15.0, 1.0]], [[15.0, 0.0]], [[0.0, 1.0]], [[108.0, 978.0]], [[65.0, 968.0]], [[17.0, 767.0]], [[13.0, 766.0]], [[7.0, 14.0]], [[0.0, 13.0]], [[7.0, 1.0]], [[0.0, 1.0]], [[7.0, 0.0]], [[6.0, 752.0]], [[2.0, 720.0]], [[2.0, 157.0]], [[1.0, 157.0]], [[0.0, 157.0]], [[1.0, 0.0]], [[1.0, 0.0]], [[0.0, 563.0]], [[4.0, 32.0]], [[1.0, 30.0]], [[0.0, 27.0]], [[1.0, 3.0]], [[1.0, 0.0]], [[0.0, 3.0]], [[3.0, 2.0]], [[3.0, 0.0]], [[0.0, 2.0]], [[4.0, 1.0]], [[4.0, 0.0]], [[0.0, 1.0]], [[48.0, 201.0]], [[22.0, 190.0]], [[5.0, 189.0]], [[4.0, 2.0]], [[3.0, 0.0]], [[1.0, 2.0]], [[1.0, 0.0]], [[0.0, 2.0]], [[1.0, 187.0]], [[0.0, 187.0]], [[1.0, 0.0]], [[17.0, 1.0]], [[17.0, 0.0]], [[0.0, 1.0]], [[26.0, 11.0]], [[0.0, 8.0]], [[26.0, 3.0]], [[26.0, 1.0]], [[1.0, 1.0]], [[1.0, 0.0]], [[0.0, 1.0]], [[25.0, 0.0]], [[0.0, 2.0]], [[43.0, 10.0]], [[1.0, 9.0]], [[1.0, 0.0]], [[0.0, 9.0]], [[42.0, 1.0]], [[9.0, 1.0]], [[9.0, 0.0]], [[0.0, 1.0]], [[33.0, 0.0]], [[5153.0, 3576.0]], [[4080.0, 1959.0]], [[1050.0, 20.0]], [[1031.0, 1.0]], [[1031.0, 0.0]], [[0.0, 1.0]], [[19.0, 19.0]], [[19.0, 0.0]], [[0.0, 19.0]], [[3030.0, 1939.0]], [[1376.0, 1647.0]], [[1023.0, 1647.0]], [[390.0, 1054.0]], [[90.0, 2.0]], [[0.0, 2.0]], [[90.0, 0.0]], [[300.0, 1052.0]], [[234.0, 533.0]], [[100.0, 66.0]], [[18.0, 52.0]], [[4.0, 46.0]], [[4.0, 7.0]], [[0.0, 7.0]], [[4.0, 0.0]], [[0.0, 39.0]], [[14.0, 6.0]], [[0.0, 6.0]], [[14.0, 0.0]], [[82.0, 14.0]], [[0.0, 4.0]], [[82.0, 10.0]], [[73.0, 1.0]], [[1.0, 1.0]], [[1.0, 0.0]], [[0.0, 1.0]], [[72.0, 0.0]], [[9.0, 9.0]], [[6.0, 0.0]], [[3.0, 9.0]], [[0.0, 9.0]], [[3.0, 0.0]], [[134.0, 467.0]], [[30.0, 23.0]], [[30.0, 16.0]], [[30.0, 12.0]], [[21.0, 0.0]], [[9.0, 12.0]], [[0.0, 11.0]], [[9.0, 1.0]], [[0.0, 1.0]], [[9.0, 0.0]], [[0.0, 4.0]], [[0.0, 7.0]], [[104.0, 444.0]], [[86.0, 425.0]], [[69.0, 412.0]], [[63.0, 412.0]], [[39.0, 376.0]], [[13.0, 239.0]], [[2.0, 0.0]], [[11.0, 239.0]], [[5.0, 200.0]], [[1.0, 4.0]], [[1.0, 0.0]], [[0.0, 4.0]], [[4.0, 196.0]], [[2.0, 13.0]], [[0.0, 13.0]], [[2.0, 0.0]], [[2.0, 183.0]], [[0.0, 130.0]], [[2.0, 53.0]], [[0.0, 41.0]], [[2.0, 12.0]], [[2.0, 4.0]], [[0.0, 4.0]], [[2.0, 0.0]], [[0.0, 8.0]], [[6.0, 39.0]], [[5.0, 2.0]], [[0.0, 2.0]], [[5.0, 0.0]], [[1.0, 37.0]], [[0.0, 37.0]], [[1.0, 0.0]], [[26.0, 137.0]], [[9.0, 117.0]], [[7.0, 17.0]], [[0.0, 13.0]], [[7.0, 4.0]], [[7.0, 1.0]], [[7.0, 0.0]], [[0.0, 1.0]], [[0.0, 3.0]], [[2.0, 100.0]], [[1.0, 0.0]], [[1.0, 100.0]], [[1.0, 20.0]], [[0.0, 19.0]], [[1.0, 1.0]], [[1.0, 0.0]], [[0.0, 1.0]], [[0.0, 80.0]], [[17.0, 20.0]], [[9.0, 17.0]], [[1.0, 13.0]], [[1.0, 0.0]], [[0.0, 13.0]], [[8.0, 4.0]], [[3.0, 4.0]], [[3.0, 0.0]], [[0.0, 4.0]], [[5.0, 0.0]], [[8.0, 3.0]], [[0.0, 3.0]], [[8.0, 0.0]], [[24.0, 36.0]], [[24.0, 10.0]], [[3.0, 9.0]], [[3.0, 0.0]], [[0.0, 9.0]], [[21.0, 1.0]], [[21.0, 0.0]], [[0.0, 1.0]], [[0.0, 26.0]], [[6.0, 0.0]], [[17.0, 13.0]], [[17.0, 5.0]], [[2.0, 4.0]], [[2.0, 1.0]], [[2.0, 0.0]], [[0.0, 1.0]], [[0.0, 3.0]], [[15.0, 1.0]], [[15.0, 0.0]], [[0.0, 1.0]], [[0.0, 8.0]], [[18.0, 19.0]], [[18.0, 0.0]], [[0.0, 19.0]], [[66.0, 519.0]], [[56.0, 254.0]], [[30.0, 205.0]], [[13.0, 12.0]], [[0.0, 6.0]], [[13.0, 6.0]], [[9.0, 0.0]], [[4.0, 6.0]], [[3.0, 0.0]], [[1.0, 6.0]], [[1.0, 0.0]], [[0.0, 6.0]], [[17.0, 193.0]], [[2.0, 0.0]], [[15.0, 193.0]], [[2.0, 1.0]], [[2.0, 0.0]], [[0.0, 1.0]], [[13.0, 192.0]], [[13.0, 117.0]], [[2.0, 1.0]], [[0.0, 1.0]], [[2.0, 0.0]], [[11.0, 116.0]], [[10.0, 44.0]], [[4.0, 44.0]], [[2.0, 44.0]], [[2.0, 0.0]], [[0.0, 44.0]], [[2.0, 0.0]], [[6.0, 0.0]], [[1.0, 72.0]], [[0.0, 72.0]], [[1.0, 0.0]], [[0.0, 75.0]], [[26.0, 49.0]], [[26.0, 1.0]], [[26.0, 0.0]], [[0.0, 1.0]], [[0.0, 48.0]], [[10.0, 265.0]], [[5.0, 8.0]], [[0.0, 6.0]], [[5.0, 2.0]], [[0.0, 2.0]], [[5.0, 0.0]], [[5.0, 257.0]], [[4.0, 30.0]], [[4.0, 0.0]], [[0.0, 30.0]], [[1.0, 227.0]], [[1.0, 31.0]], [[0.0, 31.0]], [[1.0, 0.0]], [[0.0, 196.0]], [[633.0, 593.0]], [[529.0, 278.0]], [[378.0, 272.0]], [[0.0, 43.0]], [[378.0, 229.0]], [[223.0, 41.0]], [[51.0, 37.0]], [[44.0, 6.0]], [[3.0, 4.0]], [[3.0, 0.0]], [[0.0, 4.0]], [[41.0, 2.0]], [[40.0, 1.0]], [[9.0, 1.0]], [[9.0, 0.0]], [[0.0, 1.0]], [[31.0, 0.0]], [[1.0, 1.0]], [[0.0, 1.0]], [[1.0, 0.0]], [[7.0, 31.0]], [[3.0, 31.0]], [[1.0, 31.0]], [[1.0, 0.0]], [[0.0, 31.0]], [[2.0, 0.0]], [[4.0, 0.0]], [[172.0, 4.0]], [[2.0, 4.0]], [[0.0, 4.0]], [[2.0, 0.0]], [[170.0, 0.0]], [[155.0, 188.0]], [[84.0, 175.0]], [[83.0, 124.0]], [[76.0, 60.0]], [[36.0, 51.0]], [[34.0, 15.0]], [[13.0, 14.0]], [[9.0, 14.0]], [[9.0, 8.0]], [[1.0, 6.0]], [[0.0, 6.0]], [[1.0, 0.0]], [[8.0, 2.0]], [[0.0, 2.0]], [[8.0, 0.0]], [[0.0, 6.0]], [[4.0, 0.0]], [[21.0, 1.0]], [[21.0, 0.0]], [[0.0, 1.0]], [[2.0, 36.0]], [[2.0, 0.0]], [[0.0, 36.0]], [[40.0, 9.0]], [[1.0, 7.0]], [[0.0, 6.0]], [[1.0, 1.0]], [[1.0, 0.0]], [[0.0, 1.0]], [[39.0, 2.0]], [[5.0, 2.0]], [[5.0, 0.0]], [[0.0, 2.0]], [[34.0, 0.0]], [[7.0, 64.0]], [[4.0, 2.0]], [[0.0, 2.0]], [[4.0, 0.0]], [[3.0, 62.0]], [[2.0, 1.0]], [[2.0, 0.0]], [[0.0, 1.0]], [[1.0, 61.0]], [[1.0, 6.0]], [[0.0, 6.0]], [[1.0, 0.0]], [[0.0, 55.0]], [[1.0, 51.0]], [[0.0, 50.0]], [[1.0, 1.0]], [[1.0, 0.0]], [[0.0, 1.0]], [[71.0, 13.0]], [[71.0, 7.0]], [[60.0, 0.0]], [[11.0, 7.0]], [[0.0, 5.0]], [[11.0, 2.0]], [[11.0, 0.0]], [[0.0, 2.0]], [[0.0, 6.0]], [[151.0, 6.0]], [[0.0, 4.0]], [[151.0, 2.0]], [[149.0, 0.0]], [[2.0, 2.0]], [[2.0, 0.0]], [[0.0, 2.0]], [[104.0, 315.0]], [[51.0, 38.0]], [[0.0, 35.0]], [[51.0, 3.0]], [[50.0, 0.0]], [[1.0, 3.0]], [[0.0, 3.0]], [[1.0, 0.0]], [[53.0, 277.0]], [[24.0, 250.0]], [[12.0, 18.0]], [[5.0, 0.0]], [[7.0, 18.0]], [[1.0, 16.0]], [[0.0, 16.0]], [[1.0, 0.0]], [[6.0, 2.0]], [[6.0, 0.0]], [[0.0, 2.0]], [[12.0, 232.0]], [[11.0, 45.0]], [[8.0, 45.0]], [[2.0, 33.0]], [[0.0, 31.0]], [[2.0, 2.0]], [[2.0, 0.0]], [[0.0, 2.0]], [[6.0, 12.0]], [[3.0, 12.0]], [[3.0, 2.0]], [[3.0, 0.0]], [[0.0, 2.0]], [[0.0, 10.0]], [[3.0, 0.0]], [[3.0, 0.0]], [[1.0, 187.0]], [[0.0, 187.0]], [[1.0, 0.0]], [[29.0, 27.0]], [[8.0, 26.0]], [[4.0, 0.0]], [[4.0, 26.0]], [[1.0, 26.0]], [[0.0, 24.0]], [[1.0, 2.0]], [[1.0, 0.0]], [[0.0, 2.0]], [[3.0, 0.0]], [[21.0, 1.0]], [[21.0, 0.0]], [[0.0, 1.0]], [[353.0, 0.0]], [[1654.0, 292.0]], [[429.0, 199.0]], [[284.0, 21.0]], [[0.0, 19.0]], [[284.0, 2.0]], [[1.0, 2.0]], [[1.0, 0.0]], [[0.0, 2.0]], [[283.0, 0.0]], [[145.0, 178.0]], [[35.0, 129.0]], [[32.0, 19.0]], [[5.0, 17.0]], [[2.0, 16.0]], [[0.0, 16.0]], [[2.0, 0.0]], [[3.0, 1.0]], [[3.0, 0.0]], [[0.0, 1.0]], [[27.0, 2.0]], [[22.0, 0.0]], [[5.0, 2.0]], [[1.0, 2.0]], [[1.0, 0.0]], [[0.0, 2.0]], [[4.0, 0.0]], [[3.0, 110.0]], [[3.0, 5.0]], [[1.0, 5.0]], [[0.0, 5.0]], [[1.0, 0.0]], [[2.0, 0.0]], [[0.0, 105.0]], [[110.0, 49.0]], [[88.0, 5.0]], [[0.0, 5.0]], [[88.0, 0.0]], [[22.0, 44.0]], [[16.0, 2.0]], [[16.0, 0.0]], [[0.0, 2.0]], [[6.0, 42.0]], [[0.0, 37.0]], [[6.0, 5.0]], [[1.0, 5.0]], [[0.0, 5.0]], [[1.0, 0.0]], [[5.0, 0.0]], [[1225.0, 93.0]], [[4.0, 27.0]], [[3.0, 3.0]], [[3.0, 0.0]], [[0.0, 3.0]], [[1.0, 24.0]], [[1.0, 0.0]], [[0.0, 24.0]], [[1221.0, 66.0]], [[0.0, 15.0]], [[1221.0, 51.0]], [[991.0, 4.0]], [[991.0, 3.0]], [[981.0, 2.0]], [[960.0, 0.0]], [[21.0, 2.0]], [[21.0, 0.0]], [[0.0, 2.0]], [[10.0, 1.0]], [[10.0, 0.0]], [[0.0, 1.0]], [[0.0, 1.0]], [[230.0, 47.0]], [[220.0, 21.0]], [[3.0, 4.0]], [[0.0, 4.0]], [[3.0, 0.0]], [[217.0, 17.0]], [[174.0, 6.0]], [[23.0, 4.0]], [[22.0, 2.0]], [[0.0, 2.0]], [[22.0, 0.0]], [[1.0, 2.0]], [[0.0, 2.0]], [[1.0, 0.0]], [[151.0, 2.0]], [[149.0, 0.0]], [[2.0, 2.0]], [[0.0, 2.0]], [[2.0, 0.0]], [[43.0, 11.0]], [[8.0, 10.0]], [[2.0, 10.0]], [[1.0, 10.0]], [[1.0, 0.0]], [[0.0, 10.0]], [[1.0, 0.0]], [[6.0, 0.0]], [[35.0, 1.0]], [[34.0, 0.0]], [[1.0, 1.0]], [[0.0, 1.0]], [[1.0, 0.0]], [[10.0, 26.0]], [[4.0, 0.0]], [[6.0, 26.0]], [[4.0, 0.0]], [[2.0, 26.0]], [[0.0, 26.0]], [[2.0, 0.0]], [[1073.0, 1617.0]], [[476.0, 107.0]], [[476.0, 0.0]], [[0.0, 107.0]], [[597.0, 1510.0]], [[175.0, 1349.0]], [[90.0, 1338.0]], [[53.0, 1253.0]], [[27.0, 4.0]], [[20.0, 0.0]], [[7.0, 4.0]], [[0.0, 3.0]], [[7.0, 1.0]], [[7.0, 0.0]], [[0.0, 1.0]], [[26.0, 1249.0]], [[1.0, 0.0]], [[25.0, 1249.0]], [[25.0, 242.0]], [[10.0, 242.0]], [[1.0, 225.0]], [[1.0, 30.0]], [[0.0, 30.0]], [[1.0, 0.0]], [[0.0, 195.0]], [[9.0, 17.0]], [[7.0, 1.0]], [[7.0, 0.0]], [[0.0, 1.0]], [[2.0, 16.0]], [[2.0, 0.0]], [[0.0, 16.0]], [[15.0, 0.0]], [[0.0, 1007.0]], [[37.0, 85.0]], [[0.0, 85.0]], [[37.0, 0.0]], [[85.0, 11.0]], [[0.0, 11.0]], [[85.0, 0.0]], [[422.0, 161.0]], [[388.0, 73.0]], [[11.0, 43.0]], [[1.0, 43.0]], [[1.0, 1.0]], [[0.0, 1.0]], [[1.0, 0.0]], [[0.0, 42.0]], [[10.0, 0.0]], [[377.0, 30.0]], [[364.0, 20.0]], [[0.0, 12.0]], [[364.0, 8.0]], [[28.0, 5.0]], [[28.0, 0.0]], [[0.0, 5.0]], [[336.0, 3.0]], [[336.0, 0.0]], [[0.0, 3.0]], [[13.0, 10.0]], [[13.0, 5.0]], [[0.0, 5.0]], [[13.0, 0.0]], [[0.0, 5.0]], [[34.0, 88.0]], [[10.0, 80.0]], [[10.0, 15.0]], [[9.0, 2.0]], [[9.0, 0.0]], [[0.0, 2.0]], [[1.0, 13.0]], [[0.0, 11.0]], [[1.0, 2.0]], [[0.0, 2.0]], [[1.0, 0.0]], [[0.0, 65.0]], [[24.0, 8.0]], [[0.0, 8.0]], [[24.0, 0.0]], [[294.0, 1660.0]], [[23.0, 1585.0]], [[1.0, 1563.0]], [[0.0, 1521.0]], [[1.0, 42.0]], [[1.0, 0.0]], [[0.0, 42.0]], [[22.0, 22.0]], [[0.0, 21.0]], [[22.0, 1.0]], [[0.0, 1.0]], [[22.0, 0.0]], [[271.0, 75.0]], [[1.0, 73.0]], [[0.0, 73.0]], [[1.0, 0.0]], [[270.0, 2.0]], [[23.0, 2.0]], [[0.0, 2.0]], [[23.0, 0.0]], [[247.0, 0.0]]]}, {"children_left": [1, 2, 3, 4, 5, -1, 7, -1, -1, 10, 11, -1, 13, -1, 15, -1, -1, -1, 19, 20, 21, 22, 23, -1, 25, -1, -1, 28, -1, 30, -1, 32, 33, -1, 35, -1, -1, 38, -1, -1, 41, 42, 43, 44, -1, 46, 47, -1, 49, 50, 51, -1, 53, -1, -1, -1, 57, 58, -1, -1, 61, 62, -1, 64, -1, -1, 67, -1, 69, -1, -1, 72, 73, 74, -1, -1, -1, 78, -1, -1, 81, 82, -1, -1, 85, -1, 87, 88, -1, 90, -1, -1, 93, -1, -1, 96, 97, 98, 99, 100, -1, 102, 103, -1, -1, 106, -1, -1, 109, -1, -1, 112, 113, 114, -1, 116, 117, 118, -1, 120, -1, -1, -1, 124, -1, -1, -1, 128, 129, 130, -1, 132, -1, 134, -1, -1, -1, 138, 139, -1, -1, 142, -1, 144, -1, 146, -1, -1, 149, 150, 151, -1, -1, 154, 155, -1, 157, -1, -1, 160, 161, -1, -1, 164, -1, -1, -1, 168, 169, 170, -1, -1, 173, -1, 175, -1, -1, 178, -1, 180, -1, -1, 183, 184, 185, 186, -1, -1, 189, -1, 191, 192, 193, 194, -1, 196, -1, -1, -1, 200, 201, -1, 203, 204, -1, -1, 207, -1, 209, -1, -1, 212, -1, 214, 215, 216, 217, 218, -1, -1, -1, -1, -1, 224, -1, 226, -1, -1, 229, 230, 231, -1, -1, 234, -1, 236, -1, 238, -1, -1, 241, -1, -1, 244, 245, 246, 247, 248, -1, 250, -1, 252, 253, -1, -1, -1, -1, -1, -1, 260, 261, 262, 263, 264, -1, -1, -1, 268, -1, -1, 271, -1, -1, 274, -1, -1, 277, 278, 279, -1, 281, 282, 283, 284, -1, 286, -1, -1, -1, -1, -1, -1, 293, 294, -1, 296, -1, 298, -1, -1, 301, 302, -1, -1, -1, 306, 307, 308, -1, -1, 311, -1, -1, -1, 315, -1, 317, -1, -1, 320, 321, 322, 323, -1, 325, -1, -1, -1, -1, 330, 331, 332, 333, 334, -1, -1, -1, 338, 339, 340, 341, -1, -1, 344, 345, -1, 347, -1, -1, 350, 351, -1, 353, -1, 355, -1, -1, 358, -1, -1, 361, -1, -1, -1, 365, 366, 367, -1, 369, -1, -1, 372, 373, 374, -1, 376, 377, 378, -1, -1, -1, -1, 383, 384, -1, -1, -1, -1, 389, 390, 391, -1, -1, -1, -1, 396, 397, -1, 399, -1, -1, 402, 403, 404, -1, 406, -1, 408, -1, -1, 411, 412, -1, -1, -1, -1, 417, 418, 419, 420, 421, 422, 423, 424, 425, 426, -1, -1, 429, -1, 431, 432, 433, 434, 435, -1, -1, 438, 439, -1, 441, -1, -1, 444, 445, -1, -1, 448, 449, 450, 451, -1, -1, -1, -1, -1, 457, 458, 459, 460, -1, -1, -1, -1, -1, -1, -1, 468, -1, 470, -1, -1, 473, 474, -1, 476, 477, -1, -1, 480, -1, 482, 483, -1, -1, -1, 487, -1, 489, 490, 491, -1, -1, 494, -1, -1, -1, 498, 499, -1, 501, 502, 503, 504, -1, -1, 507, 508, 509, -1, 511, -1, -1, 514, -1, -1, 517, 518, -1, -1, 521, 522, 523, -1, -1, 526, 527, -1, -1, -1, 531, 532, 533, 534, -1, -1, 537, 538, -1, -1, 541, -1, -1, 544, -1, 546, -1, -1, -1, 550, 551, 552, -1, -1, -1, 556, 557, -1, 559, 560, -1, -1, -1, 564, 565, -1, -1, -1, 569, 570, -1, -1, 573, 574, -1, -1, 577, 578, 579, -1, -1, -1, 583, -1, -1, 586, 587, 588, -1, -1, 591, -1, -1, 594, -1, 596, -1, -1, 599, 600, 601, 602, 603, -1, -1, 606, 607, -1, 609, 610, -1, -1, -1, -1, 615, 616, -1, 618, 619, -1, 621, -1, -1, 624, -1, -1, 627, 628, 629, -1, -1, 632, 633, -1, 635, -1, 637, -1, -1, 640, 641, -1, -1, -1, -1, 646, -1, -1, 649, 650, -1, 652, 653, -1, -1, 656, -1, 658, 659, 660, -1, 662, -1, 664, -1, 666, -1, -1, -1, -1, 671, 672, -1, -1, 675, 676, -1, -1, -1, 680, 681, 682, -1, -1, 685, 686, 687, 688, 689, -1, -1, -1, 693, 694, -1, -1, 697, -1, 699, -1, -1, 702, -1, -1, 705, -1, 707, 708, 709, -1, 711, 712, -1, -1, -1, -1, -1, 718, 719, -1, 721, -1, -1, -1, 725, 726, 727, 728, -1, 730, -1, -1, 733, 734, -1, 736, 737, -1, -1, 740, -1, -1, 743, 744, -1, -1, -1, 748, 749, 750, 751, -1, 753, 754, 755, -1, -1, 758, 759, -1, -1, -1, 763, 764, 765, -1, 767, -1, -1, -1, 771, 772, -1, -1, -1, 776, -1, 778, -1, 780, -1, -1, 783, -1, -1, 786, 787, 788, -1, 790, -1, 792, -1, 794, -1, -1, -1, 798, -1, 800, 801, 802, 803, -1, 805, -1, -1, -1, -1, -1, 811, 812, 813, -1, 815, 816, -1, 818, -1, 820, -1, 822, -1, -1, 825, 826, -1, -1, -1, 830, 831, 832, -1, 834, -1, -1, 837, 838, -1, -1, 841, -1, -1, 844, 845, -1, -1, -1, 849, -1, 851, -1, -1, 854, 855, 856, -1, 858, -1, -1, 861, 862, -1, -1, -1, 866, 867, -1, 869, 870, -1, 872, -1, 874, 875, -1, -1, -1, 879, 880, -1, -1, -1, 884, -1, 886, 887, -1, 889, -1, -1, 892, -1, 894, -1, 896, -1, -1, 899, 900, 901, -1, 903, -1, -1, 906, -1, -1, 909, 910, -1, -1, 913, 914, -1, 916, -1, -1, -1], "children_right": [416, 319, 18, 9, 6, -1, 8, -1, -1, 17, 12, -1, 14, -1, 16, -1, -1, -1, 314, 305, 40, 27, 24, -1, 26, -1, -1, 29, -1, 31, -1, 37, 34, -1, 36, -1, -1, 39, -1, -1, 182, 95, 80, 45, -1, 71, 48, -1, 56, 55, 52, -1, 54, -1, -1, -1, 60, 59, -1, -1, 66, 63, -1, 65, -1, -1, 68, -1, 70, -1, -1, 77, 76, 75, -1, -1, -1, 79, -1, -1, 84, 83, -1, -1, 86, -1, 92, 89, -1, 91, -1, -1, 94, -1, -1, 167, 148, 111, 108, 101, -1, 105, 104, -1, -1, 107, -1, -1, 110, -1, -1, 127, 126, 115, -1, 123, 122, 119, -1, 121, -1, -1, -1, 125, -1, -1, -1, 137, 136, 131, -1, 133, -1, 135, -1, -1, -1, 141, 140, -1, -1, 143, -1, 145, -1, 147, -1, -1, 166, 153, 152, -1, -1, 159, 156, -1, 158, -1, -1, 163, 162, -1, -1, 165, -1, -1, -1, 177, 172, 171, -1, -1, 174, -1, 176, -1, -1, 179, -1, 181, -1, -1, 276, 243, 188, 187, -1, -1, 190, -1, 228, 199, 198, 195, -1, 197, -1, -1, -1, 211, 202, -1, 206, 205, -1, -1, 208, -1, 210, -1, -1, 213, -1, 223, 222, 221, 220, 219, -1, -1, -1, -1, -1, 225, -1, 227, -1, -1, 240, 233, 232, -1, -1, 235, -1, 237, -1, 239, -1, -1, 242, -1, -1, 259, 258, 257, 256, 249, -1, 251, -1, 255, 254, -1, -1, -1, -1, -1, -1, 273, 270, 267, 266, 265, -1, -1, -1, 269, -1, -1, 272, -1, -1, 275, -1, -1, 292, 291, 280, -1, 290, 289, 288, 285, -1, 287, -1, -1, -1, -1, -1, -1, 300, 295, -1, 297, -1, 299, -1, -1, 304, 303, -1, -1, -1, 313, 310, 309, -1, -1, 312, -1, -1, -1, 316, -1, 318, -1, -1, 329, 328, 327, 324, -1, 326, -1, -1, -1, -1, 395, 364, 337, 336, 335, -1, -1, -1, 363, 360, 343, 342, -1, -1, 349, 346, -1, 348, -1, -1, 357, 352, -1, 354, -1, 356, -1, -1, 359, -1, -1, 362, -1, -1, -1, 388, 371, 368, -1, 370, -1, -1, 387, 382, 375, -1, 381, 380, 379, -1, -1, -1, -1, 386, 385, -1, -1, -1, -1, 394, 393, 392, -1, -1, -1, -1, 401, 398, -1, 400, -1, -1, 415, 410, 405, -1, 407, -1, 409, -1, -1, 414, 413, -1, -1, -1, -1, 898, 853, 724, 679, 598, 497, 472, 467, 428, 427, -1, -1, 430, -1, 466, 465, 456, 437, 436, -1, -1, 443, 440, -1, 442, -1, -1, 447, 446, -1, -1, 455, 454, 453, 452, -1, -1, -1, -1, -1, 464, 463, 462, 461, -1, -1, -1, -1, -1, -1, -1, 469, -1, 471, -1, -1, 486, 475, -1, 479, 478, -1, -1, 481, -1, 485, 484, -1, -1, -1, 488, -1, 496, 493, 492, -1, -1, 495, -1, -1, -1, 585, 500, -1, 568, 549, 506, 505, -1, -1, 516, 513, 510, -1, 512, -1, -1, 515, -1, -1, 520, 519, -1, -1, 530, 525, 524, -1, -1, 529, 528, -1, -1, -1, 548, 543, 536, 535, -1, -1, 540, 539, -1, -1, 542, -1, -1, 545, -1, 547, -1, -1, -1, 555, 554, 553, -1, -1, -1, 563, 558, -1, 562, 561, -1, -1, -1, 567, 566, -1, -1, -1, 572, 571, -1, -1, 576, 575, -1, -1, 582, 581, 580, -1, -1, -1, 584, -1, -1, 593, 590, 589, -1, -1, 592, -1, -1, 595, -1, 597, -1, -1, 648, 645, 614, 605, 604, -1, -1, 613, 608, -1, 612, 611, -1, -1, -1, -1, 626, 617, -1, 623, 620, -1, 622, -1, -1, 625, -1, -1, 644, 631, 630, -1, -1, 639, 634, -1, 636, -1, 638, -1, -1, 643, 642, -1, -1, -1, -1, 647, -1, -1, 670, 651, -1, 655, 654, -1, -1, 657, -1, 669, 668, 661, -1, 663, -1, 665, -1, 667, -1, -1, -1, -1, 674, 673, -1, -1, 678, 677, -1, -1, -1, 717, 684, 683, -1, -1, 704, 701, 692, 691, 690, -1, -1, -1, 696, 695, -1, -1, 698, -1, 700, -1, -1, 703, -1, -1, 706, -1, 716, 715, 710, -1, 714, 713, -1, -1, -1, -1, -1, 723, 720, -1, 722, -1, -1, -1, 810, 747, 732, 729, -1, 731, -1, -1, 742, 735, -1, 739, 738, -1, -1, 741, -1, -1, 746, 745, -1, -1, -1, 785, 782, 775, 752, -1, 762, 757, 756, -1, -1, 761, 760, -1, -1, -1, 770, 769, 766, -1, 768, -1, -1, -1, 774, 773, -1, -1, -1, 777, -1, 779, -1, 781, -1, -1, 784, -1, -1, 797, 796, 789, -1, 791, -1, 793, -1, 795, -1, -1, -1, 799, -1, 809, 808, 807, 804, -1, 806, -1, -1, -1, -1, -1, 848, 829, 814, -1, 824, 817, -1, 819, -1, 821, -1, 823, -1, -1, 828, 827, -1, -1, -1, 843, 836, 833, -1, 835, -1, -1, 840, 839, -1, -1, 842, -1, -1, 847, 846, -1, -1, -1, 850, -1, 852, -1, -1, 865, 860, 857, -1, 859, -1, -1, 864, 863, -1, -1, -1, 883, 868, -1, 878, 871, -1, 873, -1, 877, 876, -1, -1, -1, 882, 881, -1, -1, -1, 885, -1, 891, 888, -1, 890, -1, -1, 893, -1, 895, -1, 897, -1, -1, 908, 905, 902, -1, 904, -1, -1, 907, -1, -1, 912, 911, -1, -1, 918, 915, -1, 917, -1, -1, -1], "feature": [13, 2, 5, 15, 5, -2, 12, -2, -2, 8, 3, -2, 8, -2, 2, -2, -2, -2, 10, 15, 7, 6, 1, -2, 7, -2, -2, 9, -2, 3, -2, 0, 1, -2, 14, -2, -2, 12, -2, -2, 7, 12, 14, 14, -2, 10, 8, -2, 0, 11, 10, -2, 13, -2, -2, -2, 6, 10, -2, -2, 6, 5, -2, 2, -2, -2, 14, -2, 6, -2, -2, 6, 0, 5, -2, -2, -2, 15, -2, -2, 3, 9, -2, -2, 9, -2, 15, 4, -2, 7, -2, -2, 8, -2, -2, 3, 15, 1, 0, 13, -2, 10, 5, -2, -2, 13, -2, -2, 7, -2, -2, 15, 9, 12, -2, 12, 12, 13, -2, 12, -2, -2, -2, 10, -2, -2, -2, 11, 4, 2, -2, 11, -2, 0, -2, -2, -2, 10, 12, -2, -2, 15, -2, 7, -2, 5, -2, -2, 16, 7, 1, -2, -2, 5, 7, -2, 3, -2, -2, 13, 11, -2, -2, 16, -2, -2, -2, 12, 14, 16, -2, -2, 7, -2, 13, -2, -2, 4, -2, 11, -2, -2, 7, 11, 16, 4, -2, -2, 3, -2, 2, 12, 10, 8, -2, 16, -2, -2, -2, 15, 5, -2, 3, 1, -2, -2, 13, -2, 0, -2, -2, 16, -2, 12, 3, 12, 7, 6, -2, -2, -2, -2, -2, 4, -2, 1, -2, -2, 7, 15, 6, -2, -2, 13, -2, 1, -2, 0, -2, -2, 3, -2, -2, 1, 2, 10, 16, 5, -2, 6, -2, 7, 7, -2, -2, -2, -2, -2, -2, 7, 10, 15, 0, 15, -2, -2, -2, 2, -2, -2, 7, -2, -2, 10, -2, -2, 5, 1, 10, -2, 3, 0, 12, 3, -2, 11, -2, -2, -2, -2, -2, -2, 6, 13, -2, 11, -2, 16, -2, -2, 14, 7, -2, -2, -2, 11, 4, 2, -2, -2, 8, -2, -2, -2, 12, -2, 3, -2, -2, 15, 3, 3, 8, -2, 4, -2, -2, -2, -2, 4, 14, 14, 11, 15, -2, -2, -2, 15, 13, 15, 3, -2, -2, 2, 12, -2, 1, -2, -2, 6, 9, -2, 13, -2, 1, -2, -2, 8, -2, -2, 0, -2, -2, -2, 5, 15, 10, -2, 3, -2, -2, 7, 1, 5, -2, 4, 14, 7, -2, -2, -2, -2, 0, 1, -2, -2, -2, -2, 12, 12, 3, -2, -2, -2, -2, 3, 5, -2, 10, -2, -2, 7, 2, 15, -2, 8, -2, 4, -2, -2, 12, 15, -2, -2, -2, -2, 10, 2, 9, 14, 2, 11, 15, 3, 15, 4, -2, -2, 2, -2, 8, 9, 16, 2, 12, -2, -2, 16, 5, -2, 15, -2, -2, 9, 4, -2, -2, 8, 14, 2, 2, -2, -2, -2, -2, -2, 15, 2, 14, 11, -2, -2, -2, -2, -2, -2, -2, 15, -2, 2, -2, -2, 3, 3, -2, 5, 1, -2, -2, 10, -2, 5, 3, -2, -2, -2, 8, -2, 3, 10, 11, -2, -2, 15, -2, -2, -2, 5, 2, -2, 12, 7, 8, 4, -2, -2, 7, 11, 12, -2, 4, -2, -2, 15, -2, -2, 16, 7, -2, -2, 12, 10, 6, -2, -2, 3, 9, -2, -2, -2, 9, 5, 3, 1, -2, -2, 3, 8, -2, -2, 8, -2, -2, 4, -2, 11, -2, -2, -2, 15, 0, 16, -2, -2, -2, 13, 10, -2, 14, 4, -2, -2, -2, 9, 11, -2, -2, -2, 10, 3, -2, -2, 14, 15, -2, -2, 3, 10, 6, -2, -2, -2, 4, -2, -2, 8, 6, 14, -2, -2, 13, -2, -2, 15, -2, 3, -2, -2, 1, 16, 1, 6, 11, -2, -2, 15, 7, -2, 7, 1, -2, -2, -2, -2, 10, 10, -2, 1, 2, -2, 4, -2, -2, 15, -2, -2, 7, 2, 4, -2, -2, 15, 9, -2, 8, -2, 14, -2, -2, 12, 16, -2, -2, -2, -2, 4, -2, -2, 14, 3, -2, 13, 14, -2, -2, 8, -2, 13, 6, 4, -2, 8, -2, 3, -2, 0, -2, -2, -2, -2, 3, 5, -2, -2, 15, 1, -2, -2, -2, 15, 0, 2, -2, -2, 8, 2, 14, 12, 4, -2, -2, -2, 0, 5, -2, -2, 1, -2, 2, -2, -2, 5, -2, -2, 9, -2, 7, 9, 10, -2, 8, 1, -2, -2, -2, -2, -2, 3, 7, -2, 3, -2, -2, -2, 14, 12, 7, 7, -2, 10, -2, -2, 11, 7, -2, 8, 12, -2, -2, 6, -2, -2, 7, 5, -2, -2, -2, 5, 7, 13, 5, -2, 10, 6, 7, -2, -2, 4, 13, -2, -2, -2, 13, 6, 7, -2, 5, -2, -2, -2, 12, 13, -2, -2, -2, 8, -2, 1, -2, 8, -2, -2, 0, -2, -2, 11, 13, 7, -2, 1, -2, 10, -2, 12, -2, -2, -2, 15, -2, 15, 13, 9, 3, -2, 13, -2, -2, -2, -2, -2, 3, 9, 7, -2, 5, 2, -2, 8, -2, 3, -2, 12, -2, -2, 5, 14, -2, -2, -2, 13, 1, 14, -2, 13, -2, -2, 14, 10, -2, -2, 7, -2, -2, 1, 14, -2, -2, -2, 5, -2, 7, -2, -2, 5, 10, 10, -2, 7, -2, -2, 6, 4, -2, -2, -2, 2, 14, -2, 12, 7, -2, 9, -2, 11, 13, -2, -2, -2, 3, 13, -2, -2, -2, 8, -2, 7, 15, -2, 3, -2, -2, 12, -2, 10, -2, 2, -2, -2, 7, 11, 14, -2, 12, -2, -2, 14, -2, -2, 10, 9, -2, -2, 1, 3, -2, 2, -2, -2, -2], "threshold": [-0.21961664408445358, -0.13314815610647202, -0.646059662103653, -0.6985658407211304, -3.0097650289535522, -2.0, 0.8688160181045532, -2.0, -2.0, -0.08834736235439777, -1.075983703136444, -2.0, -1.0097504258155823, -2.0, -0.6265215873718262, -2.0, -2.0, -2.0, 0.9811474978923798, 0.12663166224956512, -1.2823328375816345, -2.168221354484558, 1.1889711916446686, -2.0, -1.2890895009040833, -2.0, -2.0, -2.009895920753479, -2.0, -1.0979092121124268, -2.0, 2.0696007013320923, 1.4848142862319946, -2.0, -0.8323300182819366, -2.0, -2.0, 0.16620754078030586, -2.0, -2.0, 0.7320838868618011, -0.5395422577857971, -0.18880711495876312, -2.2989585399627686, -2.0, -1.1673248410224915, -1.8097186088562012, -2.0, -1.1284325122833252, -0.9927950203418732, -1.6624550223350525, -2.0, -0.8152400553226471, -2.0, -2.0, -2.0, -1.6844987273216248, -1.902385950088501, -2.0, -2.0, -1.2142663598060608, 0.2468087524175644, -2.0, -1.046816647052765, -2.0, -2.0, -0.3720548525452614, -2.0, -0.7845048904418945, -2.0, -2.0, -0.7710146009922028, -1.5563572645187378, 0.03890471626073122, -2.0, -2.0, -2.0, -0.5874378085136414, -2.0, -2.0, 0.9614265263080597, -0.49229879677295685, -2.0, -2.0, -0.9023277163505554, -2.0, -0.5284121334552765, -0.49398504197597504, -2.0, 0.6785111129283905, -2.0, -2.0, -1.123673915863037, -2.0, -2.0, 0.9622076451778412, -0.5056205093860626, -0.36577853560447693, -0.28130248188972473, -1.8497438430786133, -2.0, -1.1760495901107788, 0.19388896599411964, -2.0, -2.0, -0.348699115216732, -2.0, -2.0, 0.6309352815151215, -2.0, -2.0, -0.6385799646377563, 0.705116331577301, -0.3147633969783783, -2.0, 0.7243153154850006, -0.12419000640511513, -1.5583863258361816, -2.0, -0.20865660160779953, -2.0, -2.0, -2.0, -1.8413126468658447, -2.0, -2.0, -2.0, -1.0891310572624207, -1.4581542611122131, -1.0950433015823364, -2.0, -1.3079514503479004, -2.0, -1.513430655002594, -2.0, -2.0, -2.0, -1.298196256160736, 0.4398513585329056, -2.0, -2.0, -0.6071467399597168, -2.0, 0.7260869443416595, -2.0, 0.10899963788688183, -2.0, -2.0, 1.231049120426178, -1.2781350016593933, 0.6339731998741627, -2.0, -2.0, -0.1797805353999138, -0.2845197319984436, -2.0, 0.8692565262317657, -2.0, -2.0, -0.2933780625462532, -2.0290955305099487, -2.0, -2.0, -0.005590781569480896, -2.0, -2.0, -2.0, 0.5530086755752563, -2.105254888534546, -0.5620787292718887, -2.0, -2.0, 0.7001001536846161, -2.0, -0.9055977761745453, -2.0, -2.0, -1.7004719376564026, -2.0, -0.48083779960870743, -2.0, -2.0, 0.7664664089679718, -0.6391041278839111, -2.107878565788269, -1.8305582404136658, -2.0, -2.0, 0.9243241846561432, -2.0, -0.9559661448001862, 0.4475301504135132, -0.5522291958332062, -1.3527727723121643, -2.0, -1.1185666918754578, -2.0, -2.0, -2.0, -0.5004153400659561, 0.5017828345298767, -2.0, 0.9543966054916382, 0.8544616997241974, -2.0, -2.0, -1.1526985168457031, -2.0, 0.46588900685310364, -2.0, -2.0, -1.4895586371421814, -2.0, 1.1016227006912231, 0.9399462342262268, 1.0101754069328308, 0.7480757534503937, -1.8001296520233154, -2.0, -2.0, -2.0, -2.0, -2.0, -1.2847058176994324, -2.0, 0.5123988054692745, -2.0, -2.0, 0.7480757534503937, -0.549637109041214, -1.5187610983848572, -2.0, -2.0, -2.299688458442688, -2.0, 1.9128424525260925, -2.0, 0.05285443365573883, -2.0, -2.0, 0.9465855956077576, -2.0, -2.0, -0.04745498672127724, -0.22811216861009598, -0.9841048717498779, 0.6127291768789291, 0.07155445590615273, -2.0, -0.5744420886039734, -2.0, 0.7476759552955627, 0.7408794164657593, -2.0, -2.0, -2.0, -2.0, -2.0, -2.0, 0.7496749460697174, -0.7834353744983673, -0.37791678309440613, -0.05379139119759202, -0.4284524917602539, -2.0, -2.0, -2.0, -0.6643607020378113, -2.0, -2.0, 0.7392802536487579, -2.0, -2.0, -1.1149762868881226, -2.0, -2.0, 0.3779858946800232, 2.2275692224502563, -1.5599390864372253, -2.0, 0.9840784966945648, 0.12100044265389442, 1.515578806400299, -1.0635797381401062, -2.0, -0.06108793430030346, -2.0, -2.0, -2.0, -2.0, -2.0, -2.0, -0.7710146009922028, -2.2093307971954346, -2.0, -0.3762444108724594, -2.0, -0.5620787441730499, -2.0, -2.0, -1.6232056021690369, 0.7884552776813507, -2.0, -2.0, -2.0, 0.6669372320175171, -2.547308325767517, -0.6067475974559784, -2.0, -2.0, -1.9261459708213806, -2.0, -2.0, -2.0, -1.2327267527580261, -2.0, -0.071033775806427, -2.0, -2.0, -0.22944289445877075, -1.0632282495498657, -1.0647904872894287, -0.771888256072998, -2.0, -0.46592719852924347, -2.0, -2.0, -2.0, -2.0, -0.31288447976112366, -0.16509270668029785, -0.572549432516098, -1.9974423050880432, 0.1622087969444692, -2.0, -2.0, -2.0, 2.7295236587524414, -0.2933780625462532, -0.17496541142463684, 0.9473667144775391, -2.0, -2.0, 0.2722187787294388, 0.2806911766529083, -2.0, -1.1301146745681763, -2.0, -2.0, -0.20827756077051163, 0.054787591099739075, -2.0, -1.3776708841323853, -2.0, -1.6067007780075073, -2.0, -2.0, -0.5139955431222916, -2.0, -2.0, 0.6536929905414581, -2.0, -2.0, -2.0, 0.6708132922649384, -0.18128237128257751, -1.2458477020263672, -2.0, -1.0785651803016663, -2.0, -2.0, 0.6281366944313049, 0.9003218710422516, 0.26102500408887863, -2.0, -0.4812314957380295, 0.4277675896883011, -0.33317500352859497, -2.0, -2.0, -2.0, -2.0, 2.4901474714279175, 1.6412783861160278, -2.0, -2.0, -2.0, -2.0, 0.31140631437301636, 0.2290339320898056, -1.0575262308120728, -2.0, -2.0, -2.0, -2.0, -1.052292823791504, 0.6300010979175568, -2.0, -0.34501615166664124, -2.0, -2.0, 0.7480757534503937, 0.7848779559135437, -0.1093195304274559, -2.0, -0.34999579191207886, -2.0, 0.16664941608905792, -2.0, -2.0, 0.6912267506122589, 2.3206897974014282, -2.0, -2.0, -2.0, -2.0, 1.3824864625930786, 1.2654349207878113, 0.6838797628879547, 0.4525599181652069, -0.5171543061733246, 0.23893000185489655, -0.4279976785182953, 0.9637698233127594, -0.7336679399013519, -0.08842180855572224, -2.0, -2.0, -1.2445444464683533, -2.0, 0.7454222738742828, 0.6340555250644684, 1.231049120426178, -1.1474199295043945, 0.6744032502174377, -2.0, -2.0, -1.2422306537628174, 0.028701672330498695, -2.0, -0.4618566036224365, -2.0, -2.0, -1.481432318687439, -0.33073946088552475, -2.0, -2.0, -0.36501867324113846, 0.3587802052497864, -1.032498836517334, -1.0344517827033997, -2.0, -2.0, -2.0, -2.0, -2.0, -0.5109267681837082, -0.7367433309555054, 0.0731293372809887, 0.018733350560069084, -2.0, -2.0, -2.0, -2.0, -2.0, -2.0, -2.0, -0.756621241569519, -2.0, -1.148945689201355, -2.0, -2.0, 0.9297918975353241, -1.0682663917541504, -2.0, -0.6426586806774139, 1.598115861415863, -2.0, -2.0, -0.25122496485710144, -2.0, 0.07631587982177734, 0.9075304865837097, -2.0, -2.0, -2.0, -0.2999195381999016, -2.0, 0.9356501698493958, -1.0364534258842468, -0.1890772357583046, -2.0, -2.0, -0.3855476826429367, -2.0, -2.0, -2.0, 0.37900620698928833, -1.2745057344436646, -2.0, 1.0534558296203613, 0.7504745423793793, -0.5590641498565674, -0.039958272129297256, -2.0, -2.0, -1.2059317231178284, 1.667455792427063, -0.1172092966735363, -2.0, -1.5270235240459442, -2.0, -2.0, -0.49792391806840897, -2.0, -2.0, -2.107878565788269, 0.7476759552955627, -2.0, -2.0, -1.0093440413475037, -0.07236737757921219, 0.42769239842891693, -2.0, -2.0, 0.96533203125, -0.6385043263435364, -2.0, -2.0, -2.0, 0.6716279089450836, 0.19269860535860062, 0.9516627490520477, -1.48800390958786, -2.0, -2.0, 0.9622076451778412, 0.9845364093780518, -2.0, -2.0, -0.13591980934143066, -2.0, -2.0, 0.018708109855651855, -2.0, 0.8953912556171417, -2.0, -2.0, -2.0, -0.573692113161087, 0.04601299948990345, -0.5620787292718887, -2.0, -2.0, -2.0, 0.8499238789081573, -1.0015543699264526, -2.0, -1.0414479970932007, 0.5747633576393127, -2.0, -2.0, -2.0, -0.5012834817171097, 1.1458649635314941, -2.0, -2.0, -2.0, -0.5609539747238159, -0.05420100688934326, -2.0, -2.0, -2.5252156257629395, -0.9006328284740448, -2.0, -2.0, -0.9976938366889954, -0.45189447700977325, 0.4084205627441406, -2.0, -2.0, -2.0, 0.32734429091215134, -2.0, -2.0, -0.015736795961856842, 0.8709441721439362, -2.603365421295166, -2.0, -2.0, 1.1449695229530334, -2.0, -2.0, -0.13246488198637962, -2.0, -1.0535035729408264, -2.0, -2.0, 0.4848826676607132, 2.405856966972351, -0.2219034805893898, -0.2853648215532303, 0.36416683346033096, -2.0, -2.0, 1.2089043259620667, 0.7496749460697174, -2.0, 0.752073734998703, -0.4215300977230072, -2.0, -2.0, -2.0, -2.0, -0.999373197555542, -1.0059167742729187, -2.0, 0.17375289648771286, 0.16175293177366257, -2.0, -0.1981024257838726, -2.0, -2.0, -0.17496541142463684, -2.0, -2.0, 0.8664156794548035, -0.38129961490631104, 0.37580782175064087, -2.0, -2.0, -0.1945732682943344, -0.7422367334365845, -2.0, 0.9620020687580109, -2.0, -0.28258682042360306, -2.0, -2.0, -0.648441344499588, -1.860550582408905, -2.0, -2.0, -2.0, -2.0, 0.21511294692754745, -2.0, -2.0, -0.3591196984052658, -0.06591755151748657, -2.0, -0.14585522562265396, -0.7116020917892456, -2.0, -2.0, -0.6329266130924225, -2.0, 1.329373061656952, 0.7167696356773376, 0.3579528331756592, -2.0, -0.06956876814365387, -2.0, 0.935259610414505, -2.0, -1.0043477788567543, -2.0, -2.0, -2.0, -2.0, -0.04877236485481262, 0.1390305906534195, -2.0, -2.0, -0.17875558882951736, 0.581998348236084, -2.0, -2.0, -2.0, -0.16829469799995422, -1.8843435049057007, -0.9034796357154846, -2.0, -2.0, 0.8355595469474792, 0.044451627880334854, 0.550651341676712, -0.4711313098669052, 0.18960582185536623, -2.0, -2.0, -2.0, -1.6046497225761414, -0.06312572862952948, -2.0, -2.0, 1.3252927660942078, -2.0, -0.5526742674410343, -2.0, -2.0, -1.5969834439456463, -2.0, -2.0, -1.7035993337631226, -2.0, 0.7796597480773926, 0.6667271554470062, -0.7354492098093033, -2.0, 0.8931472301483154, 2.797674011439085, -2.0, -2.0, -2.0, -2.0, -2.0, 0.9235430955886841, -1.1710293889045715, -2.0, -0.06845614314079285, -2.0, -2.0, -2.0, 0.32967615127563477, -0.03413884527981281, 0.7144928276538849, -1.3315479159355164, -2.0, 0.5361846685409546, -2.0, -2.0, 0.4453643560409546, 0.7424786388874054, -2.0, -0.09335498884320259, -0.953498363494873, -2.0, -2.0, -0.11191847734153271, -2.0, -2.0, 0.7436780333518982, 0.32254935055971146, -2.0, -2.0, -2.0, 0.6235391795635223, 0.8452264368534088, 0.8499238789081573, -3.0403741598129272, -2.0, -1.014641523361206, 0.2542460411787033, 0.7536729574203491, -2.0, -2.0, -0.3256380409002304, 0.6655203402042389, -2.0, -2.0, -2.0, 0.0385483056306839, 0.2735178489238024, 0.8236373960971832, -2.0, 0.462331086397171, -2.0, -2.0, -2.0, 0.5706000924110413, 0.14919042959809303, -2.0, -2.0, -2.0, -0.19601131230592728, -2.0, 2.0099582076072693, -2.0, 0.4249342381954193, -2.0, -2.0, 1.525639921426773, -2.0, -2.0, 0.4880274683237076, 0.7946028113365173, -0.2913162410259247, -2.0, -2.448369860649109, -2.0, -1.0473593473434448, -2.0, 1.3983029127120972, -2.0, -2.0, -2.0, -0.7959531843662262, -2.0, 4.025259017944336, 1.4400151371955872, 1.161702275276184, 0.9700186550617218, -2.0, 1.2924923300743103, -2.0, -2.0, -2.0, -2.0, -2.0, 0.930963546037674, 1.6819979548454285, -1.2149670720100403, -2.0, 0.6344224214553833, -0.8109568357467651, -2.0, -0.32871338725090027, -2.0, -1.0518242120742798, -2.0, 0.9710834324359894, -2.0, -2.0, 1.034041702747345, 0.5431058406829834, -2.0, -2.0, -2.0, 1.0343274176120758, -0.7164739668369293, 1.3224475979804993, -2.0, 0.9421256482601166, -2.0, -2.0, 0.621794581413269, -0.4671627879142761, -2.0, -2.0, 0.7852568924427032, -2.0, -2.0, 0.772632785141468, 1.449643075466156, -2.0, -2.0, -2.0, 0.2372519075870514, -2.0, 0.7484755516052246, -2.0, -2.0, 0.06781334057450294, -0.7550798952579498, -0.9797424972057343, -2.0, 0.7484755516052246, -2.0, -2.0, -0.11191847175359726, 1.1308186650276184, -2.0, -2.0, -2.0, 1.5144408345222473, -0.6436926424503326, -2.0, 0.2297319993376732, -1.2569857835769653, -2.0, -1.013411283493042, -2.0, -0.16292888671159744, -0.05365345999598503, -2.0, -2.0, -2.0, 0.9438517391681671, 1.071208119392395, -2.0, -2.0, -2.0, -0.803185909986496, -2.0, 0.7488753497600555, 0.4003330320119858, -2.0, -0.0387742817401886, -2.0, -2.0, -0.3280267287045717, -2.0, 0.7128610908985138, -2.0, 1.6316199898719788, -2.0, -2.0, -0.21423542499542236, 1.2490821480751038, 1.4280845522880554, -2.0, -1.6376079320907593, -2.0, -2.0, 0.8158215656876564, -2.0, -2.0, 1.4173855185508728, -0.9456176459789276, -2.0, -2.0, 0.2205122858285904, 0.9571304619312286, -2.0, 0.499863862991333, -2.0, -2.0, -2.0], "value": [[[8499.0, 6708.0]], [[2147.0, 3619.0]], [[1634.0, 1656.0]], [[418.0, 62.0]], [[5.0, 55.0]], [[4.0, 0.0]], [[1.0, 55.0]], [[1.0, 0.0]], [[0.0, 55.0]], [[413.0, 7.0]], [[413.0, 4.0]], [[0.0, 3.0]], [[413.0, 1.0]], [[383.0, 0.0]], [[30.0, 1.0]], [[30.0, 0.0]], [[0.0, 1.0]], [[0.0, 3.0]], [[1216.0, 1594.0]], [[1212.0, 1225.0]], [[1016.0, 1212.0]], [[288.0, 12.0]], [[13.0, 6.0]], [[0.0, 5.0]], [[13.0, 1.0]], [[13.0, 0.0]], [[0.0, 1.0]], [[275.0, 6.0]], [[0.0, 2.0]], [[275.0, 4.0]], [[0.0, 1.0]], [[275.0, 3.0]], [[274.0, 2.0]], [[238.0, 0.0]], [[36.0, 2.0]], [[36.0, 0.0]], [[0.0, 2.0]], [[1.0, 1.0]], [[1.0, 0.0]], [[0.0, 1.0]], [[728.0, 1200.0]], [[217.0, 747.0]], [[95.0, 153.0]], [[84.0, 66.0]], [[0.0, 24.0]], [[84.0, 42.0]], [[79.0, 25.0]], [[0.0, 6.0]], [[79.0, 19.0]], [[8.0, 10.0]], [[3.0, 10.0]], [[2.0, 0.0]], [[1.0, 10.0]], [[0.0, 10.0]], [[1.0, 0.0]], [[5.0, 0.0]], [[71.0, 9.0]], [[2.0, 5.0]], [[2.0, 0.0]], [[0.0, 5.0]], [[69.0, 4.0]], [[9.0, 3.0]], [[8.0, 0.0]], [[1.0, 3.0]], [[0.0, 3.0]], [[1.0, 0.0]], [[60.0, 1.0]], [[57.0, 0.0]], [[3.0, 1.0]], [[0.0, 1.0]], [[3.0, 0.0]], [[5.0, 17.0]], [[1.0, 16.0]], [[1.0, 3.0]], [[1.0, 0.0]], [[0.0, 3.0]], [[0.0, 13.0]], [[4.0, 1.0]], [[0.0, 1.0]], [[4.0, 0.0]], [[11.0, 87.0]], [[5.0, 3.0]], [[5.0, 0.0]], [[0.0, 3.0]], [[6.0, 84.0]], [[2.0, 0.0]], [[4.0, 84.0]], [[1.0, 79.0]], [[0.0, 78.0]], [[1.0, 1.0]], [[1.0, 0.0]], [[0.0, 1.0]], [[3.0, 5.0]], [[0.0, 5.0]], [[3.0, 0.0]], [[122.0, 594.0]], [[113.0, 409.0]], [[87.0, 161.0]], [[34.0, 10.0]], [[5.0, 9.0]], [[0.0, 3.0]], [[5.0, 6.0]], [[1.0, 4.0]], [[0.0, 4.0]], [[1.0, 0.0]], [[4.0, 2.0]], [[4.0, 0.0]], [[0.0, 2.0]], [[29.0, 1.0]], [[0.0, 1.0]], [[29.0, 0.0]], [[53.0, 151.0]], [[24.0, 25.0]], [[8.0, 25.0]], [[5.0, 0.0]], [[3.0, 25.0]], [[1.0, 24.0]], [[1.0, 4.0]], [[0.0, 3.0]], [[1.0, 1.0]], [[0.0, 1.0]], [[1.0, 0.0]], [[0.0, 20.0]], [[2.0, 1.0]], [[0.0, 1.0]], [[2.0, 0.0]], [[16.0, 0.0]], [[29.0, 126.0]], [[4.0, 83.0]], [[4.0, 31.0]], [[1.0, 0.0]], [[3.0, 31.0]], [[0.0, 30.0]], [[3.0, 1.0]], [[0.0, 1.0]], [[3.0, 0.0]], [[0.0, 52.0]], [[25.0, 43.0]], [[19.0, 3.0]], [[19.0, 0.0]], [[0.0, 3.0]], [[6.0, 40.0]], [[3.0, 0.0]], [[3.0, 40.0]], [[0.0, 36.0]], [[3.0, 4.0]], [[0.0, 4.0]], [[3.0, 0.0]], [[26.0, 248.0]], [[22.0, 248.0]], [[6.0, 6.0]], [[0.0, 6.0]], [[6.0, 0.0]], [[16.0, 242.0]], [[13.0, 40.0]], [[0.0, 31.0]], [[13.0, 9.0]], [[13.0, 0.0]], [[0.0, 9.0]], [[3.0, 202.0]], [[1.0, 198.0]], [[1.0, 0.0]], [[0.0, 198.0]], [[2.0, 4.0]], [[0.0, 4.0]], [[2.0, 0.0]], [[4.0, 0.0]], [[9.0, 185.0]], [[3.0, 180.0]], [[2.0, 4.0]], [[0.0, 4.0]], [[2.0, 0.0]], [[1.0, 176.0]], [[0.0, 152.0]], [[1.0, 24.0]], [[0.0, 24.0]], [[1.0, 0.0]], [[6.0, 5.0]], [[0.0, 4.0]], [[6.0, 1.0]], [[6.0, 0.0]], [[0.0, 1.0]], [[511.0, 453.0]], [[471.0, 284.0]], [[183.0, 201.0]], [[52.0, 1.0]], [[0.0, 1.0]], [[52.0, 0.0]], [[131.0, 200.0]], [[41.0, 0.0]], [[90.0, 200.0]], [[55.0, 64.0]], [[20.0, 6.0]], [[20.0, 2.0]], [[0.0, 1.0]], [[20.0, 1.0]], [[0.0, 1.0]], [[20.0, 0.0]], [[0.0, 4.0]], [[35.0, 58.0]], [[16.0, 11.0]], [[8.0, 0.0]], [[8.0, 11.0]], [[7.0, 1.0]], [[0.0, 1.0]], [[7.0, 0.0]], [[1.0, 10.0]], [[0.0, 7.0]], [[1.0, 3.0]], [[0.0, 3.0]], [[1.0, 0.0]], [[19.0, 47.0]], [[0.0, 17.0]], [[19.0, 30.0]], [[18.0, 21.0]], [[18.0, 12.0]], [[9.0, 12.0]], [[1.0, 12.0]], [[1.0, 0.0]], [[0.0, 12.0]], [[8.0, 0.0]], [[9.0, 0.0]], [[0.0, 9.0]], [[1.0, 9.0]], [[0.0, 8.0]], [[1.0, 1.0]], [[1.0, 0.0]], [[0.0, 1.0]], [[35.0, 136.0]], [[11.0, 132.0]], [[9.0, 8.0]], [[0.0, 8.0]], [[9.0, 0.0]], [[2.0, 124.0]], [[1.0, 0.0]], [[1.0, 124.0]], [[0.0, 119.0]], [[1.0, 5.0]], [[0.0, 5.0]], [[1.0, 0.0]], [[24.0, 4.0]], [[24.0, 0.0]], [[0.0, 4.0]], [[288.0, 83.0]], [[158.0, 14.0]], [[158.0, 12.0]], [[24.0, 12.0]], [[24.0, 6.0]], [[0.0, 2.0]], [[24.0, 4.0]], [[0.0, 2.0]], [[24.0, 2.0]], [[4.0, 2.0]], [[4.0, 0.0]], [[0.0, 2.0]], [[20.0, 0.0]], [[0.0, 6.0]], [[134.0, 0.0]], [[0.0, 2.0]], [[130.0, 69.0]], [[23.0, 68.0]], [[7.0, 60.0]], [[6.0, 14.0]], [[6.0, 2.0]], [[0.0, 2.0]], [[6.0, 0.0]], [[0.0, 12.0]], [[1.0, 46.0]], [[0.0, 46.0]], [[1.0, 0.0]], [[16.0, 8.0]], [[0.0, 8.0]], [[16.0, 0.0]], [[107.0, 1.0]], [[0.0, 1.0]], [[107.0, 0.0]], [[40.0, 169.0]], [[11.0, 140.0]], [[8.0, 140.0]], [[2.0, 0.0]], [[6.0, 140.0]], [[5.0, 140.0]], [[5.0, 62.0]], [[5.0, 13.0]], [[0.0, 9.0]], [[5.0, 4.0]], [[5.0, 0.0]], [[0.0, 4.0]], [[0.0, 49.0]], [[0.0, 78.0]], [[1.0, 0.0]], [[3.0, 0.0]], [[29.0, 29.0]], [[4.0, 23.0]], [[2.0, 0.0]], [[2.0, 23.0]], [[0.0, 22.0]], [[2.0, 1.0]], [[0.0, 1.0]], [[2.0, 0.0]], [[25.0, 6.0]], [[2.0, 6.0]], [[2.0, 0.0]], [[0.0, 6.0]], [[23.0, 0.0]], [[196.0, 13.0]], [[196.0, 11.0]], [[4.0, 10.0]], [[4.0, 0.0]], [[0.0, 10.0]], [[192.0, 1.0]], [[0.0, 1.0]], [[192.0, 0.0]], [[0.0, 2.0]], [[4.0, 369.0]], [[1.0, 0.0]], [[3.0, 369.0]], [[0.0, 369.0]], [[3.0, 0.0]], [[513.0, 1963.0]], [[6.0, 681.0]], [[6.0, 29.0]], [[3.0, 29.0]], [[0.0, 26.0]], [[3.0, 3.0]], [[3.0, 0.0]], [[0.0, 3.0]], [[3.0, 0.0]], [[0.0, 652.0]], [[507.0, 1282.0]], [[252.0, 1069.0]], [[22.0, 569.0]], [[1.0, 284.0]], [[1.0, 39.0]], [[1.0, 0.0]], [[0.0, 39.0]], [[0.0, 245.0]], [[21.0, 285.0]], [[16.0, 285.0]], [[12.0, 284.0]], [[4.0, 5.0]], [[4.0, 0.0]], [[0.0, 5.0]], [[8.0, 279.0]], [[6.0, 17.0]], [[5.0, 0.0]], [[1.0, 17.0]], [[1.0, 0.0]], [[0.0, 17.0]], [[2.0, 262.0]], [[1.0, 257.0]], [[0.0, 213.0]], [[1.0, 44.0]], [[0.0, 40.0]], [[1.0, 4.0]], [[1.0, 0.0]], [[0.0, 4.0]], [[1.0, 5.0]], [[1.0, 0.0]], [[0.0, 5.0]], [[4.0, 1.0]], [[4.0, 0.0]], [[0.0, 1.0]], [[5.0, 0.0]], [[230.0, 500.0]], [[228.0, 380.0]], [[137.0, 4.0]], [[0.0, 3.0]], [[137.0, 1.0]], [[0.0, 1.0]], [[137.0, 0.0]], [[91.0, 376.0]], [[91.0, 49.0]], [[23.0, 46.0]], [[11.0, 0.0]], [[12.0, 46.0]], [[3.0, 46.0]], [[1.0, 46.0]], [[0.0, 46.0]], [[1.0, 0.0]], [[2.0, 0.0]], [[9.0, 0.0]], [[68.0, 3.0]], [[68.0, 2.0]], [[68.0, 0.0]], [[0.0, 2.0]], [[0.0, 1.0]], [[0.0, 327.0]], [[2.0, 120.0]], [[2.0, 14.0]], [[1.0, 14.0]], [[0.0, 14.0]], [[1.0, 0.0]], [[1.0, 0.0]], [[0.0, 106.0]], [[255.0, 213.0]], [[1.0, 116.0]], [[0.0, 99.0]], [[1.0, 17.0]], [[1.0, 0.0]], [[0.0, 17.0]], [[254.0, 97.0]], [[104.0, 97.0]], [[76.0, 9.0]], [[0.0, 6.0]], [[76.0, 3.0]], [[52.0, 0.0]], [[24.0, 3.0]], [[0.0, 3.0]], [[24.0, 0.0]], [[28.0, 88.0]], [[3.0, 88.0]], [[0.0, 88.0]], [[3.0, 0.0]], [[25.0, 0.0]], [[150.0, 0.0]], [[6352.0, 3089.0]], [[6056.0, 2048.0]], [[5540.0, 1553.0]], [[2492.0, 1163.0]], [[1032.0, 1013.0]], [[931.0, 544.0]], [[553.0, 160.0]], [[479.0, 54.0]], [[472.0, 24.0]], [[3.0, 6.0]], [[0.0, 6.0]], [[3.0, 0.0]], [[469.0, 18.0]], [[0.0, 3.0]], [[469.0, 15.0]], [[469.0, 14.0]], [[469.0, 12.0]], [[462.0, 7.0]], [[14.0, 3.0]], [[14.0, 0.0]], [[0.0, 3.0]], [[448.0, 4.0]], [[18.0, 1.0]], [[12.0, 0.0]], [[6.0, 1.0]], [[6.0, 0.0]], [[0.0, 1.0]], [[430.0, 3.0]], [[4.0, 1.0]], [[0.0, 1.0]], [[4.0, 0.0]], [[426.0, 2.0]], [[78.0, 2.0]], [[78.0, 1.0]], [[3.0, 1.0]], [[3.0, 0.0]], [[0.0, 1.0]], [[75.0, 0.0]], [[0.0, 1.0]], [[348.0, 0.0]], [[7.0, 5.0]], [[7.0, 2.0]], [[7.0, 1.0]], [[2.0, 1.0]], [[2.0, 0.0]], [[0.0, 1.0]], [[5.0, 0.0]], [[0.0, 1.0]], [[0.0, 3.0]], [[0.0, 2.0]], [[0.0, 1.0]], [[7.0, 30.0]], [[0.0, 16.0]], [[7.0, 14.0]], [[7.0, 0.0]], [[0.0, 14.0]], [[74.0, 106.0]], [[63.0, 27.0]], [[0.0, 16.0]], [[63.0, 11.0]], [[3.0, 6.0]], [[3.0, 0.0]], [[0.0, 6.0]], [[60.0, 5.0]], [[52.0, 0.0]], [[8.0, 5.0]], [[1.0, 5.0]], [[0.0, 5.0]], [[1.0, 0.0]], [[7.0, 0.0]], [[11.0, 79.0]], [[3.0, 0.0]], [[8.0, 79.0]], [[8.0, 19.0]], [[7.0, 2.0]], [[7.0, 0.0]], [[0.0, 2.0]], [[1.0, 17.0]], [[1.0, 0.0]], [[0.0, 17.0]], [[0.0, 60.0]], [[378.0, 384.0]], [[267.0, 357.0]], [[40.0, 0.0]], [[227.0, 357.0]], [[211.0, 216.0]], [[115.0, 185.0]], [[11.0, 1.0]], [[11.0, 0.0]], [[0.0, 1.0]], [[104.0, 184.0]], [[56.0, 10.0]], [[54.0, 4.0]], [[47.0, 0.0]], [[7.0, 4.0]], [[0.0, 4.0]], [[7.0, 0.0]], [[2.0, 6.0]], [[2.0, 0.0]], [[0.0, 6.0]], [[48.0, 174.0]], [[7.0, 1.0]], [[7.0, 0.0]], [[0.0, 1.0]], [[41.0, 173.0]], [[24.0, 30.0]], [[18.0, 7.0]], [[0.0, 7.0]], [[18.0, 0.0]], [[6.0, 23.0]], [[6.0, 4.0]], [[0.0, 4.0]], [[6.0, 0.0]], [[0.0, 19.0]], [[17.0, 143.0]], [[15.0, 143.0]], [[6.0, 122.0]], [[1.0, 77.0]], [[1.0, 0.0]], [[0.0, 77.0]], [[5.0, 45.0]], [[4.0, 1.0]], [[4.0, 0.0]], [[0.0, 1.0]], [[1.0, 44.0]], [[0.0, 44.0]], [[1.0, 0.0]], [[9.0, 21.0]], [[0.0, 