{
    "scaler": {
        "mean": [
            -0.3416425152244684,
            2.8377542840957384,
            -0.46503779917857896,
            142.21422576122285,
            1.1696325308030173,
            -0.7171734032006748,
            86.02153094462727,
            172.83270769012984,
            399.99770570740526,
            -0.12746493414530452,
            1.1611399801727849,
            407.88382665344886,
            -0.29021052258886515,
            85.8525010621741,
            37.659909361279546,
            276.34197988953565,
            88.63765472312579
        ],
        "scale": [
            1.3268282523730863,
            4.166662029697014,
            1.930119601323073,
            127.68766065026564,
            0.6936834097877927,
            1.4966689082998266,
            4.567931065019378,
            123.32238884778066,
            25.430040108661185,
            0.6262365578560295,
            0.8003465208134647,
            21.88932019550019,
            0.6124263431415332,
            4.545299534556109,
            11.78947621415153,
            487.89858531949085,
            11.655922742952859
        ]
    },
    "random_forest": {
        "classes_": [
            0.0,
            1.0
        ],
        "dtrees": [
            {
                "children_left": [
                    1,
                    2,
                    3,
                    4,
                    -1,
                    6,
                    -1,
                    -1,
                    9,
                    10,
                    -1,
                    12,
                    -1,
                    14,
                    -1,
                    -1,
                    17,
                    -1,
                    19,
                    -1,
                    21,
                    -1,
                    -1,
                    24,
                    25,
                    26,
                    27,
                    -1,
                    29,
                    -1,
                    31,
                    -1,
                    33,
                    -1,
                    35,
                    36,
                    -1,
                    38,
                    -1,
                    40,
                    -1,
                    42,
                    43,
                    -1,
                    -1,
                    -1,
                    47,
                    -1,
                    -1,
                    50,
                    51,
                    52,
                    -1,
                    -1,
                    -1,
                    56,
                    57,
                    58,
                    -1,
                    -1,
                    -1,
                    -1,
                    63,
                    64,
                    -1,
                    66,
                    67,
                    -1,
                    69,
                    -1,
                    -1,
                    72,
                    -1,
                    -1,
                    75,
                    -1,
                    77,
                    78,
                    -1,
                    80,
                    81,
                    -1,
                    -1,
                    -1,
                    -1,
                    86,
                    87,
                    -1,
                    89,
                    -1,
                    -1,
                    92,
                    -1,
                    -1,
                    95,
                    96,
                    97,
                    98,
                    99,
                    100,
                    -1,
                    -1,
                    103,
                    -1,
                    -1,
                    -1,
                    107,
                    108,
                    -1,
                    -1,
                    111,
                    112,
                    -1,
                    -1,
                    115,
                    116,
                    -1,
                    -1,
                    -1,
                    120,
                    121,
                    122,
                    123,
                    124,
                    -1,
                    126,
                    -1,
                    -1,
                    129,
                    130,
                    -1,
                    -1,
                    -1,
                    134,
                    -1,
                    -1,
                    137,
                    -1,
                    139,
                    140,
                    141,
                    -1,
                    -1,
                    -1,
                    145,
                    146,
                    -1,
                    -1,
                    -1,
                    150,
                    -1,
                    152,
                    153,
                    154,
                    -1,
                    156,
                    157,
                    158,
                    -1,
                    -1,
                    161,
                    162,
                    -1,
                    164,
                    -1,
                    -1,
                    167,
                    168,
                    -1,
                    -1,
                    -1,
                    172,
                    -1,
                    -1,
                    175,
                    176,
                    -1,
                    178,
                    179,
                    180,
                    181,
                    -1,
                    -1,
                    -1,
                    -1,
                    186,
                    187,
                    -1,
                    -1,
                    190,
                    -1,
                    192,
                    -1,
                    -1,
                    195,
                    196,
                    -1,
                    198,
                    -1,
                    -1,
                    201,
                    202,
                    -1,
                    204,
                    -1,
                    -1,
                    207,
                    -1,
                    209,
                    -1,
                    211,
                    -1,
                    213,
                    -1,
                    -1,
                    -1,
                    217,
                    218,
                    219,
                    -1,
                    -1,
                    222,
                    -1,
                    -1,
                    225,
                    226,
                    -1,
                    228,
                    -1,
                    230,
                    231,
                    -1,
                    -1,
                    234,
                    235,
                    236,
                    -1,
                    -1,
                    -1,
                    240,
                    -1,
                    242,
                    -1,
                    -1,
                    245,
                    -1,
                    247,
                    -1,
                    -1
                ],
                "children_right": [
                    94,
                    23,
                    8,
                    5,
                    -1,
                    7,
                    -1,
                    -1,
                    16,
                    11,
                    -1,
                    13,
                    -1,
                    15,
                    -1,
                    -1,
                    18,
                    -1,
                    20,
                    -1,
                    22,
                    -1,
                    -1,
                    85,
                    62,
                    49,
                    28,
                    -1,
                    30,
                    -1,
                    32,
                    -1,
                    34,
                    -1,
                    46,
                    37,
                    -1,
                    39,
                    -1,
                    41,
                    -1,
                    45,
                    44,
                    -1,
                    -1,
                    -1,
                    48,
                    -1,
                    -1,
                    55,
                    54,
                    53,
                    -1,
                    -1,
                    -1,
                    61,
                    60,
                    59,
                    -1,
                    -1,
                    -1,
                    -1,
                    74,
                    65,
                    -1,
                    71,
                    68,
                    -1,
                    70,
                    -1,
                    -1,
                    73,
                    -1,
                    -1,
                    76,
                    -1,
                    84,
                    79,
                    -1,
                    83,
                    82,
                    -1,
                    -1,
                    -1,
                    -1,
                    91,
                    88,
                    -1,
                    90,
                    -1,
                    -1,
                    93,
                    -1,
                    -1,
                    216,
                    119,
                    106,
                    105,
                    102,
                    101,
                    -1,
                    -1,
                    104,
                    -1,
                    -1,
                    -1,
                    110,
                    109,
                    -1,
                    -1,
                    114,
                    113,
                    -1,
                    -1,
                    118,
                    117,
                    -1,
                    -1,
                    -1,
                    149,
                    136,
                    133,
                    128,
                    125,
                    -1,
                    127,
                    -1,
                    -1,
                    132,
                    131,
                    -1,
                    -1,
                    -1,
                    135,
                    -1,
                    -1,
                    138,
                    -1,
                    144,
                    143,
                    142,
                    -1,
                    -1,
                    -1,
                    148,
                    147,
                    -1,
                    -1,
                    -1,
                    151,
                    -1,
                    215,
                    174,
                    155,
                    -1,
                    171,
                    160,
                    159,
                    -1,
                    -1,
                    166,
                    163,
                    -1,
                    165,
                    -1,
                    -1,
                    170,
                    169,
                    -1,
                    -1,
                    -1,
                    173,
                    -1,
                    -1,
                    194,
                    177,
                    -1,
                    185,
                    184,
                    183,
                    182,
                    -1,
                    -1,
                    -1,
                    -1,
                    189,
                    188,
                    -1,
                    -1,
                    191,
                    -1,
                    193,
                    -1,
                    -1,
                    200,
                    197,
                    -1,
                    199,
                    -1,
                    -1,
                    206,
                    203,
                    -1,
                    205,
                    -1,
                    -1,
                    208,
                    -1,
                    210,
                    -1,
                    212,
                    -1,
                    214,
                    -1,
                    -1,
                    -1,
                    224,
                    221,
                    220,
                    -1,
                    -1,
                    223,
                    -1,
                    -1,
                    244,
                    227,
                    -1,
                    229,
                    -1,
                    233,
                    232,
                    -1,
                    -1,
                    239,
                    238,
                    237,
                    -1,
                    -1,
                    -1,
                    241,
                    -1,
                    243,
                    -1,
                    -1,
                    246,
                    -1,
                    248,
                    -1,
                    -1
                ],
                "threshold": [
                    -0.3447273373603821,
                    0.6456029117107391,
                    -0.833001047372818,
                    0.6318178772926331,
                    -2.0,
                    -0.46002793312072754,
                    -2.0,
                    -2.0,
                    -0.20883452147245407,
                    -0.44408200681209564,
                    -2.0,
                    0.4704018831253052,
                    -2.0,
                    -0.2600623369216919,
                    -2.0,
                    -2.0,
                    0.9392902553081512,
                    -2.0,
                    0.34993283450603485,
                    -2.0,
                    -0.46801115572452545,
                    -2.0,
                    -2.0,
                    0.7777767777442932,
                    0.3445378243923187,
                    0.5239722430706024,
                    -0.3318614065647125,
                    -2.0,
                    -0.7714553475379944,
                    -2.0,
                    -0.07154925353825092,
                    -2.0,
                    -0.5166339576244354,
                    -2.0,
                    0.5489514172077179,
                    -0.5314841568470001,
                    -2.0,
                    0.10247848182916641,
                    -2.0,
                    -0.13886482641100883,
                    -2.0,
                    -0.16506121307611465,
                    0.19514300301671028,
                    -2.0,
                    -2.0,
                    -2.0,
                    0.38085582852363586,
                    -2.0,
                    -2.0,
                    -0.6467880606651306,
                    0.483466237783432,
                    -0.7797562479972839,
                    -2.0,
                    -2.0,
                    -2.0,
                    0.5887432098388672,
                    0.6464138031005859,
                    0.10247848182916641,
                    -2.0,
                    -2.0,
                    -2.0,
                    -2.0,
                    0.440654918551445,
                    -1.3278715014457703,
                    -2.0,
                    1.0224846005439758,
                    -0.6384769082069397,
                    -2.0,
                    0.49437057971954346,
                    -2.0,
                    -2.0,
                    1.028637409210205,
                    -2.0,
                    -2.0,
                    0.05098502850160003,
                    -2.0,
                    0.6979735493659973,
                    -1.0531724393367767,
                    -2.0,
                    0.7682364583015442,
                    1.5882897973060608,
                    -2.0,
                    -2.0,
                    -2.0,
                    -2.0,
                    0.2132558524608612,
                    1.5262415409088135,
                    -2.0,
                    -0.27666134014725685,
                    -2.0,
                    -2.0,
                    0.4471842646598816,
                    -2.0,
                    -2.0,
                    0.8367708921432495,
                    -0.1825958862900734,
                    -1.6256250143051147,
                    0.7652081251144409,
                    0.8869810104370117,
                    -0.15556319057941437,
                    -2.0,
                    -2.0,
                    -0.24990108609199524,
                    -2.0,
                    -2.0,
                    -2.0,
                    -0.2724895179271698,
                    -0.9784072488546371,
                    -2.0,
                    -2.0,
                    -1.6226890981197357,
                    0.43771785870194435,
                    -2.0,
                    -2.0,
                    -2.0899025201797485,
                    -0.3441781774163246,
                    -2.0,
                    -2.0,
                    -2.0,
                    -0.8152645528316498,
                    0.11727422848343849,
                    0.7476416528224945,
                    0.7540700435638428,
                    0.4661013334989548,
                    -2.0,
                    -0.0856571001932025,
                    -2.0,
                    -2.0,
                    1.1694373488426208,
                    0.217487758025527,
                    -2.0,
                    -2.0,
                    -2.0,
                    0.5776070356369019,
                    -2.0,
                    -2.0,
                    -0.10215643420815468,
                    -2.0,
                    -0.6657662689685822,
                    0.48094509541988373,
                    0.48801834881305695,
                    -2.0,
                    -2.0,
                    -2.0,
                    0.017130650579929352,
                    -0.1365547776222229,
                    -2.0,
                    -2.0,
                    -2.0,
                    -2.5530178546905518,
                    -2.0,
                    0.9435976445674896,
                    0.6845252811908722,
                    -2.492053985595703,
                    -2.0,
                    2.0239394903182983,
                    -0.5858491957187653,
                    0.2657392621040344,
                    -2.0,
                    -2.0,
                    -0.15760670602321625,
                    -0.8096875250339508,
                    -2.0,
                    0.6809397265315056,
                    -2.0,
                    -2.0,
                    -0.6874959170818329,
                    -0.7303512170910835,
                    -2.0,
                    -2.0,
                    -2.0,
                    0.387560335919261,
                    -2.0,
                    -2.0,
                    0.5059673935174942,
                    0.9173617362976074,
                    -2.0,
                    0.004672865383327007,
                    -0.5489463210105896,
                    1.2132224440574646,
                    0.9918953776359558,
                    -2.0,
                    -2.0,
                    -2.0,
                    -2.0,
                    0.15893914550542831,
                    0.015081044053658843,
                    -2.0,
                    -2.0,
                    -0.10007648915052414,
                    -2.0,
                    0.015081044053658843,
                    -2.0,
                    -2.0,
                    -0.07014458999037743,
                    0.4742056727409363,
                    -2.0,
                    0.5991127192974091,
                    -2.0,
                    -2.0,
                    0.939201295375824,
                    0.8717181384563446,
                    -2.0,
                    0.7121396958827972,
                    -2.0,
                    -2.0,
                    0.7076354324817657,
                    -2.0,
                    0.33209310472011566,
                    -2.0,
                    1.0413122177124023,
                    -2.0,
                    0.20281709730625153,
                    -2.0,
                    -2.0,
                    -2.0,
                    -1.7956066727638245,
                    -0.23681989312171936,
                    -0.18884318321943283,
                    -2.0,
                    -2.0,
                    -0.18884318321943283,
                    -2.0,
                    -2.0,
                    0.3317393511533737,
                    -1.2684858441352844,
                    -2.0,
                    -0.1825958862900734,
                    -2.0,
                    1.6853449940681458,
                    1.3611382842063904,
                    -2.0,
                    -2.0,
                    4.137863636016846,
                    0.49666669964790344,
                    0.25465844571590424,
                    -2.0,
                    -2.0,
                    -2.0,
                    1.1828422546386719,
                    -2.0,
                    0.9400734007358551,
                    -2.0,
                    -2.0,
                    -0.1825958862900734,
                    -2.0,
                    0.03783167526125908,
                    -2.0,
                    -2.0
                ],
                "feature": [
                    15,
                    7,
                    11,
                    7,
                    -2,
                    15,
                    -2,
                    -2,
                    10,
                    15,
                    -2,
                    0,
                    -2,
                    10,
                    -2,
                    -2,
                    3,
                    -2,
                    6,
                    -2,
                    15,
                    -2,
                    -2,
                    7,
                    0,
                    6,
                    1,
                    -2,
                    15,
                    -2,
                    4,
                    -2,
                    9,
                    -2,
                    11,
                    11,
                    -2,
                    12,
                    -2,
                    10,
                    -2,
                    1,
                    4,
                    -2,
                    -2,
                    -2,
                    14,
                    -2,
                    -2,
                    15,
                    13,
                    15,
                    -2,
                    -2,
                    -2,
                    16,
                    7,
                    12,
                    -2,
                    -2,
                    -2,
                    -2,
                    14,
                    14,
                    -2,
                    13,
                    15,
                    -2,
                    16,
                    -2,
                    -2,
                    11,
                    -2,
                    -2,
                    4,
                    -2,
                    13,
                    9,
                    -2,
                    11,
                    12,
                    -2,
                    -2,
                    -2,
                    -2,
                    5,
                    12,
                    -2,
                    1,
                    -2,
                    -2,
                    16,
                    -2,
                    -2,
                    14,
                    10,
                    11,
                    7,
                    12,
                    5,
                    -2,
                    -2,
                    6,
                    -2,
                    -2,
                    -2,
                    5,
                    14,
                    -2,
                    -2,
                    4,
                    9,
                    -2,
                    -2,
                    6,
                    11,
                    -2,
                    -2,
                    -2,
                    12,
                    10,
                    2,
                    14,
                    14,
                    -2,
                    15,
                    -2,
                    -2,
                    0,
                    6,
                    -2,
                    -2,
                    -2,
                    6,
                    -2,
                    -2,
                    15,
                    -2,
                    0,
                    14,
                    9,
                    -2,
                    -2,
                    -2,
                    15,
                    14,
                    -2,
                    -2,
                    -2,
                    11,
                    -2,
                    3,
                    7,
                    2,
                    -2,
                    9,
                    12,
                    1,
                    -2,
                    -2,
                    10,
                    16,
                    -2,
                    1,
                    -2,
                    -2,
                    9,
                    4,
                    -2,
                    -2,
                    -2,
                    2,
                    -2,
                    -2,
                    14,
                    3,
                    -2,
                    14,
                    0,
                    8,
                    10,
                    -2,
                    -2,
                    -2,
                    -2,
                    1,
                    15,
                    -2,
                    -2,
                    12,
                    -2,
                    15,
                    -2,
                    -2,
                    10,
                    9,
                    -2,
                    5,
                    -2,
                    -2,
                    5,
                    5,
                    -2,
                    1,
                    -2,
                    -2,
                    7,
                    -2,
                    4,
                    -2,
                    0,
                    -2,
                    12,
                    -2,
                    -2,
                    -2,
                    4,
                    11,
                    10,
                    -2,
                    -2,
                    10,
                    -2,
                    -2,
                    1,
                    7,
                    -2,
                    10,
                    -2,
                    10,
                    5,
                    -2,
                    -2,
                    4,
                    13,
                    13,
                    -2,
                    -2,
                    -2,
                    14,
                    -2,
                    3,
                    -2,
                    -2,
                    10,
                    -2,
                    15,
                    -2,
                    -2
                ],
                "classes_": [
                    0.0,
                    1.0
                ],
                "value": [
                    [
                        [
                            3640.0,
                            3421.0
                        ]
                    ],
                    [
                        [
                            2054.0,
                            656.0
                        ]
                    ],
                    [
                        [
                            1517.0,
                            110.0
                        ]
                    ],
                    [
                        [
                            19.0,
                            69.0
                        ]
                    ],
                    [
                        [
                            10.0,
                            0.0
                        ]
                    ],
                    [
                        [
                            9.0,
                            69.0
                        ]
                    ],
                    [
                        [
                            0.0,
                            69.0
                        ]
                    ],
                    [
                        [
                            9.0,
                            0.0
                        ]
                    ],
                    [
                        [
                            1498.0,
                            41.0
                        ]
                    ],
                    [
                        [
                            210.0,
                            23.0
                        ]
                    ],
                    [
                        [
                            0.0,
                            22.0
                        ]
                    ],
                    [
                        [
                            210.0,
                            1.0
                        ]
                    ],
                    [
                        [
                            191.0,
                            0.0
                        ]
                    ],
                    [
                        [
                            19.0,
                            1.0
                        ]
                    ],
                    [
                        [
                            19.0,
                            0.0
                        ]
                    ],
                    [
                        [
                            0.0,
                            1.0
                        ]
                    ],
                    [
                        [
                            1288.0,
                            18.0
                        ]
                    ],
                    [
                        [
                            1242.0,
                            0.0
                        ]
                    ],
                    [
                        [
                            46.0,
                            18.0
                        ]
                    ],
                    [
                        [
                            0.0,
                            15.0
                        ]
                    ],
                    [
                        [
                            46.0,
                            3.0
                        ]
                    ],
                    [
                        [
                            0.0,
                            3.0
                        ]
                    ],
                    [
                        [
                            46.0,
                            0.0
                        ]
                    ],
                    [
                        [
                            537.0,
                            546.0
                        ]
                    ],
                    [
                        [
                            227.0,
                            537.0
                        ]
                    ],
                    [
                        [
                            200.0,
                            149.0
                        ]
                    ],
                    [
                        [
                            169.0,
                            79.0
                        ]
                    ],
                    [
                        [
                            0.0,
                            26.0
                        ]
                    ],
                    [
                        [
                            169.0,
                            53.0
                        ]
                    ],
                    [
                        [
                            0.0,
                            12.0
                        ]
                    ],
                    [
                        [
                            169.0,
                            41.0
                        ]
                    ],
                    [
                        [
                            0.0,
                            12.0
                        ]
                    ],
                    [
                        [
                            169.0,
                            29.0
                        ]
                    ],
                    [
                        [
                            106.0,
                            0.0
                        ]
                    ],
                    [
                        [
                            63.0,
                            29.0
                        ]
                    ],
                    [
                        [
                            56.0,
                            9.0
                        ]
                    ],
                    [
                        [
                            0.0,
                            2.0
                        ]
                    ],
                    [
                        [
                            56.0,
                            7.0
                        ]
                    ],
                    [
                        [
                            0.0,
                            5.0
                        ]
                    ],
                    [
                        [
                            56.0,
                            2.0
                        ]
                    ],
                    [
                        [
                            0.0,
                            1.0
                        ]
                    ],
                    [
                        [
                            56.0,
                            1.0
                        ]
                    ],
                    [
                        [
                            6.0,
                            1.0
                        ]
                    ],
                    [
                        [
                            6.0,
                            0.0
                        ]
                    ],
                    [
                        [
                            0.0,
                            1.0
                        ]
                    ],
                    [
                        [
                            50.0,
                            0.0
                        ]
                    ],
                    [
                        [
                            7.0,
                            20.0
                        ]
                    ],
                    [
                        [
                            0.0,
                            20.0
                        ]
                    ],
                    [
                        [
                            7.0,
                            0.0
                        ]
                    ],
                    [
                        [
                            31.0,
                            70.0
                        ]
                    ],
                    [
                        [
                            3.0,
                            65.0
                        ]
                    ],
                    [
                        [
                            3.0,
                            4.0
                        ]
                    ],
                    [
                        [
                            0.0,
                            4.0
                        ]
                    ],
                    [
                        [
                            3.0,
                            0.0
                        ]
                    ],
                    [
                        [
                            0.0,
                            61.0
                        ]
                    ],
                    [
                        [
                            28.0,
                            5.0
                        ]
                    ],
                    [
                        [
                            28.0,
                            2.0
                        ]
                    ],
                    [
                        [
                            2.0,
                            2.0
                        ]
                    ],
                    [
                        [
                            0.0,
                            2.0
                        ]
                    ],
                    [
                        [
                            2.0,
                            0.0
                        ]
                    ],
                    [
                        [
                            26.0,
                            0.0
                        ]
                    ],
                    [
                        [
                            0.0,
                            3.0
                        ]
                    ],
                    [
                        [
                            27.0,
                            388.0
                        ]
                    ],
                    [
                        [
                            5.0,
                            350.0
                        ]
                    ],
                    [
                        [
                            1.0,
                            0.0
                        ]
                    ],
                    [
                        [
                            4.0,
                            350.0
                        ]
                    ],
                    [
                        [
                            3.0,
                            344.0
                        ]
                    ],
                    [
                        [
                            0.0,
                            316.0
                        ]
                    ],
                    [
                        [
                            3.0,
                            28.0
                        ]
                    ],
                    [
                        [
                            3.0,
                            0.0
                        ]
                    ],
                    [
                        [
                            0.0,
                            28.0
                        ]
                    ],
                    [
                        [
                            1.0,
                            6.0
                        ]
                    ],
                    [
                        [
                            1.0,
                            0.0
                        ]
                    ],
                    [
                        [
                            0.0,
                            6.0
                        ]
                    ],
                    [
                        [
                            22.0,
                            38.0
                        ]
                    ],
                    [
                        [
                            0.0,
                            24.0
                        ]
                    ],
                    [
                        [
                            22.0,
                            14.0
                        ]
                    ],
                    [
                        [
                            22.0,
                            6.0
                        ]
                    ],
                    [
                        [
                            0.0,
                            3.0
                        ]
                    ],
                    [
                        [
                            22.0,
                            3.0
                        ]
                    ],
                    [
                        [
                            5.0,
                            3.0
                        ]
                    ],
                    [
                        [
                            5.0,
                            0.0
                        ]
                    ],
                    [
                        [
                            0.0,
                            3.0
                        ]
                    ],
                    [
                        [
                            17.0,
                            0.0
                        ]
                    ],
                    [
                        [
                            0.0,
                            8.0
                        ]
                    ],
                    [
                        [
                            310.0,
                            9.0
                        ]
                    ],
                    [
                        [
                            309.0,
                            1.0
                        ]
                    ],
                    [
                        [
                            305.0,
                            0.0
                        ]
                    ],
                    [
                        [
                            4.0,
                            1.0
                        ]
                    ],
                    [
                        [
                            4.0,
                            0.0
                        ]
                    ],
                    [
                        [
                            0.0,
                            1.0
                        ]
                    ],
                    [
                        [
                            1.0,
                            8.0
                        ]
                    ],
                    [
                        [
                            1.0,
                            0.0
                        ]
                    ],
                    [
                        [
                            0.0,
                            8.0
                        ]
                    ],
                    [
                        [
                            1586.0,
                            2765.0
                        ]
                    ],
                    [
                        [
                            943.0,
                            2530.0
                        ]
                    ],
                    [
                        [
                            138.0,
                            1665.0
                        ]
                    ],
                    [
                        [
                            121.0,
                            41.0
                        ]
                    ],
                    [
                        [
                            17.0,
                            41.0
                        ]
                    ],
                    [
                        [
                            5.0,
                            35.0
                        ]
                    ],
                    [
                        [
                            5.0,
                            0.0
                        ]
                    ],
                    [
                        [
                            0.0,
                            35.0
                        ]
                    ],
                    [
                        [
                            12.0,
                            6.0
                        ]
                    ],
                    [
                        [
                            0.0,
                            6.0
                        ]
                    ],
                    [
                        [
                            12.0,
                            0.0
                        ]
                    ],
                    [
                        [
                            104.0,
                            0.0
                        ]
                    ],
                    [
                        [
                            17.0,
                            1624.0
                        ]
                    ],
                    [
                        [
                            13.0,
                            87.0
                        ]
                    ],
                    [
                        [
                            13.0,
                            0.0
                        ]
                    ],
                    [
                        [
                            0.0,
                            87.0
                        ]
                    ],
                    [
                        [
                            4.0,
                            1537.0
                        ]
                    ],
                    [
                        [
                            3.0,
                            1.0
                        ]
                    ],
                    [
                        [
                            0.0,
                            1.0
                        ]
                    ],
                    [
                        [
                            3.0,
                            0.0
                        ]
                    ],
                    [
                        [
                            1.0,
                            1536.0
                        ]
                    ],
                    [
                        [
                            1.0,
                            21.0
                        ]
                    ],
                    [
                        [
                            0.0,
                            21.0
                        ]
                    ],
                    [
                        [
                            1.0,
                            0.0
                        ]
                    ],
                    [
                        [
                            0.0,
                            1515.0
                        ]
                    ],
                    [
                        [
                            805.0,
                            865.0
                        ]
                    ],
                    [
                        [
                            352.0,
                            69.0
                        ]
                    ],
                    [
                        [
                            332.0,
                            41.0
                        ]
                    ],
                    [
                        [
                            330.0,
                            18.0
                        ]
                    ],
                    [
                        [
                            308.0,
                            5.0
                        ]
                    ],
                    [
                        [
                            262.0,
                            0.0
                        ]
                    ],
                    [
                        [
                            46.0,
                            5.0
                        ]
                    ],
                    [
                        [
                            0.0,
                            5.0
                        ]
                    ],
                    [
                        [
                            46.0,
                            0.0
                        ]
                    ],
                    [
                        [
                            22.0,
                            13.0
                        ]
                    ],
                    [
                        [
                            3.0,
                            13.0
                        ]
                    ],
                    [
                        [
                            0.0,
                            13.0
                        ]
                    ],
                    [
                        [
                            3.0,
                            0.0
                        ]
                    ],
                    [
                        [
                            19.0,
                            0.0
                        ]
                    ],
                    [
                        [
                            2.0,
                            23.0
                        ]
                    ],
                    [
                        [
                            0.0,
                            23.0
                        ]
                    ],
                    [
                        [
                            2.0,
                            0.0
                        ]
                    ],
                    [
                        [
                            20.0,
                            28.0
                        ]
                    ],
                    [
                        [
                            0.0,
                            8.0
                        ]
                    ],
                    [
                        [
                            20.0,
                            20.0
                        ]
                    ],
                    [
                        [
                            9.0,
                            2.0
                        ]
                    ],
                    [
                        [
                            9.0,
                            1.0
                        ]
                    ],
                    [
                        [
                            9.0,
                            0.0
                        ]
                    ],
                    [
                        [
                            0.0,
                            1.0
                        ]
                    ],
                    [
                        [
                            0.0,
                            1.0
                        ]
                    ],
                    [
                        [
                            11.0,
                            18.0
                        ]
                    ],
                    [
                        [
                            11.0,
                            6.0
                        ]
                    ],
                    [
                        [
                            0.0,
                            6.0
                        ]
                    ],
                    [
                        [
                            11.0,
                            0.0
                        ]
                    ],
                    [
                        [
                            0.0,
                            12.0
                        ]
                    ],
                    [
                        [
                            453.0,
                            796.0
                        ]
                    ],
                    [
                        [
                            71.0,
                            0.0
                        ]
                    ],
                    [
                        [
                            382.0,
                            796.0
                        ]
                    ],
                    [
                        [
                            324.0,
                            796.0
                        ]
                    ],
                    [
                        [
                            68.0,
                            564.0
                        ]
                    ],
                    [
                        [
                            49.0,
                            0.0
                        ]
                    ],
                    [
                        [
                            19.0,
                            564.0
                        ]
                    ],
                    [
                        [
                            9.0,
                            528.0
                        ]
                    ],
                    [
                        [
                            2.0,
                            6.0
                        ]
                    ],
                    [
                        [
                            0.0,
                            6.0
                        ]
                    ],
                    [
                        [
                            2.0,
                            0.0
                        ]
                    ],
                    [
                        [
                            7.0,
                            522.0
                        ]
                    ],
                    [
                        [
                            3.0,
                            2.0
                        ]
                    ],
                    [
                        [
                            2.0,
                            0.0
                        ]
                    ],
                    [
                        [
                            1.0,
                            2.0
                        ]
                    ],
                    [
                        [
                            0.0,
                            2.0
                        ]
                    ],
                    [
                        [
                            1.0,
                            0.0
                        ]
                    ],
                    [
                        [
                            4.0,
                            520.0
                        ]
                    ],
                    [
                        [
                            4.0,
                            69.0
                        ]
                    ],
                    [
                        [
                            4.0,
                            0.0
                        ]
                    ],
                    [
                        [
                            0.0,
                            69.0
                        ]
                    ],
                    [
                        [
                            0.0,
                            451.0
                        ]
                    ],
                    [
                        [
                            10.0,
                            36.0
                        ]
                    ],
                    [
                        [
                            0.0,
                            36.0
                        ]
                    ],
                    [
                        [
                            10.0,
                            0.0
                        ]
                    ],
                    [
                        [
                            256.0,
                            232.0
                        ]
                    ],
                    [
                        [
                            164.0,
                            30.0
                        ]
                    ],
                    [
                        [
                            126.0,
                            0.0
                        ]
                    ],
                    [
                        [
                            38.0,
                            30.0
                        ]
                    ],
                    [
                        [
                            2.0,
                            20.0
                        ]
                    ],
                    [
                        [
                            2.0,
                            5.0
                        ]
                    ],
                    [
                        [
                            2.0,
                            1.0
                        ]
                    ],
                    [
                        [
                            0.0,
                            1.0
                        ]
                    ],
                    [
                        [
                            2.0,
                            0.0
                        ]
                    ],
                    [
                        [
                            0.0,
                            4.0
                        ]
                    ],
                    [
                        [
                            0.0,
                            15.0
                        ]
                    ],
                    [
                        [
                            36.0,
                            10.0
                        ]
                    ],
                    [
                        [
                            1.0,
                            8.0
                        ]
                    ],
                    [
                        [
                            1.0,
                            0.0
                        ]
                    ],
                    [
                        [
                            0.0,
                            8.0
                        ]
                    ],
                    [
                        [
                            35.0,
                            2.0
                        ]
                    ],
                    [
                        [
                            0.0,
                            1.0
                        ]
                    ],
                    [
                        [
                            35.0,
                            1.0
                        ]
                    ],
                    [
                        [
                            35.0,
                            0.0
                        ]
                    ],
                    [
                        [
                            0.0,
                            1.0
                        ]
                    ],
                    [
                        [
                            92.0,
                            202.0
                        ]
                    ],
                    [
                        [
                            3.0,
                            184.0
                        ]
                    ],
                    [
                        [
                            0.0,
                            104.0
                        ]
                    ],
                    [
                        [
                            3.0,
                            80.0
                        ]
                    ],
                    [
                        [
                            3.0,
                            0.0
                        ]
                    ],
                    [
                        [
                            0.0,
                            80.0
                        ]
                    ],
                    [
                        [
                            89.0,
                            18.0
                        ]
                    ],
                    [
                        [
                            72.0,
                            1.0
                        ]
                    ],
                    [
                        [
                            65.0,
                            0.0
                        ]
                    ],
                    [
                        [
                            7.0,
                            1.0
                        ]
                    ],
                    [
                        [
                            7.0,
                            0.0
                        ]
                    ],
                    [
                        [
                            0.0,
                            1.0
                        ]
                    ],
                    [
                        [
                            17.0,
                            17.0
                        ]
                    ],
                    [
                        [
                            9.0,
                            0.0
                        ]
                    ],
                    [
                        [
                            8.0,
                            17.0
                        ]
                    ],
                    [
                        [
                            5.0,
                            0.0
                        ]
                    ],
                    [
                        [
                            3.0,
                            17.0
                        ]
                    ],
                    [
                        [
                            0.0,
                            15.0
                        ]
                    ],
                    [
                        [
                            3.0,
                            2.0
                        ]
                    ],
                    [
                        [
                            3.0,
                            0.0
                        ]
                    ],
                    [
                        [
                            0.0,
                            2.0
                        ]
                    ],
                    [
                        [
                            58.0,
                            0.0
                        ]
                    ],
                    [
                        [
                            643.0,
                            235.0
                        ]
                    ],
                    [
                        [
                            16.0,
                            138.0
                        ]
                    ],
                    [
                        [
                            5.0,
                            107.0
                        ]
                    ],
                    [
                        [
                            0.0,
                            107.0
                        ]
                    ],
                    [
                        [
                            5.0,
                            0.0
                        ]
                    ],
                    [
                        [
                            11.0,
                            31.0
                        ]
                    ],
                    [
                        [
                            0.0,
                            31.0
                        ]
                    ],
                    [
                        [
                            11.0,
                            0.0
                        ]
                    ],
                    [
                        [
                            627.0,
                            97.0
                        ]
                    ],
                    [
                        [
                            577.0,
                            52.0
                        ]
                    ],
                    [
                        [
                            261.0,
                            0.0
                        ]
                    ],
                    [
                        [
                            316.0,
                            52.0
                        ]
                    ],
                    [
                        [
                            0.0,
                            38.0
                        ]
                    ],
                    [
                        [
                            316.0,
                            14.0
                        ]
                    ],
                    [
                        [
                            306.0,
                            1.0
                        ]
                    ],
                    [
                        [
                            306.0,
                            0.0
                        ]
                    ],
                    [
                        [
                            0.0,
                            1.0
                        ]
                    ],
                    [
                        [
                            10.0,
                            13.0
                        ]
                    ],
                    [
                        [
                            4.0,
                            12.0
                        ]
                    ],
                    [
                        [
                            4.0,
                            1.0
                        ]
                    ],
                    [
                        [
                            0.0,
                            1.0
                        ]
                    ],
                    [
                        [
                            4.0,
                            0.0
                        ]
                    ],
                    [
                        [
                            0.0,
                            11.0
                        ]
                    ],
                    [
                        [
                            6.0,
                            1.0
                        ]
                    ],
                    [
                        [
                            5.0,
                            0.0
                        ]
                    ],
                    [
                        [
                            1.0,
                            1.0
                        ]
                    ],
                    [
                        [
                            0.0,
                            1.0
                        ]
                    ],
                    [
                        [
                            1.0,
                            0.0
                        ]
                    ],
                    [
                        [
                            50.0,
                            45.0
                        ]
                    ],
                    [
                        [
                            0.0,
                            41.0
                        ]
                    ],
                    [
                        [
                            50.0,
                            4.0
                        ]
                    ],
                    [
                        [
                            0.0,
                            4.0
                        ]
                    ],
                    [
                        [
                            50.0,
                            0.0
                        ]
                    ]
                ]
            },
            {
                "children_left": [
                    1,
                    2,
                    3,
                    4,
                    5,
                    -1,
                    7,
                    -1,
                    9,
                    -1,
                    -1,
                    12,
                    13,
                    -1,
                    15,
                    -1,
                    -1,
                    -1,
                    19,
                    -1,
                    21,
                    -1,
                    -1,
                    24,
                    25,
                    26,
                    27,
                    28,
                    29,
                    30,
                    -1,
                    -1,
                    -1,
                    34,
                    35,
                    36,
                    -1,
                    -1,
                    39,
                    40,
                    41,
                    42,
                    -1,
                    -1,
                    45,
                    46,
                    47,
                    -1,
                    -1,
                    -1,
                    51,
                    52,
                    -1,
                    54,
                    55,
                    -1,
                    -1,
                    -1,
                    59,
                    -1,
                    -1,
                    62,
                    -1,
                    -1,
                    -1,
                    66,
                    -1,
                    -1,
                    69,
                    70,
                    71,
                    72,
                    -1,
                    -1,
                    -1,
                    -1,
                    77,
                    78,
                    -1,
                    80,
                    -1,
                    -1,
                    -1,
                    84,
                    -1,
                    -1,
                    87,
                    -1,
                    89,
                    -1,
                    91,
                    -1,
                    -1,
                    94,
                    95,
                    96,
                    -1,
                    98,
                    -1,
                    -1,
                    101,
                    102,
                    -1,
                    -1,
                    -1,
                    106,
                    107,
                    -1,
                    -1,
                    110,
                    111,
                    -1,
                    -1,
                    114,
                    -1,
                    116,
                    -1,
                    -1,
                    119,
                    120,
                    121,
                    122,
                    -1,
                    -1,
                    125,
                    -1,
                    127,
                    128,
                    129,
                    -1,
                    131,
                    -1,
                    133,
                    -1,
                    -1,
                    -1,
                    137,
                    138,
                    139,
                    -1,
                    -1,
                    -1,
                    143,
                    -1,
                    145,
                    -1,
                    -1,
                    148,
                    149,
                    150,
                    151,
                    -1,
                    153,
                    -1,
                    -1,
                    156,
                    157,
                    -1,
                    -1,
                    -1,
                    -1,
                    -1,
                    163,
                    164,
                    165,
                    -1,
                    167,
                    -1,
                    169,
                    170,
                    -1,
                    172,
                    -1,
                    -1,
                    -1,
                    176,
                    177,
                    178,
                    -1,
                    180,
                    -1,
                    182,
                    183,
                    184,
                    -1,
                    -1,
                    -1,
                    -1,
                    189,
                    190,
                    191,
                    192,
                    -1,
                    -1,
                    -1,
                    196,
                    -1,
                    198,
                    199,
                    200,
                    201,
                    -1,
                    -1,
                    -1,
                    -1,
                    206,
                    207,
                    -1,
                    -1,
                    -1,
                    -1,
                    212,
                    213,
                    -1,
                    215,
                    -1,
                    -1,
                    218,
                    219,
                    -1,
                    -1,
                    222,
                    223,
                    224,
                    225,
                    -1,
                    -1,
                    228,
                    -1,
                    230,
                    -1,
                    -1,
                    233,
                    234,
                    -1,
                    -1,
                    -1,
                    -1,
                    239,
                    240,
                    241,
                    -1,
                    243,
                    -1,
                    -1,
                    246,
                    247,
                    -1,
                    249,
                    -1,
                    251,
                    252,
                    -1,
                    254,
                    -1,
                    -1,
                    257,
                    -1,
                    -1,
                    260,
                    -1,
                    262,
                    -1,
                    -1,
                    265,
                    -1,
                    -1
                ],
                "children_right": [
                    118,
                    23,
                    18,
                    11,
                    6,
                    -1,
                    8,
                    -1,
                    10,
                    -1,
                    -1,
                    17,
                    14,
                    -1,
                    16,
                    -1,
                    -1,
                    -1,
                    20,
                    -1,
                    22,
                    -1,
                    -1,
                    93,
                    86,
                    83,
                    68,
                    33,
                    32,
                    31,
                    -1,
                    -1,
                    -1,
                    65,
                    38,
                    37,
                    -1,
                    -1,
                    64,
                    61,
                    44,
                    43,
                    -1,
                    -1,
                    50,
                    49,
                    48,
                    -1,
                    -1,
                    -1,
                    58,
                    53,
                    -1,
                    57,
                    56,
                    -1,
                    -1,
                    -1,
                    60,
                    -1,
                    -1,
                    63,
                    -1,
                    -1,
                    -1,
                    67,
                    -1,
                    -1,
                    76,
                    75,
                    74,
                    73,
                    -1,
                    -1,
                    -1,
                    -1,
                    82,
                    79,
                    -1,
                    81,
                    -1,
                    -1,
                    -1,
                    85,
                    -1,
                    -1,
                    88,
                    -1,
                    90,
                    -1,
                    92,
                    -1,
                    -1,
                    105,
                    100,
                    97,
                    -1,
                    99,
                    -1,
                    -1,
                    104,
                    103,
                    -1,
                    -1,
                    -1,
                    109,
                    108,
                    -1,
                    -1,
                    113,
                    112,
                    -1,
                    -1,
                    115,
                    -1,
                    117,
                    -1,
                    -1,
                    162,
                    147,
                    124,
                    123,
                    -1,
                    -1,
                    126,
                    -1,
                    136,
                    135,
                    130,
                    -1,
                    132,
                    -1,
                    134,
                    -1,
                    -1,
                    -1,
                    142,
                    141,
                    140,
                    -1,
                    -1,
                    -1,
                    144,
                    -1,
                    146,
                    -1,
                    -1,
                    161,
                    160,
                    155,
                    152,
                    -1,
                    154,
                    -1,
                    -1,
                    159,
                    158,
                    -1,
                    -1,
                    -1,
                    -1,
                    -1,
                    238,
                    175,
                    166,
                    -1,
                    168,
                    -1,
                    174,
                    171,
                    -1,
                    173,
                    -1,
                    -1,
                    -1,
                    211,
                    188,
                    179,
                    -1,
                    181,
                    -1,
                    187,
                    186,
                    185,
                    -1,
                    -1,
                    -1,
                    -1,
                    210,
                    195,
                    194,
                    193,
                    -1,
                    -1,
                    -1,
                    197,
                    -1,
                    205,
                    204,
                    203,
                    202,
                    -1,
                    -1,
                    -1,
                    -1,
                    209,
                    208,
                    -1,
                    -1,
                    -1,
                    -1,
                    217,
                    214,
                    -1,
                    216,
                    -1,
                    -1,
                    221,
                    220,
                    -1,
                    -1,
                    237,
                    232,
                    227,
                    226,
                    -1,
                    -1,
                    229,
                    -1,
                    231,
                    -1,
                    -1,
                    236,
                    235,
                    -1,
                    -1,
                    -1,
                    -1,
                    264,
                    245,
                    242,
                    -1,
                    244,
                    -1,
                    -1,
                    259,
                    248,
                    -1,
                    250,
                    -1,
                    256,
                    253,
                    -1,
                    255,
                    -1,
                    -1,
                    258,
                    -1,
                    -1,
                    261,
                    -1,
                    263,
                    -1,
                    -1,
                    266,
                    -1,
                    -1
                ],
                "threshold": [
                    -0.1255280002951622,
                    0.18953651189804077,
                    -0.5868949294090271,
                    -1.7397561073303223,
                    0.42560359835624695,
                    -2.0,
                    -0.3821127712726593,
                    -2.0,
                    -1.7685569524765015,
                    -2.0,
                    -2.0,
                    0.45050979778170586,
                    -0.194083534181118,
                    -2.0,
                    3.1689505577087402,
                    -2.0,
                    -2.0,
                    -2.0,
                    0.15212009102106094,
                    -2.0,
                    -0.11707160808146,
                    -2.0,
                    -2.0,
                    0.15893914550542831,
                    -0.36430108547210693,
                    1.0232722461223602,
                    0.5587155520915985,
                    0.2626989930868149,
                    0.44021157920360565,
                    -2.2094255685806274,
                    -2.0,
                    -2.0,
                    -2.0,
                    0.9821485877037048,
                    -1.0751282572746277,
                    0.30326149612665176,
                    -2.0,
                    -2.0,
                    0.6472246646881104,
                    0.7319278120994568,
                    -0.9723383784294128,
                    0.3825483783148229,
                    -2.0,
                    -2.0,
                    0.2957724332809448,
                    0.36424571089446545,
                    -1.6001482605934143,
                    -2.0,
                    -2.0,
                    -2.0,
                    1.1730669140815735,
                    0.6439811289310455,
                    -2.0,
                    -0.20883452147245407,
                    -0.9982842803001404,
                    -2.0,
                    -2.0,
                    -2.0,
                    0.5776070058345795,
                    -2.0,
                    -2.0,
                    0.36424571089446545,
                    -2.0,
                    -2.0,
                    -2.0,
                    0.8478663694113493,
                    -2.0,
                    -2.0,
                    0.3888630270957947,
                    0.023684362298808992,
                    0.510119691491127,
                    0.24933597445487976,
                    -2.0,
                    -2.0,
                    -2.0,
                    -2.0,
                    0.6464138031005859,
                    1.4276937246322632,
                    -2.0,
                    0.7375749051570892,
                    -2.0,
                    -2.0,
                    -2.0,
                    -1.0814610123634338,
                    -2.0,
                    -2.0,
                    0.27928757667541504,
                    -2.0,
                    0.4295644164085388,
                    -2.0,
                    1.1660341620445251,
                    -2.0,
                    -2.0,
                    0.16138459742069244,
                    0.2674905061721802,
                    -1.6001482605934143,
                    -2.0,
                    0.6849307119846344,
                    -2.0,
                    -2.0,
                    0.6824980676174164,
                    -0.22855565836653113,
                    -2.0,
                    -2.0,
                    -2.0,
                    -0.016072971280664206,
                    -0.8165509179234505,
                    -2.0,
                    -2.0,
                    0.9107048809528351,
                    -0.45166631042957306,
                    -2.0,
                    -2.0,
                    1.139377772808075,
                    -2.0,
                    -1.5361546277999878,
                    -2.0,
                    -2.0,
                    -0.26400016248226166,
                    1.229511320590973,
                    -0.19509047269821167,
                    0.5729396045207977,
                    -2.0,
                    -2.0,
                    -1.7323982119560242,
                    -2.0,
                    -0.19723102450370789,
                    1.6985408663749695,
                    0.6764556765556335,
                    -2.0,
                    0.34493935108184814,
                    -2.0,
                    0.723643958568573,
                    -2.0,
                    -2.0,
                    -2.0,
                    0.00934214680455625,
                    0.004672865383327007,
                    0.5223088264465332,
                    -2.0,
                    -2.0,
                    -2.0,
                    0.8809447288513184,
                    -2.0,
                    2.680183991789818,
                    -2.0,
                    -2.0,
                    0.9310670793056488,
                    1.1073512434959412,
                    1.23421710729599,
                    0.4529540240764618,
                    -2.0,
                    1.4078741073608398,
                    -2.0,
                    -2.0,
                    0.3772975206375122,
                    1.154325008392334,
                    -2.0,
                    -2.0,
                    -2.0,
                    -2.0,
                    -2.0,
                    0.7729114890098572,
                    -0.07014458999037743,
                    -0.17010129988193512,
                    -2.0,
                    -0.09401604160666466,
                    -2.0,
                    2.6974006853997707,
                    0.4834724962711334,
                    -2.0,
                    0.44276484847068787,
                    -2.0,
                    -2.0,
                    -2.0,
                    0.9244101941585541,
                    0.42284242808818817,
                    -2.492053985595703,
                    -2.0,
                    -1.3741033673286438,
                    -2.0,
                    0.50130195915699,
                    1.2474963068962097,
                    0.3146951198577881,
                    -2.0,
                    -2.0,
                    -2.0,
                    -2.0,
                    4.346692323684692,
                    -0.8942867517471313,
                    -1.3606021404266357,
                    0.8321056962013245,
                    -2.0,
                    -2.0,
                    -2.0,
                    -0.4345815032720566,
                    -2.0,
                    1.097771942615509,
                    3.2908995151519775,
                    0.1033451035618782,
                    -0.6550992131233215,
                    -2.0,
                    -2.0,
                    -2.0,
                    -2.0,
                    0.7111740112304688,
                    1.9996724724769592,
                    -2.0,
                    -2.0,
                    -2.0,
                    -2.0,
                    0.29605358839035034,
                    1.038755714893341,
                    -2.0,
                    0.4834724962711334,
                    -2.0,
                    -2.0,
                    0.9322417974472046,
                    -0.8871099054813385,
                    -2.0,
                    -2.0,
                    0.9424228966236115,
                    2.5662134885787964,
                    -1.8085936307907104,
                    -0.037542855367064476,
                    -2.0,
                    -2.0,
                    0.7506122291088104,
                    -2.0,
                    0.17433951050043106,
                    -2.0,
                    -2.0,
                    1.079846978187561,
                    -0.023503929376602173,
                    -2.0,
                    -2.0,
                    -2.0,
                    -2.0,
                    0.5415568947792053,
                    -0.12012294307351112,
                    0.7895345985889435,
                    -2.0,
                    0.14094503596425056,
                    -2.0,
                    -2.0,
                    0.30195507407188416,
                    0.2811906635761261,
                    -2.0,
                    -0.7797562479972839,
                    -2.0,
                    1.4831969141960144,
                    0.38430236279964447,
                    -2.0,
                    0.38085582852363586,
                    -2.0,
                    -2.0,
                    1.7869980931282043,
                    -2.0,
                    -2.0,
                    0.38085582852363586,
                    -2.0,
                    0.9359912574291229,
                    -2.0,
                    -2.0,
                    -0.7548432946205139,
                    -2.0,
                    -2.0
                ],
                "feature": [
                    14,
                    5,
                    9,
                    0,
                    11,
                    -2,
                    14,
                    -2,
                    9,
                    -2,
                    -2,
                    2,
                    4,
                    -2,
                    11,
                    -2,
                    -2,
                    -2,
                    5,
                    -2,
                    2,
                    -2,
                    -2,
                    1,
                    15,
                    2,
                    16,
                    5,
                    4,
                    13,
                    -2,
                    -2,
                    -2,
                    0,
                    11,
                    4,
                    -2,
                    -2,
                    7,
                    0,
                    11,
                    4,
                    -2,
                    -2,
                    5,
                    2,
                    14,
                    -2,
                    -2,
                    -2,
                    10,
                    7,
                    -2,
                    10,
                    13,
                    -2,
                    -2,
                    -2,
                    6,
                    -2,
                    -2,
                    2,
                    -2,
                    -2,
                    -2,
                    9,
                    -2,
                    -2,
                    13,
                    8,
                    11,
                    5,
                    -2,
                    -2,
                    -2,
                    -2,
                    7,
                    4,
                    -2,
                    13,
                    -2,
                    -2,
                    -2,
                    3,
                    -2,
                    -2,
                    8,
                    -2,
                    13,
                    -2,
                    8,
                    -2,
                    -2,
                    9,
                    8,
                    14,
                    -2,
                    7,
                    -2,
                    -2,
                    7,
                    15,
                    -2,
                    -2,
                    -2,
                    15,
                    16,
                    -2,
                    -2,
                    3,
                    14,
                    -2,
                    -2,
                    4,
                    -2,
                    2,
                    -2,
                    -2,
                    4,
                    9,
                    10,
                    1,
                    -2,
                    -2,
                    5,
                    -2,
                    12,
                    1,
                    8,
                    -2,
                    1,
                    -2,
                    8,
                    -2,
                    -2,
                    -2,
                    15,
                    14,
                    5,
                    -2,
                    -2,
                    -2,
                    3,
                    -2,
                    15,
                    -2,
                    -2,
                    3,
                    14,
                    11,
                    14,
                    -2,
                    8,
                    -2,
                    -2,
                    6,
                    10,
                    -2,
                    -2,
                    -2,
                    -2,
                    -2,
                    7,
                    10,
                    10,
                    -2,
                    2,
                    -2,
                    15,
                    6,
                    -2,
                    13,
                    -2,
                    -2,
                    -2,
                    3,
                    14,
                    2,
                    -2,
                    7,
                    -2,
                    12,
                    4,
                    14,
                    -2,
                    -2,
                    -2,
                    -2,
                    10,
                    9,
                    7,
                    14,
                    -2,
                    -2,
                    -2,
                    1,
                    -2,
                    9,
                    10,
                    5,
                    15,
                    -2,
                    -2,
                    -2,
                    -2,
                    13,
                    14,
                    -2,
                    -2,
                    -2,
                    -2,
                    4,
                    5,
                    -2,
                    6,
                    -2,
                    -2,
                    3,
                    12,
                    -2,
                    -2,
                    3,
                    10,
                    6,
                    2,
                    -2,
                    -2,
                    7,
                    -2,
                    11,
                    -2,
                    -2,
                    5,
                    8,
                    -2,
                    -2,
                    -2,
                    -2,
                    16,
                    10,
                    7,
                    -2,
                    9,
                    -2,
                    -2,
                    0,
                    14,
                    -2,
                    15,
                    -2,
                    11,
                    5,
                    -2,
                    14,
                    -2,
                    -2,
                    11,
                    -2,
                    -2,
                    14,
                    -2,
                    8,
                    -2,
                    -2,
                    15,
                    -2,
                    -2
                ],
                "classes_": [
                    0.0,
                    1.0
                ],
                "value": [
                    [
                        [
                            3625.0,
                            3436.0
                        ]
                    ],
                    [
                        [
                            2173.0,
                            900.0
                        ]
                    ],
                    [
                        [
                            1060.0,
                            91.0
                        ]
                    ],
                    [
                        [
                            368.0,
                            84.0
                        ]
                    ],
                    [
                        [
                            15.0,
                            46.0
                        ]
                    ],
                    [
                        [
                            0.0,
                            36.0
                        ]
                    ],
                    [
                        [
                            15.0,
                            10.0
                        ]
                    ],
                    [
                        [
                            0.0,
                            9.0
                        ]
                    ],
                    [
                        [
                            15.0,
                            1.0
                        ]
                    ],
                    [
                        [
                            0.0,
                            1.0
                        ]
                    ],
                    [
                        [
                            15.0,
                            0.0
                        ]
                    ],
                    [
                        [
                            353.0,
                            38.0
                        ]
                    ],
                    [
                        [
                            353.0,
                            23.0
                        ]
                    ],
                    [
                        [
                            0.0,
                            22.0
                        ]
                    ],
                    [
                        [
                            353.0,
                            1.0
                        ]
                    ],
                    [
                        [
                            353.0,
                            0.0
                        ]
                    ],
                    [
                        [
                            0.0,
                            1.0
                        ]
                    ],
                    [
                        [
                            0.0,
