{"scaler": {"mean": [-0.34628735306613395, 2.833133550488611, -0.47591182552045663, 140.80978748052598, 1.1653866732757507, -0.717394179294713, 86.00819005806757, 171.24682183826692, 400.14063163857685, -0.13241740546664715, 1.151401472879201, 407.9899872539312, -0.28592302789972895, 85.83412122928884, 37.61978331680999, 273.832087523016, 88.62439314544558], "scale": [1.3197300488492014, 4.1223219593286515, 1.9064460661967988, 127.780401141934, 0.6770548537099148, 1.4929419228862342, 4.569848943852259, 123.87232660837627, 25.55309024393006, 0.6244344766605912, 0.783430257596593, 21.88154331165609, 0.6079222095548773, 4.5587951364581025, 11.71882816436979, 484.415507203369, 11.64964592876041]}, "random_forest": {"n_estimators": 10, "classes": [0.0, 1.0], "trees": [{"children_left": [1, 2, 3, 4, 5, -1, -1, -1, 9, 10, 11, 12, 13, 14, 15, 16, -1, 18, -1, -1, -1, -1, -1, -1, 25, -1, -1, 28, 29, -1, 31, 32, -1, -1, -1, -1, 37, 38, 39, 40, 41, -1, 43, -1, 45, -1, -1, 48, -1, -1, 51, -1, -1, 54, -1, 56, -1, -1, 59, -1, -1, 62, 63, 64, 65, -1, 67, -1, 69, 70, -1, 72, 73, -1, -1, 76, -1, -1, -1, 80, -1, -1, 83, -1, 85, -1, -1, 88, 89, 90, 91, -1, 93, -1, -1, 96, -1, -1, 99, 100, -1, -1, -1, 104, 105, 106, -1, 108, -1, 110, 111, -1, 113, -1, -1, 116, -1, 118, -1, -1, -1, 122, 123, -1, 125, 126, -1, 128, 129, 130, -1, -1, 133, 134, -1, 136, 137, -1, -1, -1, 141, -1, -1, -1, 145, -1, 147, -1, -1, 150, 151, 152, -1, 154, 155, -1, 157, -1, -1, -1, 161, -1, -1, -1, 165, 166, -1, -1, 169, -1, 171, 172, -1, 174, -1, -1, -1], "children_right": [164, 61, 8, 7, 6, -1, -1, -1, 36, 27, 24, 23, 22, 21, 20, 17, -1, 19, -1, -1, -1, -1, -1, -1, 26, -1, -1, 35, 30, -1, 34, 33, -1, -1, -1, -1, 58, 53, 50, 47, 42, -1, 44, -1, 46, -1, -1, 49, -1, -1, 52, -1, -1, 55, -1, 57, -1, -1, 60, -1, -1, 87, 82, 79, 66, -1, 68, -1, 78, 71, -1, 75, 74, -1, -1, 77, -1, -1, -1, 81, -1, -1, 84, -1, 86, -1, -1, 103, 98, 95, 92, -1, 94, -1, -1, 97, -1, -1, 102, 101, -1, -1, -1, 121, 120, 107, -1, 109, -1, 115, 112, -1, 114, -1, -1, 117, -1, 119, -1, -1, -1, 149, 124, -1, 144, 127, -1, 143, 132, 131, -1, -1, 140, 135, -1, 139, 138, -1, -1, -1, 142, -1, -1, -1, 146, -1, 148, -1, -1, 163, 160, 153, -1, 159, 156, -1, 158, -1, -1, -1, 162, -1, -1, -1, 168, 167, -1, -1, 170, -1, 176, 173, -1, 175, -1, -1, -1], "feature": [7, 2, 7, 5, 2, -2, -2, -2, 7, 3, 4, 5, 16, 10, 14, 8, -2, 7, -2, -2, -2, -2, -2, -2, 8, -2, -2, 15, 15, -2, 6, 5, -2, -2, -2, -2, 15, 4, 9, 12, 8, -2, 3, -2, 9, -2, -2, 4, -2, -2, 3, -2, -2, 11, -2, 14, -2, -2, 13, -2, -2, 2, 1, 5, 14, -2, 1, -2, 1, 15, -2, 0, 10, -2, -2, 16, -2, -2, -2, 16, -2, -2, 15, -2, 11, -2, -2, 10, 7, 9, 5, -2, 13, -2, -2, 6, -2, -2, 4, 11, -2, -2, -2, 14, 1, 12, -2, 4, -2, 3, 15, -2, 8, -2, -2, 1, -2, 0, -2, -2, -2, 4, 7, -2, 1, 5, -2, 8, 12, 6, -2, -2, 13, 4, -2, 1, 8, -2, -2, -2, 15, -2, -2, -2, 5, -2, 0, -2, -2, 15, 6, 9, -2, 0, 6, -2, 5, -2, -2, -2, 4, -2, -2, -2, 3, 5, -2, -2, 6, -2, 9, 8, -2, 15, -2, -2, -2], "threshold": [0.7863191366195679, -0.029420279432088137, -1.2993363738059998, -0.4404764920473099, -0.14744092524051666, -2.0, -2.0, -2.0, 0.6942888498306274, 0.9386432766914368, 0.36129026859998703, 0.45275986194610596, 0.5172351896762848, 1.2108270525932312, 0.03756490536034107, 0.5012845098972321, -2.0, 0.6934815645217896, -2.0, -2.0, -2.0, -2.0, -2.0, -2.0, 0.16473031044006348, -2.0, -2.0, -0.36173921823501587, -0.4661949872970581, -2.0, -2.0543763637542725, 0.2825924977660179, -2.0, -2.0, -2.0, -2.0, 0.020370761398226023, 0.8486953973770142, 2.061733365058899, 0.9424281716346741, 0.9963322579860687, -2.0, 0.9464691877365112, -2.0, 0.5211393982172012, -2.0, -2.0, -0.4924072064459324, -2.0, -2.0, 0.9382519721984863, -2.0, -2.0, 1.0629969239234924, -2.0, 0.31702970713377, -2.0, -2.0, -0.7445215433835983, -2.0, -2.0, 0.1533019095659256, 2.818039655685425, 1.3278440833091736, -0.967228353023529, -2.0, -5.177454233169556, -2.0, -0.6462701559066772, -0.07293756259605289, -2.0, 1.179246723651886, -0.10390392132103443, -2.0, -2.0, 0.5301111042499542, -2.0, -2.0, -2.0, -0.9291607588529587, -2.0, -2.0, -0.07293756259605289, -2.0, 0.9715956673026085, -2.0, -2.0, -0.17410799115896225, 0.6547320187091827, 0.08970901928842068, 0.2966586798429489, -2.0, 0.2853558287024498, -2.0, -2.0, 0.38005849719047546, -2.0, -2.0, -2.3194379806518555, -0.24175569415092468, -2.0, -2.0, -2.0, 0.44673551619052887, 0.41284172236919403, -1.6269795298576355, -2.0, 0.13974248245358467, -2.0, -1.0483202934265137, -0.6629991829395294, -2.0, 1.3915877938270569, -2.0, -2.0, -0.22636114805936813, -2.0, -0.2706709951162338, -2.0, -2.0, -2.0, 0.294825941324234, 0.713663637638092, -2.0, 0.8434243053197861, -1.3155942503362894, -2.0, 1.3700639605522156, -0.8020384311676025, -1.709726095199585, -2.0, -2.0, 0.4860667437314987, 0.28005608916282654, -2.0, -0.43328337371349335, 0.37996847182512283, -2.0, -2.0, -2.0, -0.25682928785681725, -2.0, -2.0, -2.0, 0.7715599238872528, -2.0, -0.35591569542884827, -2.0, -2.0, 0.1249297559261322, 1.03762948513031, 1.2994436621665955, -2.0, 1.4027772545814514, 0.7400266528129578, -2.0, 1.0210673213005066, -2.0, -2.0, -2.0, 4.038983464241028, -2.0, -2.0, -2.0, -1.0642459988594055, 0.21025210618972778, -2.0, -2.0, -2.2108367681503296, -2.0, -0.32682788372039795, 0.7008689939975739, -2.0, 0.05938684940338135, -2.0, -2.0, -2.0], "value": [[[3600.0, 3461.0]], [[3011.0, 3443.0]], [[2360.0, 1062.0]], [[1316.0, 1.0]], [[22.0, 1.0]], [[22.0, 0.0]], [[0.0, 1.0]], [[1294.0, 0.0]], [[1044.0, 1061.0]], [[652.0, 1030.0]], [[12.0, 609.0]], [[3.0, 583.0]], [[3.0, 203.0]], [[3.0, 64.0]], [[2.0, 64.0]], [[2.0, 10.0]], [[0.0, 9.0]], [[2.0, 1.0]], [[0.0, 1.0]], [[2.0, 0.0]], [[0.0, 54.0]], [[1.0, 0.0]], [[0.0, 139.0]], [[0.0, 380.0]], [[9.0, 26.0]], [[9.0, 0.0]], [[0.0, 26.0]], [[640.0, 421.0]], [[640.0, 121.0]], [[0.0, 117.0]], [[640.0, 4.0]], [[5.0, 4.0]], [[0.0, 4.0]], [[5.0, 0.0]], [[635.0, 0.0]], [[0.0, 300.0]], [[392.0, 31.0]], [[389.0, 9.0]], [[381.0, 5.0]], [[379.0, 2.0]], [[378.0, 1.0]], [[339.0, 0.0]], [[39.0, 1.0]], [[32.0, 0.0]], [[7.0, 1.0]], [[7.0, 0.0]], [[0.0, 1.0]], [[1.0, 1.0]], [[0.0, 1.0]], [[1.0, 0.0]], [[2.0, 3.0]], [[2.0, 0.0]], [[0.0, 3.0]], [[8.0, 4.0]], [[4.0, 0.0]], [[4.0, 4.0]], [[0.0, 4.0]], [[4.0, 0.0]], [[3.0, 22.0]], [[3.0, 0.0]], [[0.0, 22.0]], [[651.0, 2381.0]], [[68.0, 1147.0]], [[37.0, 1132.0]], [[29.0, 1130.0]], [[14.0, 0.0]], [[15.0, 1130.0]], [[2.0, 0.0]], [[13.0, 1130.0]], [[13.0, 153.0]], [[0.0, 98.0]], [[13.0, 55.0]], [[5.0, 52.0]], [[0.0, 52.0]], [[5.0, 0.0]], [[8.0, 3.0]], [[8.0, 0.0]], [[0.0, 3.0]], [[0.0, 977.0]], [[8.0, 2.0]], [[0.0, 2.0]], [[8.0, 0.0]], [[31.0, 15.0]], [[0.0, 11.0]], [[31.0, 4.0]], [[31.0, 0.0]], [[0.0, 4.0]], [[583.0, 1234.0]], [[38.0, 541.0]], [[35.0, 100.0]], [[2.0, 98.0]], [[0.0, 95.0]], [[2.0, 3.0]], [[0.0, 3.0]], [[2.0, 0.0]], [[33.0, 2.0]], [[0.0, 2.0]], [[33.0, 0.0]], [[3.0, 441.0]], [[3.0, 4.0]], [[0.0, 4.0]], [[3.0, 0.0]], [[0.0, 437.0]], [[545.0, 693.0]], [[47.0, 469.0]], [[34.0, 469.0]], [[3.0, 0.0]], [[31.0, 469.0]], [[0.0, 305.0]], [[31.0, 164.0]], [[27.0, 69.0]], [[0.0, 53.0]], [[27.0, 16.0]], [[27.0, 0.0]], [[0.0, 16.0]], [[4.0, 95.0]], [[0.0, 69.0]], [[4.0, 26.0]], [[4.0, 0.0]], [[0.0, 26.0]], [[13.0, 0.0]], [[498.0, 224.0]], [[466.0, 68.0]], [[237.0, 0.0]], [[229.0, 68.0]], [[227.0, 40.0]], [[0.0, 22.0]], [[227.0, 18.0]], [[227.0, 7.0]], [[3.0, 3.0]], [[0.0, 3.0]], [[3.0, 0.0]], [[224.0, 4.0]], [[201.0, 1.0]], [[122.0, 0.0]], [[79.0, 1.0]], [[19.0, 1.0]], [[19.0, 0.0]], [[0.0, 1.0]], [[60.0, 0.0]], [[23.0, 3.0]], [[23.0, 0.0]], [[0.0, 3.0]], [[0.0, 11.0]], [[2.0, 28.0]], [[0.0, 22.0]], [[2.0, 6.0]], [[2.0, 0.0]], [[0.0, 6.0]], [[32.0, 156.0]], [[8.0, 156.0]], [[4.0, 155.0]], [[0.0, 128.0]], [[4.0, 27.0]], [[2.0, 27.0]], [[0.0, 21.0]], [[2.0, 6.0]], [[2.0, 0.0]], [[0.0, 6.0]], [[2.0, 0.0]], [[4.0, 1.0]], [[4.0, 0.0]], [[0.0, 1.0]], [[24.0, 0.0]], [[589.0, 18.0]], [[17.0, 16.0]], [[17.0, 0.0]], [[0.0, 16.0]], [[572.0, 2.0]], [[0.0, 1.0]], [[572.0, 1.0]], [[139.0, 1.0]], [[135.0, 0.0]], [[4.0, 1.0]], [[0.0, 1.0]], [[4.0, 0.0]], [[433.0, 0.0]]]}, {"children_left": [1, 2, 3, 4, 5, 6, -1, 8, -1, -1, 11, -1, -1, 14, 15, -1, 17, 18, -1, 20, 21, -1, -1, -1, -1, 26, -1, 28, -1, -1, -1, 32, 33, 34, -1, -1, 37, 38, 39, -1, 41, -1, -1, -1, 45, 46, 47, 48, -1, -1, 51, -1, -1, -1, 55, 56, 57, -1, -1, 60, -1, 62, 63, -1, -1, -1, 67, -1, -1, 70, 71, 72, -1, -1, 75, 76, 77, -1, -1, 80, 81, 82, 83, 84, -1, -1, -1, -1, 89, 90, -1, -1, 93, 94, -1, 96, -1, -1, 99, -1, -1, -1, 103, -1, -1, 106, 107, 108, 109, -1, -1, -1, 113, 114, -1, 116, -1, -1, 119, -1, -1, 122, -1, -1, 125, 126, 127, -1, 129, -1, -1, 132, 133, 134, 135, 136, 137, -1, -1, -1, -1, -1, 143, 144, -1, 146, -1, 148, -1, 150, -1, -1, 153, -1, -1, 156, 157, -1, 159, 160, -1, 162, -1, 164, 165, 166, -1, -1, -1, -1, 171, -1, 173, -1, 175, -1, 177, -1, -1, 180, 181, 182, -1, -1, 185, 186, -1, -1, 189, 190, -1, 192, 193, -1, -1, -1, 197, -1, -1, 200, 201, 202, 203, 204, -1, -1, -1, 208, -1, 210, -1, 212, -1, 214, 215, -1, -1, -1, 219, 220, -1, 222, 223, -1, -1, -1, -1, 228, 229, 230, -1, 232, -1, 234, -1, -1, -1, 238, 239, -1, -1, 242, -1, -1, 245, 246, -1, -1, -1], "children_right": [124, 31, 30, 13, 10, 7, -1, 9, -1, -1, 12, -1, -1, 25, 16, -1, 24, 19, -1, 23, 22, -1, -1, -1, -1, 27, -1, 29, -1, -1, -1, 69, 36, 35, -1, -1, 44, 43, 40, -1, 42, -1, -1, -1, 54, 53, 50, 49, -1, -1, 52, -1, -1, -1, 66, 59, 58, -1, -1, 61, -1, 65, 64, -1, -1, -1, 68, -1, -1, 105, 74, 73, -1, -1, 102, 79, 78, -1, -1, 101, 88, 87, 86, 85, -1, -1, -1, -1, 92, 91, -1, -1, 98, 95, -1, 97, -1, -1, 100, -1, -1, -1, 104, -1, -1, 121, 112, 111, 110, -1, -1, -1, 118, 115, -1, 117, -1, -1, 120, -1, -1, 123, -1, -1, 244, 131, 128, -1, 130, -1, -1, 155, 142, 141, 140, 139, 138, -1, -1, -1, -1, -1, 152, 145, -1, 147, -1, 149, -1, 151, -1, -1, 154, -1, -1, 179, 158, -1, 170, 161, -1, 163, -1, 169, 168, 167, -1, -1, -1, -1, 172, -1, 174, -1, 176, -1, 178, -1, -1, 199, 184, 183, -1, -1, 188, 187, -1, -1, 196, 191, -1, 195, 194, -1, -1, -1, 198, -1, -1, 227, 218, 207, 206, 205, -1, -1, -1, 209, -1, 211, -1, 213, -1, 217, 216, -1, -1, -1, 226, 221, -1, 225, 224, -1, -1, -1, -1, 237, 236, 231, -1, 233, -1, 235, -1, -1, -1, 241, 240, -1, -1, 243, -1, -1, 248, 247, -1, -1, -1], "feature": [2, 2, 15, 5, 7, 5, -2, 10, -2, -2, 1, -2, -2, 4, 7, -2, 4, 5, -2, 14, 12, -2, -2, -2, -2, 14, -2, 7, -2, -2, -2, 16, 1, 14, -2, -2, 3, 15, 15, -2, 2, -2, -2, -2, 10, 15, 13, 5, -2, -2, 14, -2, -2, -2, 0, 11, 15, -2, -2, 13, -2, 8, 8, -2, -2, -2, 14, -2, -2, 10, 14, 5, -2, -2, 1, 7, 3, -2, -2, 4, 9, 5, 11, 6, -2, -2, -2, -2, 9, 1, -2, -2, 1, 10, -2, 13, -2, -2, 3, -2, -2, -2, 0, -2, -2, 10, 12, 9, 0, -2, -2, -2, 0, 9, -2, 0, -2, -2, 1, -2, -2, 8, -2, -2, 15, 7, 0, -2, 14, -2, -2, 12, 5, 15, 14, 10, 10, -2, -2, -2, -2, -2, 4, 0, -2, 14, -2, 9, -2, 3, -2, -2, 12, -2, -2, 4, 14, -2, 0, 15, -2, 15, -2, 10, 5, 10, -2, -2, -2, -2, 10, -2, 15, -2, 12, -2, 5, -2, -2, 10, 4, 12, -2, -2, 7, 1, -2, -2, 12, 3, -2, 5, 5, -2, -2, -2, 8, -2, -2, 6, 4, 14, 5, 15, -2, -2, -2, 13, -2, 5, -2, 16, -2, 6, 9, -2, -2, -2, 6, 5, -2, 15, 5, -2, -2, -2, -2, 10, 9, 13, -2, 5, -2, 12, -2, -2, -2, 9, 3, -2, -2, 7, -2, -2, 1, 12, -2, -2, -2], "threshold": [-0.029420279432088137, -0.6363086700439453, 0.38988825865089893, 0.5057425200939178, 0.6942888498306274, 0.34522050619125366, -2.0, 1.2108270525932312, -2.0, -2.0, 0.08050473779439926, -2.0, -2.0, 0.30221085995435715, 0.6942888498306274, -2.0, -1.1895442008972168, 0.5742984116077423, -2.0, 0.20311046577990055, 0.23674579709768295, -2.0, -2.0, -2.0, -2.0, 0.2884432300925255, -2.0, 0.6959034204483032, -2.0, -2.0, -2.0, 0.542987048625946, -0.24819350987672806, -0.16979371011257172, -2.0, -2.0, 0.9480343759059906, 0.44882524013519287, -0.3260260820388794, -2.0, -0.04909038729965687, -2.0, -2.0, -2.0, -0.11028610914945602, -0.36974887549877167, 0.39174358546733856, 0.26919612288475037, -2.0, -2.0, -1.6336773037910461, -2.0, -2.0, -2.0, 0.7344588041305542, -0.9775355458259583, -0.4581543803215027, -2.0, -2.0, 0.6593581438064575, -2.0, -0.38706205785274506, -0.4594603478908539, -2.0, -2.0, -2.0, -0.3946455717086792, -2.0, -2.0, -0.09752172976732254, -1.2228000164031982, 0.2966586798429489, -2.0, -2.0, 0.10112418606877327, -1.2996996641159058, -1.0871369242668152, -2.0, -2.0, 0.8413104712963104, 0.4276948422193527, 0.24742703139781952, -0.2600359246134758, 0.19296260178089142, -2.0, -2.0, -2.0, -2.0, 0.5347517132759094, -0.33552293479442596, -2.0, -2.0, 0.0028785839676856995, -0.11028610914945602, -2.0, 0.35225947201251984, -2.0, -2.0, -0.05000600218772888, -2.0, -2.0, -2.0, -0.06987235337146558, -2.0, -2.0, 5.308192491531372, -0.5059479176998138, 0.11749416217207909, -0.46843872871249914, -2.0, -2.0, -2.0, 0.9057059288024902, 1.8855739831924438, -2.0, -0.14072017278522253, -2.0, -2.0, 0.03441420570015907, -2.0, -2.0, 3.0117441415786743, -2.0, -2.0, 0.8566363155841827, 0.6038731932640076, 1.3156383037567139, -2.0, -0.1326739564538002, -2.0, -2.0, -0.8563216924667358, 0.36631980538368225, 0.06588953360915184, 0.0584714338183403, -0.2009131908416748, -0.25324714183807373, -2.0, -2.0, -2.0, -2.0, -2.0, 0.05112337227910757, -1.6205682754516602, -2.0, -0.4155520796775818, -2.0, 0.9319110810756683, -2.0, 0.9476430714130402, -2.0, -2.0, -5.040245294570923, -2.0, -2.0, 0.10281785577535629, -0.8622691035270691, -2.0, 1.179246723651886, -0.6378864347934723, -2.0, -0.41124218702316284, -2.0, -0.05922859348356724, 0.2892906814813614, -0.17410799115896225, -2.0, -2.0, -2.0, -2.0, -0.17410799115896225, -2.0, -0.01905819959938526, -2.0, 0.10843990370631218, -2.0, 0.8006970286369324, -2.0, -2.0, -0.05922859348356724, 0.13974248245358467, -0.20245513692498207, -2.0, -2.0, 0.6418154835700989, -0.4519621729850769, -2.0, -2.0, 1.5304968357086182, 0.9480343759059906, -2.0, 0.6513275504112244, 0.5144166648387909, -2.0, -2.0, -2.0, 0.8065313398838043, -2.0, -2.0, 0.6196725368499756, 0.3391354978084564, 0.3865759074687958, 0.07327423803508282, -0.6629991829395294, -2.0, -2.0, -2.0, 0.39174358546733856, -2.0, -1.421760469675064, -2.0, 0.4485635906457901, -2.0, 0.3931880295276642, -0.34444381296634674, -2.0, -2.0, -2.0, 0.4468003064393997, -0.28641825914382935, -2.0, -0.5220664590597153, 0.10375097766518593, -2.0, -2.0, -2.0, -2.0, 1.9894541501998901, 1.1328929364681244, 0.6999390423297882, -2.0, -1.461949571967125, -2.0, 1.7945109605789185, -2.0, -2.0, -2.0, 2.205863833427429, 0.9672078788280487, -2.0, -2.0, 0.7471658885478973, -2.0, -2.0, -0.15479953959584236, -0.9836405515670776, -2.0, -2.0, -2.0], "value": [[[3661.0, 3400.0]], [[2666.0, 993.0]], [[298.0, 418.0]], [[140.0, 418.0]], [[110.0, 60.0]], [[2.0, 57.0]], [[1.0, 0.0]], [[1.0, 57.0]], [[0.0, 57.0]], [[1.0, 0.0]], [[108.0, 3.0]], [[0.0, 3.0]], [[108.0, 0.0]], [[30.0, 358.0]], [[14.0, 317.0]], [[0.0, 301.0]], [[14.0, 16.0]], [[14.0, 5.0]], [[0.0, 4.0]], [[14.0, 1.0]], [[3.0, 1.0]], [[3.0, 0.0]], [[0.0, 1.0]], [[11.0, 0.0]], [[0.0, 11.0]], [[16.0, 41.0]], [[0.0, 37.0]], [[16.0, 4.0]], [[0.0, 4.0]], [[16.0, 0.0]], [[158.0, 0.0]], [[2368.0, 575.0]], [[2011.0, 333.0]], [[10.0, 75.0]], [[10.0, 0.0]], [[0.0, 75.0]], [[2001.0, 258.0]], [[1474.0, 35.0]], [[1474.0, 20.0]], [[1023.0, 0.0]], [[451.0, 20.0]], [[451.0, 0.0]], [[0.0, 20.0]], [[0.0, 15.0]], [[527.0, 223.0]], [[247.0, 213.0]], [[247.0, 22.0]], [[73.0, 20.0]], [[0.0, 20.0]], [[73.0, 0.0]], [[174.0, 2.0]], [[0.0, 2.0]], [[174.0, 0.0]], [[0.0, 191.0]], [[280.0, 10.0]], [[277.0, 7.0]], [[13.0, 6.0]], [[0.0, 6.0]], [[13.0, 0.0]], [[264.0, 1.0]], [[227.0, 0.0]], [[37.0, 1.0]], [[2.0, 1.0]], [[2.0, 0.0]], [[0.0, 1.0]], [[35.0, 0.0]], [[3.0, 3.0]], [[0.0, 3.0]], [[3.0, 0.0]], [[357.0, 242.0]], [[121.0, 233.0]], [[54.0, 12.0]], [[0.0, 12.0]], [[54.0, 0.0]], [[67.0, 221.0]], [[27.0, 220.0]], [[12.0, 3.0]], [[0.0, 3.0]], [[12.0, 0.0]], [[15.0, 217.0]], [[11.0, 217.0]], [[2.0, 156.0]], [[2.0, 52.0]], [[2.0, 3.0]], [[0.0, 3.0]], [[2.0, 0.0]], [[0.0, 49.0]], [[0.0, 104.0]], [[9.0, 61.0]], [[5.0, 2.0]], [[0.0, 2.0]], [[5.0, 0.0]], [[4.0, 59.0]], [[2.0, 58.0]], [[0.0, 36.0]], [[2.0, 22.0]], [[0.0, 22.0]], [[2.0, 0.0]], [[2.0, 1.0]], [[0.0, 1.0]], [[2.0, 0.0]], [[4.0, 0.0]], [[40.0, 1.0]], [[0.0, 1.0]], [[40.0, 0.0]], [[236.0, 9.0]], [[234.0, 5.0]], [[3.0, 2.0]], [[1.0, 2.0]], [[1.0, 0.0]], [[0.0, 2.0]], [[2.0, 0.0]], [[231.0, 3.0]], [[230.0, 2.0]], [[228.0, 0.0]], [[2.0, 2.0]], [[2.0, 0.0]], [[0.0, 2.0]], [[1.0, 1.0]], [[0.0, 1.0]], [[1.0, 0.0]], [[2.0, 4.0]], [[0.0, 4.0]], [[2.0, 0.0]], [[995.0, 2407.0]], [[696.0, 2401.0]], [[1.0, 1031.0]], [[0.0, 1019.0]], [[1.0, 12.0]], [[1.0, 0.0]], [[0.0, 12.0]], [[695.0, 1370.0]], [[266.0, 204.0]], [[242.0, 99.0]], [[20.0, 99.0]], [[20.0, 3.0]], [[2.0, 3.0]], [[2.0, 0.0]], [[0.0, 3.0]], [[18.0, 0.0]], [[0.0, 96.0]], [[222.0, 0.0]], [[24.0, 105.0]], [[22.0, 24.0]], [[12.0, 0.0]], [[10.0, 24.0]], [[7.0, 0.0]], [[3.0, 24.0]], [[0.0, 23.0]], [[3.0, 1.0]], [[3.0, 0.0]], [[0.0, 1.0]], [[2.0, 81.0]], [[2.0, 0.0]], [[0.0, 81.0]], [[429.0, 1166.0]], [[81.0, 627.0]], [[8.0, 0.0]], [[73.0, 627.0]], [[36.0, 543.0]], [[0.0, 310.0]], [[36.0, 233.0]], [[25.0, 0.0]], [[11.0, 233.0]], [[1.0, 233.0]], [[1.0, 56.0]], [[0.0, 56.0]], [[1.0, 0.0]], [[0.0, 177.0]], [[10.0, 0.0]], [[37.0, 84.0]], [[0.0, 68.0]], [[37.0, 16.0]], [[0.0, 14.0]], [[37.0, 2.0]], [[32.0, 0.0]], [[5.0, 2.0]], [[5.0, 0.0]], [[0.0, 2.0]], [[348.0, 539.0]], [[49.0, 376.0]], [[29.0, 16.0]], [[29.0, 0.0]], [[0.0, 16.0]], [[20.0, 360.0]], [[12.0, 3.0]], [[0.0, 3.0]], [[12.0, 0.0]], [[8.0, 357.0]], [[5.0, 349.0]], [[0.0, 265.0]], [[5.0, 84.0]], [[5.0, 3.0]], [[0.0, 3.0]], [[5.0, 0.0]], [[0.0, 81.0]], [[3.0, 8.0]], [[0.0, 8.0]], [[3.0, 0.0]], [[299.0, 163.0]], [[284.0, 96.0]], [[279.0, 68.0]], [[17.0, 65.0]], [[17.0, 10.0]], [[0.0, 10.0]], [[17.0, 0.0]], [[0.0, 55.0]], [[262.0, 3.0]], [[160.0, 0.0]], [[102.0, 3.0]], [[0.0, 1.0]], [[102.0, 2.0]], [[62.0, 0.0]], [[40.0, 2.0]], [[8.0, 2.0]], [[8.0, 0.0]], [[0.0, 2.0]], [[32.0, 0.0]], [[5.0, 28.0]], [[5.0, 8.0]], [[4.0, 0.0]], [[1.0, 8.0]], [[1.0, 2.0]], [[0.0, 2.0]], [[1.0, 0.0]], [[0.0, 6.0]], [[0.0, 20.0]], [[15.0, 67.0]], [[11.0, 14.0]], [[6.0, 14.0]], [[0.0, 10.0]], [[6.0, 4.0]], [[0.0, 3.0]], [[6.0, 1.0]], [[6.0, 0.0]], [[0.0, 1.0]], [[5.0, 0.0]], [[4.0, 53.0]], [[1.0, 51.0]], [[0.0, 51.0]], [[1.0, 0.0]], [[3.0, 2.0]], [[3.0, 0.0]], [[0.0, 2.0]], [[299.0, 6.0]], [[72.0, 6.0]], [[0.0, 6.0]], [[72.0, 0.0]], [[227.0, 0.0]]]}, {"children_left": [1, -1, 3, 4, 5, 6, 7, -1, -1, -1, 11, 12, 13, -1, -1, 16, -1, 18, 19, -1, -1, -1, 23, 24, 25, 26, 27, -1, -1, -1, 31, 32, -1, -1, -1, 36, -1, -1, 39, 40, -1, 42, -1, -1, 45, 46, 47, -1, -1, -1, 51, -1, -1, 54, 55, 56, 57, 58, -1, 60, 61, 62, -1, 64, 65, 66, -1, -1, 69, -1, 71, -1, -1, 74, -1, -1, 77, 78, -1, 80, 81, -1, 83, -1, -1, -1, 87, 88, -1, -1, 91, 92, 93, -1, -1, -1, 97, 98, -1, 100, 101, -1, 103, -1, -1, -1, -1, 108, -1, 110, 111, -1, -1, -1, 115, 116, 117, -1, -1, -1, 121, -1, -1, 124, 125, 126, -1, 128, -1, -1, 131, 132, 133, -1, -1, 136, -1, 138, -1, -1, -1, -1, 143, 144, -1, 146, 147, 148, -1, -1, 151, -1, 153, -1, -1, 156, -1, 158, -1, -1, 161, -1, 163, 164, -1, -1, -1, 168, 169, 170, -1, -1, 173, 174, -1, 176, -1, -1, -1, -1, 181, 182, -1, 184, -1, 186, -1, 188, 189, 190, -1, -1, 193, -1, -1, 196, 197, 198, -1, 200, -1, -1, 203, 204, 205, -1, -1, -1, 209, -1, -1, -1, 213, 214, 215, -1, 217, -1, 219, 220, 221, 222, 223, 224, -1, -1, -1, 228, -1, -1, 231, -1, 233, -1, -1, -1, 237, -1, 239, -1, -1, -1, 243, -1, 245, -1, -1], "children_right": [2, -1, 180, 53, 10, 9, 8, -1, -1, -1, 22, 15, 14, -1, -1, 17, -1, 21, 20, -1, -1, -1, 38, 35, 30, 29, 28, -1, -1, -1, 34, 33, -1, -1, -1, 37, -1, -1, 44, 41, -1, 43, -1, -1, 50, 49, 48, -1, -1, -1, 52, -1, -1, 167, 142, 123, 114, 59, -1, 107, 76, 63, -1, 73, 68, 67, -1, -1, 70, -1, 72, -1, -1, 75, -1, -1, 86, 79, -1, 85, 82, -1, 84, -1, -1, -1, 90, 89, -1, -1, 96, 95, 94, -1, -1, -1, 106, 99, -1, 105, 102, -1, 104, -1, -1, -1, -1, 109, -1, 113, 112, -1, -1, -1, 120, 119, 118, -1, -1, -1, 122, -1, -1, 141, 130, 127, -1, 129, -1, -1, 140, 135, 134, -1, -1, 137, -1, 139, -1, -1, -1, -1, 160, 145, -1, 155, 150, 149, -1, -1, 152, -1, 154, -1, -1, 157, -1, 159, -1, -1, 162, -1, 166, 165, -1, -1, -1, 179, 172, 171, -1, -1, 178, 175, -1, 177, -1, -1, -1, -1, 212, 183, -1, 185, -1, 187, -1, 195, 192, 191, -1, -1, 194, -1, -1, 211, 202, 199, -1, 201, -1, -1, 208, 207, 206, -1, -1, -1, 210, -1, -1, -1, 242, 241, 216, -1, 218, -1, 236, 235, 230, 227, 226, 225, -1, -1, -1, 229, -1, -1, 232, -1, 234, -1, -1, -1, 238, -1, 240, -1, -1, -1, 244, -1, 246, -1, -1], "feature": [10, -2, 4, 8, 2, 5, 10, -2, -2, -2, 15, 14, 15, -2, -2, 7, -2, 0, 3, -2, -2, -2, 0, 7, 14, 5, 5, -2, -2, -2, 15, 5, -2, -2, -2, 15, -2, -2, 5, 0, -2, 15, -2, -2, 2, 13, 11, -2, -2, -2, 15, -2, -2, 0, 6, 15, 3, 7, -2, 10, 4, 4, -2, 0, 14, 7, -2, -2, 5, -2, 4, -2, -2, 15, -2, -2, 9, 15, -2, 12, 5, -2, 16, -2, -2, -2, 12, 15, -2, -2, 14, 9, 1, -2, -2, -2, 4, 13, -2, 8, 11, -2, 5, -2, -2, -2, -2, 7, -2, 12, 0, -2, -2, -2, 11, 8, 14, -2, -2, -2, 10, -2, -2, 7, 3, 13, -2, 4, -2, -2, 15, 12, 5, -2, -2, 2, -2, 0, -2, -2, -2, -2, 8, 7, -2, 16, 12, 5, -2, -2, 4, -2, 9, -2, -2, 10, -2, 13, -2, -2, 13, -2, 2, 6, -2, -2, -2, 2, 10, 2, -2, -2, 4, 15, -2, 15, -2, -2, -2, -2, 15, 0, -2, 2, -2, 10, -2, 6, 13, 11, -2, -2, 1, -2, -2, 15, 0, 4, -2, 3, -2, -2, 0, 1, 6, -2, -2, -2, 14, -2, -2, -2, 0, 14, 2, -2, 4, -2, 7, 15, 15, 14, 8, 4, -2, -2, -2, 14, -2, -2, 3, -2, 7, -2, -2, -2, 13, -2, 15, -2, -2, -2, 9, -2, 15, -2, -2], "threshold": [-0.32791875302791595, -2.0, 0.47206416726112366, -0.04659442789852619, -0.1414087563753128, 0.4708784520626068, 1.070418894290924, -2.0, -2.0, -2.0, -0.3777998089790344, -1.0858409404754639, -0.44209378957748413, -2.0, -2.0, 0.7818790674209595, -2.0, 0.13888245820999146, -1.0392813086509705, -2.0, -2.0, -2.0, 0.7102114260196686, 0.7786499261856079, 0.828599601984024, -0.25962551683187485, -0.2931164354085922, -2.0, -2.0, -2.0, 0.05835467949509621, 0.22833719477057457, -2.0, -2.0, -2.0, -0.180696289986372, -2.0, -2.0, 0.07628842070698738, 1.6073645949363708, -2.0, 0.06588953360915184, -2.0, -2.0, 0.12786190398037434, -0.4637456238269806, -2.188601851463318, -2.0, -2.0, -2.0, 0.05835467949509621, -2.0, -2.0, 1.073164463043213, 0.8341216444969177, 0.022435104474425316, 0.9488169550895691, 0.6357608735561371, -2.0, 0.885335385799408, 0.11020278185606003, -0.044880665838718414, -2.0, 0.09417633712291718, 0.3865759074687958, 0.7068017721176147, -2.0, -2.0, 0.5981439650058746, -2.0, 0.028968594036996365, -2.0, -2.0, -0.6378864347934723, -2.0, -2.0, -0.6367082595825195, -0.7718210518360138, -2.0, 1.8578413724899292, -1.5624223351478577, -2.0, 0.4957752972841263, -2.0, -2.0, -2.0, -0.06674697995185852, -0.07293756259605289, -2.0, -2.0, 0.3865759074687958, -0.5198024809360504, -0.1645028106868267, -2.0, -2.0, -2.0, 0.30221086740493774, 0.39174358546733856, -2.0, 0.5502022802829742, 0.6265560388565063, -2.0, 0.3358430564403534, -2.0, -2.0, -2.0, -2.0, 0.692674309015274, -2.0, -0.4409724920988083, -0.1240500956773758, -2.0, -2.0, -2.0, 1.1201226711273193, 0.05319780670106411, -1.332452654838562, -2.0, -2.0, -2.0, -0.07199297286570072, -2.0, -2.0, 0.7798608541488647, -1.0649895071983337, 0.6999390423297882, -2.0, -0.7494025826454163, -2.0, -2.0, 0.983180582523346, -1.7914742231369019, 0.9108821451663971, -2.0, -2.0, 0.43925281800329685, -2.0, -1.8137896060943604, -2.0, -2.0, -2.0, -2.0, 1.3544102907180786, -1.284643828868866, -2.0, 0.542987048625946, -0.107870664447546, 0.4386601895093918, -2.0, -2.0, -1.1659124493598938, -2.0, 0.8159661740064621, -2.0, -2.0, -0.17410799860954285, -2.0, 1.0892963409423828, -2.0, -2.0, 1.188006579875946, -2.0, 0.3380173295736313, 1.2345725297927856, -2.0, -2.0, -2.0, 1.065286785364151, -0.17410799115896225, -0.0894796741195023, -2.0, -2.0, 0.3169807195663452, 0.04751687869429588, -2.0, 0.1171884685754776, -2.0, -2.0, -2.0, -2.0, -0.3260260820388794, -0.10738002508878708, -2.0, -0.10626483336091042, -2.0, -0.14857923984527588, -2.0, 0.32644622027873993, 0.35225947201251984, 0.7659429162740707, -2.0, -2.0, -0.21665788441896439, -2.0, -2.0, -0.4581543803215027, 0.013478022068738937, 2.547228455543518, -2.0, -1.041472613811493, -2.0, -2.0, 1.1493164002895355, -0.4192136228084564, 0.9829230606555939, -2.0, -2.0, -2.0, -0.6881902739405632, -2.0, -2.0, -2.0, 1.478550374507904, 2.1990438103675842, -2.517295479774475, -2.0, 1.2253265976905823, -2.0, 0.7564496397972107, 0.020370761398226023, 0.008810437517240644, 0.828599601984024, 2.121440887451172, 4.34915018081665, -2.0, -2.0, -2.0, 0.9386788904666901, -2.0, -2.0, 0.9308173358440399, -2.0, 0.6999398469924927, -2.0, -2.0, -2.0, 0.7800040543079376, -2.0, 0.37647002190351486, -2.0, -2.0, -2.0, -1.8281863927841187, -2.0, -0.03412790782749653, -2.0, -2.0], "value": [[[3699.0, 3362.0]], [[0.0, 812.0]], [[3699.0, 2550.0]], [[2332.0, 2238.0]], [[1465.0, 836.0]], [[460.0, 28.0]], [[460.0, 1.0]], [[460.0, 0.0]], [[0.0, 1.0]], [[0.0, 27.0]], [[1005.0, 808.0]], [[511.0, 89.0]], [[500.0, 30.0]], [[0.0, 30.0]], [[500.0, 0.0]], [[11.0, 59.0]], [[0.0, 49.0]], [[11.0, 10.0]], [[11.0, 3.0]], [[11.0, 0.0]], [[0.0, 3.0]], [[0.0, 7.0]], [[494.0, 719.0]], [[117.0, 581.0]], [[26.0, 578.0]], [[2.0, 507.0]], [[2.0, 25.0]], [[0.0, 25.0]], [[2.0, 0.0]], [[0.0, 482.0]], [[24.0, 71.0]], [[5.0, 71.0]], [[0.0, 71.0]], [[5.0, 0.0]], [[19.0, 0.0]], [[91.0, 3.0]], [[0.0, 3.0]], [[91.0, 0.0]], [[377.0, 138.0]], [[103.0, 104.0]], [[36.0, 0.0]], [[67.0, 104.0]], [[0.0, 104.0]], [[67.0, 0.0]], [[274.0, 34.0]], [[6.0, 19.0]], [[6.0, 1.0]], [[0.0, 1.0]], [[6.0, 0.0]], [[0.0, 18.0]], [[268.0, 15.0]], [[0.0, 15.0]], [[268.0, 0.0]], [[867.0, 1402.0]], [[681.0, 1346.0]], [[539.0, 1290.0]], [[503.0, 845.0]], [[376.0, 827.0]], [[48.0, 0.0]], [[328.0, 827.0]], [[223.0, 815.0]], [[21.0, 493.0]], [[0.0, 391.0]], [[21.0, 102.0]], [[18.0, 19.0]], [[1.0, 15.0]], [[1.0, 0.0]], [[0.0, 15.0]], [[17.0, 4.0]], [[16.0, 0.0]], [[1.0, 4.0]], [[1.0, 0.0]], [[0.0, 4.0]], [[3.0, 83.0]], [[0.0, 83.0]], [[3.0, 0.0]], [[202.0, 322.0]], [[85.0, 10.0]], [[0.0, 6.0]], [[85.0, 4.0]], [[85.0, 2.0]], [[0.0, 1.0]], [[85.0, 1.0]], [[85.0, 0.0]], [[0.0, 1.0]], [[0.0, 2.0]], [[117.0, 312.0]], [[3.0, 206.0]], [[0.0, 206.0]], [[3.0, 0.0]], [[114.0, 106.0]], [[3.0, 90.0]], [[3.0, 2.0]], [[0.0, 2.0]], [[3.0, 0.0]], [[0.0, 88.0]], [[111.0, 16.0]], [[111.0, 2.0]], [[87.0, 0.0]], [[24.0, 2.0]], [[7.0, 2.0]], [[5.0, 0.0]], [[2.0, 2.0]], [[0.0, 2.0]], [[2.0, 0.0]], [[17.0, 0.0]], [[0.0, 14.0]], [[105.0, 12.0]], [[0.0, 10.0]], [[105.0, 2.0]], [[5.0, 2.0]], [[0.0, 2.0]], [[5.0, 0.0]], [[100.0, 0.0]], [[127.0, 18.0]], [[118.0, 4.0]], [[13.0, 4.0]], [[13.0, 0.0]], [[0.0, 4.0]], [[105.0, 0.0]], [[9.0, 14.0]], [[0.0, 14.0]], [[9.0, 0.0]], [[36.0, 445.0]], [[17.0, 445.0]], [[8.0, 32.0]], [[0.0, 31.0]], [[8.0, 1.0]], [[8.0, 0.0]], [[0.0, 1.0]], [[9.0, 413.0]], [[6.0, 413.0]], [[3.0, 6.0]], [[0.0, 6.0]], [[3.0, 0.0]], [[3.0, 407.0]], [[0.0, 302.0]], [[3.0, 105.0]], [[3.0, 0.0]], [[0.0, 105.0]], [[3.0, 0.0]], [[19.0, 0.0]], [[142.0, 56.0]], [[136.0, 32.0]], [[108.0, 0.0]], [[28.0, 32.0]], [[27.0, 16.0]], [[2.0, 13.0]], [[0.0, 13.0]], [[2.0, 0.0]], [[25.0, 3.0]], [[18.0, 0.0]], [[7.0, 3.0]], [[7.0, 0.0]], [[0.0, 3.0]], [[1.0, 16.0]], [[0.0, 15.0]], [[1.0, 1.0]], [[0.0, 1.0]], [[1.0, 0.0]], [[6.0, 24.0]], [[0.0, 18.0]], [[6.0, 6.0]], [[6.0, 1.0]], [[0.0, 1.0]], [[6.0, 0.0]], [[0.0, 5.0]], [[186.0, 56.0]], [[186.0, 19.0]], [[5.0, 16.0]], [[5.0, 0.0]], [[0.0, 16.0]], [[181.0, 3.0]], [[181.0, 1.0]], [[148.0, 0.0]], [[33.0, 1.0]], [[0.0, 1.0]], [[33.0, 0.0]], [[0.0, 2.0]], [[0.0, 37.0]], [[1367.0, 312.0]], [[1296.0, 174.0]], [[983.0, 0.0]], [[313.0, 174.0]], [[162.0, 0.0]], [[151.0, 174.0]], [[42.0, 0.0]], [[109.0, 174.0]], [[2.0, 103.0]], [[1.0, 101.0]], [[0.0, 101.0]], [[1.0, 0.0]], [[1.0, 2.0]], [[1.0, 0.0]], [[0.0, 2.0]], [[107.0, 71.0]], [[8.0, 71.0]], [[6.0, 7.0]], [[5.0, 0.0]], [[1.0, 7.0]], [[0.0, 7.0]], [[1.0, 0.0]], [[2.0, 64.0]], [[1.0, 63.0]], [[1.0, 5.0]], [[0.0, 5.0]], [[1.0, 0.0]], [[0.0, 58.0]], [[1.0, 1.0]], [[0.0, 1.0]], [[1.0, 0.0]], [[99.0, 0.0]], [[71.0, 138.0]], [[43.0, 133.0]], [[33.0, 133.0]], [[16.0, 0.0]], [[17.0, 133.0]], [[0.0, 51.0]], [[17.0, 82.0]], [[10.0, 81.0]], [[10.0, 25.0]], [[3.0, 23.0]], [[2.0, 22.0]], [[1.0, 22.0]], [[0.0, 22.0]], [[1.0, 0.0]], [[1.0, 0.0]], [[1.0, 1.0]], [[1.0, 0.0]], [[0.0, 1.0]], [[7.0, 2.0]], [[6.0, 0.0]], [[1.0, 2.0]], [[1.0, 0.0]], [[0.0, 2.0]], [[0.0, 56.0]], [[7.0, 1.0]], [[6.0, 0.0]], [[1.0, 1.0]], [[0.0, 1.0]], [[1.0, 0.0]], [[10.0, 0.0]], [[28.0, 5.0]], [[0.0, 1.0]], [[28.0, 4.0]], [[0.0, 4.0]], [[28.0, 0.0]]]}, {"children_left": [1, 2, 3, 4, 5, -1, -1, -1, 9, 10, 11, -1, 13, 14, 15, -1, -1, -1, 19, -1, -1, -1, 23, 24, -1, 26, 27, 28, 29, 30, 31, 32, 33, -1, -1, -1, 37, -1, 39, -1, 41, 42, -1, -1, -1, 46, -1, -1, 49, -1, -1, 52, -1, -1, -1, 56, 57, -1, -1, 60, -1, -1, -1, 64, 65, 66, 67, -1, 69, -1, -1, -1, 73, 74, -1, 76, -1, -1, 79, 80, 81, -1, -1, 84, -1, 86, 87, -1, -1, -1, 91, -1, -1, 94, 95, 96, -1, 98, -1, 100, -1, -1, 103, -1, 105, 106, 107, -1, -1, -1, 111, -1, -1, 114, 115, -1, 117, 118, -1, -1, -1, 122, -1, 124, -1, 126, -1, -1, 129, 130, 131, -1, -1, 134, 135, 136, -1, -1, 139, -1, 141, -1, -1, 144, 145, 146, -1, -1, 149, -1, 151, -1, 153, -1, -1, 156, 157, 158, -1, -1, -1, -1, 163, 164, 165, 166, 167, -1, 169, -1, 171, -1, 173, -1, -1, -1, -1, 178, 179, -1, 181, 182, -1, -1, 185, -1, -1, 188, 189, 190, 191, -1, 193, -1, -1, 196, 197, 198, 199, -1, 201, -1, 203, -1, -1, -1, 207, -1, -1, 210, -1, 212, -1, -1, -1, 216, -1, 218, 219, -1, -1, 222, -1, -1, 225, -1, 227, 228, 229, -1, -1, 232, -1, 234, -1, -1, 237, -1, -1], "children_right": [128, 63, 8, 7, 6, -1, -1, -1, 22, 21, 12, -1, 18, 17, 16, -1, -1, -1, 20, -1, -1, -1, 62, 25, -1, 55, 54, 51, 48, 45, 36, 35, 34, -1, -1, -1, 38, -1, 40, -1, 44, 43, -1, -1, -1, 47, -1, -1, 50, -1, -1, 53, -1, -1, -1, 59, 58, -1, -1, 61, -1, -1, -1, 93, 72, 71, 68, -1, 70, -1, -1, -1, 78, 75, -1, 77, -1, -1, 90, 83, 82, -1, -1, 85, -1, 89, 88, -1, -1, -1, 92, -1, -1, 113, 102, 97, -1, 99, -1, 101, -1, -1, 104, -1, 110, 109, 108, -1, -1, -1, 112, -1, -1, 121, 116, -1, 120, 119, -1, -1, -1, 123, -1, 125, -1, 127, -1, -1, 162, 133, 132, -1, -1, 143, 138, 137, -1, -1, 140, -1, 142, -1, -1, 155, 148, 147, -1, -1, 150, -1, 152, -1, 154, -1, -1, 161, 160, 159, -1, -1, -1, -1, 224, 177, 176, 175, 168, -1, 170, -1, 172, -1, 174, -1, -1, -1, -1, 187, 180, -1, 184, 183, -1, -1, 186, -1, -1, 215, 214, 195, 192, -1, 194, -1, -1, 209, 206, 205, 200, -1, 202, -1, 204, -1, -1, -1, 208, -1, -1, 211, -1, 213, -1, -1, -1, 217, -1, 221, 220, -1, -1, 223, -1, -1, 226, -1, 236, 231, 230, -1, -1, 233, -1, 235, -1, -1, 238, -1, -1], "feature": [2, 10, 7, 7, 6, -2, -2, -2, 9, 7, 5, -2, 7, 15, 13, -2, -2, -2, 9, -2, -2, -2, 14, 15, -2, 11, 13, 5, 8, 16, 13, 1, 11, -2, -2, -2, 1, -2, 6, -2, 12, 15, -2, -2, -2, 13, -2, -2, 12, -2, -2, 5, -2, -2, -2, 13, 15, -2, -2, 13, -2, -2, -2, 4, 5, 15, 7, -2, 10, -2, -2, -2, 0, 7, -2, 3, -2, -2, 10, 5, 1, -2, -2, 7, -2, 6, 12, -2, -2, -2, 15, -2, -2, 10, 2, 3, -2, 11, -2, 15, -2, -2, 9, -2, 9, 11, 11, -2, -2, -2, 10, -2, -2, 4, 8, -2, 6, 4, -2, -2, -2, 5, -2, 4, -2, 1, -2, -2, 8, 3, 13, -2, -2, 10, 14, 15, -2, -2, 8, -2, 3, -2, -2, 7, 4, 1, -2, -2, 7, -2, 3, -2, 9, -2, -2, 11, 13, 15, -2, -2, -2, -2, 14, 10, 3, 7, 4, -2, 14, -2, 14, -2, 13, -2, -2, -2, -2, 5, 4, -2, 10, 7, -2, -2, 7, -2, -2, 16, 15, 14, 1, -2, 15, -2, -2, 6, 4, 3, 5, -2, 7, -2, 11, -2, -2, -2, 7, -2, -2, 8, -2, 6, -2, -2, -2, 8, -2, 14, 6, -2, -2, 0, -2, -2, 11, -2, 5, 15, 3, -2, -2, 10, -2, 12, -2, -2, 8, -2, -2], "threshold": [-0.029420279432088137, 0.5981368720531464, -1.2826659679412842, -1.3834391236305237, -0.8169175535440445, -2.0, -2.0, -2.0, -0.061788057908415794, 0.6902524530887604, -1.8805860877037048, -2.0, 0.6523101925849915, -0.3777894973754883, 0.2853558287024498, -2.0, -2.0, -2.0, -0.29960325360298157, -2.0, -2.0, -2.0, -0.10238082893192768, -0.45816469192504883, -2.0, 1.0721370577812195, 0.8743272423744202, 1.0880491733551025, 0.05319780670106411, 0.6459944844245911, 0.6198740303516388, -0.43946918845176697, -0.16406464576721191, -2.0, -2.0, -2.0, -0.061405573040246964, -2.0, 0.48728305101394653, -2.0, 0.046754383482038975, -0.32963867485523224, -2.0, -2.0, -2.0, 0.2579363137483597, -2.0, -2.0, -0.028090719133615494, -2.0, -2.0, 1.173785924911499, -2.0, -2.0, -2.0, 0.8337463438510895, -0.35375021398067474, -2.0, -2.0, 1.286716878414154, -2.0, -2.0, -2.0, -0.41781942546367645, 0.49134139716625214, 0.03595655411481857, 0.6922706663608551, -2.0, 0.9108641445636749, -2.0, -2.0, -2.0, -0.5483793020248413, 0.6938852071762085, -2.0, 0.936686784029007, -2.0, -2.0, 1.1916804909706116, 0.5057425200939178, 0.18845361471176147, -2.0, -2.0, 0.6942888498306274, -2.0, 0.6732848286628723, -0.17449102737009525, -2.0, -2.0, -2.0, 0.020370761398226023, -2.0, -2.0, 3.47650408744812, -0.6363086700439453, -0.058066725730895996, -2.0, 0.5511500090360641, -2.0, 0.020370761398226023, -2.0, -2.0, -1.2933023571968079, -2.0, 1.893581211566925, 0.0872887596487999, 0.04844323359429836, -2.0, -2.0, -2.0, 1.7469308972358704, -2.0, -2.0, 2.8795500993728638, 0.6910854279994965, -2.0, 1.0157468914985657, 1.7496563792228699, -2.0, -2.0, -2.0, 0.7467766404151917, -2.0, 4.755321264266968, -2.0, 0.2563764899969101, -2.0, -2.0, -0.31857718527317047, -1.0611547827720642, 0.44548584520816803, -2.0, -2.0, -0.17410799115896225, -0.7376832310110331, -0.4581543803215027, -2.0, -2.0, -0.4888110011816025, -2.0, 0.9664252996444702, -2.0, -2.0, 0.7802644968032837, -0.06703544408082962, -0.11962519213557243, -2.0, -2.0, 0.6434300541877747, -2.0, 0.9362954795360565, -2.0, -0.9545958936214447, -2.0, -2.0, 0.4894541800022125, -1.6976242661476135, -0.7801816463470459, -2.0, -2.0, -2.0, -2.0, 0.845239520072937, -0.05922859348356724, 0.9562515914440155, 0.9518121182918549, -1.4317697882652283, -2.0, -1.0858409404754639, -2.0, 0.8379862606525421, -2.0, 0.3259367272257805, -2.0, -2.0, -2.0, -2.0, -0.048297807574272156, 0.26528622955083847, -2.0, 1.7788418531417847, 0.7826863527297974, -2.0, -2.0, 0.7847045660018921, -2.0, -2.0, 0.5601549446582794, 0.039878807961940765, 0.3865759074687958, -0.2506193295121193, -2.0, -0.6629991829395294, -2.0, -2.0, 0.6196725368499756, 0.30221086740493774, -1.0533680319786072, 0.31675322353839874, -2.0, 0.7770353555679321, -2.0, 0.5717152953147888, -2.0, -2.0, -2.0, 0.7830899953842163, -2.0, -2.0, 0.6930421590805054, -2.0, 1.0157468914985657, -2.0, -2.0, -2.0, 0.15690346620976925, -2.0, -1.0858409404754639, 1.190807431936264, -2.0, -2.0, 1.6528283953666687, -2.0, -2.0, -0.7993032038211823, -2.0, 1.0080058574676514, -0.03454077569767833, -0.06084492802619934, -2.0, -2.0, -0.17410799115896225, -2.0, 0.8190571367740631, -2.0, -2.0, 3.009787380695343, -2.0, -2.0], "value": [[[3614.0, 3447.0]], [[2677.0, 997.0]], [[2356.0, 560.0]], [[1206.0, 3.0]], [[1.0, 3.0]], [[1.0, 0.0]], [[0.0, 3.0]], [[1205.0, 0.0]], [[1150.0, 557.0]], [[44.0, 350.0]], [[8.0, 350.0]], [[3.0, 0.0]], [[5.0, 350.0]], [[2.0, 338.0]], [[2.0, 13.0]], [[0.0, 13.0]], [[2.0, 0.0]], [[0.0, 325.0]], [[3.0, 12.0]], [[3.0, 0.0]], [[0.0, 12.0]], [[36.0, 0.0]], [[1106.0, 207.0]], [[1106.0, 107.0]], [[0.0, 87.0]], [[1106.0, 20.0]], [[1077.0, 11.0]], [[1077.0, 9.0]], [[1072.0, 7.0]], [[1066.0, 6.0]], [[1056.0, 5.0]], [[946.0, 2.0]], [[1.0, 2.0]], [[0.0, 2.0]], [[1.0, 0.0]], [[945.0, 0.0]], [[110.0, 3.0]], [[0.0, 1.0]], [[110.0, 2.0]], [[0.0, 1.0]], [[110.0, 1.0]], [[47.0, 1.0]], [[47.0, 0.0]], [[0.0, 1.0]], [[63.0, 0.0]], [[10.0, 1.0]], [[0.0, 1.0]], [[10.0, 0.0]], [[6.0, 1.0]], [[0.0, 1.0]], [[6.0, 0.0]], [[5.0, 2.0]], [[0.0, 2.0]], [[5.0, 0.0]], [[0.0, 2.0]], [[29.0, 9.0]], [[28.0, 2.0]], [[28.0, 0.0]], [[0.0, 2.0]], [[1.0, 7.0]], [[0.0, 7.0]], [[1.0, 0.0]], [[0.0, 100.0]], [[321.0, 437.0]], [[111.0, 390.0]], [[91.0, 45.0]], [[91.0, 15.0]], [[0.0, 14.0]], [[91.0, 1.0]], [[0.0, 1.0]], [[91.0, 0.0]], [[0.0, 30.0]], [[20.0, 345.0]], [[12.0, 31.0]], [[0.0, 28.0]], [[12.0, 3.0]], [[12.0, 0.0]], [[0.0, 3.0]], [[8.0, 314.0]], [[3.0, 285.0]], [[1.0, 3.0]], [[1.0, 0.0]], [[0.0, 3.0]], [[2.0, 282.0]], [[0.0, 273.0]], [[2.0, 9.0]], [[1.0, 9.0]], [[1.0, 0.0]], [[0.0, 9.0]], [[1.0, 0.0]], [[5.0, 29.0]], [[5.0, 0.0]], [[0.0, 29.0]], [[210.0, 47.0]], [[184.0, 15.0]], [[23.0, 10.0]], [[16.0, 0.0]], [[7.0, 10.0]], [[0.0, 9.0]], [[7.0, 1.0]], [[7.0, 0.0]], [[0.0, 1.0]], [[161.0, 5.0]], [[0.0, 2.0]], [[161.0, 3.0]], [[158.0, 1.0]], [[10.0, 1.0]], [[10.0, 0.0]], [[0.0, 1.0]], [[148.0, 0.0]], [[3.0, 2.0]], [[0.0, 2.0]], [[3.0, 0.0]], [[26.0, 32.0]], [[3.0, 27.0]], [[1.0, 0.0]], [[2.0, 27.0]], [[2.0, 8.0]], [[0.0, 8.0]], [[2.0, 0.0]], [[0.0, 19.0]], [[23.0, 5.0]], [[20.0, 0.0]], [[3.0, 5.0]], [[0.0, 4.0]], [[3.0, 1.0]], [[3.0, 0.0]], [[0.0, 1.0]], [[937.0, 2450.0]], [[489.0, 561.0]], [[28.0, 227.0]], [[0.0, 227.0]], [[28.0, 0.0]], [[461.0, 334.0]], [[102.0, 229.0]], [[97.0, 8.0]], [[0.0, 8.0]], [[97.0, 0.0]], [[5.0, 221.0]], [[0.0, 213.0]], [[5.0, 8.0]], [[0.0, 8.0]], [[5.0, 0.0]], [[359.0, 105.0]], [[204.0, 102.0]], [[184.0, 4.0]], [[0.0, 4.0]], [[184.0, 0.0]], [[20.0, 98.0]], [[14.0, 0.0]], [[6.0, 98.0]], [[5.0, 0.0]], [[1.0, 98.0]], [[1.0, 0.0]], [[0.0, 98.0]], [[155.0, 3.0]], [[155.0, 2.0]], [[9.0, 2.0]], [[0.0, 2.0]], [[9.0, 0.0]], [[146.0, 0.0]], [[0.0, 1.0]], [[448.0, 1889.0]], [[339.0, 1851.0]], [[46.0, 1363.0]], [[27.0, 1363.0]], [[9.0, 1363.0]], [[7.0, 0.0]], [[2.0, 1363.0]], [[1.0, 0.0]], [[1.0, 1363.0]], [[0.0, 1357.0]], [[1.0, 6.0]], [[1.0, 0.0]], [[0.0, 6.0]], [[18.0, 0.0]], [[19.0, 0.0]], [[293.0, 488.0]], [[17.0, 282.0]], [[0.0, 199.0]], [[17.0, 83.0]], [[15.0, 16.0]], [[0.0, 16.0]], [[15.0, 0.0]], [[2.0, 67.0]], [[0.0, 67.0]], [[2.0, 0.0]], [[276.0, 206.0]], [[271.0, 131.0]], [[271.0, 82.0]], [[15.0, 56.0]], [[0.0, 38.0]], [[15.0, 18.0]], [[0.0, 18.0]], [[15.0, 0.0]], [[256.0, 26.0]], [[250.0, 9.0]], [[249.0, 1.0]], [[70.0, 1.0]], [[61.0, 0.0]], [[9.0, 1.0]], [[8.0, 0.0]], [[1.0, 1.0]], [[1.0, 0.0]], [[0.0, 1.0]], [[179.0, 0.0]], [[1.0, 8.0]], [[0.0, 8.0]], [[1.0, 0.0]], [[6.0, 17.0]], [[3.0, 0.0]], [[3.0, 17.0]], [[0.0, 17.0]], [[3.0, 0.0]], [[0.0, 49.0]], [[5.0, 75.0]], [[2.0, 0.0]], [[3.0, 75.0]], [[2.0, 1.0]], [[0.0, 1.0]], [[2.0, 0.0]], [[1.0, 74.0]], [[0.0, 74.0]], [[1.0, 0.0]], [[109.0, 38.0]], [[0.0, 5.0]], [[109.0, 33.0]], [[108.0, 23.0]], [[1.0, 17.0]], [[1.0, 0.0]], [[0.0, 17.0]], [[107.0, 6.0]], [[0.0, 5.0]], [[107.0, 1.0]], [[107.0, 0.0]], [[0.0, 1.0]], [[1.0, 10.0]], [[0.0, 10.0]], [[1.0, 0.0]]]}, {"children_left": [1, 2, 3, -1, 5, 6, -1, 8, -1, 10, -1, -1, 13, 14, 15, 16, 17, 18, 19, -1, -1, -1, 23, 24, -1, -1, 27, -1, -1, 30, 31, -1, 33, 34, -1, -1, 37, -1, -1, 40, -1, 42, -1, -1, 45, 46, -1, -1, -1, 50, 51, -1, -1, 54, 55, 56, -1, 58, 59, -1, -1, 62, 63, -1, -1, 66, -1, 68, -1, 70, 71, -1, -1, -1, 75, 76, -1, -1, 79, -1, -1, 82, 83, 84, 85, 86, 87, -1, -1, -1, 91, 92, -1, -1, -1, 96, -1, 98, -1, 100, -1, 102, -1, -1, 105, -1, 107, 108, -1, 110, -1, -1, 113, 114, -1, 116, 117, -1, -1, -1, 121, 122, -1, 124, -1, -1, -1, 128, -1, 130, -1, 132, -1, 134, 135, -1, 137, -1, -1, -1, -1, 142, 143, -1, -1, 146, 147, 148, -1, -1, 151, -1, 153, 154, -1, 156, -1, 158, -1, -1, 161, -1, -1, 164, 165, -1, -1, -1, 169, 170, -1, 172, 173, -1, 175, -1, 177, -1, -1, 180, -1, -1, 183, 184, 185, 186, 187, -1, 189, 190, -1, -1, -1, 194, -1, -1, 197, 198, 199, -1, -1, -1, 203, -1, -1, 206, 207, -1, 209, -1, -1, 212, 213, -1, 215, -1, -1, 218, -1, -1, 221, 222, -1, 224, -1, -1, 227, 228, -1, 230, 231, 232, -1, 234, -1, -1, 237, -1, -1, 240, -1, 242, -1, -1, 245, -1, 247, -1, -1], "children_right": [168, 141, 4, -1, 12, 7, -1, 9, -1, 11, -1, -1, 140, 49, 44, 29, 22, 21, 20, -1, -1, -1, 26, 25, -1, -1, 28, -1, -1, 39, 32, -1, 36, 35, -1, -1, 38, -1, -1, 41, -1, 43, -1, -1, 48, 47, -1, -1, -1, 53, 52, -1, -1, 81, 74, 57, -1, 61, 60, -1, -1, 65, 64, -1, -1, 67, -1, 69, -1, 73, 72, -1, -1, -1, 78, 77, -1, -1, 80, -1, -1, 127, 104, 95, 90, 89, 88, -1, -1, -1, 94, 93, -1, -1, -1, 97, -1, 99, -1, 101, -1, 103, -1, -1, 106, -1, 112, 109, -1, 111, -1, -1, 120, 115, -1, 119, 118, -1, -1, -1, 126, 123, -1, 125, -1, -1, -1, 129, -1, 131, -1, 133, -1, 139, 136, -1, 138, -1, -1, -1, -1, 145, 144, -1, -1, 163, 150, 149, -1, -1, 152, -1, 160, 155, -1, 157, -1, 159, -1, -1, 162, -1, -1, 167, 166, -1, -1, -1, 182, 171, -1, 179, 174, -1, 176, -1, 178, -1, -1, 181, -1, -1, 220, 205, 196, 193, 188, -1, 192, 191, -1, -1, -1, 195, -1, -1, 202, 201, 200, -1, -1, -1, 204, -1, -1, 211, 208, -1, 210, -1, -1, 217, 214, -1, 216, -1, -1, 219, -1, -1, 226, 223, -1, 225, -1, -1, 244, 229, -1, 239, 236, 233, -1, 235, -1, -1, 238, -1, -1, 241, -1, 243, -1, -1, 246, -1, 248, -1, -1], "feature": [4, 14, 10, -2, 8, 0, -2, 9, -2, 14, -2, -2, 7, 15, 15, 12, 5, 1, 9, -2, -2, -2, 4, 14, -2, -2, 3, -2, -2, 9, 13, -2, 12, 1, -2, -2, 11, -2, -2, 14, -2, 15, -2, -2, 15, 15, -2, -2, -2, 4, 13, -2, -2, 10, 14, 10, -2, 3, 8, -2, -2, 1, 3, -2, -2, 10, -2, 3, -2, 0, 8, -2, -2, -2, 1, 8, -2, -2, 0, -2, -2, 3, 9, 6, 8, 6, 7, -2, -2, -2, 15, 7, -2, -2, -2, 12, -2, 10, -2, 3, -2, 7, -2, -2, 2, -2, 8, 6, -2, 8, -2, -2, 9, 1, -2, 16, 10, -2, -2, -2, 4, 12, -2, 9, -2, -2, -2, 14, -2, 6, -2, 15, -2, 15, 1, -2, 10, -2, -2, -2, -2, 4, 15, -2, -2, 2, 4, 15, -2, -2, 10, -2, 5, 6, -2, 10, -2, 14, -2, -2, 11, -2, -2, 13, 10, -2, -2, -2, 11, 0, -2, 3, 9, -2, 8, -2, 15, -2, -2, 10, -2, -2, 2, 10, 15, 0, 3, -2, 1, 15, -2, -2, -2, 3, -2, -2, 16, 8, 16, -2, -2, -2, 11, -2, -2, 9, 12, -2, 6, -2, -2, 4, 14, -2, 3, -2, -2, 15, -2, -2, 3, 7, -2, 3, -2, -2, 0, 8, -2, 7, 16, 15, -2, 13, -2, -2, 13, -2, -2, 16, -2, 11, -2, -2, 8, -2, 15, -2, -2], "threshold": [0.47206416726112366, 0.8797992765903473, -0.32791875302791595, -2.0, -1.639356791973114, -1.0068064033985138, -2.0, -0.35245107114315033, -2.0, 0.7620400488376617, -2.0, -2.0, 0.9275936186313629, -0.36173921823501587, -0.6891027987003326, 1.3791617155075073, 0.297998309135437, -0.22150951623916626, -0.44213220477104187, -2.0, -2.0, -2.0, 0.206206813454628, 0.40662911534309387, -2.0, -2.0, -1.0613113045692444, -2.0, -2.0, -0.5198024809360504, -1.8445929288864136, -2.0, 1.5058226585388184, 0.017433487810194492, -2.0, -2.0, 0.5717152953147888, -2.0, -2.0, 0.3865759074687958, -2.0, -0.738347738981247, -2.0, -2.0, -0.44209378957748413, -0.5220664590597153, -2.0, -2.0, -2.0, -1.2611780166625977, -1.7601407766342163, -2.0, -2.0, -0.05922859348356724, 0.8115330636501312, -0.2698408216238022, -2.0, -1.067376434803009, -0.34597114473581314, -2.0, -2.0, -4.812368869781494, 0.9492082595825195, -2.0, -2.0, -0.14857924729585648, -2.0, 0.9488169550895691, -2.0, -1.5410065650939941, -0.4594603478908539, -2.0, -2.0, -2.0, -0.3561423923820257, 0.687171995639801, -2.0, -2.0, -0.7681212406605482, -2.0, -2.0, 0.935512900352478, 0.4626865088939667, 0.7006380259990692, 0.37214161455631256, -1.6057839393615723, 0.6942888498306274, -2.0, -2.0, -2.0, 0.028112048748880625, 0.6934815645217896, -2.0, -2.0, -2.0, -1.9724184274673462, -2.0, 1.172533929347992, -2.0, 0.9229913949966431, -2.0, 0.6946924924850464, -2.0, -2.0, -2.517295479774475, -2.0, 0.7928343713283539, 0.7006380259990692, -2.0, 0.37996846437454224, -2.0, -2.0, 1.0127842128276825, 0.12174363061785698, -2.0, 0.4657314717769623, 1.0321257710456848, -2.0, -2.0, -2.0, -0.1719013750553131, 0.7540817260742188, -2.0, 1.690197229385376, -2.0, -2.0, -2.0, -0.16680706106126308, -2.0, -2.1068946719169617, -2.0, -0.12083033472299576, -2.0, 0.04751687869429588, 1.6281761527061462, -2.0, 0.17053021304309368, -2.0, -2.0, -2.0, -2.0, -1.7960681319236755, 0.06588953360915184, -2.0, -2.0, 0.6558862775564194, -1.5344202518463135, 0.05835467949509621, -2.0, -2.0, -0.49449389427900314, -2.0, 1.0193927586078644, 0.3931880295276642, -2.0, -0.0464642159640789, -2.0, 1.1170243620872498, -2.0, -2.0, -0.47025875747203827, -2.0, -2.0, 0.39174358546733856, -0.1677258089184761, -2.0, -2.0, -2.0, -0.4177030324935913, -0.2058850210160017, -2.0, 0.9464691877365112, -1.4230197668075562, -2.0, -0.16399705782532692, -2.0, 0.3684190735220909, -2.0, -2.0, -0.14857923984527588, -2.0, -2.0, -0.00502934493124485, 3.1573946475982666, -0.33397379517555237, 0.7393840551376343, 0.94959956407547, -2.0, -0.28215495496988297, -0.4501240849494934, -2.0, -2.0, -2.0, -0.05102336406707764, -2.0, -2.0, 0.542987048625946, 1.20178684592247, -0.8373123854398727, -2.0, -2.0, -2.0, 1.6753851771354675, -2.0, -2.0, 0.5851973593235016, -4.2835693359375, -2.0, 1.803519070148468, -2.0, -2.0, 4.740551471710205, 0.31702970713377, -2.0, 0.9269043505191803, -2.0, -2.0, 0.020370761398226023, -2.0, -2.0, -1.041824758052826, 0.7830899953842163, -2.0, -1.0483202934265137, -2.0, -2.0, 1.4520297646522522, -0.8410188853740692, -2.0, 0.7830899953842163, 0.7060821354389191, -0.04186919570202008, -2.0, 0.8337463438510895, -2.0, -2.0, 1.2538134455680847, -2.0, -2.0, 0.6760382950305939, -2.0, 2.9481472969055176, -2.0, -2.0, -0.12486285110935569, -2.0, -0.026799487473908812, -2.0, -2.0], "value": [[[3648.0, 3413.0]], [[2367.0, 3085.0]], [[1585.0, 2843.0]], [[0.0, 814.0]], [[1585.0, 2029.0]], [[242.0, 13.0]], [[0.0, 5.0]], [[242.0, 8.0]], [[0.0, 6.0]], [[242.0, 2.0]], [[242.0, 0.0]], [[0.0, 2.0]], [[1343.0, 2016.0]], [[1217.0, 2016.0]], [[665.0, 510.0]], [[94.0, 459.0]], [[8.0, 359.0]], [[1.0, 295.0]], [[1.0, 11.0]], [[0.0, 11.0]], [[1.0, 0.0]], [[0.0, 284.0]], [[7.0, 64.0]], [[2.0, 63.0]], [[0.0, 63.0]], [[2.0, 0.0]], [[5.0, 1.0]], [[5.0, 0.0]], [[0.0, 1.0]], [[86.0, 100.0]], [[61.0, 21.0]], [[0.0, 5.0]], [[61.0, 16.0]], [[54.0, 3.0]], [[54.0, 0.0]], [[0.0, 3.0]], [[7.0, 13.0]], [[7.0, 0.0]], [[0.0, 13.0]], [[25.0, 79.0]], [[0.0, 78.0]], [[25.0, 1.0]], [[25.0, 0.0]], [[0.0, 1.0]], [[571.0, 51.0]], [[90.0, 51.0]], [[90.0, 0.0]], [[0.0, 51.0]], [[481.0, 0.0]], [[552.0, 1506.0]], [[111.0, 14.0]], [[0.0, 14.0]], [[111.0, 0.0]], [[441.0, 1492.0]], [[38.0, 974.0]], [[18.0, 967.0]], [[7.0, 0.0]], [[11.0, 967.0]], [[5.0, 17.0]], [[5.0, 0.0]], [[0.0, 17.0]], [[6.0, 950.0]], [[4.0, 17.0]], [[0.0, 17.0]], [[4.0, 0.0]], [[2.0, 933.0]], [[0.0, 758.0]], [[2.0, 175.0]], [[0.0, 151.0]], [[2.0, 24.0]], [[2.0, 2.0]], [[0.0, 2.0]], [[2.0, 0.0]], [[0.0, 22.0]], [[20.0, 7.0]], [[1.0, 6.0]], [[0.0, 6.0]], [[1.0, 0.0]], [[19.0, 1.0]], [[0.0, 1.0]], [[19.0, 0.0]], [[403.0, 518.0]], [[189.0, 500.0]], [[175.0, 231.0]], [[52.0, 216.0]], [[9.0, 184.0]], [[9.0, 55.0]], [[0.0, 55.0]], [[9.0, 0.0]], [[0.0, 129.0]], [[43.0, 32.0]], [[43.0, 20.0]], [[0.0, 20.0]], [[43.0, 0.0]], [[0.0, 12.0]], [[123.0, 15.0]], [[0.0, 4.0]], [[123.0, 11.0]], [[90.0, 0.0]], [[33.0, 11.0]], [[20.0, 0.0]], [[13.0, 11.0]], [[0.0, 11.0]], [[13.0, 0.0]], [[14.0, 269.0]], [[1.0, 0.0]], [[13.0, 269.0]], [[4.0, 212.0]], [[0.0, 205.0]], [[4.0, 7.0]], [[4.0, 0.0]], [[0.0, 7.0]], [[9.0, 57.0]], [[7.0, 19.0]], [[6.0, 0.0]], [[1.0, 19.0]], [[1.0, 4.0]], [[0.0, 4.0]], [[1.0, 0.0]], [[0.0, 15.0]], [[2.0, 38.0]], [[1.0, 38.0]], [[0.0, 37.0]], [[1.0, 1.0]], [[1.0, 0.0]], [[0.0, 1.0]], [[1.0, 0.0]], [[214.0, 18.0]], [[0.0, 12.0]], [[214.0, 6.0]], [[0.0, 2.0]], [[214.0, 4.0]], [[0.0, 2.0]], [[214.0, 2.0]], [[214.0, 1.0]], [[177.0, 0.0]], [[37.0, 1.0]], [[37.0, 0.0]], [[0.0, 1.0]], [[0.0, 1.0]], [[126.0, 0.0]], [[782.0, 242.0]], [[31.0, 177.0]], [[0.0, 177.0]], [[31.0, 0.0]], [[751.0, 65.0]], [[739.0, 43.0]], [[63.0, 30.0]], [[0.0, 30.0]], [[63.0, 0.0]], [[676.0, 13.0]], [[0.0, 5.0]], [[676.0, 8.0]], [[674.0, 1.0]], [[547.0, 0.0]], [[127.0, 1.0]], [[125.0, 0.0]], [[2.0, 1.0]], [[2.0, 0.0]], [[0.0, 1.0]], [[2.0, 7.0]], [[2.0, 0.0]], [[0.0, 7.0]], [[12.0, 22.0]], [[12.0, 3.0]], [[0.0, 3.0]], [[12.0, 0.0]], [[0.0, 19.0]], [[1281.0, 328.0]], [[99.0, 120.0]], [[79.0, 0.0]], [[20.0, 120.0]], [[19.0, 13.0]], [[0.0, 9.0]], [[19.0, 4.0]], [[18.0, 0.0]], [[1.0, 4.0]], [[0.0, 4.0]], [[1.0, 0.0]], [[1.0, 107.0]], [[1.0, 0.0]], [[0.0, 107.0]], [[1182.0, 208.0]], [[1133.0, 50.0]], [[1109.0, 19.0]], [[1094.0, 13.0]], [[1086.0, 10.0]], [[809.0, 0.0]], [[277.0, 10.0]], [[2.0, 10.0]], [[0.0, 10.0]], [[2.0, 0.0]], [[275.0, 0.0]], [[8.0, 3.0]], [[8.0, 0.0]], [[0.0, 3.0]], [[15.0, 6.0]], [[3.0, 5.0]], [[1.0, 5.0]], [[1.0, 0.0]], [[0.0, 5.0]], [[2.0, 0.0]], [[12.0, 1.0]], [[12.0, 0.0]], [[0.0, 1.0]], [[24.0, 31.0]], [[13.0, 2.0]], [[0.0, 1.0]], [[13.0, 1.0]], [[13.0, 0.0]], [[0.0, 1.0]], [[11.0, 29.0]], [[4.0, 28.0]], [[0.0, 25.0]], [[4.0, 3.0]], [[4.0, 0.0]], [[0.0, 3.0]], [[7.0, 1.0]], [[7.0, 0.0]], [[0.0, 1.0]], [[49.0, 158.0]], [[7.0, 96.0]], [[0.0, 83.0]], [[7.0, 13.0]], [[7.0, 0.0]], [[0.0, 13.0]], [[42.0, 62.0]], [[17.0, 55.0]], [[5.0, 0.0]], [[12.0, 55.0]], [[4.0, 54.0]], [[3.0, 53.0]], [[0.0, 38.0]], [[3.0, 15.0]], [[3.0, 0.0]], [[0.0, 15.0]], [[1.0, 1.0]], [[0.0, 1.0]], [[1.0, 0.0]], [[8.0, 1.0]], [[7.0, 0.0]], [[1.0, 1.0]], [[0.0, 1.0]], [[1.0, 0.0]], [[25.0, 7.0]], [[0.0, 3.0]], [[25.0, 4.0]], [[0.0, 4.0]], [[25.0, 0.0]]]}, {"children_left": [1, 2, 3, -1, 5, -1, 7, -1, -1, 10, 11, -1, -1, 14, 15, -1, -1, 18, -1, 20, -1, 22, 23, -1, 25, -1, 27, -1, -1, 30, 31, 32, -1, 34, -1, -1, -1, 38, -1, -1, 41, 42, 43, 44, -1, 46, 47, -1, -1, 50, 51, -1, -1, 54, 55, -1, -1, 58, -1, 60, -1, -1, 63, -1, 65, 66, -1, 68, -1, -1, -1, 72, 73, -1, 75, 76, -1, -1, 79, 80, 81, 82, -1, 84, 85, -1, -1, -1, 89, 90, 91, -1, 93, -1, 95, -1, -1, 98, -1, 100, -1, -1, -1, 104, -1, 106, -1, -1, 109, -1, 111, -1, -1, -1, 115, 116, -1, -1, 119, 120, 121, 122, 123, -1, 125, 126, -1, 128, -1, 130, -1, 132, -1, 134, -1, -1, 137, -1, 139, -1, 141, -1, -1, 144, -1, 146, 147, 148, 149, -1, 151, 152, -1, -1, -1, 156, 157, 158, -1, -1, -1, -1, 163, -1, 165, -1, 167, -1, -1, 170, -1, 172, 173, 174, -1, 176, -1, -1, 179, 180, -1, -1, 183, 184, 185, -1, -1, 188, -1, 190, 191, 192, -1, -1, -1, -1, 197, -1, -1, 200, -1, -1, 203, -1, -1, 206, -1, 208, 209, -1, -1, 212, -1, 214, -1, 216, -1, -1, 219, 220, -1, -1, 223, 224, 225, 226, -1, -1, 229, 230, 231, -1, 233, -1, -1, 236, -1, -1, -1, 240, -1, 242, 243, -1, 245, -1, -1, 248, 249, -1, -1, 252, 253, -1, -1, -1, 257, -1, 259, -1, -1], "children_right": [40, 9, 4, -1, 6, -1, 8, -1, -1, 13, 12, -1, -1, 17, 16, -1, -1, 19, -1, 21, -1, 29, 24, -1, 26, -1, 28, -1, -1, 37, 36, 33, -1, 35, -1, -1, -1, 39, -1, -1, 114, 71, 62, 45, -1, 49, 48, -1, -1, 53, 52, -1, -1, 57, 56, -1, -1, 59, -1, 61, -1, -1, 64, -1, 70, 67, -1, 69, -1, -1, -1, 113, 74, -1, 78, 77, -1, -1, 108, 103, 88, 83, -1, 87, 86, -1, -1, -1, 102, 97, 92, -1, 94, -1, 96, -1, -1, 99, -1, 101, -1, -1, -1, 105, -1, 107, -1, -1, 110, -1, 112, -1, -1, -1, 118, 117, -1, -1, 218, 205, 202, 143, 124, -1, 136, 127, -1, 129, -1, 131, -1, 133, -1, 135, -1, -1, 138, -1, 140, -1, 142, -1, -1, 145, -1, 169, 162, 155, 150, -1, 154, 153, -1, -1, -1, 161, 160, 159, -1, -1, -1, -1, 164, -1, 166, -1, 168, -1, -1, 171, -1, 199, 178, 175, -1, 177, -1, -1, 182, 181, -1, -1, 196, 187, 186, -1, -1, 189, -1, 195, 194, 193, -1, -1, -1, -1, 198, -1, -1, 201, -1, -1, 204, -1, -1, 207, -1, 211, 210, -1, -1, 213, -1, 215, -1, 217, -1, -1, 222, 221, -1, -1, 256, 239, 228, 227, -1, -1, 238, 235, 232, -1, 234, -1, -1, 237, -1, -1, -1, 241, -1, 247, 244, -1, 246, -1, -1, 251, 250, -1, -1, 255, 254, -1, -1, -1, 258, -1, 260, -1, -1], "feature": [9, 12, 10, -2, 4, -2, 4, -2, -2, 7, 7, -2, -2, 1, 9, -2, -2, 2, -2, 10, -2, 0, 3, -2, 12, -2, 6, -2, -2, 9, 0, 12, -2, 13, -2, -2, -2, 8, -2, -2, 15, 14, 2, 0, -2, 11, 13, -2, -2, 5, 14, -2, -2, 1, 11, -2, -2, 3, -2, 14, -2, -2, 10, -2, 7, 5, -2, 13, -2, -2, -2, 15, 10, -2, 12, 4, -2, -2, 13, 16, 1, 0, -2, 11, 8, -2, -2, -2, 10, 3, 1, -2, 3, -2, 14, -2, -2, 1, -2, 3, -2, -2, -2, 11, -2, 4, -2, -2, 1, -2, 16, -2, -2, -2, 5, 7, -2, -2, 14, 0, 15, 7, 2, -2, 2, 12, -2, 1, -2, 9, -2, 7, -2, 13, -2, -2, 1, -2, 7, -2, 9, -2, -2, 15, -2, 2, 10, 9, 10, -2, 1, 7, -2, -2, -2, 15, 5, 12, -2, -2, -2, -2, 3, -2, 9, -2, 12, -2, -2, 3, -2, 7, 0, 8, -2, 10, -2, -2, 9, 12, -2, -2, 6, 8, 16, -2, -2, 11, -2, 11, 16, 5, -2, -2, -2, -2, 7, -2, -2, 1, -2, -2, 15, -2, -2, 14, -2, 3, 7, -2, -2, 15, -2, 5, -2, 5, -2, -2, 7, 15, -2, -2, 7, 11, 4, 15, -2, -2, 8, 16, 13, -2, 15, -2, -2, 10, -2, -2, -2, 4, -2, 0, 10, -2, 10, -2, -2, 1, 16, -2, -2, 3, 5, -2, -2, -2, 9, -2, 11, -2, -2], "threshold": [-1.16678786277771, -0.7880563735961914, -0.21686865389347076, -2.0, -0.17042440548539162, -2.0, 0.36867519840598106, -2.0, -2.0, -1.3541508913040161, -1.40872323513031, -2.0, -2.0, -0.5248579680919647, -1.340545117855072, -2.0, -2.0, -0.14744092524051666, -2.0, -0.16134361922740936, -2.0, -0.03804766619578004, -1.0558332204818726, -2.0, 1.2673052549362183, -2.0, 0.8592866361141205, -2.0, -2.0, -1.2196357250213623, 0.3070986717939377, 1.2163119316101074, -2.0, 0.4992281347513199, -2.0, -2.0, -2.0, -0.19726113975048065, -2.0, -2.0, -0.3260260820388794, 0.049084827303886414, 0.37447259947657585, -0.10056044720113277, -2.0, -0.742177426815033, -2.0003358125686646, -2.0, -2.0, 0.2906303107738495, -1.3597591519355774, -2.0, -2.0, -0.30883894860744476, 0.22439060360193253, -2.0, -2.0, 0.951164722442627, -2.0, -1.332452654838562, -2.0, -2.0, -0.25324714183807373, -2.0, 0.6510992646217346, 0.28024813532829285, -2.0, 0.3654208481311798, -2.0, -2.0, -2.0, -0.6974737346172333, -0.014553270884789526, -2.0, 1.3298132419586182, 0.1471274085342884, -2.0, -2.0, 0.4860667437314987, 0.4957752972841263, -0.2506193295121193, -0.11647279560565948, -2.0, 0.54429492354393, 0.2958299145102501, -2.0, -2.0, -2.0, 0.21520553098525852, -1.0586113929748535, -0.19361262023448944, -2.0, -1.0618199706077576, -2.0, 0.40662911534309387, -2.0, -2.0, -0.1366059146821499, -2.0, -1.0398291945457458, -2.0, -2.0, -2.0, 1.1201226711273193, -2.0, 0.2726711630821228, -2.0, -2.0, -0.22150951623916626, -2.0, 0.5129432082176208, -2.0, -2.0, -2.0, -0.24288005381822586, -1.3339688181877136, -2.0, -2.0, 0.8115330636501312, 1.2057673335075378, 0.983180582523346, 0.6942888498306274, -2.517295479774475, -2.0, 0.4646928235888481, 0.39252230525016785, -2.0, 0.1229565404355526, -2.0, -0.6751430630683899, -2.0, 0.6934815645217896, -2.0, 0.4860667437314987, -2.0, -2.0, -3.3483880758285522, -2.0, 0.6700703799724579, -2.0, 1.4483784139156342, -2.0, -2.0, -0.10514131933450699, -2.0, -0.03230522805824876, 3.1510125398635864, 0.9551320970058441, 0.8789531886577606, -2.0, 0.06716274097561836, 0.6954997777938843, -2.0, -2.0, -2.0, 0.020370761398226023, 0.8224661350250244, 0.9555877447128296, -2.0, -2.0, -2.0, -2.0, 0.9269043505191803, -2.0, 0.9639400243759155, -2.0, 0.4147290885448456, -2.0, -2.0, 0.9417736530303955, -2.0, 0.7572569251060486, -1.7001299858093262, 0.35257452726364136, -2.0, 0.8853354007005692, -2.0, -2.0, 0.5651792585849762, 0.5383468717336655, -2.0, -2.0, 1.03762948513031, 0.11385583505034447, -0.4591893255710602, -2.0, -2.0, -0.2668910026550293, -2.0, -0.19377002120018005, 0.43139567971229553, 1.3412404656410217, -2.0, -2.0, -2.0, -2.0, 0.7189109921455383, -2.0, -2.0, -4.642561435699463, -2.0, -2.0, 7.331759333610535, -2.0, -2.0, 0.47702863812446594, -2.0, 0.9390345513820648, 0.6846014857292175, -2.0, -2.0, -0.14549924386665225, -2.0, 1.3948259949684143, -2.0, 1.4685060381889343, -2.0, -2.0, -1.2474684715270996, -0.014206990599632263, -2.0, -2.0, 0.7439367771148682, -0.11150892078876495, -1.8334358930587769, 0.06588953360915184, -2.0, -2.0, 0.16277359426021576, 0.47431543469429016, 0.39174358546733856, -2.0, 0.05081982538104057, -2.0, -2.0, -0.180490180850029, -2.0, -2.0, -2.0, -1.9642229676246643, -2.0, 1.6187305450439453, -0.17410799115896225, -2.0, 1.6256692977622151, -2.0, -2.0, 0.1035500019788742, 0.42281171679496765, -2.0, -2.0, 0.9449039995670319, -0.03289198316633701, -2.0, -2.0, -2.0, 1.6573675274848938, -2.0, -0.648491159081459, -2.0, -2.0], "value": [[[3622.0, 3439.0]], [[151.0, 493.0]], [[45.0, 22.0]], [[0.0, 20.0]], [[45.0, 2.0]], [[43.0, 0.0]], [[2.0, 2.0]], [[0.0, 2.0]], [[2.0, 0.0]], [[106.0, 471.0]], [[36.0, 13.0]], [[0.0, 13.0]], [[36.0, 0.0]], [[70.0, 458.0]], [[12.0, 1.0]], [[12.0, 0.0]], [[0.0, 1.0]], [[58.0, 457.0]], [[46.0, 0.0]], [[12.0, 457.0]], [[0.0, 245.0]], [[12.0, 212.0]], [[9.0, 13.0]], [[0.0, 9.0]], [[9.0, 4.0]], [[0.0, 3.0]], [[9.0, 1.0]], [[9.0, 0.0]], [[0.0, 1.0]], [[3.0, 199.0]], [[2.0, 196.0]], [[2.0, 18.0]], [[0.0, 14.0]], [[2.0, 4.0]], [[2.0, 0.0]], [[0.0, 4.0]], [[0.0, 178.0]], [[1.0, 3.0]], [[1.0, 0.0]], [[0.0, 3.0]], [[3471.0, 2946.0]], [[1978.0, 461.0]], [[1693.0, 204.0]], [[1647.0, 106.0]], [[981.0, 0.0]], [[666.0, 106.0]], [[18.0, 77.0]], [[18.0, 0.0]], [[0.0, 77.0]], [[648.0, 29.0]], [[59.0, 22.0]], [[0.0, 22.0]], [[59.0, 0.0]], [[589.0, 7.0]], [[11.0, 3.0]], [[0.0, 3.0]], [[11.0, 0.0]], [[578.0, 4.0]], [[576.0, 0.0]], [[2.0, 4.0]], [[2.0, 0.0]], [[0.0, 4.0]], [[46.0, 98.0]], [[33.0, 0.0]], [[13.0, 98.0]], [[13.0, 9.0]], [[0.0, 5.0]], [[13.0, 4.0]], [[0.0, 4.0]], [[13.0, 0.0]], [[0.0, 89.0]], [[285.0, 257.0]], [[129.0, 257.0]], [[0.0, 94.0]], [[129.0, 163.0]], [[3.0, 76.0]], [[0.0, 76.0]], [[3.0, 0.0]], [[126.0, 87.0]], [[122.0, 42.0]], [[118.0, 22.0]], [[8.0, 14.0]], [[5.0, 0.0]], [[3.0, 14.0]], [[3.0, 4.0]], [[0.0, 4.0]], [[3.0, 0.0]], [[0.0, 10.0]], [[110.0, 8.0]], [[110.0, 7.0]], [[28.0, 6.0]], [[0.0, 3.0]], [[28.0, 3.0]], [[26.0, 0.0]], [[2.0, 3.0]], [[0.0, 3.0]], [[2.0, 0.0]], [[82.0, 1.0]], [[81.0, 0.0]], [[1.0, 1.0]], [[0.0, 1.0]], [[1.0, 0.0]], [[0.0, 1.0]], [[4.0, 20.0]], [[0.0, 19.0]], [[4.0, 1.0]], [[0.0, 1.0]], [[4.0, 0.0]], [[4.0, 45.0]], [[0.0, 37.0]], [[4.0, 8.0]], [[4.0, 0.0]], [[0.0, 8.0]], [[156.0, 0.0]], [[1493.0, 2485.0]], [[326.0, 20.0]], [[0.0, 20.0]], [[326.0, 0.0]], [[1167.0, 2465.0]], [[520.0, 2235.0]], [[437.0, 2206.0]], [[368.0, 2202.0]], [[62.0, 1558.0]], [[54.0, 0.0]], [[8.0, 1558.0]], [[4.0, 1488.0]], [[0.0, 1083.0]], [[4.0, 405.0]], [[0.0, 287.0]], [[4.0, 118.0]], [[2.0, 0.0]], [[2.0, 118.0]], [[0.0, 99.0]], [[2.0, 19.0]], [[0.0, 19.0]], [[2.0, 0.0]], [[4.0, 70.0]], [[2.0, 0.0]], [[2.0, 70.0]], [[0.0, 64.0]], [[2.0, 6.0]], [[0.0, 6.0]], [[2.0, 0.0]], [[306.0, 644.0]], [[0.0, 373.0]], [[306.0, 271.0]], [[231.0, 42.0]], [[222.0, 21.0]], [[211.0, 9.0]], [[0.0, 6.0]], [[211.0, 3.0]], [[12.0, 3.0]], [[0.0, 3.0]], [[12.0, 0.0]], [[199.0, 0.0]], [[11.0, 12.0]], [[11.0, 5.0]], [[11.0, 2.0]], [[11.0, 0.0]], [[0.0, 2.0]], [[0.0, 3.0]], [[0.0, 7.0]], [[9.0, 21.0]], [[7.0, 0.0]], [[2.0, 21.0]], [[1.0, 0.0]], [[1.0, 21.0]], [[0.0, 21.0]], [[1.0, 0.0]], [[75.0, 229.0]], [[10.0, 0.0]], [[65.0, 229.0]], [[46.0, 227.0]], [[18.0, 5.0]], [[17.0, 0.0]], [[1.0, 5.0]], [[0.0, 5.0]], [[1.0, 0.0]], [[28.0, 222.0]], [[17.0, 1.0]], [[17.0, 0.0]], [[0.0, 1.0]], [[11.0, 221.0]], [[7.0, 215.0]], [[3.0, 2.0]], [[0.0, 2.0]], [[3.0, 0.0]], [[4.0, 213.0]], [[3.0, 0.0]], [[1.0, 213.0]], [[1.0, 13.0]], [[1.0, 2.0]], [[0.0, 2.0]], [[1.0, 0.0]], [[0.0, 11.0]], [[0.0, 200.0]], [[4.0, 6.0]], [[4.0, 0.0]], [[0.0, 6.0]], [[19.0, 2.0]], [[0.0, 2.0]], [[19.0, 0.0]], [[69.0, 4.0]], [[69.0, 0.0]], [[0.0, 4.0]], [[83.0, 29.0]], [[0.0, 18.0]], [[83.0, 11.0]], [[2.0, 8.0]], [[0.0, 8.0]], [[2.0, 0.0]], [[81.0, 3.0]], [[0.0, 1.0]], [[81.0, 2.0]], [[76.0, 0.0]], [[5.0, 2.0]], [[0.0, 2.0]], [[5.0, 0.0]], [[647.0, 230.0]], [[278.0, 1.0]], [[278.0, 0.0]], [[0.0, 1.0]], [[369.0, 229.0]], [[196.0, 225.0]], [[99.0, 181.0]], [[10.0, 142.0]], [[0.0, 142.0]], [[10.0, 0.0]], [[89.0, 39.0]], [[89.0, 27.0]], [[70.0, 1.0]], [[56.0, 0.0]], [[14.0, 1.0]], [[0.0, 1.0]], [[14.0, 0.0]], [[19.0, 26.0]], [[0.0, 26.0]], [[19.0, 0.0]], [[0.0, 12.0]], [[97.0, 44.0]], [[0.0, 15.0]], [[97.0, 29.0]], [[11.0, 22.0]], [[0.0, 21.0]], [[11.0, 1.0]], [[11.0, 0.0]], [[0.0, 1.0]], [[86.0, 7.0]], [[2.0, 4.0]], [[2.0, 0.0]], [[0.0, 4.0]], [[84.0, 3.0]], [[40.0, 3.0]], [[0.0, 3.0]], [[40.0, 0.0]], [[44.0, 0.0]], [[173.0, 4.0]], [[172.0, 0.0]], [[1.0, 4.0]], [[1.0, 0.0]], [[0.0, 4.0]]]}, {"children_left": [1, 2, 3, 4, -1, 6, -1, -1, 9, -1, 11, -1, -1, 14, 15, -1, 17, -1, 19, -1, -1, 22, 23, 24, 25, -1, -1, 28, 29, -1, 31, -1, -1, 34, -1, 36, 37, 38, -1, -1, -1, -1, 43, 44, -1, 46, -1, -1, 49, 50, 51, 52, -1, -1, -1, 56, -1, 58, 59, -1, 61, -1, -1, 64, -1, 66, -1, 68, -1, -1, 71, 72, -1, 74, -1, -1, -1, 78, 79, -1, -1, 82, -1, 84, -1, -1, 87, -1, 89, 90, 91, -1, 93, 94, -1, 96, -1, -1, 99, -1, -1, 102, 103, 104, 105, -1, 107, 108, -1, -1, -1, -1, 113, -1, 115, 116, -1, -1, -1, 120, 121, 122, -1, -1, 125, 126, -1, 128, -1, 130, -1, 132, -1, -1, 135, -1, -1, -1, 139, 140, 141, -1, 143, -1, -1, 146, 147, -1, -1, -1, 151, 152, -1, 154, -1, -1, 157, 158, 159, -1, 161, -1, -1, 164, 165, 166, 167, 168, 169, 170, -1, 172, -1, -1, 175, -1, -1, -1, 179, -1, -1, 182, -1, 184, 185, -1, -1, 188, 189, -1, -1, -1, -1, 194, 195, 196, 197, -1, -1, -1, 201, -1, -1, 204, 205, 206, -1, -1, -1, -1, 211, 212, -1, 214, 215, -1, 217, 218, -1, -1, -1, -1, 223, -1, -1], "children_right": [86, 13, 8, 5, -1, 7, -1, -1, 10, -1, 12, -1, -1, 21, 16, -1, 18, -1, 20, -1, -1, 77, 42, 27, 26, -1, -1, 33, 30, -1, 32, -1, -1, 35, -1, 41, 40, 39, -1, -1, -1, -1, 48, 45, -1, 47, -1, -1, 70, 55, 54, 53, -1, -1, -1, 57, -1, 63, 60, -1, 62, -1, -1, 65, -1, 67, -1, 69, -1, -1, 76, 73, -1, 75, -1, -1, -1, 81, 80, -1, -1, 83, -1, 85, -1, -1, 88, -1, 138, 101, 92, -1, 98, 95, -1, 97, -1, -1, 100, -1, -1, 119, 112, 111, 106, -1, 110, 109, -1, -1, -1, -1, 114, -1, 118, 117, -1, -1, -1, 137, 124, 123, -1, -1, 134, 127, -1, 129, -1, 131, -1, 133, -1, -1, 136, -1, -1, -1, 150, 145, 142, -1, 144, -1, -1, 149, 148, -1, -1, -1, 156, 153, -1, 155, -1, -1, 210, 163, 160, -1, 162, -1, -1, 193, 192, 181, 178, 177, 174, 171, -1, 173, -1, -1, 176, -1, -1, -1, 180, -1, -1, 183, -1, 187, 186, -1, -1, 191, 190, -1, -1, -1, -1, 203, 200, 199, 198, -1, -1, -1, 202, -1, -1, 209, 208, 207, -1, -1, -1, -1, 222, 213, -1, 221, 216, -1, 220, 219, -1, -1, -1, -1, 224, -1, -1], "feature": [1, 2, 8, 7, -2, 0, -2, -2, 7, -2, 1, -2, -2, 14, 15, -2, 11, -2, 8, -2, -2, 15, 14, 0, 10, -2, -2, 14, 5, -2, 15, -2, -2, 15, -2, 7, 16, 7, -2, -2, -2, -2, 10, 3, -2, 14, -2, -2, 6, 13, 7, 8, -2, -2, -2, 4, -2, 5, 3, -2, 11, -2, -2, 0, -2, 10, -2, 10, -2, -2, 4, 8, -2, 9, -2, -2, -2, 8, 13, -2, -2, 15, -2, 10, -2, -2, 5, -2, 15, 7, 7, -2, 3, 1, -2, 15, -2, -2, 5, -2, -2, 15, 3, 15, 0, -2, 13, 7, -2, -2, -2, -2, 7, -2, 12, 15, -2, -2, -2, 14, 5, 14, -2, -2, 8, 5, -2, 5, -2, 14, -2, 6, -2, -2, 15, -2, -2, -2, 12, 10, 3, -2, 3, -2, -2, 15, 8, -2, -2, -2, 10, 15, -2, 1, -2, -2, 0, 15, 9, -2, 4, -2, -2, 6, 1, 11, 14, 5, 7, 13, -2, 0, -2, -2, 14, -2, -2, -2, 13, -2, -2, 10, -2, 9, 15, -2, -2, 15, 12, -2, -2, -2, -2, 13, 14, 7, 8, -2, -2, -2, 11, -2, -2, 3, 6, 7, -2, -2, -2, -2, 10, 7, -2, 15, 3, -2, 12, 6, -2, -2, -2, -2, 16, -2, -2], "threshold": [-0.06261848285794258, -0.14744092524051666, 1.475726306438446, -0.31106075644493103, -2.0, -0.5862658321857452, -2.0, -2.0, -0.31025347113609314, -2.0, -0.13539300486445427, -2.0, -2.0, -1.2100000977516174, -0.4581543803215027, -2.0, 0.6699716150760651, -2.0, -0.14834337681531906, -2.0, -2.0, 0.03275682218372822, 0.44673551619052887, -0.35477910935878754, -0.9399706646800041, -2.0, -2.0, -1.1681870818138123, 0.266516849398613, -2.0, -0.44209378957748413, -2.0, -2.0, -0.6462573707103729, -2.0, 0.7209292054176331, 0.4957752972841263, -0.3551383912563324, -2.0, -2.0, -2.0, -2.0, -0.05922859348356724, 0.9480343759059906, -2.0, 0.7889198660850525, -2.0, -2.0, 0.8308392763137817, 0.39174358546733856, 0.6999398469924927, 1.2663583159446716, -2.0, -2.0, -2.0, 0.04373844666406512, -2.0, 0.07327423617243767, -1.050785481929779, -2.0, 1.0652819275856018, -2.0, -2.0, -2.075206696987152, -2.0, 0.21520553098525852, -2.0, 0.6619587540626526, -2.0, -2.0, 3.9946738481521606, 1.5050770044326782, -2.0, 0.36820101737976074, -2.0, -2.0, -2.0, -0.6218673288822174, 0.4060017392039299, -2.0, -2.0, 3.1532185077667236, -2.0, -0.5161933451890945, -2.0, -2.0, -2.6542264223098755, -2.0, -0.08831692487001419, 0.6434300541877747, -0.39429163932800293, -2.0, 0.9449039995670319, 0.029562574811279774, -2.0, -0.36179083585739136, -2.0, -2.0, 0.2554648444056511, -2.0, -2.0, -0.44209378957748413, -1.0667503476142883, -0.6462573707103729, -0.15852685272693634, -2.0, 0.39174358546733856, 0.778246283531189, -2.0, -2.0, -2.0, -2.0, 0.7806681394577026, -2.0, 1.3668245673179626, -0.6462573707103729, -2.0, -2.0, -2.0, 0.19415051490068436, 0.26919612288475037, -0.9365086257457733, -2.0, -2.0, 0.029717281460762024, 0.6841486394405365, -2.0, 0.7497908174991608, -2.0, -1.2228000164031982, -2.0, 0.4468003064393997, -2.0, -2.0, -0.3697385638952255, -2.0, -2.0, -2.0, -0.8653689026832581, -0.17410799115896225, 0.9621210396289825, -2.0, 0.9762077033519745, -2.0, -2.0, 0.014590599108487368, 0.45236675441265106, -2.0, -2.0, -2.0, -0.17410799115896225, 0.6160370707511902, -2.0, 0.7827788777649403, -2.0, -2.0, 0.8719869256019592, -0.008736482472158968, 1.0295994877815247, -2.0, -1.2486236095428467, -2.0, -2.0, 0.7400266528129578, 2.9284143447875977, 0.40719306468963623, 0.8546261191368103, 0.49134139716625214, 0.6942888498306274, 0.39174358546733856, -2.0, 0.21844417601823807, -2.0, -2.0, 0.14593751169741154, -2.0, -2.0, -2.0, 0.5661317706108093, -2.0, -2.0, 0.9172463417053223, -2.0, 1.005577713251114, 0.028112048748880625, -2.0, -2.0, 0.020370761398226023, 0.8346841335296631, -2.0, -2.0, -2.0, -2.0, 0.7800040543079376, 0.08919123001396656, 0.6942888498306274, 0.5012845098972321, -2.0, -2.0, -2.0, 0.9784507751464844, -2.0, -2.0, 0.9261217713356018, 1.1361010074615479, 0.8771384656429291, -2.0, -2.0, -2.0, -2.0, 3.087190628051758, -0.400426983833313, -2.0, 0.09984798356890678, 0.9327737987041473, -2.0, 0.27457958459854126, 0.4861889183521271, -2.0, -2.0, -2.0, -2.0, 0.42281173169612885, -2.0, -2.0], "value": [[[3680.0, 3381.0]], [[884.0, 1649.0]], [[358.0, 15.0]], [[320.0, 5.0]], [[317.0, 0.0]], [[3.0, 5.0]], [[3.0, 0.0]], [[0.0, 5.0]], [[38.0, 10.0]], [[36.0, 0.0]], [[2.0, 10.0]], [[0.0, 10.0]], [[2.0, 0.0]], [[526.0, 1634.0]], [[154.0, 4.0]], [[0.0, 2.0]], [[154.0, 2.0]], [[146.0, 0.0]], [[8.0, 2.0]], [[0.0, 2.0]], [[8.0, 0.0]], [[372.0, 1630.0]], [[369.0, 753.0]], [[111.0, 435.0]], [[60.0, 1.0]], [[0.0, 1.0]], [[60.0, 0.0]], [[51.0, 434.0]], [[28.0, 95.0]], [[0.0, 58.0]], [[28.0, 37.0]], [[0.0, 37.0]], [[28.0, 0.0]], [[23.0, 339.0]], [[0.0, 274.0]], [[23.0, 65.0]], [[2.0, 65.0]], [[2.0, 3.0]], [[0.0, 3.0]], [[2.0, 0.0]], [[0.0, 62.0]], [[21.0, 0.0]], [[258.0, 318.0]], [[7.0, 295.0]], [[0.0, 251.0]], [[7.0, 44.0]], [[0.0, 44.0]], [[7.0, 0.0]], [[251.0, 23.0]], [[240.0, 16.0]], [[176.0, 1.0]], [[11.0, 1.0]], [[11.0, 0.0]], [[0.0, 1.0]], [[165.0, 0.0]], [[64.0, 15.0]], [[0.0, 8.0]], [[64.0, 7.0]], [[4.0, 5.0]], [[0.0, 4.0]], [[4.0, 1.0]], [[4.0, 0.0]], [[0.0, 1.0]], [[60.0, 2.0]], [[0.0, 1.0]], [[60.0, 1.0]], [[55.0, 0.0]], [[5.0, 1.0]], [[0.0, 1.0]], [[5.0, 0.0]], [[11.0, 7.0]], [[11.0, 3.0]], [[9.0, 0.0]], [[2.0, 3.0]], [[2.0, 0.0]], [[0.0, 3.0]], [[0.0, 4.0]], [[3.0, 877.0]], [[1.0, 27.0]], [[0.0, 27.0]], [[1.0, 0.0]], [[2.0, 850.0]], [[0.0, 846.0]], [[2.0, 4.0]], [[0.0, 4.0]], [[2.0, 0.0]], [[2796.0, 1732.0]], [[360.0, 0.0]], [[2436.0, 1732.0]], [[1718.0, 580.0]], [[1123.0, 14.0]], [[990.0, 0.0]], [[133.0, 14.0]], [[9.0, 13.0]], [[8.0, 0.0]], [[1.0, 13.0]], [[1.0, 0.0]], [[0.0, 13.0]], [[124.0, 1.0]], [[0.0, 1.0]], [[124.0, 0.0]], [[595.0, 566.0]], [[34.0, 266.0]], [[22.0, 24.0]], [[6.0, 24.0]], [[4.0, 0.0]], [[2.0, 24.0]], [[2.0, 3.0]], [[0.0, 3.0]], [[2.0, 0.0]], [[0.0, 21.0]], [[16.0, 0.0]], [[12.0, 242.0]], [[0.0, 186.0]], [[12.0, 56.0]], [[4.0, 56.0]], [[0.0, 56.0]], [[4.0, 0.0]], [[8.0, 0.0]], [[561.0, 300.0]], [[561.0, 198.0]], [[209.0, 184.0]], [[0.0, 184.0]], [[209.0, 0.0]], [[352.0, 14.0]], [[341.0, 2.0]], [[256.0, 0.0]], [[85.0, 2.0]], [[0.0, 1.0]], [[85.0, 1.0]], [[72.0, 0.0]], [[13.0, 1.0]], [[0.0, 1.0]], [[13.0, 0.0]], [[11.0, 12.0]], [[11.0, 0.0]], [[0.0, 12.0]], [[0.0, 102.0]], [[718.0, 1152.0]], [[241.0, 120.0]], [[3.0, 112.0]], [[0.0, 107.0]], [[3.0, 5.0]], [[3.0, 0.0]], [[0.0, 5.0]], [[238.0, 8.0]], [[6.0, 8.0]], [[0.0, 8.0]], [[6.0, 0.0]], [[232.0, 0.0]], [[477.0, 1032.0]], [[55.0, 513.0]], [[0.0, 502.0]], [[55.0, 11.0]], [[0.0, 11.0]], [[55.0, 0.0]], [[422.0, 519.0]], [[210.0, 500.0]], [[108.0, 1.0]], [[107.0, 0.0]], [[1.0, 1.0]], [[1.0, 0.0]], [[0.0, 1.0]], [[102.0, 499.0]], [[57.0, 419.0]], [[51.0, 419.0]], [[28.0, 383.0]], [[22.0, 382.0]], [[22.0, 115.0]], [[2.0, 114.0]], [[0.0, 93.0]], [[2.0, 21.0]], [[0.0, 21.0]], [[2.0, 0.0]], [[20.0, 1.0]], [[20.0, 0.0]], [[0.0, 1.0]], [[0.0, 267.0]], [[6.0, 1.0]], [[6.0, 0.0]], [[0.0, 1.0]], [[23.0, 36.0]], [[0.0, 23.0]], [[23.0, 13.0]], [[22.0, 1.0]], [[22.0, 0.0]], [[0.0, 1.0]], [[1.0, 12.0]], [[1.0, 2.0]], [[1.0, 0.0]], [[0.0, 2.0]], [[0.0, 10.0]], [[6.0, 0.0]], [[45.0, 80.0]], [[39.0, 26.0]], [[34.0, 3.0]], [[1.0, 3.0]], [[1.0, 0.0]], [[0.0, 3.0]], [[33.0, 0.0]], [[5.0, 23.0]], [[0.0, 23.0]], [[5.0, 0.0]], [[6.0, 54.0]], [[6.0, 3.0]], [[1.0, 3.0]], [[0.0, 3.0]], [[1.0, 0.0]], [[5.0, 0.0]], [[0.0, 51.0]], [[212.0, 19.0]], [[211.0, 7.0]], [[0.0, 4.0]], [[211.0, 3.0]], [[23.0, 3.0]], [[0.0, 2.0]], [[23.0, 1.0]], [[8.0, 1.0]], [[8.0, 0.0]], [[0.0, 1.0]], [[15.0, 0.0]], [[188.0, 0.0]], [[1.0, 12.0]], [[1.0, 0.0]], [[0.0, 12.0]]]}, {"children_left": [1, -1, 3, 4, 5, 6, 7, -1, -1, 10, -1, -1, 13, 14, -1, -1, 17, 18, -1, 20, -1, -1, 23, 24, 25, 26, 27, 28, -1, -1, 31, 32, -1, 34, -1, 36, -1, -1, 39, -1, 41, 42, 43, -1, -1, -1, 47, -1, -1, 50, 51, 52, -1, -1, 55, -1, -1, 58, -1, -1, 61, -1, 63, 64, -1, 66, 67, 68, -1, 70, 71, -1, -1, -1, -1, 76, 77, 78, -1, -1, -1, -1, -1, 84, 85, 86, -1, -1, 89, 90, 91, -1, -1, -1, 95, -1, -1, 98, 99, 100, 101, -1, -1, 104, 105, 106, -1, 108, -1, -1, -1, 112, -1, 114, -1, -1, -1, 118, 119, -1, -1, 122, -1, -1, 125, 126, 127, -1, -1, -1, 131, 132, -1, 134, 135, -1, -1, -1, 139, 140, 141, -1, -1, 144, -1, 146, 147, -1, -1, -1, 151, -1, -1, 154, 155, -1, 157, 158, 159, -1, -1, -1, 163, -1, -1, 166, -1, 168, 169, -1, -1, 172, 173, 174, 175, -1, 177, -1, 179, -1, -1, 182, -1, -1, -1, -1, 187, 188, 189, -1, -1, 192, 193, 194, -1, -1, 197, -1, 199, 200, 201, -1, 203, -1, -1, -1, 207, -1, 209, -1, -1, 212, 213, 214, -1, -1, 217, -1, -1, 220, -1, 222, 223, -1, 225, -1, -1, -1, 229, 230, 231, -1, -1, -1, 235, 236, -1, 238, -1, 240, 241, -1, 243, 244, -1, -1, -1, 248, 249, -1, 251, 252, -1, 254, -1, -1, -1, 258, 259, -1, 261, -1, -1, 264, -1, -1, 267, -1, -1], "children_right": [2, -1, 186, 153, 12, 9, 8, -1, -1, 11, -1, -1, 16, 15, -1, -1, 22, 19, -1, 21, -1, -1, 124, 83, 60, 49, 30, 29, -1, -1, 38, 33, -1, 35, -1, 37, -1, -1, 40, -1, 46, 45, 44, -1, -1, -1, 48, -1, -1, 57, 54, 53, -1, -1, 56, -1, -1, 59, -1, -1, 62, -1, 82, 65, -1, 75, 74, 69, -1, 73, 72, -1, -1, -1, -1, 81, 80, 79, -1, -1, -1, -1, -1, 97, 88, 87, -1, -1, 94, 93, 92, -1, -1, -1, 96, -1, -1, 117, 116, 103, 102, -1, -1, 111, 110, 107, -1, 109, -1, -1, -1, 113, -1, 115, -1, -1, -1, 121, 120, -1, -1, 123, -1, -1, 130, 129, 128, -1, -1, -1, 138, 133, -1, 137, 136, -1, -1, -1, 150, 143, 142, -1, -1, 145, -1, 149, 148, -1, -1, -1, 152, -1, -1, 165, 156, -1, 162, 161, 160, -1, -1, -1, 164, -1, -1, 167, -1, 171, 170, -1, -1, 185, 184, 181, 176, -1, 178, -1, 180, -1, -1, 183, -1, -1, -1, -1, 228, 191, 190, -1, -1, 211, 196, 195, -1, -1, 198, -1, 206, 205, 202, -1, 204, -1, -1, -1, 208, -1, 210, -1, -1, 219, 216, 215, -1, -1, 218, -1, -1, 221, -1, 227, 224, -1, 226, -1, -1, -1, 234, 233, 232, -1, -1, -1, 266, 237, -1, 239, -1, 247, 242, -1, 246, 245, -1, -1, -1, 257, 250, -1, 256, 253, -1, 255, -1, -1, -1, 263, 260, -1, 262, -1, -1, 265, -1, -1, 268, -1, -1], "feature": [10, -2, 4, 14, 14, 15, 15, -2, -2, 2, -2, -2, 11, 6, -2, -2, 4, 12, -2, 14, -2, -2, 15, 15, 0, 12, 6, 10, -2, -2, 0, 9, -2, 0, -2, 15, -2, -2, 5, -2, 3, 2, 15, -2, -2, -2, 9, -2, -2, 16, 14, 15, -2, -2, 4, -2, -2, 14, -2, -2, 7, -2, 5, 8, -2, 14, 8, 4, -2, 4, 16, -2, -2, -2, -2, 4, 13, 12, -2, -2, -2, -2, -2, 9, 10, 14, -2, -2, 10, 11, 13, -2, -2, -2, 3, -2, -2, 4, 7, 3, 8, -2, -2, 13, 0, 10, -2, 9, -2, -2, -2, 7, -2, 4, -2, -2, -2, 9, 1, -2, -2, 10, -2, -2, 0, 14, 2, -2, -2, -2, 12, 2, -2, 12, 11, -2, -2, -2, 6, 5, 3, -2, -2, 4, -2, 4, 13, -2, -2, -2, 1, -2, -2, 8, 2, -2, 4, 13, 15, -2, -2, -2, 15, -2, -2, 10, -2, 0, 15, -2, -2, 5, 12, 10, 2, -2, 11, -2, 0, -2, -2, 15, -2, -2, -2, -2, 14, 10, 15, -2, -2, 6, 10, 15, -2, -2, 2, -2, 10, 2, 10, -2, 15, -2, -2, -2, 10, -2, 3, -2, -2, 11, 3, 2, -2, -2, 9, -2, -2, 16, -2, 8, 5, -2, 2, -2, -2, -2, 13, 11, 11, -2, -2, -2, 0, 7, -2, 2, -2, 2, 14, -2, 13, 15, -2, -2, -2, 14, 12, -2, 5, 6, -2, 4, -2, -2, -2, 16, 6, -2, 12, -2, -2, 2, -2, -2, 15, -2, -2], "threshold": [-0.32791875302791595, -2.0, 0.47206416726112366, 0.845239520072937, -1.2100000977516174, -0.3777998089790344, -0.44209378957748413, -2.0, -2.0, 0.001789625734090805, -2.0, -2.0, -2.689023733139038, -2.086106240749359, -2.0, -2.0, -1.2611780166625977, -0.16873371228575706, -2.0, -0.1561404656386003, -2.0, -2.0, 0.022435104474425316, -0.12753944844007492, 0.3052043467760086, 0.5767564177513123, -1.8464921116828918, -0.18687237054109573, -2.0, -2.0, -0.18087990581989288, 0.02949453517794609, -2.0, -0.9427781701087952, -2.0, -0.35375021398067474, -2.0, -2.0, 0.27187539637088776, -2.0, 0.9488169550895691, 0.39807672426104546, -0.36179083585739136, -2.0, -2.0, -2.0, 0.050873879343271255, -2.0, -2.0, 0.4957752972841263, 0.3865759074687958, -0.6462573707103729, -2.0, -2.0, 0.3612902760505676, -2.0, -2.0, -0.48467162996530533, -2.0, -2.0, -0.3631305396556854, -2.0, 1.0374778509140015, 0.458236888051033, -2.0, 0.3865759074687958, 0.5502022802829742, 0.13974248245358467, -2.0, 0.18405203521251678, 0.4957753121852875, -2.0, -2.0, -2.0, -2.0, 0.30221086740493774, 0.2853558287024498, 1.0649767518043518, -2.0, -2.0, -2.0, -2.0, -2.0, 0.4634872376918793, 0.885335385799408, 0.22145701944828033, -2.0, -2.0, 1.4278214573860168, -0.16406463086605072, 0.43232448399066925, -2.0, -2.0, -2.0, 0.9261217713356018, -2.0, -2.0, -0.037495740223675966, 0.7665406763553619, 0.9210349321365356, 0.6715183109045029, -2.0, -2.0, 0.4860667437314987, 1.2728264927864075, 1.0193613767623901, -2.0, 0.7869799435138702, -2.0, -2.0, -2.0, 0.7007471323013306, -2.0, -0.7759883254766464, -2.0, -2.0, -2.0, 0.9687443971633911, -0.18876099586486816, -2.0, -2.0, 0.17053021304309368, -2.0, -2.0, -2.0524747371673584, 0.17708397656679153, -1.5786379277706146, -2.0, -2.0, -2.0, -0.40149375796318054, -2.517295479774475, -2.0, -0.43521519005298615, -0.2668910026550293, -2.0, -2.0, -2.0, 0.8713220059871674, -0.6414220333099365, -1.057633101940155, -2.0, -2.0, -0.1482696309685707, -2.0, -0.11872993037104607, 0.5968416705727577, -2.0, -2.0, -2.0, 0.01500767469406128, -2.0, -2.0, -0.6199106276035309, 0.34449536353349686, -2.0, -1.8334358930587769, -1.7074952721595764, 0.05835467949509621, -2.0, -2.0, -2.0, 0.05835467949509621, -2.0, -2.0, -0.18687237054109573, -2.0, -0.866247370839119, 0.00891365431016311, -2.0, -2.0, 1.0193927586078644, 1.267305314540863, -0.0464642159640789, 0.6558862775564194, -2.0, -0.11607898026704788, -2.0, 0.5154746249318123, -2.0, -2.0, 0.05835467949509621, -2.0, -2.0, -2.0, -2.0, -0.10280748829245567, -0.09752172976732254, -0.43406349420547485, -2.0, -2.0, 1.1032771468162537, 0.8470422625541687, -0.3376689702272415, -2.0, -2.0, -1.0926551818847656, -2.0, 1.6065227389335632, 0.37447259947657585, 1.0065969824790955, -2.0, -0.35375021398067474, -2.0, -2.0, -2.0, 3.642441153526306, -2.0, 0.9515560269355774, -2.0, -2.0, 1.830767273902893, 0.9413823187351227, -2.517295479774475, -2.0, -2.0, 1.8855739831924438, -2.0, -2.0, 0.3670160323381424, -2.0, 3.301337242126465, 1.1972295641899109, -2.0, -1.026039082556963, -2.0, -2.0, -2.0, 0.21845219284296036, 1.7050905227661133, -1.7681562900543213, -2.0, -2.0, -2.0, 1.85362708568573, -1.3552003502845764, -2.0, -2.517295479774475, -2.0, 0.01752571202814579, 0.2884432300925255, -2.0, 1.3196203112602234, 0.020370761398226023, -2.0, -2.0, -2.0, 0.7718533277511597, 1.279642403125763, -2.0, -0.14374693110585213, 0.7268970906734467, -2.0, 2.717081665992737, -2.0, -2.0, -2.0, 0.5859068036079407, 0.8713220059871674, -2.0, 1.1307746171951294, -2.0, -2.0, 0.6558862775564194, -2.0, -2.0, 0.05835467949509621, -2.0, -2.0], "value": [[[3634.0, 3427.0]], [[0.0, 847.0]], [[3634.0, 2580.0]], [[2310.0, 2259.0]], [[1540.0, 2035.0]], [[610.0, 137.0]], [[480.0, 22.0]], [[0.0, 22.0]], [[480.0, 0.0]], [[130.0, 115.0]], [[0.0, 115.0]], [[130.0, 0.0]], [[930.0, 1898.0]], [[216.0, 1.0]], [[0.0, 1.0]], [[216.0, 0.0]], [[714.0, 1897.0]], [[122.0, 6.0]], [[121.0, 0.0]], [[1.0, 6.0]], [[0.0, 6.0]], [[1.0, 0.0]], [[592.0, 1891.0]], [[511.0, 1246.0]], [[219.0, 945.0]], [[197.0, 449.0]], [[44.0, 342.0]], [[15.0, 11.0]], [[15.0, 0.0]], [[0.0, 11.0]], [[29.0, 331.0]], [[6.0, 234.0]], [[0.0, 169.0]], [[6.0, 65.0]], [[0.0, 63.0]], [[6.0, 2.0]], [[6.0, 0.0]], [[0.0, 2.0]], [[23.0, 97.0]], [[0.0, 81.0]], [[23.0, 16.0]], [[22.0, 2.0]], [[22.0, 1.0]], [[22.0, 0.0]], [[0.0, 1.0]], [[0.0, 1.0]], [[1.0, 14.0]], [[1.0, 0.0]], [[0.0, 14.0]], [[153.0, 107.0]], [[152.0, 57.0]], [[19.0, 53.0]], [[0.0, 53.0]], [[19.0, 0.0]], [[133.0, 4.0]], [[133.0, 0.0]], [[0.0, 4.0]], [[1.0, 50.0]], [[1.0, 0.0]], [[0.0, 50.0]], [[22.0, 496.0]], [[2.0, 0.0]], [[20.0, 496.0]], [[19.0, 496.0]], [[0.0, 293.0]], [[19.0, 203.0]], [[1.0, 166.0]], [[1.0, 35.0]], [[0.0, 21.0]], [[1.0, 14.0]], [[1.0, 1.0]], [[1.0, 0.0]], [[0.0, 1.0]], [[0.0, 13.0]], [[0.0, 131.0]], [[18.0, 37.0]], [[18.0, 5.0]], [[1.0, 5.0]], [[0.0, 5.0]], [[1.0, 0.0]], [[17.0, 0.0]], [[0.0, 32.0]], [[1.0, 0.0]], [[292.0, 301.0]], [[201.0, 52.0]], [[16.0, 48.0]], [[0.0, 48.0]], [[16.0, 0.0]], [[185.0, 4.0]], [[184.0, 1.0]], [[6.0, 1.0]], [[6.0, 0.0]], [[0.0, 1.0]], [[178.0, 0.0]], [[1.0, 3.0]], [[1.0, 0.0]], [[0.0, 3.0]], [[91.0, 249.0]], [[31.0, 242.0]], [[20.0, 242.0]], [[5.0, 2.0]], [[5.0, 0.0]], [[0.0, 2.0]], [[15.0, 240.0]], [[14.0, 87.0]], [[10.0, 87.0]], [[0.0, 83.0]], [[10.0, 4.0]], [[0.0, 4.0]], [[10.0, 0.0]], [[4.0, 0.0]], [[1.0, 153.0]], [[0.0, 92.0]], [[1.0, 61.0]], [[1.0, 0.0]], [[0.0, 61.0]], [[11.0, 0.0]], [[60.0, 7.0]], [[2.0, 6.0]], [[2.0, 0.0]], [[0.0, 6.0]], [[58.0, 1.0]], [[58.0, 0.0]], [[0.0, 1.0]], [[81.0, 645.0]], [[48.0, 35.0]], [[2.0, 35.0]], [[2.0, 0.0]], [[0.0, 35.0]], [[46.0, 0.0]], [[33.0, 610.0]], [[26.0, 51.0]], [[21.0, 0.0]], [[5.0, 51.0]], [[3.0, 51.0]], [[3.0, 0.0]], [[0.0, 51.0]], [[2.0, 0.0]], [[7.0, 559.0]], [[2.0, 555.0]], [[1.0, 1.0]], [[1.0, 0.0]], [[0.0, 1.0]], [[1.0, 554.0]], [[0.0, 393.0]], [[1.0, 161.0]], [[1.0, 1.0]], [[1.0, 0.0]], [[0.0, 1.0]], [[0.0, 160.0]], [[5.0, 4.0]], [[5.0, 0.0]], [[0.0, 4.0]], [[770.0, 224.0]], [[170.0, 177.0]], [[99.0, 0.0]], [[71.0, 177.0]], [[17.0, 143.0]], [[17.0, 53.0]], [[0.0, 53.0]], [[17.0, 0.0]], [[0.0, 90.0]], [[54.0, 34.0]], [[0.0, 34.0]], [[54.0, 0.0]], [[600.0, 47.0]], [[0.0, 24.0]], [[600.0, 23.0]], [[2.0, 10.0]], [[2.0, 0.0]], [[0.0, 10.0]], [[598.0, 13.0]], [[598.0, 5.0]], [[598.0, 4.0]], [[581.0, 1.0]], [[567.0, 0.0]], [[14.0, 1.0]], [[13.0, 0.0]], [[1.0, 1.0]], [[1.0, 0.0]], [[0.0, 1.0]], [[17.0, 3.0]], [[0.0, 3.0]], [[17.0, 0.0]], [[0.0, 1.0]], [[0.0, 8.0]], [[1324.0, 321.0]], [[1263.0, 150.0]], [[119.0, 102.0]], [[0.0, 102.0]], [[119.0, 0.0]], [[1144.0, 48.0]], [[1110.0, 18.0]], [[1081.0, 1.0]], [[1081.0, 0.0]], [[0.0, 1.0]], [[29.0, 17.0]], [[0.0, 8.0]], [[29.0, 9.0]], [[8.0, 7.0]], [[8.0, 2.0]], [[0.0, 1.0]], [[8.0, 1.0]], [[8.0, 0.0]], [[0.0, 1.0]], [[0.0, 5.0]], [[21.0, 2.0]], [[17.0, 0.0]], [[4.0, 2.0]], [[4.0, 0.0]], [[0.0, 2.0]], [[34.0, 30.0]], [[27.0, 7.0]], [[9.0, 6.0]], [[9.0, 0.0]], [[0.0, 6.0]], [[18.0, 1.0]], [[18.0, 0.0]], [[0.0, 1.0]], [[7.0, 23.0]], [[2.0, 0.0]], [[5.0, 23.0]], [[2.0, 23.0]], [[0.0, 22.0]], [[2.0, 1.0]], [[0.0, 1.0]], [[2.0, 0.0]], [[3.0, 0.0]], [[61.0, 171.0]], [[18.0, 3.0]], [[18.0, 1.0]], [[0.0, 1.0]], [[18.0, 0.0]], [[0.0, 2.0]], [[43.0, 168.0]], [[34.0, 165.0]], [[3.0, 0.0]], [[31.0, 165.0]], [[11.0, 0.0]], [[20.0, 165.0]], [[12.0, 37.0]], [[0.0, 31.0]], [[12.0, 6.0]], [[12.0, 1.0]], [[12.0, 0.0]], [[0.0, 1.0]], [[0.0, 5.0]], [[8.0, 128.0]], [[3.0, 107.0]], [[0.0, 79.0]], [[3.0, 28.0]], [[3.0, 7.0]], [[2.0, 0.0]], [[1.0, 7.0]], [[1.0, 0.0]], [[0.0, 7.0]], [[0.0, 21.0]], [[5.0, 21.0]], [[3.0, 20.0]], [[0.0, 19.0]], [[3.0, 1.0]], [[3.0, 0.0]], [[0.0, 1.0]], [[2.0, 1.0]], [[0.0, 1.0]], [[2.0, 0.0]], [[9.0, 3.0]], [[0.0, 3.0]], [[9.0, 0.0]]]}, {"children_left": [1, 2, 3, -1, 5, -1, 7, -1, -1, 10, -1, 12, 13, 14, 15, 16, -1, -1, -1, 20, 21, -1, -1, -1, 25, 26, -1, -1, -1, 30, -1, 32, -1, 34, 35, -1, -1, 38, -1, -1, 41, 42, -1, 44, -1, 46, -1, 48, 49, -1, -1, -1, 53, 54, 55, -1, 57, 58, -1, -1, -1, 62, 63, -1, 65, -1, -1, 68, -1, 70, 71, -1, -1, -1, 75, 76, 77, 78, 79, -1, 81, -1, 83, -1, -1, 86, -1, -1, 89, 90, 91, 92, -1, 94, -1, -1, -1, 98, 99, -1, -1, 102, -1, 104, -1, 106, -1, -1, 109, -1, 111, -1, 113, -1, -1, 116, 117, 118, 119, 120, -1, 122, -1, -1, 125, -1, 127, -1, -1, 130, -1, 132, -1, -1, 135, 136, -1, 138, -1, -1, -1, 142, 143, 144, 145, -1, 147, -1, 149, -1, 151, -1, -1, 154, 155, 156, -1, -1, -1, 160, 161, 162, -1, -1, 165, -1, 167, -1, -1, -1, 171, 172, 173, -1, -1, 176, -1, 178, -1, -1, 181, 182, 183, 184, -1, 186, -1, -1, 189, -1, -1, 192, 193, -1, 195, -1, -1, 198, -1, 200, -1, -1, 203, -1, 205, 206, -1, 208, -1, -1, -1, -1, 213, -1, 215, -1, -1], "children_right": [40, 9, 4, -1, 6, -1, 8, -1, -1, 11, -1, 29, 24, 19, 18, 17, -1, -1, -1, 23, 22, -1, -1, -1, 28, 27, -1, -1, -1, 31, -1, 33, -1, 37, 36, -1, -1, 39, -1, -1, 52, 43, -1, 45, -1, 47, -1, 51, 50, -1, -1, -1, 74, 61, 56, -1, 60, 59, -1, -1, -1, 67, 64, -1, 66, -1, -1, 69, -1, 73, 72, -1, -1, -1, 212, 115, 88, 85, 80, -1, 82, -1, 84, -1, -1, 87, -1, -1, 108, 97, 96, 93, -1, 95, -1, -1, -1, 101, 100, -1, -1, 103, -1, 105, -1, 107, -1, -1, 110, -1, 112, -1, 114, -1, -1, 141, 134, 129, 124, 121, -1, 123, -1, -1, 126, -1, 128, -1, -1, 131, -1, 133, -1, -1, 140, 137, -1, 139, -1, -1, -1, 211, 170, 153, 146, -1, 148, -1, 150, -1, 152, -1, -1, 159, 158, 157, -1, -1, -1, 169, 164, 163, -1, -1, 166, -1, 168, -1, -1, -1, 180, 175, 174, -1, -1, 177, -1, 179, -1, -1, 202, 191, 188, 185, -1, 187, -1, -1, 190, -1, -1, 197, 194, -1, 196, -1, -1, 199, -1, 201, -1, -1, 204, -1, 210, 207, -1, 209, -1, -1, -1, -1, 214, -1, 216, -1, -1], "feature": [10, 13, 15, -2, 15, -2, 9, -2, -2, 10, -2, 15, 11, 9, 8, 1, -2, -2, -2, 10, 0, -2, -2, -2, 5, 15, -2, -2, -2, 10, -2, 15, -2, 7, 16, -2, -2, 14, -2, -2, 15, 14, -2, 4, -2, 12, -2, 3, 4, -2, -2, -2, 15, 6, 3, -2, 15, 0, -2, -2, -2, 1, 3, -2, 5, -2, -2, 4, -2, 11, 8, -2, -2, -2, 7, 5, 4, 16, 5, -2, 9, -2, 16, -2, -2, 15, -2, -2, 9, 10, 15, 2, -2, 3, -2, -2, -2, 7, 3, -2, -2, 15, -2, 3, -2, 9, -2, -2, 5, -2, 15, -2, 5, -2, -2, 3, 12, 9, 8, 11, -2, 14, -2, -2, 3, -2, 7, -2, -2, 5, -2, 1, -2, -2, 4, 10, -2, 4, -2, -2, -2, 3, 3, 8, 10, -2, 7, -2, 10, -2, 14, -2, -2, 15, 8, 9, -2, -2, -2, 15, 11, 1, -2, -2, 7, -2, 16, -2, -2, -2, 1, 12, 0, -2, -2, 1, -2, 12, -2, -2, 4, 10, 4, 7, -2, 2, -2, -2, 8, -2, -2, 5, 4, -2, 11, -2, -2, 16, -2, 1, -2, -2, 15, -2, 0, 12, -2, 7, -2, -2, -2, -2, 11, -2, 11, -2, -2], "threshold": [-0.17410799115896225, -2.2613697052001953, -0.3616979420185089, -2.0, -0.1308423951268196, -2.0, -0.5045887231826782, -2.0, -2.0, -0.32791875302791595, -2.0, -0.36173921823501587, -0.2714610695838928, 0.028693811036646366, -1.1032180786132812, 0.0695885643362999, -2.0, -2.0, -2.0, -0.2009131908416748, 0.47645148634910583, -2.0, -2.0, -2.0, 0.2909652143716812, -0.43406349420547485, -2.0, -2.0, -2.0, -0.2698408216238022, -2.0, -0.14333167672157288, -2.0, -1.2961072325706482, 0.5601549446582794, -2.0, -2.0, -0.691603533923626, -2.0, -2.0, -0.6891027987003326, 0.44673551619052887, -2.0, 0.10281785577535629, -2.0, 1.2664827704429626, -2.0, -1.0536027550697327, 0.3760601282119751, -2.0, -2.0, -2.0, -0.3420247435569763, 0.3133166879415512, 0.9480343759059906, -2.0, -0.44209378957748413, -0.24528701417148113, -2.0, -2.0, -2.0, -0.4687003046274185, 0.9488169848918915, -2.0, 1.1406298875808716, -2.0, -2.0, 1.9933589100837708, -2.0, 0.27237625420093536, -0.6257807314395905, -2.0, -2.0, -2.0, 0.7645224928855896, 0.37335288524627686, -0.25830502808094025, 0.6459944844245911, 0.36196596920490265, -2.0, -0.2819872945547104, -2.0, -0.8278700560331345, -2.0, -2.0, 0.08415897272061557, -2.0, -2.0, -0.3812771439552307, 1.1533873081207275, 0.8477596342563629, -0.10626483336091042, -2.0, 0.9492082595825195, -2.0, -2.0, -2.0, -1.33768230676651, -1.0752806067466736, -2.0, -2.0, 0.1165691651403904, -2.0, -1.05771142244339, -2.0, -2.1260558366775513, -2.0, -2.0, 0.18613863736391068, -2.0, -0.15912390500307083, -2.0, 0.29397939145565033, -2.0, -2.0, 0.9229913949966431, 0.0928129069507122, 1.61332768201828, 0.14320649206638336, -0.76731276512146, -2.0, 0.8298796117305756, -2.0, -2.0, 0.9159480929374695, -2.0, 0.693077951669693, -2.0, -2.0, 0.8010319471359253, -2.0, 0.2697184905409813, -2.0, -2.0, -0.18667124956846237, 1.1916804909706116, -2.0, -1.15409654378891, -2.0, -2.0, -2.0, 0.9515560567378998, 0.935512900352478, 0.7439166307449341, -0.11028610914945602, -2.0, 0.6950961351394653, -2.0, 1.172533929347992, -2.0, -0.45096516609191895, -2.0, -2.0, 0.0046817505499348044, 2.0960036516189575, 0.1520053893327713, -2.0, -2.0, -2.0, 0.020370761398226023, 1.035576581954956, 0.3230864703655243, -2.0, -2.0, 0.6967107057571411, -2.0, 0.5172351896762848, -2.0, -2.0, -2.0, -4.537038326263428, -0.9525510966777802, -0.139204740524292, -2.0, -2.0, -4.746871709823608, -2.0, 0.26224248111248016, -2.0, -2.0, 0.30221086740493774, -0.05922859348356724, 0.250516377389431, 0.7568532824516296, -2.0, 0.41486188350245357, -2.0, -2.0, 0.5404187142848969, -2.0, -2.0, 0.75849848985672, -1.083201289176941, -2.0, -1.6287693977355957, -2.0, -2.0, 0.542987048625946, -2.0, -4.262921333312988, -2.0, -2.0, -0.0009951942483894527, -2.0, 1.4520297646522522, 1.018918216228485, -2.0, 0.7532205283641815, -2.0, -2.0, -2.0, -2.0, 0.1695498675107956, -2.0, 0.8984746932983398, -2.0, -2.0], "value": [[[3585.0, 3476.0]], [[659.0, 1898.0]], [[132.0, 16.0]], [[124.0, 0.0]], [[8.0, 16.0]], [[0.0, 13.0]], [[8.0, 3.0]], [[0.0, 3.0]], [[8.0, 0.0]], [[527.0, 1882.0]], [[0.0, 804.0]], [[527.0, 1078.0]], [[359.0, 25.0]], [[23.0, 19.0]], [[3.0, 16.0]], [[3.0, 1.0]], [[3.0, 0.0]], [[0.0, 1.0]], [[0.0, 15.0]], [[20.0, 3.0]], [[1.0, 3.0]], [[0.0, 3.0]], [[1.0, 0.0]], [[19.0, 0.0]], [[336.0, 6.0]], [[1.0, 6.0]], [[0.0, 6.0]], [[1.0, 0.0]], [[335.0, 0.0]], [[168.0, 1053.0]], [[112.0, 0.0]], [[56.0, 1053.0]], [[0.0, 451.0]], [[56.0, 602.0]], [[39.0, 5.0]], [[39.0, 0.0]], [[0.0, 5.0]], [[17.0, 597.0]], [[17.0, 0.0]], [[0.0, 597.0]], [[2926.0, 1578.0]], [[97.0, 485.0]], [[0.0, 439.0]], [[97.0, 46.0]], [[0.0, 31.0]], [[97.0, 15.0]], [[0.0, 8.0]], [[97.0, 7.0]], [[32.0, 7.0]], [[32.0, 0.0]], [[0.0, 7.0]], [[65.0, 0.0]], [[2829.0, 1093.0]], [[1449.0, 138.0]], [[500.0, 119.0]], [[419.0, 0.0]], [[81.0, 119.0]], [[1.0, 119.0]], [[1.0, 0.0]], [[0.0, 119.0]], [[80.0, 0.0]], [[949.0, 19.0]], [[8.0, 9.0]], [[7.0, 0.0]], [[1.0, 9.0]], [[0.0, 9.0]], [[1.0, 0.0]], [[941.0, 10.0]], [[885.0, 0.0]], [[56.0, 10.0]], [[3.0, 10.0]], [[3.0, 0.0]], [[0.0, 10.0]], [[53.0, 0.0]], [[1380.0, 955.0]], [[1069.0, 951.0]], [[672.0, 288.0]], [[549.0, 11.0]], [[539.0, 5.0]], [[510.0, 0.0]], [[29.0, 5.0]], [[26.0, 0.0]], [[3.0, 5.0]], [[3.0, 0.0]], [[0.0, 5.0]], [[10.0, 6.0]], [[0.0, 6.0]], [[10.0, 0.0]], [[123.0, 277.0]], [[52.0, 258.0]], [[10.0, 197.0]], [[7.0, 197.0]], [[6.0, 0.0]], [[1.0, 197.0]], [[0.0, 197.0]], [[1.0, 0.0]], [[3.0, 0.0]], [[42.0, 61.0]], [[1.0, 43.0]], [[1.0, 0.0]], [[0.0, 43.0]], [[41.0, 18.0]], [[0.0, 12.0]], [[41.0, 6.0]], [[0.0, 3.0]], [[41.0, 3.0]], [[0.0, 3.0]], [[41.0, 0.0]], [[71.0, 19.0]], [[59.0, 0.0]], [[12.0, 19.0]], [[0.0, 18.0]], [[12.0, 1.0]], [[0.0, 1.0]], [[12.0, 0.0]], [[397.0, 663.0]], [[136.0, 46.0]], [[131.0, 15.0]], [[129.0, 10.0]], [[11.0, 5.0]], [[10.0, 0.0]], [[1.0, 5.0]], [[0.0, 5.0]], [[1.0, 0.0]], [[118.0, 5.0]], [[102.0, 0.0]], [[16.0, 5.0]], [[0.0, 5.0]], [[16.0, 0.0]], [[2.0, 5.0]], [[0.0, 4.0]], [[2.0, 1.0]], [[0.0, 1.0]], [[2.0, 0.0]], [[5.0, 31.0]], [[1.0, 31.0]], [[0.0, 28.0]], [[1.0, 3.0]], [[1.0, 0.0]], [[0.0, 3.0]], [[4.0, 0.0]], [[261.0, 617.0]], [[191.0, 617.0]], [[67.0, 389.0]], [[16.0, 260.0]], [[4.0, 0.0]], [[12.0, 260.0]], [[0.0, 257.0]], [[12.0, 3.0]], [[10.0, 0.0]], [[2.0, 3.0]], [[2.0, 0.0]], [[0.0, 3.0]], [[51.0, 129.0]], [[5.0, 62.0]], [[3.0, 62.0]], [[3.0, 0.0]], [[0.0, 62.0]], [[2.0, 0.0]], [[46.0, 67.0]], [[46.0, 27.0]], [[38.0, 8.0]], [[38.0, 0.0]], [[0.0, 8.0]], [[8.0, 19.0]], [[0.0, 18.0]], [[8.0, 1.0]], [[8.0, 0.0]], [[0.0, 1.0]], [[0.0, 40.0]], [[124.0, 228.0]], [[38.0, 6.0]], [[1.0, 5.0]], [[0.0, 5.0]], [[1.0, 0.0]], [[37.0, 1.0]], [[34.0, 0.0]], [[3.0, 1.0]], [[3.0, 0.0]], [[0.0, 1.0]], [[86.0, 222.0]], [[83.0, 123.0]], [[4.0, 112.0]], [[2.0, 102.0]], [[0.0, 88.0]], [[2.0, 14.0]], [[0.0, 14.0]], [[2.0, 0.0]], [[2.0, 10.0]], [[0.0, 10.0]], [[2.0, 0.0]], [[79.0, 11.0]], [[19.0, 10.0]], [[0.0, 9.0]], [[19.0, 1.0]], [[0.0, 1.0]], [[19.0, 0.0]], [[60.0, 1.0]], [[44.0, 0.0]], [[16.0, 1.0]], [[0.0, 1.0]], [[16.0, 0.0]], [[3.0, 99.0]], [[0.0, 79.0]], [[3.0, 20.0]], [[1.0, 20.0]], [[0.0, 17.0]], [[1.0, 3.0]], [[0.0, 3.0]], [[1.0, 0.0]], [[2.0, 0.0]], [[70.0, 0.0]], [[311.0, 4.0]], [[306.0, 0.0]], [[5.0, 4.0]], [[0.0, 4.0]], [[5.0, 0.0]]]}, {"children_left": [1, 2, 3, -1, 5, 6, -1, 8, -1, -1, 11, 12, -1, 14, 15, -1, -1, -1, -1, 20, 21, 22, 23, 24, -1, 26, -1, -1, -1, 30, -1, -1, 33, 34, -1, 36, -1, -1, 39, -1, -1, 42, 43, 44, -1, 46, 47, 48, -1, -1, -1, 52, -1, -1, 55, -1, 57, -1, -1, 60, -1, -1, 63, 64, 65, 66, -1, 68, -1, -1, 71, -1, -1, 74, -1, 76, 77, 78, 79, -1, 81, -1, -1, -1, -1, 86, 87, -1, 89, 90, -1, 92, -1, -1, -1, 96, -1, -1, 99, 100, 101, 102, 103, 104, 105, 106, -1, -1, -1, 110, 111, 112, -1, 114, -1, -1, 117, 118, 119, -1, -1, -1, -1, 124, -1, 126, -1, -1, -1, 130, 131, -1, -1, -1, 135, -1, 137, 138, -1, 140, -1, -1, -1, 144, 145, 146, 147, -1, -1, -1, 151, -1, 153, -1, -1, 156, -1, 158, 159, -1, 161, -1, 163, -1, -1, 166, 167, -1, -1, -1, 171, -1, 173, 174, -1, 176, -1, 178, -1, -1, 181, -1, 183, -1, -1], "children_right": [62, 19, 4, -1, 10, 7, -1, 9, -1, -1, 18, 13, -1, 17, 16, -1, -1, -1, -1, 41, 32, 29, 28, 25, -1, 27, -1, -1, -1, 31, -1, -1, 38, 35, -1, 37, -1, -1, 40, -1, -1, 59, 54, 45, -1, 51, 50, 49, -1, -1, -1, 53, -1, -1, 56, -1, 58, -1, -1, 61, -1, -1, 98, 73, 70, 67, -1, 69, -1, -1, 72, -1, -1, 75, -1, 85, 84, 83, 80, -1, 82, -1, -1, -1, -1, 95, 88, -1, 94, 91, -1, 93, -1, -1, -1, 97, -1, -1, 170, 143, 134, 129, 128, 109, 108, 107, -1, -1, -1, 123, 116, 113, -1, 115, -1, -1, 122, 121, 120, -1, -1, -1, -1, 125, -1, 127, -1, -1, -1, 133, 132, -1, -1, -1, 136, -1, 142, 139, -1, 141, -1, -1, -1, 155, 150, 149, 148, -1, -1, -1, 152, -1, 154, -1, -1, 157, -1, 165, 160, -1, 162, -1, 164, -1, -1, 169, 168, -1, -1, -1, 172, -1, 180, 175, -1, 177, -1, 179, -1, -1, 182, -1, 184, -1, -1], "feature": [15, 15, 10, -2, 0, 14, -2, 9, -2, -2, 16, 14, -2, 9, 6, -2, -2, -2, -2, 3, 16, 15, 16, 0, -2, 6, -2, -2, -2, 5, -2, -2, 0, 3, -2, 5, -2, -2, 9, -2, -2, 13, 13, 0, -2, 5, 5, 6, -2, -2, -2, 16, -2, -2, 1, -2, 10, -2, -2, 15, -2, -2, 2, 5, 5, 6, -2, 14, -2, -2, 0, -2, -2, 10, -2, 5, 15, 6, 5, -2, 13, -2, -2, -2, -2, 14, 10, -2, 3, 4, -2, 6, -2, -2, -2, 15, -2, -2, 14, 1, 0, 7, 3, 5, 11, 6, -2, -2, -2, 13, 8, 10, -2, 4, -2, -2, 4, 15, 16, -2, -2, -2, -2, 4, -2, 8, -2, -2, -2, 8, 2, -2, -2, -2, 7, -2, 13, 11, -2, 10, -2, -2, -2, 7, 3, 7, 13, -2, -2, -2, 1, -2, 7, -2, -2, 3, -2, 0, 10, -2, 10, -2, 3, -2, -2, 10, 10, -2, -2, -2, 10, -2, 10, 8, -2, 2, -2, 3, -2, -2, 4, -2, 15, -2, -2], "threshold": [-0.3260260820388794, -0.6891027987003326, -0.014553270884789526, -2.0, 0.3070986717939377, 0.3865759074687958, -2.0, -1.4814726114273071, -2.0, -2.0, 0.4957752972841263, 0.44673551619052887, -2.0, -0.6375089883804321, 0.3931880295276642, -2.0, -2.0, -2.0, -2.0, 0.9488169550895691, 0.5773228406906128, -0.3420247435569763, -2.127909541130066, 0.47645148634910583, -2.0, -2.03358793258667, -2.0, -2.0, -2.0, 0.1992001011967659, -2.0, -2.0, 0.6048868596553802, 0.9480343759059906, -2.0, 0.4842078238725662, -2.0, -2.0, -0.9746140092611313, -2.0, -2.0, 0.35225947201251984, 0.13838716968894005, 0.06083619315177202, -2.0, 0.2608233913779259, 0.22230883687734604, -2.127683103084564, -2.0, -2.0, -2.0, 0.20649612322449684, -2.0, -2.0, 0.08171764761209488, -2.0, -0.034976281225681305, -2.0, -2.0, -0.45816469192504883, -2.0, -2.0, -0.1414087563753128, 0.3807208985090256, 0.3686641603708267, 0.5802839398384094, -2.0, 0.42028234899044037, -2.0, -2.0, 0.30444660782814026, -2.0, -2.0, 0.3619958907365799, -2.0, 0.5021254867315292, 0.020370761398226023, 0.6601552665233612, 0.4644481986761093, -2.0, 0.5792931318283081, -2.0, -2.0, -2.0, -2.0, 0.3456161767244339, 1.1916804909706116, -2.0, 0.9214262366294861, -1.1659124493598938, -2.0, 0.4468003213405609, -2.0, -2.0, -2.0, 0.020370761398226023, -2.0, -2.0, 0.8887592256069183, 0.342493012547493, 1.2019786834716797, 0.7572569251060486, 0.9542950987815857, 0.5247988402843475, -1.9692389369010925, -0.33987775444984436, -2.0, -2.0, -2.0, 0.43232448399066925, 0.17842727899551392, -0.05922859348356724, -2.0, -0.01681794971227646, -2.0, -2.0, 0.30221086740493774, 0.04751687869429588, -1.8600903153419495, -2.0, -2.0, -2.0, -2.0, 2.222291588783264, -2.0, 1.2193972766399384, -2.0, -2.0, -2.0, -0.8958067893981934, 0.018574784975498915, -2.0, -2.0, -2.0, -0.3655523657798767, -2.0, 1.032263696193695, 0.3637774884700775, -2.0, -0.10390392132103443, -2.0, -2.0, -2.0, 0.7104345560073853, 0.9355128705501556, 0.6846014857292175, 0.45974400639533997, -2.0, -2.0, -2.0, 1.6560730636119843, -2.0, 0.6862160563468933, -2.0, -2.0, 0.9386432468891144, -2.0, 1.0455072522163391, -0.05922859348356724, -2.0, 0.07479737512767315, -2.0, 0.962903618812561, -2.0, -2.0, -0.09113954193890095, -0.14857923984527588, -2.0, -2.0, -2.0, -0.17410799115896225, -2.0, -0.0464642159640789, 0.2566956952214241, -2.0, 0.6558862775564194, -2.0, 0.9468604922294617, -2.0, -2.0, -1.0854167640209198, -2.0, 0.1249297559261322, -2.0, -2.0], "value": [[[3630.0, 3431.0]], [[2119.0, 660.0]], [[110.0, 484.0]], [[0.0, 152.0]], [[110.0, 332.0]], [[100.0, 68.0]], [[0.0, 67.0]], [[100.0, 1.0]], [[0.0, 1.0]], [[100.0, 0.0]], [[10.0, 264.0]], [[10.0, 69.0]], [[0.0, 50.0]], [[10.0, 19.0]], [[2.0, 19.0]], [[2.0, 0.0]], [[0.0, 19.0]], [[8.0, 0.0]], [[0.0, 195.0]], [[2009.0, 176.0]], [[1408.0, 14.0]], [[1361.0, 4.0]], [[1358.0, 3.0]], [[153.0, 3.0]], [[151.0, 0.0]], [[2.0, 3.0]], [[0.0, 3.0]], [[2.0, 0.0]], [[1205.0, 0.0]], [[3.0, 1.0]], [[3.0, 0.0]], [[0.0, 1.0]], [[47.0, 10.0]], [[45.0, 1.0]], [[43.0, 0.0]], [[2.0, 1.0]], [[0.0, 1.0]], [[2.0, 0.0]], [[2.0, 9.0]], [[2.0, 0.0]], [[0.0, 9.0]], [[601.0, 162.0]], [[128.0, 125.0]], [[122.0, 17.0]], [[93.0, 0.0]], [[29.0, 17.0]], [[1.0, 12.0]], [[1.0, 4.0]], [[0.0, 4.0]], [[1.0, 0.0]], [[0.0, 8.0]], [[28.0, 5.0]], [[28.0, 0.0]], [[0.0, 5.0]], [[6.0, 108.0]], [[0.0, 106.0]], [[6.0, 2.0]], [[0.0, 2.0]], [[6.0, 0.0]], [[473.0, 37.0]], [[0.0, 37.0]], [[473.0, 0.0]], [[1511.0, 2771.0]], [[733.0, 409.0]], [[556.0, 2.0]], [[551.0, 1.0]], [[426.0, 0.0]], [[125.0, 1.0]], [[125.0, 0.0]], [[0.0, 1.0]], [[5.0, 1.0]], [[5.0, 0.0]], [[0.0, 1.0]], [[177.0, 407.0]], [[88.0, 0.0]], [[89.0, 407.0]], [[64.0, 55.0]], [[64.0, 11.0]], [[17.0, 11.0]], [[0.0, 9.0]], [[17.0, 2.0]], [[17.0, 0.0]], [[0.0, 2.0]], [[47.0, 0.0]], [[0.0, 44.0]], [[25.0, 352.0]], [[3.0, 304.0]], [[0.0, 235.0]], [[3.0, 69.0]], [[3.0, 9.0]], [[2.0, 0.0]], [[1.0, 9.0]], [[1.0, 0.0]], [[0.0, 9.0]], [[0.0, 60.0]], [[22.0, 48.0]], [[22.0, 0.0]], [[0.0, 48.0]], [[778.0, 2362.0]], [[383.0, 2136.0]], [[147.0, 1914.0]], [[111.0, 1879.0]], [[55.0, 1868.0]], [[47.0, 1868.0]], [[6.0, 1504.0]], [[6.0, 16.0]], [[0.0, 16.0]], [[6.0, 0.0]], [[0.0, 1488.0]], [[41.0, 364.0]], [[39.0, 141.0]], [[8.0, 120.0]], [[0.0, 118.0]], [[8.0, 2.0]], [[0.0, 2.0]], [[8.0, 0.0]], [[31.0, 21.0]], [[31.0, 12.0]], [[31.0, 2.0]], [[0.0, 2.0]], [[31.0, 0.0]], [[0.0, 10.0]], [[0.0, 9.0]], [[2.0, 223.0]], [[0.0, 216.0]], [[2.0, 7.0]], [[2.0, 0.0]], [[0.0, 7.0]], [[8.0, 0.0]], [[56.0, 11.0]], [[1.0, 11.0]], [[0.0, 11.0]], [[1.0, 0.0]], [[55.0, 0.0]], [[36.0, 35.0]], [[0.0, 31.0]], [[36.0, 4.0]], [[36.0, 2.0]], [[33.0, 0.0]], [[3.0, 2.0]], [[0.0, 2.0]], [[3.0, 0.0]], [[0.0, 2.0]], [[236.0, 222.0]], [[135.0, 26.0]], [[9.0, 19.0]], [[4.0, 19.0]], [[0.0, 19.0]], [[4.0, 0.0]], [[5.0, 0.0]], [[126.0, 7.0]], [[124.0, 0.0]], [[2.0, 7.0]], [[2.0, 0.0]], [[0.0, 7.0]], [[101.0, 196.0]], [[61.0, 0.0]], [[40.0, 196.0]], [[24.0, 195.0]], [[0.0, 186.0]], [[24.0, 9.0]], [[23.0, 0.0]], [[1.0, 9.0]], [[0.0, 9.0]], [[1.0, 0.0]], [[16.0, 1.0]], [[2.0, 1.0]], [[2.0, 0.0]], [[0.0, 1.0]], [[14.0, 0.0]], [[395.0, 226.0]], [[0.0, 216.0]], [[395.0, 10.0]], [[348.0, 2.0]], [[336.0, 0.0]], [[12.0, 2.0]], [[10.0, 0.0]], [[2.0, 2.0]], [[0.0, 2.0]], [[2.0, 0.0]], [[47.0, 8.0]], [[0.0, 2.0]], [[47.0, 6.0]], [[0.0, 6.0]], [[47.0, 0.0]]]}]}}