{"scaler": {"mean": [0.4238736290819489, -1.1277063770794797, 316.2090781885401, 130.05231977818843, 8.982285890326544, -0.8445602895871852, 96.9101078250153, 177.3712600123217, 512.143160813309, -0.0683733518176216, 8.958040665434366, 515.2710104744307, 0.04306842267406037, 96.75194085027739, 91.77779420825634, 887.9912138015965, 96.16574245224889], "scale": [5.019125866777665, 4.074177002595441, 455.14225782097037, 128.7044675175445, 1.8710104352699484, 1.90697749781892, 1.5684654723168134, 128.56070142399778, 43.51605826492343, 0.9158707524646956, 2.3533484317520577, 33.931332029710006, 1.1144286528182135, 1.7124714129903245, 61.043242920790526, 1324.7632950639452, 0.9955802762573207]}, "random_forest": {"n_estimators": 10, "classes": [0.0, 1.0], "trees": [{"children_left": [1, 2, 3, 4, 5, 6, 7, -1, 9, -1, 11, -1, 13, -1, 15, -1, -1, -1, 19, 20, 21, 22, -1, 24, 25, 26, 27, 28, -1, -1, 31, 32, -1, -1, -1, 36, -1, 38, 39, -1, -1, -1, 43, -1, 45, 46, 47, 48, -1, 50, -1, -1, 53, 54, 55, -1, 57, -1, -1, 60, -1, -1, -1, 64, 65, -1, -1, -1, -1, 70, -1, 72, -1, -1, 75, 76, 77, -1, 79, -1, -1, -1, 83, 84, 85, -1, -1, -1, -1, -1, 91, -1, 93, -1, -1, 96, 97, -1, 99, -1, 101, -1, 103, -1, -1, 106, 107, 108, 109, 110, 111, 112, -1, 114, 115, -1, -1, -1, -1, 120, 121, -1, -1, 124, 125, 126, 127, 128, -1, -1, 131, -1, 133, -1, -1, -1, -1, 138, -1, -1, -1, 142, 143, 144, 145, -1, -1, 148, -1, 150, -1, -1, 153, -1, 155, -1, -1, 158, 159, -1, 161, -1, -1, -1, 165, -1, 167, 168, 169, -1, -1, -1, 173, -1, -1, 176, 177, -1, -1, 180, 181, 182, -1, 184, 185, 186, -1, -1, -1, 190, 191, -1, -1, -1, -1, -1, 197, 198, 199, -1, -1, 202, -1, 204, -1, -1, 207, 208, 209, -1, -1, 212, -1, -1, 215, -1, 217, -1, 219, 220, 221, -1, -1, -1, -1, 226, 227, -1, -1, 230, 231, 232, 233, 234, -1, -1, -1, -1, 239, 240, -1, -1, 243, 244, -1, -1, 247, -1, -1, -1, 251, 252, 253, 254, 255, 256, -1, 258, -1, -1, 261, 262, 263, -1, -1, -1, -1, 268, -1, 270, -1, -1, 273, 274, -1, 276, -1, -1, 279, -1, 281, 282, -1, 284, -1, -1, 287, -1, -1, 290, -1, -1, 293, -1, -1], "children_right": [250, 225, 196, 95, 18, 17, 8, -1, 10, -1, 12, -1, 14, -1, 16, -1, -1, -1, 90, 89, 74, 23, -1, 69, 42, 35, 30, 29, -1, -1, 34, 33, -1, -1, -1, 37, -1, 41, 40, -1, -1, -1, 44, -1, 68, 63, 52, 49, -1, 51, -1, -1, 62, 59, 56, -1, 58, -1, -1, 61, -1, -1, -1, 67, 66, -1, -1, -1, -1, 71, -1, 73, -1, -1, 82, 81, 78, -1, 80, -1, -1, -1, 88, 87, 86, -1, -1, -1, -1, -1, 92, -1, 94, -1, -1, 105, 98, -1, 100, -1, 102, -1, 104, -1, -1, 175, 164, 141, 140, 119, 118, 113, -1, 117, 116, -1, -1, -1, -1, 123, 122, -1, -1, 137, 136, 135, 130, 129, -1, -1, 132, -1, 134, -1, -1, -1, -1, 139, -1, -1, -1, 157, 152, 147, 146, -1, -1, 149, -1, 151, -1, -1, 154, -1, 156, -1, -1, 163, 160, -1, 162, -1, -1, -1, 166, -1, 172, 171, 170, -1, -1, -1, 174, -1, -1, 179, 178, -1, -1, 195, 194, 183, -1, 189, 188, 187, -1, -1, -1, 193, 192, -1, -1, -1, -1, -1, 206, 201, 200, -1, -1, 203, -1, 205, -1, -1, 214, 211, 210, -1, -1, 213, -1, -1, 216, -1, 218, -1, 224, 223, 222, -1, -1, -1, -1, 229, 228, -1, -1, 249, 238, 237, 236, 235, -1, -1, -1, -1, 242, 241, -1, -1, 246, 245, -1, -1, 248, -1, -1, -1, 292, 289, 272, 267, 260, 257, -1, 259, -1, -1, 266, 265, 264, -1, -1, -1, -1, 269, -1, 271, -1, -1, 278, 275, -1, 277, -1, -1, 280, -1, 286, 283, -1, 285, -1, -1, 288, -1, -1, 291, -1, -1, 294, -1, -1], "feature": [10, 14, 3, 8, 5, 7, 9, -2, 3, -2, 7, -2, 8, -2, 4, -2, -2, -2, 2, 12, 15, 15, -2, 13, 11, 15, 0, 10, -2, -2, 14, 5, -2, -2, -2, 5, -2, 11, 15, -2, -2, -2, 7, -2, 10, 7, 16, 2, -2, 0, -2, -2, 2, 4, 11, -2, 1, -2, -2, 0, -2, -2, -2, 14, 13, -2, -2, -2, -2, 4, -2, 8, -2, -2, 15, 11, 1, -2, 2, -2, -2, -2, 4, 13, 5, -2, -2, -2, -2, -2, 8, -2, 12, -2, -2, 12, 11, -2, 1, -2, 3, -2, 12, -2, -2, 12, 4, 6, 2, 15, 5, 5, -2, 16, 5, -2, -2, -2, -2, 1, 12, -2, -2, 0, 1, 12, 10, 11, -2, -2, 10, -2, 8, -2, -2, -2, -2, 7, -2, -2, -2, 8, 10, 9, 11, -2, -2, 11, -2, 4, -2, -2, 8, -2, 15, -2, -2, 16, 9, -2, 4, -2, -2, -2, 7, -2, 16, 4, 7, -2, -2, -2, 12, -2, -2, 7, 10, -2, -2, 2, 8, 3, -2, 8, 7, 2, -2, -2, -2, 10, 3, -2, -2, -2, -2, -2, 12, 3, 15, -2, -2, 4, -2, 14, -2, -2, 9, 7, 13, -2, -2, 8, -2, -2, 5, -2, 0, -2, 15, 7, 2, -2, -2, -2, -2, 10, 5, -2, -2, 5, 2, 14, 16, 12, -2, -2, -2, -2, 9, 5, -2, -2, 4, 12, -2, -2, 6, -2, -2, -2, 15, 6, 5, 3, 15, 4, -2, 7, -2, -2, 7, 11, 3, -2, -2, -2, -2, 2, -2, 12, -2, -2, 12, 1, -2, 16, -2, -2, 7, -2, 12, 6, -2, 4, -2, -2, 16, -2, -2, 12, -2, -2, 7, -2, -2], "threshold": [0.531990647315979, 1.1241573095321655, 1.0621051788330078, -0.20436503738164902, 0.16442789137363434, 0.7146720588207245, -1.5303760170936584, -2.0, -0.9442354440689087, -2.0, -1.231645941734314, -2.0, -0.7834616303443909, -2.0, -0.1775970235466957, -2.0, -2.0, -2.0, 0.34965094923973083, 0.6845943629741669, -0.449734091758728, -0.6311325430870056, -2.0, 0.5244228541851044, -1.4152409434318542, -0.48513664305210114, -0.07189969532191753, -0.7852813601493835, -2.0, -2.0, -1.0904203653335571, 0.9247934222221375, -2.0, -2.0, -2.0, 0.6644338071346283, -2.0, -2.290538191795349, -0.4583016633987427, -2.0, -2.0, -2.0, 0.5808830857276917, -2.0, 0.05819764360785484, 0.6151081919670105, -0.5180319994688034, -0.6942248940467834, -2.0, 0.3209974020719528, -2.0, -2.0, -0.6394573748111725, -0.6612928807735443, -1.2251511216163635, -2.0, 0.8977779746055603, -2.0, -2.0, 0.07304586283862591, -2.0, -2.0, -2.0, -0.8263452351093292, -1.023048222064972, -2.0, -2.0, -2.0, -2.0, -0.30854232609272003, -2.0, -1.3728991746902466, -2.0, -2.0, -0.32846714556217194, -0.5988863408565521, 1.4353098273277283, -2.0, -0.533567413687706, -2.0, -2.0, -2.0, 0.10567237064242363, -2.5705193281173706, 0.6783301383256912, -2.0, -2.0, -2.0, -2.0, -2.0, -0.2859441190958023, -2.0, -0.5913957953453064, -2.0, -2.0, -0.9180205464363098, -0.8729692697525024, -2.0, -2.323731541633606, -2.0, 1.022091031074524, -2.0, -1.496792495250702, -2.0, -2.0, 0.2987464368343353, 0.18584295362234116, -0.0383226927369833, 1.8110621571540833, -0.4553954750299454, 0.8794336915016174, -1.132913053035736, -2.0, -1.0202516913414001, 0.049586474895477295, -2.0, -2.0, -2.0, -2.0, -1.4290723204612732, -0.14233160391449928, -2.0, -2.0, 1.8959727883338928, 2.248971104621887, -0.1781795769929886, -1.6563805937767029, -0.5605736374855042, -2.0, -2.0, -1.395050823688507, -2.0, 0.043819207698106766, -2.0, -2.0, -2.0, -2.0, 0.6660568714141846, -2.0, -2.0, -2.0, 0.5953397452831268, -1.5352765321731567, -0.20759113132953644, -0.1126100942492485, -2.0, -2.0, -0.5974127352237701, -2.0, -0.054668791592121124, -2.0, -2.0, -0.15495798736810684, -2.0, -0.6887314915657043, -2.0, -2.0, 0.1850755289196968, 0.08682813867926598, -2.0, -0.16690761595964432, -2.0, -2.0, -2.0, -1.2779663801193237, -2.0, -1.0202516913414001, 0.39963117241859436, 0.636887788772583, -2.0, -2.0, -2.0, 0.2309987097978592, -2.0, -2.0, -1.2672710418701172, 0.16442926414310932, -2.0, -2.0, 1.863792896270752, 0.9722121357917786, -0.9567058682441711, -2.0, -0.13772296905517578, 0.7243950963020325, -0.6864317059516907, -2.0, -2.0, -2.0, -1.7052471041679382, 1.0189831256866455, -2.0, -2.0, -2.0, -2.0, -2.0, -0.4873065948486328, 1.1164933443069458, -0.4229745864868164, -2.0, -2.0, 0.10300001874566078, -2.0, -0.687345415353775, -2.0, -2.0, -0.2168719246983528, 0.6800580620765686, -1.169036090373993, -2.0, -2.0, 0.02888219803571701, -2.0, -2.0, 0.5983606576919556, -2.0, 0.01636268454603851, -2.0, -0.4541122317314148, 0.6610009074211121, -0.692605584859848, -2.0, -2.0, -2.0, -2.0, -1.6436328291893005, 0.3319705128669739, -2.0, -2.0, 1.0524824261665344, 0.3409723490476608, 1.2445636987686157, -0.2669221758842468, -0.7982282638549805, -2.0, -2.0, -2.0, -2.0, 0.03316336125135422, -1.0246264599263668, -2.0, -2.0, 0.7951394021511078, 0.29291383922100067, -2.0, -2.0, -0.48461878299713135, -2.0, -2.0, -2.0, 1.465928852558136, 2.352549195289612, 0.2826778441667557, 1.0465657114982605, -0.46245333552360535, 0.5385935306549072, -2.0, -0.3394603729248047, -2.0, -2.0, 0.8418493270874023, -1.6878503561019897, 0.024456650018692017, -2.0, -2.0, -2.0, -2.0, -0.42085540294647217, -2.0, -1.0391588807106018, -2.0, -2.0, -1.613444209098816, -0.7909066379070282, -2.0, 0.1850755289196968, -2.0, -2.0, -1.3532615900039673, -2.0, 0.2148469313979149, 1.4918352961540222, -2.0, 1.3509888052940369, -2.0, -2.0, 0.23529750853776932, -2.0, -2.0, -0.05964349862188101, -2.0, -2.0, 0.6847251057624817, -2.0, -2.0], "value": [[[1597.0, 1649.0]], [[1281.0, 902.0]], [[907.0, 878.0]], [[555.0, 816.0]], [[292.0, 227.0]], [[130.0, 26.0]], [[51.0, 26.0]], [[0.0, 13.0]], [[51.0, 13.0]], [[0.0, 10.0]], [[51.0, 3.0]], [[39.0, 0.0]], [[12.0, 3.0]], [[11.0, 0.0]], [[1.0, 3.0]], [[0.0, 3.0]], [[1.0, 0.0]], [[79.0, 0.0]], [[162.0, 201.0]], [[159.0, 163.0]], [[159.0, 119.0]], [[139.0, 75.0]], [[0.0, 14.0]], [[139.0, 61.0]], [[130.0, 44.0]], [[11.0, 20.0]], [[2.0, 17.0]], [[1.0, 1.0]], [[1.0, 0.0]], [[0.0, 1.0]], [[1.0, 16.0]], [[1.0, 1.0]], [[1.0, 0.0]], [[0.0, 1.0]], [[0.0, 15.0]], [[9.0, 3.0]], [[0.0, 1.0]], [[9.0, 2.0]], [[1.0, 2.0]], [[0.0, 2.0]], [[1.0, 0.0]], [[8.0, 0.0]], [[119.0, 24.0]], [[45.0, 0.0]], [[74.0, 24.0]], [[74.0, 20.0]], [[35.0, 18.0]], [[25.0, 2.0]], [[0.0, 1.0]], [[25.0, 1.0]], [[25.0, 0.0]], [[0.0, 1.0]], [[10.0, 16.0]], [[5.0, 16.0]], [[2.0, 15.0]], [[1.0, 0.0]], [[1.0, 15.0]], [[0.0, 15.0]], [[1.0, 0.0]], [[3.0, 1.0]], [[0.0, 1.0]], [[3.0, 0.0]], [[5.0, 0.0]], [[39.0, 2.0]], [[6.0, 2.0]], [[6.0, 0.0]], [[0.0, 2.0]], [[33.0, 0.0]], [[0.0, 4.0]], [[9.0, 17.0]], [[0.0, 11.0]], [[9.0, 6.0]], [[0.0, 6.0]], [[9.0, 0.0]], [[20.0, 44.0]], [[2.0, 41.0]], [[1.0, 41.0]], [[0.0, 37.0]], [[1.0, 4.0]], [[1.0, 0.0]], [[0.0, 4.0]], [[1.0, 0.0]], [[18.0, 3.0]], [[18.0, 1.0]], [[1.0, 1.0]], [[0.0, 1.0]], [[1.0, 0.0]], [[17.0, 0.0]], [[0.0, 2.0]], [[0.0, 44.0]], [[3.0, 38.0]], [[0.0, 37.0]], [[3.0, 1.0]], [[0.0, 1.0]], [[3.0, 0.0]], [[263.0, 589.0]], [[83.0, 5.0]], [[0.0, 2.0]], [[83.0, 3.0]], [[0.0, 1.0]], [[83.0, 2.0]], [[76.0, 0.0]], [[7.0, 2.0]], [[0.0, 2.0]], [[7.0, 0.0]], [[180.0, 584.0]], [[153.0, 242.0]], [[141.0, 135.0]], [[57.0, 100.0]], [[45.0, 100.0]], [[28.0, 9.0]], [[28.0, 3.0]], [[0.0, 2.0]], [[28.0, 1.0]], [[3.0, 1.0]], [[3.0, 0.0]], [[0.0, 1.0]], [[25.0, 0.0]], [[0.0, 6.0]], [[17.0, 91.0]], [[9.0, 2.0]], [[0.0, 2.0]], [[9.0, 0.0]], [[8.0, 89.0]], [[5.0, 88.0]], [[4.0, 88.0]], [[4.0, 32.0]], [[3.0, 4.0]], [[0.0, 4.0]], [[3.0, 0.0]], [[1.0, 28.0]], [[0.0, 20.0]], [[1.0, 8.0]], [[0.0, 8.0]], [[1.0, 0.0]], [[0.0, 56.0]], [[1.0, 0.0]], [[3.0, 1.0]], [[3.0, 0.0]], [[0.0, 1.0]], [[12.0, 0.0]], [[84.0, 35.0]], [[78.0, 19.0]], [[7.0, 15.0]], [[4.0, 1.0]], [[4.0, 0.0]], [[0.0, 1.0]], [[3.0, 14.0]], [[2.0, 0.0]], [[1.0, 14.0]], [[0.0, 14.0]], [[1.0, 0.0]], [[71.0, 4.0]], [[0.0, 3.0]], [[71.0, 1.0]], [[0.0, 1.0]], [[71.0, 0.0]], [[6.0, 16.0]], [[6.0, 4.0]], [[5.0, 0.0]], [[1.0, 4.0]], [[1.0, 0.0]], [[0.0, 4.0]], [[0.0, 12.0]], [[12.0, 107.0]], [[6.0, 0.0]], [[6.0, 107.0]], [[4.0, 8.0]], [[4.0, 1.0]], [[0.0, 1.0]], [[4.0, 0.0]], [[0.0, 7.0]], [[2.0, 99.0]], [[0.0, 99.0]], [[2.0, 0.0]], [[27.0, 342.0]], [[14.0, 3.0]], [[14.0, 0.0]], [[0.0, 3.0]], [[13.0, 339.0]], [[5.0, 339.0]], [[3.0, 339.0]], [[1.0, 0.0]], [[2.0, 339.0]], [[1.0, 14.0]], [[1.0, 4.0]], [[0.0, 4.0]], [[1.0, 0.0]], [[0.0, 10.0]], [[1.0, 325.0]], [[1.0, 6.0]], [[1.0, 0.0]], [[0.0, 6.0]], [[0.0, 319.0]], [[2.0, 0.0]], [[8.0, 0.0]], [[352.0, 62.0]], [[7.0, 30.0]], [[1.0, 29.0]], [[0.0, 29.0]], [[1.0, 0.0]], [[6.0, 1.0]], [[5.0, 0.0]], [[1.0, 1.0]], [[1.0, 0.0]], [[0.0, 1.0]], [[345.0, 32.0]], [[53.0, 23.0]], [[49.0, 1.0]], [[0.0, 1.0]], [[49.0, 0.0]], [[4.0, 22.0]], [[0.0, 22.0]], [[4.0, 0.0]], [[292.0, 9.0]], [[209.0, 0.0]], [[83.0, 9.0]], [[0.0, 4.0]], [[83.0, 5.0]], [[6.0, 5.0]], [[6.0, 1.0]], [[0.0, 1.0]], [[6.0, 0.0]], [[0.0, 4.0]], [[77.0, 0.0]], [[374.0, 24.0]], [[1.0, 6.0]], [[0.0, 6.0]], [[1.0, 0.0]], [[373.0, 18.0]], [[373.0, 17.0]], [[275.0, 2.0]], [[27.0, 2.0]], [[2.0, 2.0]], [[0.0, 2.0]], [[2.0, 0.0]], [[25.0, 0.0]], [[248.0, 0.0]], [[98.0, 15.0]], [[9.0, 13.0]], [[9.0, 0.0]], [[0.0, 13.0]], [[89.0, 2.0]], [[88.0, 1.0]], [[88.0, 0.0]], [[0.0, 1.0]], [[1.0, 1.0]], [[0.0, 1.0]], [[1.0, 0.0]], [[0.0, 1.0]], [[316.0, 747.0]], [[101.0, 677.0]], [[68.0, 672.0]], [[9.0, 442.0]], [[6.0, 439.0]], [[4.0, 24.0]], [[3.0, 0.0]], [[1.0, 24.0]], [[1.0, 0.0]], [[0.0, 24.0]], [[2.0, 415.0]], [[1.0, 415.0]], [[1.0, 1.0]], [[0.0, 1.0]], [[1.0, 0.0]], [[0.0, 414.0]], [[1.0, 0.0]], [[3.0, 3.0]], [[0.0, 2.0]], [[3.0, 1.0]], [[0.0, 1.0]], [[3.0, 0.0]], [[59.0, 230.0]], [[36.0, 12.0]], [[0.0, 11.0]], [[36.0, 1.0]], [[0.0, 1.0]], [[36.0, 0.0]], [[23.0, 218.0]], [[14.0, 0.0]], [[9.0, 218.0]], [[2.0, 208.0]], [[0.0, 199.0]], [[2.0, 9.0]], [[2.0, 0.0]], [[0.0, 9.0]], [[7.0, 10.0]], [[0.0, 10.0]], [[7.0, 0.0]], [[33.0, 5.0]], [[0.0, 5.0]], [[33.0, 0.0]], [[215.0, 70.0]], [[0.0, 70.0]], [[215.0, 0.0]]]}, {"children_left": [1, 2, 3, 4, 5, 6, 7, 8, -1, 10, -1, -1, -1, -1, 15, 16, 17, 18, 19, 20, 21, 22, 23, -1, -1, 26, -1, -1, -1, 30, 31, 32, 33, -1, 35, 36, -1, -1, -1, -1, 41, -1, -1, 44, -1, -1, 47, -1, -1, 50, 51, 52, 53, -1, 55, 56, -1, 58, 59, -1, -1, -1, 63, -1, -1, -1, 67, 68, -1, -1, 71, -1, 73, 74, -1, 76, -1, 78, -1, -1, 81, -1, -1, 84, 85, 86, -1, -1, -1, 90, 91, -1, -1, 94, -1, 96, 97, -1, -1, -1, -1, 102, 103, 104, 105, -1, -1, 108, 109, -1, -1, 112, -1, -1, 115, 116, 117, 118, 119, 120, 121, -1, 123, 124, 125, 126, -1, -1, -1, -1, -1, 132, -1, -1, 135, 136, 137, 138, -1, 140, -1, -1, -1, 144, -1, -1, 147, -1, -1, -1, 151, -1, 153, -1, -1, 156, -1, 158, -1, -1, -1, 162, -1, 164, -1, 166, -1, -1, -1, 170, -1, 172, 173, -1, -1, -1, 177, 178, 179, -1, 181, 182, 183, 184, -1, -1, 187, -1, 189, -1, -1, -1, -1, 194, 195, 196, -1, -1, 199, 200, -1, -1, 203, 204, -1, -1, 207, 208, 209, 210, -1, -1, -1, -1, 215, -1, -1, 218, 219, 220, -1, -1, 223, -1, 225, 226, 227, -1, -1, -1, -1, 232, -1, 234, 235, 236, -1, 238, -1, 240, 241, -1, -1, 244, -1, -1, 247, 248, -1, 250, 251, -1, -1, -1, -1, 256, 257, 258, -1, 260, -1, -1, 263, -1, -1, 266, -1, -1, -1, 270, 271, 272, 273, 274, -1, -1, 277, 278, -1, 280, -1, 282, -1, -1, -1, -1, 287, -1, -1, 290, -1, -1, 293, 294, -1, 296, -1, -1, -1], "children_right": [292, 269, 176, 169, 14, 13, 12, 9, -1, 11, -1, -1, -1, -1, 168, 101, 100, 49, 46, 29, 28, 25, 24, -1, -1, 27, -1, -1, -1, 43, 40, 39, 34, -1, 38, 37, -1, -1, -1, -1, 42, -1, -1, 45, -1, -1, 48, -1, -1, 83, 66, 65, 54, -1, 62, 57, -1, 61, 60, -1, -1, -1, 64, -1, -1, -1, 70, 69, -1, -1, 72, -1, 80, 75, -1, 77, -1, 79, -1, -1, 82, -1, -1, 89, 88, 87, -1, -1, -1, 93, 92, -1, -1, 95, -1, 99, 98, -1, -1, -1, -1, 161, 114, 107, 106, -1, -1, 111, 110, -1, -1, 113, -1, -1, 160, 155, 150, 149, 134, 131, 122, -1, 130, 129, 128, 127, -1, -1, -1, -1, -1, 133, -1, -1, 146, 143, 142, 139, -1, 141, -1, -1, -1, 145, -1, -1, 148, -1, -1, -1, 152, -1, 154, -1, -1, 157, -1, 159, -1, -1, -1, 163, -1, 165, -1, 167, -1, -1, -1, 171, -1, 175, 174, -1, -1, -1, 268, 193, 180, -1, 192, 191, 186, 185, -1, -1, 188, -1, 190, -1, -1, -1, -1, 217, 198, 197, -1, -1, 202, 201, -1, -1, 206, 205, -1, -1, 214, 213, 212, 211, -1, -1, -1, -1, 216, -1, -1, 231, 222, 221, -1, -1, 224, -1, 230, 229, 228, -1, -1, -1, -1, 233, -1, 255, 246, 237, -1, 239, -1, 243, 242, -1, -1, 245, -1, -1, 254, 249, -1, 253, 252, -1, -1, -1, -1, 265, 262, 259, -1, 261, -1, -1, 264, -1, -1, 267, -1, -1, -1, 289, 286, 285, 276, 275, -1, -1, 284, 279, -1, 281, -1, 283, -1, -1, -1, -1, 288, -1, -1, 291, -1, -1, 298, 295, -1, 297, -1, -1, -1], "feature": [12, 14, 10, 3, 7, 8, 1, 10, -2, 10, -2, -2, -2, -2, 7, 7, 15, 7, 11, 16, 1, 1, 3, -2, -2, 11, -2, -2, -2, 1, 2, 14, 0, -2, 9, 3, -2, -2, -2, -2, 3, -2, -2, 4, -2, -2, 10, -2, -2, 6, 10, 3, 6, -2, 11, 7, -2, 16, 7, -2, -2, -2, 5, -2, -2, -2, 8, 8, -2, -2, 9, -2, 16, 11, -2, 6, -2, 11, -2, -2, 6, -2, -2, 3, 2, 1, -2, -2, -2, 11, 15, -2, -2, 8, -2, 12, 7, -2, -2, -2, -2, 15, 4, 10, 7, -2, -2, 13, 8, -2, -2, 8, -2, -2, 8, 0, 10, 15, 16, 14, 5, -2, 5, 3, 11, 5, -2, -2, -2, -2, -2, 8, -2, -2, 7, 6, 16, 5, -2, 0, -2, -2, -2, 12, -2, -2, 9, -2, -2, -2, 5, -2, 15, -2, -2, 8, -2, 14, -2, -2, -2, 3, -2, 5, -2, 15, -2, -2, -2, 15, -2, 3, 9, -2, -2, -2, 7, 11, 11, -2, 10, 2, 2, 16, -2, -2, 10, -2, 13, -2, -2, -2, -2, 5, 14, 14, -2, -2, 2, 4, -2, -2, 12, 9, -2, -2, 5, 2, 1, 13, -2, -2, -2, -2, 6, -2, -2, 14, 11, 16, -2, -2, 12, -2, 4, 15, 9, -2, -2, -2, -2, 7, -2, 2, 3, 10, -2, 8, -2, 10, 15, -2, -2, 15, -2, -2, 3, 5, -2, 2, 7, -2, -2, -2, -2, 2, 3, 2, -2, 7, -2, -2, 15, -2, -2, 3, -2, -2, -2, 9, 5, 12, 3, 4, -2, -2, 11, 8, -2, 13, -2, 14, -2, -2, -2, -2, 10, -2, -2, 1, -2, -2, 3, 5, -2, 14, -2, -2, -2], "threshold": [0.9708397090435028, 1.4788239002227783, -0.16063947975635529, 1.1153278946876526, 0.5820498466491699, -0.6651144921779633, 0.707555502653122, -0.3221115320920944, -2.0, -0.2838681563735008, -2.0, -2.0, -2.0, -2.0, 0.7430633306503296, 0.656333863735199, -0.1730431541800499, 0.6221087574958801, -0.27322860062122345, -1.0202516913414001, 1.54330712556839, -0.7626800686120987, 1.028695285320282, -2.0, -2.0, -2.268434762954712, -2.0, -2.0, -2.0, 0.9100503921508789, -0.6694919764995575, -1.1114709973335266, -0.20100584626197815, -2.0, 0.38037392497062683, 1.0302492380142212, -2.0, -2.0, -2.0, -2.0, 0.9980047941207886, -2.0, -2.0, -0.8269787430763245, -2.0, -2.0, -0.3985982835292816, -2.0, -2.0, 0.2804602161049843, -1.67762690782547, 1.021702527999878, -1.6959938406944275, -2.0, -0.19660326093435287, 0.6446661949157715, -2.0, -1.2211395502090454, 0.6516668200492859, -2.0, -2.0, -2.0, 0.4449765682220459, -2.0, -2.0, -2.0, -0.8949146866798401, -1.0213048458099365, -2.0, -2.0, -1.2137374877929688, -2.0, 1.1895148754119873, -1.5154433250427246, -2.0, 0.12106876261532307, -2.0, 0.22630970180034637, -2.0, -2.0, -0.7396450992673635, -2.0, -2.0, 1.0131558179855347, -0.4826822280883789, -0.18833094835281372, -2.0, -2.0, -2.0, 0.1393694058060646, -0.40014031529426575, -2.0, -2.0, 0.4114995747804642, -2.0, -0.25983576476573944, 0.636887788772583, -2.0, -2.0, -2.0, -2.0, -0.4263336807489395, -1.1022310853004456, -1.43116956949234, 0.6944481432437897, -2.0, -2.0, -1.9865679144859314, -1.4843523502349854, -2.0, -2.0, -0.19517302885651588, -2.0, -2.0, 0.9561261236667633, 1.1697507500648499, -0.2307523488998413, -0.449734091758728, -1.0202516913414001, -0.7772817015647888, -1.1381569504737854, -2.0, 0.8511166572570801, 1.02247953414917, -0.6327783018350601, 0.7021898925304413, -2.0, -2.0, -2.0, -2.0, -2.0, -1.2947670817375183, -2.0, -2.0, 0.7263396978378296, -0.9946714341640472, -0.2669221758842468, -0.1696085687726736, -2.0, 0.6049113571643829, -2.0, -2.0, -2.0, -0.8987281620502472, -2.0, -2.0, 1.2140068411827087, -2.0, -2.0, -2.0, 0.14397667645243928, -2.0, -0.49608199298381805, -2.0, -2.0, -0.2595170885324478, -2.0, 0.9120125770568848, -2.0, -2.0, -2.0, 0.00868406891822815, -2.0, 1.0354397296905518, -2.0, 0.5390463471412659, -2.0, -2.0, -2.0, -0.5382782071828842, -2.0, 1.1479607820510864, 0.7259467244148254, -2.0, -2.0, -2.0, 0.7597869038581848, -0.27617573738098145, -2.3995819091796875, -2.0, 0.1431829333305359, 0.20266393199563026, -0.5637447834014893, -0.01581234484910965, -2.0, -2.0, -0.1202714666724205, -2.0, 0.11565691232681274, -2.0, -2.0, -2.0, -2.0, -0.058700067922472954, -1.0289884805679321, -1.0481552481651306, -2.0, -2.0, -0.6892440021038055, 0.0816211961209774, -2.0, -2.0, -1.1468373537063599, -1.6613988876342773, -2.0, -2.0, -0.09986468777060509, -0.6817298829555511, -0.6595917642116547, 0.02806420624256134, -2.0, -2.0, -2.0, -2.0, -0.3571056127548218, -2.0, -2.0, -0.3340712785720825, 0.0008543585427105427, -0.06603430211544037, -2.0, -2.0, -0.18805010616779327, -2.0, 0.31946060061454773, -0.36319032311439514, -1.066336750984192, -2.0, -2.0, -2.0, -2.0, -1.3511614203453064, -2.0, -0.3008050173521042, 1.0248104333877563, 0.20054800808429718, -2.0, -0.8501036465167999, -2.0, 0.2940318286418915, -0.4518854171037674, -2.0, -2.0, 1.2665725415572524, -2.0, -2.0, 1.0826950073242188, 0.08603158220648766, -2.0, -0.6355355381965637, 0.5804941952228546, -2.0, -2.0, -2.0, -2.0, 1.5880549550056458, 1.0570548176765442, 0.9464973211288452, -2.0, 0.6473886668682098, -2.0, -2.0, -0.19402803480625153, -2.0, -2.0, 1.0411268472671509, -2.0, -2.0, -2.0, 1.0627846121788025, 0.9119459092617035, -0.6169694364070892, 0.9995587766170502, 1.3376270532608032, -2.0, -2.0, -0.22607454657554626, -1.6658944487571716, -2.0, -1.5194069147109985, -2.0, 1.5214166641235352, -2.0, -2.0, -2.0, -2.0, 0.6870888024568558, -2.0, -2.0, -0.766361802816391, -2.0, -2.0, 1.089687705039978, -1.0437667667865753, -2.0, -0.2397119328379631, -2.0, -2.0, -2.0], "value": [[[1560.0, 1686.0]], [[1522.0, 1310.0]], [[1150.0, 1275.0]], [[727.0, 413.0]], [[514.0, 408.0]], [[153.0, 3.0]], [[38.0, 3.0]], [[38.0, 2.0]], [[34.0, 0.0]], [[4.0, 2.0]], [[0.0, 2.0]], [[4.0, 0.0]], [[0.0, 1.0]], [[115.0, 0.0]], [[361.0, 405.0]], [[271.0, 405.0]], [[194.0, 169.0]], [[194.0, 131.0]], [[38.0, 85.0]], [[37.0, 53.0]], [[21.0, 4.0]], [[21.0, 2.0]], [[1.0, 1.0]], [[1.0, 0.0]], [[0.0, 1.0]], [[20.0, 1.0]], [[0.0, 1.0]], [[20.0, 0.0]], [[0.0, 2.0]], [[16.0, 49.0]], [[12.0, 48.0]], [[10.0, 21.0]], [[3.0, 21.0]], [[2.0, 0.0]], [[1.0, 21.0]], [[1.0, 2.0]], [[1.0, 0.0]], [[0.0, 2.0]], [[0.0, 19.0]], [[7.0, 0.0]], [[2.0, 27.0]], [[2.0, 0.0]], [[0.0, 27.0]], [[4.0, 1.0]], [[4.0, 0.0]], [[0.0, 1.0]], [[1.0, 32.0]], [[0.0, 32.0]], [[1.0, 0.0]], [[156.0, 46.0]], [[143.0, 28.0]], [[26.0, 20.0]], [[26.0, 11.0]], [[0.0, 3.0]], [[26.0, 8.0]], [[24.0, 5.0]], [[21.0, 0.0]], [[3.0, 5.0]], [[1.0, 5.0]], [[0.0, 5.0]], [[1.0, 0.0]], [[2.0, 0.0]], [[2.0, 3.0]], [[2.0, 0.0]], [[0.0, 3.0]], [[0.0, 9.0]], [[117.0, 8.0]], [[3.0, 3.0]], [[3.0, 0.0]], [[0.0, 3.0]], [[114.0, 5.0]], [[0.0, 1.0]], [[114.0, 4.0]], [[112.0, 3.0]], [[0.0, 2.0]], [[112.0, 1.0]], [[106.0, 0.0]], [[6.0, 1.0]], [[0.0, 1.0]], [[6.0, 0.0]], [[2.0, 1.0]], [[0.0, 1.0]], [[2.0, 0.0]], [[13.0, 18.0]], [[8.0, 1.0]], [[1.0, 1.0]], [[0.0, 1.0]], [[1.0, 0.0]], [[7.0, 0.0]], [[5.0, 17.0]], [[2.0, 1.0]], [[2.0, 0.0]], [[0.0, 1.0]], [[3.0, 16.0]], [[1.0, 0.0]], [[2.0, 16.0]], [[2.0, 5.0]], [[0.0, 5.0]], [[2.0, 0.0]], [[0.0, 11.0]], [[0.0, 38.0]], [[77.0, 236.0]], [[64.0, 230.0]], [[25.0, 27.0]], [[1.0, 21.0]], [[0.0, 21.0]], [[1.0, 0.0]], [[24.0, 6.0]], [[2.0, 5.0]], [[2.0, 0.0]], [[0.0, 5.0]], [[22.0, 1.0]], [[22.0, 0.0]], [[0.0, 1.0]], [[39.0, 203.0]], [[36.0, 203.0]], [[28.0, 199.0]], [[22.0, 191.0]], [[22.0, 124.0]], [[14.0, 23.0]], [[13.0, 7.0]], [[0.0, 2.0]], [[13.0, 5.0]], [[13.0, 3.0]], [[13.0, 1.0]], [[1.0, 1.0]], [[0.0, 1.0]], [[1.0, 0.0]], [[12.0, 0.0]], [[0.0, 2.0]], [[0.0, 2.0]], [[1.0, 16.0]], [[1.0, 0.0]], [[0.0, 16.0]], [[8.0, 101.0]], [[3.0, 90.0]], [[2.0, 9.0]], [[2.0, 1.0]], [[1.0, 0.0]], [[1.0, 1.0]], [[1.0, 0.0]], [[0.0, 1.0]], [[0.0, 8.0]], [[1.0, 81.0]], [[1.0, 0.0]], [[0.0, 81.0]], [[5.0, 11.0]], [[0.0, 11.0]], [[5.0, 0.0]], [[0.0, 67.0]], [[6.0, 8.0]], [[0.0, 7.0]], [[6.0, 1.0]], [[0.0, 1.0]], [[6.0, 0.0]], [[8.0, 4.0]], [[0.0, 3.0]], [[8.0, 1.0]], [[0.0, 1.0]], [[8.0, 0.0]], [[3.0, 0.0]], [[13.0, 6.0]], [[0.0, 5.0]], [[13.0, 1.0]], [[12.0, 0.0]], [[1.0, 1.0]], [[0.0, 1.0]], [[1.0, 0.0]], [[90.0, 0.0]], [[213.0, 5.0]], [[168.0, 0.0]], [[45.0, 5.0]], [[45.0, 2.0]], [[45.0, 0.0]], [[0.0, 2.0]], [[0.0, 3.0]], [[423.0, 862.0]], [[188.0, 862.0]], [[14.0, 231.0]], [[3.0, 0.0]], [[11.0, 231.0]], [[11.0, 17.0]], [[11.0, 9.0]], [[1.0, 6.0]], [[0.0, 6.0]], [[1.0, 0.0]], [[10.0, 3.0]], [[0.0, 2.0]], [[10.0, 1.0]], [[10.0, 0.0]], [[0.0, 1.0]], [[0.0, 8.0]], [[0.0, 214.0]], [[174.0, 631.0]], [[13.0, 253.0]], [[2.0, 2.0]], [[0.0, 2.0]], [[2.0, 0.0]], [[11.0, 251.0]], [[5.0, 1.0]], [[5.0, 0.0]], [[0.0, 1.0]], [[6.0, 250.0]], [[3.0, 1.0]], [[0.0, 1.0]], [[3.0, 0.0]], [[3.0, 249.0]], [[1.0, 229.0]], [[1.0, 22.0]], [[1.0, 1.0]], [[0.0, 1.0]], [[1.0, 0.0]], [[0.0, 21.0]], [[0.0, 207.0]], [[2.0, 20.0]], [[2.0, 0.0]], [[0.0, 20.0]], [[161.0, 378.0]], [[46.0, 14.0]], [[3.0, 9.0]], [[3.0, 0.0]], [[0.0, 9.0]], [[43.0, 5.0]], [[37.0, 0.0]], [[6.0, 5.0]], [[6.0, 2.0]], [[6.0, 1.0]], [[0.0, 1.0]], [[6.0, 0.0]], [[0.0, 1.0]], [[0.0, 3.0]], [[115.0, 364.0]], [[50.0, 0.0]], [[65.0, 364.0]], [[55.0, 71.0]], [[20.0, 68.0]], [[14.0, 0.0]], [[6.0, 68.0]], [[1.0, 0.0]], [[5.0, 68.0]], [[4.0, 7.0]], [[4.0, 0.0]], [[0.0, 7.0]], [[1.0, 61.0]], [[0.0, 61.0]], [[1.0, 0.0]], [[35.0, 3.0]], [[35.0, 2.0]], [[0.0, 1.0]], [[35.0, 1.0]], [[3.0, 1.0]], [[0.0, 1.0]], [[3.0, 0.0]], [[32.0, 0.0]], [[0.0, 1.0]], [[10.0, 293.0]], [[8.0, 65.0]], [[2.0, 63.0]], [[0.0, 61.0]], [[2.0, 2.0]], [[0.0, 2.0]], [[2.0, 0.0]], [[6.0, 2.0]], [[0.0, 2.0]], [[6.0, 0.0]], [[2.0, 228.0]], [[0.0, 228.0]], [[2.0, 0.0]], [[235.0, 0.0]], [[372.0, 35.0]], [[369.0, 26.0]], [[359.0, 18.0]], [[236.0, 18.0]], [[203.0, 2.0]], [[203.0, 0.0]], [[0.0, 2.0]], [[33.0, 16.0]], [[33.0, 3.0]], [[0.0, 1.0]], [[33.0, 2.0]], [[0.0, 1.0]], [[33.0, 1.0]], [[0.0, 1.0]], [[33.0, 0.0]], [[0.0, 13.0]], [[123.0, 0.0]], [[10.0, 8.0]], [[10.0, 0.0]], [[0.0, 8.0]], [[3.0, 9.0]], [[0.0, 9.0]], [[3.0, 0.0]], [[38.0, 376.0]], [[3.0, 376.0]], [[2.0, 0.0]], [[1.0, 376.0]], [[0.0, 376.0]], [[1.0, 0.0]], [[35.0, 0.0]]]}, {"children_left": [1, 2, 3, -1, -1, -1, 7, -1, 9, 10, 11, 12, -1, -1, 15, -1, 17, 18, -1, -1, 21, 22, 23, 24, -1, -1, -1, -1, 29, 30, -1, -1, -1, 34, -1, -1, 37, 38, -1, 40, 41, 42, 43, 44, -1, 46, -1, 48, -1, 50, -1, -1, 53, -1, -1, 56, 57, -1, -1, 60, -1, 62, -1, -1, 65, 66, 67, -1, 69, -1, -1, 72, 73, 74, 75, 76, 77, 78, 79, -1, 81, -1, -1, 84, -1, -1, 87, 88, 89, 90, -1, -1, -1, -1, 95, 96, 97, 98, -1, -1, -1, 102, -1, 104, -1, -1, -1, 108, 109, 110, 111, 112, -1, 114, 115, 116, 117, -1, -1, 120, 121, -1, -1, -1, 125, -1, 127, 128, -1, 130, -1, -1, 133, -1, -1, 136, 137, 138, -1, -1, -1, -1, 143, -1, 145, 146, -1, 148, 149, -1, -1, 152, -1, 154, -1, -1, -1, 158, 159, -1, -1, -1, 163, 164, -1, -1, -1, 168, 169, 170, -1, -1, 173, -1, -1, 176, -1, -1, -1, 180, 181, -1, 183, -1, -1, -1, 187, 188, 189, 190, 191, 192, -1, -1, -1, 196, -1, -1, -1, 200, -1, 202, -1, -1, -1, -1, 207, 208, 209, 210, -1, 212, -1, -1, -1, 216, 217, 218, 219, -1, -1, -1, 223, -1, -1, 226, -1, 228, 229, -1, -1, 232, 233, -1, 235, -1, -1, -1, 239, 240, 241, -1, -1, -1, 245, -1, -1, 248, 249, -1, 251, -1, -1, -1, -1], "children_right": [6, 5, 4, -1, -1, -1, 8, -1, 36, 33, 14, 13, -1, -1, 16, -1, 20, 19, -1, -1, 28, 27, 26, 25, -1, -1, -1, -1, 32, 31, -1, -1, -1, 35, -1, -1, 254, 39, -1, 247, 64, 55, 52, 45, -1, 47, -1, 49, -1, 51, -1, -1, 54, -1, -1, 59, 58, -1, -1, 61, -1, 63, -1, -1, 206, 71, 68, -1, 70, -1, -1, 205, 186, 179, 178, 107, 86, 83, 80, -1, 82, -1, -1, 85, -1, -1, 94, 93, 92, 91, -1, -1, -1, -1, 106, 101, 100, 99, -1, -1, -1, 103, -1, 105, -1, -1, -1, 167, 162, 157, 142, 113, -1, 135, 124, 119, 118, -1, -1, 123, 122, -1, -1, -1, 126, -1, 132, 129, -1, 131, -1, -1, 134, -1, -1, 141, 140, 139, -1, -1, -1, -1, 144, -1, 156, 147, -1, 151, 150, -1, -1, 153, -1, 155, -1, -1, -1, 161, 160, -1, -1, -1, 166, 165, -1, -1, -1, 175, 172, 171, -1, -1, 174, -1, -1, 177, -1, -1, -1, 185, 182, -1, 184, -1, -1, -1, 204, 199, 198, 195, 194, 193, -1, -1, -1, 197, -1, -1, -1, 201, -1, 203, -1, -1, -1, -1, 238, 215, 214, 211, -1, 213, -1, -1, -1, 225, 222, 221, 220, -1, -1, -1, 224, -1, -1, 227, -1, 231, 230, -1, -1, 237, 234, -1, 236, -1, -1, -1, 244, 243, 242, -1, -1, -1, 246, -1, -1, 253, 250, -1, 252, -1, -1, -1, -1], "feature": [15, 11, 14, -2, -2, -2, 5, -2, 9, 3, 15, 14, -2, -2, 2, -2, 4, 10, -2, -2, 0, 10, 5, 6, -2, -2, -2, -2, 0, 14, -2, -2, -2, 7, -2, -2, 2, 7, -2, 12, 3, 10, 0, 14, -2, 0, -2, 2, -2, 14, -2, -2, 3, -2, -2, 15, 2, -2, -2, 12, -2, 7, -2, -2, 8, 5, 14, -2, 12, -2, -2, 15, 10, 2, 15, 10, 5, 13, 8, -2, 3, -2, -2, 12, -2, -2, 14, 2, 10, 0, -2, -2, -2, -2, 4, 2, 13, 14, -2, -2, -2, 1, -2, 14, -2, -2, -2, 7, 13, 11, 0, 7, -2, 2, 9, 1, 5, -2, -2, 7, 8, -2, -2, -2, 1, -2, 11, 12, -2, 7, -2, -2, 2, -2, -2, 9, 15, 0, -2, -2, -2, -2, 16, -2, 3, 7, -2, 13, 6, -2, -2, 16, -2, 1, -2, -2, -2, 14, 14, -2, -2, -2, 14, 12, -2, -2, -2, 15, 15, 3, -2, -2, 5, -2, -2, 5, -2, -2, -2, 16, 12, -2, 11, -2, -2, -2, 5, 0, 7, 15, 15, 8, -2, -2, -2, 6, -2, -2, -2, 12, -2, 4, -2, -2, -2, -2, 7, 5, 11, 4, -2, 2, -2, -2, -2, 10, 3, 6, 10, -2, -2, -2, 5, -2, -2, 14, -2, 2, 11, -2, -2, 12, 16, -2, 5, -2, -2, -2, 10, 8, 1, -2, -2, -2, 15, -2, -2, 14, 15, -2, 2, -2, -2, -2, -2], "threshold": [-0.6823228001594543, 0.0008543585427105427, -0.9731264412403107, -2.0, -2.0, -2.0, -2.008644461631775, -2.0, -0.9724370539188385, 1.1079466342926025, -0.5046118050813675, 0.5196677854983136, -2.0, -2.0, -0.6973733603954315, -2.0, -0.93921759724617, -0.2881174236536026, -2.0, -2.0, 0.7423855364322662, 0.21117116510868073, -0.24407194554805756, -0.8034017086029053, -2.0, -2.0, -2.0, -2.0, 0.7722712159156799, -0.6843966841697693, -2.0, -2.0, -2.0, 0.6897810995578766, -2.0, -2.0, 1.9857328534126282, -1.3509280681610107, -2.0, 0.9708397090435028, -0.9497519433498383, -0.24350014328956604, 2.129081130027771, -0.6617897748947144, -2.0, -2.1545332074165344, -2.0, 0.5406901091337204, -2.0, 1.0086654126644135, -2.0, -2.0, -0.9644756019115448, -2.0, -2.0, -0.5055176466703415, -0.28542521595954895, -2.0, -2.0, 0.2148469313979149, -2.0, 0.84340500831604, -2.0, -2.0, 0.7378158867359161, -0.1365719884634018, -0.8247070610523224, -2.0, 0.596208244562149, -2.0, -2.0, 1.684835970401764, 0.16442925482988358, -0.004743743687868118, -0.2892148494720459, -1.4949085712432861, 0.4101046323776245, -0.6434798538684845, 0.018541183322668076, -2.0, 1.001501202583313, -2.0, -2.0, -0.2266348972916603, -2.0, -2.0, -0.9519938826560974, -0.6925946176052094, -1.8518467545509338, -0.17978700995445251, -2.0, -2.0, -2.0, -2.0, 0.054897671565413475, -0.6961978673934937, -0.8186652660369873, -0.8099634051322937, -2.0, -2.0, -2.0, 1.4353098273277283, -2.0, -0.7663058340549469, -2.0, -2.0, -2.0, 0.6878364682197571, 0.6412131190299988, -0.07724454998970032, 0.31502026319503784, 0.5820498466491699, -2.0, -0.5934937298297882, 0.41367556154727936, -1.3566650450229645, 0.38482901453971863, -2.0, -2.0, 0.6166638731956482, -1.598103404045105, -2.0, -2.0, -2.0, -0.9504480361938477, -2.0, -0.3439596891403198, 0.04054236877709627, -2.0, 0.5929396748542786, -2.0, -2.0, -0.6800820529460907, -2.0, -2.0, 0.42022670805454254, -0.5104241818189621, 0.07354395277798176, -2.0, -2.0, -2.0, -2.0, -1.5224713683128357, -2.0, 1.0873568058013916, 0.5894393920898438, -2.0, -1.694592297077179, -1.823507010936737, -2.0, -2.0, 0.1850755289196968, -2.0, -0.911176323890686, -2.0, -2.0, -2.0, -1.0995122790336609, -1.1430060267448425, -2.0, -2.0, -2.0, 0.37223130464553833, -0.9848710000514984, -2.0, -2.0, -2.0, -0.45467837154865265, -0.4678882658481598, 0.042482465505599976, -2.0, -2.0, 1.1140982508659363, -2.0, -2.0, 0.8681593239307404, -2.0, -2.0, -2.0, -0.01581234484910965, -0.6093422174453735, -2.0, -0.1450285017490387, -2.0, -2.0, -2.0, 0.8269946873188019, 0.6298161149024963, 0.8465163707733154, -0.46245333552360535, -0.4812868982553482, -1.4211572408676147, -2.0, -2.0, -2.0, -1.1221846044063568, -2.0, -2.0, -2.0, -0.7327238023281097, -2.0, -0.13483937736600637, -2.0, -2.0, -2.0, -2.0, 0.7208948135375977, -0.05634031444787979, 1.3432714343070984, 0.5091976523399353, -2.0, -0.6518820822238922, -2.0, -2.0, -2.0, -1.4566651582717896, 1.0147097706794739, 0.7267563343048096, -1.5862677097320557, -2.0, -2.0, -2.0, 0.6316594183444977, -2.0, -2.0, -0.2994237095117569, -2.0, -0.5709952712059021, 1.4803129434585571, -2.0, -2.0, -0.9238531589508057, 0.7877391576766968, -2.0, 0.20192178338766098, -2.0, -2.0, -2.0, 1.859885811805725, 0.9354440867900848, -4.865349173545837, -2.0, -2.0, -2.0, -0.13065820932388306, -2.0, -2.0, -0.7033996284008026, -0.45290446281433105, -2.0, -0.6727876365184784, -2.0, -2.0, -2.0, -2.0], "value": [[[1543.0, 1703.0]], [[1.0, 148.0]], [[1.0, 9.0]], [[1.0, 0.0]], [[0.0, 9.0]], [[0.0, 139.0]], [[1542.0, 1555.0]], [[311.0, 0.0]], [[1231.0, 1555.0]], [[80.0, 386.0]], [[55.0, 380.0]], [[29.0, 1.0]], [[29.0, 0.0]], [[0.0, 1.0]], [[26.0, 379.0]], [[13.0, 0.0]], [[13.0, 379.0]], [[9.0, 6.0]], [[9.0, 0.0]], [[0.0, 6.0]], [[4.0, 373.0]], [[1.0, 362.0]], [[1.0, 22.0]], [[1.0, 3.0]], [[1.0, 0.0]], [[0.0, 3.0]], [[0.0, 19.0]], [[0.0, 340.0]], [[3.0, 11.0]], [[3.0, 1.0]], [[3.0, 0.0]], [[0.0, 1.0]], [[0.0, 10.0]], [[25.0, 6.0]], [[25.0, 0.0]], [[0.0, 6.0]], [[1151.0, 1169.0]], [[1151.0, 1057.0]], [[270.0, 0.0]], [[881.0, 1057.0]], [[857.0, 850.0]], [[102.0, 270.0]], [[66.0, 9.0]], [[65.0, 5.0]], [[0.0, 3.0]], [[65.0, 2.0]], [[0.0, 1.0]], [[65.0, 1.0]], [[63.0, 0.0]], [[2.0, 1.0]], [[0.0, 1.0]], [[2.0, 0.0]], [[1.0, 4.0]], [[1.0, 0.0]], [[0.0, 4.0]], [[36.0, 261.0]], [[15.0, 2.0]], [[15.0, 0.0]], [[0.0, 2.0]], [[21.0, 259.0]], [[0.0, 170.0]], [[21.0, 89.0]], [[0.0, 89.0]], [[21.0, 0.0]], [[755.0, 580.0]], [[526.0, 506.0]], [[57.0, 1.0]], [[47.0, 0.0]], [[10.0, 1.0]], [[10.0, 0.0]], [[0.0, 1.0]], [[469.0, 505.0]], [[427.0, 505.0]], [[406.0, 364.0]], [[390.0, 307.0]], [[349.0, 307.0]], [[26.0, 131.0]], [[10.0, 13.0]], [[1.0, 8.0]], [[0.0, 6.0]], [[1.0, 2.0]], [[0.0, 2.0]], [[1.0, 0.0]], [[9.0, 5.0]], [[9.0, 0.0]], [[0.0, 5.0]], [[16.0, 118.0]], [[9.0, 20.0]], [[9.0, 2.0]], [[1.0, 2.0]], [[0.0, 2.0]], [[1.0, 0.0]], [[8.0, 0.0]], [[0.0, 18.0]], [[7.0, 98.0]], [[6.0, 98.0]], [[5.0, 16.0]], [[2.0, 16.0]], [[0.0, 16.0]], [[2.0, 0.0]], [[3.0, 0.0]], [[1.0, 82.0]], [[0.0, 74.0]], [[1.0, 8.0]], [[1.0, 0.0]], [[0.0, 8.0]], [[1.0, 0.0]], [[323.0, 176.0]], [[293.0, 91.0]], [[291.0, 69.0]], [[192.0, 68.0]], [[155.0, 35.0]], [[61.0, 0.0]], [[94.0, 35.0]], [[41.0, 32.0]], [[20.0, 4.0]], [[1.0, 3.0]], [[1.0, 0.0]], [[0.0, 3.0]], [[19.0, 1.0]], [[1.0, 1.0]], [[1.0, 0.0]], [[0.0, 1.0]], [[18.0, 0.0]], [[21.0, 28.0]], [[0.0, 13.0]], [[21.0, 15.0]], [[19.0, 4.0]], [[13.0, 0.0]], [[6.0, 4.0]], [[6.0, 0.0]], [[0.0, 4.0]], [[2.0, 11.0]], [[0.0, 11.0]], [[2.0, 0.0]], [[53.0, 3.0]], [[53.0, 1.0]], [[1.0, 1.0]], [[0.0, 1.0]], [[1.0, 0.0]], [[52.0, 0.0]], [[0.0, 2.0]], [[37.0, 33.0]], [[11.0, 0.0]], [[26.0, 33.0]], [[13.0, 33.0]], [[3.0, 0.0]], [[10.0, 33.0]], [[4.0, 1.0]], [[0.0, 1.0]], [[4.0, 0.0]], [[6.0, 32.0]], [[0.0, 27.0]], [[6.0, 5.0]], [[6.0, 0.0]], [[0.0, 5.0]], [[13.0, 0.0]], [[99.0, 1.0]], [[1.0, 1.0]], [[1.0, 0.0]], [[0.0, 1.0]], [[98.0, 0.0]], [[2.0, 22.0]], [[1.0, 22.0]], [[1.0, 0.0]], [[0.0, 22.0]], [[1.0, 0.0]], [[30.0, 85.0]], [[25.0, 32.0]], [[2.0, 31.0]], [[2.0, 0.0]], [[0.0, 31.0]], [[23.0, 1.0]], [[23.0, 0.0]], [[0.0, 1.0]], [[5.0, 53.0]], [[5.0, 0.0]], [[0.0, 53.0]], [[41.0, 0.0]], [[16.0, 57.0]], [[16.0, 8.0]], [[0.0, 4.0]], [[16.0, 4.0]], [[16.0, 0.0]], [[0.0, 4.0]], [[0.0, 49.0]], [[21.0, 141.0]], [[16.0, 141.0]], [[10.0, 137.0]], [[9.0, 137.0]], [[8.0, 18.0]], [[3.0, 18.0]], [[3.0, 0.0]], [[0.0, 18.0]], [[5.0, 0.0]], [[1.0, 119.0]], [[1.0, 0.0]], [[0.0, 119.0]], [[1.0, 0.0]], [[6.0, 4.0]], [[4.0, 0.0]], [[2.0, 4.0]], [[2.0, 0.0]], [[0.0, 4.0]], [[5.0, 0.0]], [[42.0, 0.0]], [[229.0, 74.0]], [[37.0, 72.0]], [[16.0, 8.0]], [[16.0, 1.0]], [[14.0, 0.0]], [[2.0, 1.0]], [[2.0, 0.0]], [[0.0, 1.0]], [[0.0, 7.0]], [[21.0, 64.0]], [[15.0, 4.0]], [[12.0, 1.0]], [[1.0, 1.0]], [[1.0, 0.0]], [[0.0, 1.0]], [[11.0, 0.0]], [[3.0, 3.0]], [[0.0, 3.0]], [[3.0, 0.0]], [[6.0, 60.0]], [[2.0, 0.0]], [[4.0, 60.0]], [[2.0, 4.0]], [[0.0, 4.0]], [[2.0, 0.0]], [[2.0, 56.0]], [[2.0, 14.0]], [[0.0, 13.0]], [[2.0, 1.0]], [[2.0, 0.0]], [[0.0, 1.0]], [[0.0, 42.0]], [[192.0, 2.0]], [[184.0, 1.0]], [[13.0, 1.0]], [[0.0, 1.0]], [[13.0, 0.0]], [[171.0, 0.0]], [[8.0, 1.0]], [[0.0, 1.0]], [[8.0, 0.0]], [[24.0, 207.0]], [[14.0, 207.0]], [[0.0, 178.0]], [[14.0, 29.0]], [[0.0, 29.0]], [[14.0, 0.0]], [[10.0, 0.0]], [[0.0, 112.0]]]}, {"children_left": [1, 2, 3, 4, 5, -1, 7, -1, 9, -1, -1, -1, 13, 14, -1, 16, -1, -1, 19, -1, -1, 22, 23, 24, 25, 26, 27, -1, 29, 30, -1, -1, -1, 34, 35, -1, -1, 38, 39, -1, -1, -1, 43, 44, 45, -1, 47, 48, 49, 50, -1, -1, -1, -1, 55, -1, 57, 58, -1, -1, 61, 62, 63, 64, -1, 66, -1, -1, 69, -1, -1, -1, -1, 74, -1, -1, 77, 78, -1, -1, 81, 82, -1, 84, 85, 86, -1, 88, -1, 90, 91, -1, -1, -1, 95, 96, -1, 98, -1, -1, -1, -1, 103, 104, 105, 106, 107, 108, 109, -1, 111, -1, -1, 114, -1, -1, 117, 118, 119, 120, -1, -1, 123, -1, -1, -1, 127, -1, -1, 130, 131, 132, 133, -1, -1, 136, -1, -1, -1, 140, 141, 142, -1, -1, -1, 146, 147, 148, 149, -1, -1, 152, -1, -1, 155, -1, -1, 158, -1, -1, 161, -1, 163, -1, -1, -1, 167, 168, -1, 170, -1, -1, 173, 174, -1, -1, 177, 178, 179, -1, 181, 182, -1, -1, 185, -1, -1, 188, -1, -1, 191, 192, 193, 194, -1, 196, 197, -1, -1, -1, -1, -1, -1, 204, 205, 206, 207, -1, 209, 210, -1, 212, -1, -1, 215, -1, -1, 218, 219, -1, -1, 222, -1, -1, 225, -1, -1, 228, 229, -1, -1, -1, 233, -1, 235, 236, -1, -1, -1, 240, 241, -1, -1, -1, 245, 246, -1, -1, 249, 250, 251, 252, 253, -1, -1, 256, -1, 258, -1, -1, 261, 262, -1, -1, -1, 266, -1, -1, 269, -1, 271, 272, -1, 274, 275, -1, -1, -1, -1], "children_right": [244, 21, 12, 11, 6, -1, 8, -1, 10, -1, -1, -1, 18, 15, -1, 17, -1, -1, 20, -1, -1, 239, 232, 203, 42, 33, 28, -1, 32, 31, -1, -1, -1, 37, 36, -1, -1, 41, 40, -1, -1, -1, 76, 73, 46, -1, 54, 53, 52, 51, -1, -1, -1, -1, 56, -1, 60, 59, -1, -1, 72, 71, 68, 65, -1, 67, -1, -1, 70, -1, -1, -1, -1, 75, -1, -1, 80, 79, -1, -1, 102, 83, -1, 101, 94, 87, -1, 89, -1, 93, 92, -1, -1, -1, 100, 97, -1, 99, -1, -1, -1, -1, 166, 165, 160, 129, 116, 113, 110, -1, 112, -1, -1, 115, -1, -1, 126, 125, 122, 121, -1, -1, 124, -1, -1, -1, 128, -1, -1, 139, 138, 135, 134, -1, -1, 137, -1, -1, -1, 145, 144, 143, -1, -1, -1, 157, 154, 151, 150, -1, -1, 153, -1, -1, 156, -1, -1, 159, -1, -1, 162, -1, 164, -1, -1, -1, 172, 169, -1, 171, -1, -1, 176, 175, -1, -1, 190, 187, 180, -1, 184, 183, -1, -1, 186, -1, -1, 189, -1, -1, 202, 201, 200, 195, -1, 199, 198, -1, -1, -1, -1, -1, -1, 227, 224, 217, 208, -1, 214, 211, -1, 213, -1, -1, 216, -1, -1, 221, 220, -1, -1, 223, -1, -1, 226, -1, -1, 231, 230, -1, -1, -1, 234, -1, 238, 237, -1, -1, -1, 243, 242, -1, -1, -1, 248, 247, -1, -1, 268, 265, 260, 255, 254, -1, -1, 257, -1, 259, -1, -1, 264, 263, -1, -1, -1, 267, -1, -1, 270, -1, 278, 273, -1, 277, 276, -1, -1, -1, -1], "feature": [12, 12, 3, 5, 7, -2, 15, -2, 16, -2, -2, -2, 16, 6, -2, 6, -2, -2, 14, -2, -2, 7, 2, 10, 9, 7, 9, -2, 13, 7, -2, -2, -2, 13, 14, -2, -2, 3, 15, -2, -2, -2, 10, 3, 7, -2, 7, 16, 1, 16, -2, -2, -2, -2, 7, -2, 14, 14, -2, -2, 9, 7, 13, 16, -2, 9, -2, -2, 0, -2, -2, -2, -2, 4, -2, -2, 1, 0, -2, -2, 3, 12, -2, 2, 10, 13, -2, 5, -2, 16, 0, -2, -2, -2, 5, 4, -2, 3, -2, -2, -2, -2, 7, 8, 2, 9, 6, 4, 4, -2, 1, -2, -2, 3, -2, -2, 3, 10, 15, 8, -2, -2, 1, -2, -2, -2, 14, -2, -2, 15, 7, 9, 14, -2, -2, 11, -2, -2, -2, 13, 6, 2, -2, -2, -2, 10, 16, 0, 9, -2, -2, 13, -2, -2, 12, -2, -2, 13, -2, -2, 15, -2, 13, -2, -2, -2, 10, 16, -2, 2, -2, -2, 8, 0, -2, -2, 12, 7, 8, -2, 4, 2, -2, -2, 16, -2, -2, 13, -2, -2, 5, 5, 1, 12, -2, 14, 6, -2, -2, -2, -2, -2, -2, 12, 7, 9, 13, -2, 12, 0, -2, 14, -2, -2, 10, -2, -2, 8, 4, -2, -2, 5, -2, -2, 0, -2, -2, 15, 7, -2, -2, -2, 7, -2, 11, 12, -2, -2, -2, 9, 15, -2, -2, -2, 5, 9, -2, -2, 14, 5, 5, 15, 16, -2, -2, 5, -2, 9, -2, -2, 10, 10, -2, -2, -2, 10, -2, -2, 5, -2, 3, 14, -2, 11, 9, -2, -2, -2, -2], "threshold": [0.8034893572330475, -1.608957588672638, 1.015875220298767, 0.9777568578720093, -1.3516281247138977, -2.0, -0.3539433926343918, -2.0, 1.5410686135292053, -2.0, -2.0, -2.0, 0.33574143797159195, 0.5992431342601776, -2.0, 1.8106182217597961, -2.0, -2.0, 0.4725699871778488, -2.0, -2.0, 0.7543420195579529, 1.6638554334640503, 0.568109393119812, -1.0226624608039856, 0.6792801916599274, -1.7214510440826416, -2.0, -1.1398384869098663, 0.6376656293869019, -2.0, -2.0, -2.0, -0.6434798538684845, -0.760572224855423, -2.0, -2.0, -0.9255492389202118, -0.6876633763313293, -2.0, -2.0, -2.0, -1.4757868647575378, 1.02247953414917, 0.6213309168815613, -2.0, 0.6244422793388367, 0.5868512541055679, -1.4437992572784424, -0.8193638026714325, -2.0, -2.0, -2.0, -2.0, 0.6291093826293945, -2.0, -0.9519938826560974, -1.0284151434898376, -2.0, -2.0, 1.4776902794837952, 0.6648901104927063, 0.34923745691776276, -0.6686979085206985, -2.0, 0.4529824275523424, -2.0, -2.0, -0.054366759955883026, -2.0, -2.0, -2.0, -2.0, -0.14552879333496094, -2.0, -2.0, -2.1801443099975586, 0.42858585715293884, -2.0, -2.0, -0.8945868015289307, -0.4114829748868942, -2.0, 0.46972329914569855, -0.16701337695121765, -1.4610117673873901, -2.0, -1.148644745349884, -2.0, -1.0202516913414001, 0.18491793423891068, -2.0, -2.0, -2.0, 0.3629095256328583, 0.19118766486644745, -2.0, -0.9331247210502625, -2.0, -2.0, -2.0, -2.0, 0.6656679511070251, 0.5103136599063873, 0.3250432461500168, 0.2941172122955322, -0.6440102458000183, -0.29785290360450745, -0.5330199301242828, -2.0, 0.10927516967058182, -2.0, -2.0, 1.0108249187469482, -2.0, -2.0, 1.0240334272384644, 0.18355094641447067, -0.3373366445302963, 0.29545044898986816, -2.0, -2.0, -0.23864786326885223, -2.0, -2.0, -2.0, -0.9980268180370331, -2.0, -2.0, -0.5840977132320404, 0.5898283123970032, 0.5332339107990265, -0.6382818520069122, -2.0, -2.0, -2.0149815678596497, -2.0, -2.0, -2.0, -0.4974920153617859, -1.5047240853309631, -0.6942369639873505, -2.0, -2.0, -2.0, 0.12831050902605057, 0.6872951984405518, -0.2642638683319092, 0.6063883602619171, -2.0, -2.0, -0.23471389897167683, -2.0, -2.0, -0.13241621851921082, -2.0, -2.0, -0.001133352518081665, -2.0, -2.0, -0.25796398520469666, -2.0, -0.4098993241786957, -2.0, -2.0, -2.0, -0.9170085787773132, -0.8193638026714325, -2.0, -0.6930461227893829, -2.0, -2.0, -1.0224538147449493, 0.490349605679512, -2.0, -2.0, 0.30816829204559326, 0.724006175994873, 0.04381920624291524, -2.0, 0.02550178673118353, -0.682454913854599, -2.0, -2.0, -1.823803186416626, -2.0, -2.0, 0.7872009873390198, -2.0, -2.0, 0.8820556402206421, 0.8498056828975677, 0.5662999749183655, 0.4441123902797699, -2.0, -0.7125734388828278, -0.5483753681182861, -2.0, -2.0, -2.0, -2.0, -2.0, -2.0, -0.634467214345932, 0.7201169729232788, 0.03168935328722, -1.023048222064972, -2.0, -0.6874091327190399, 0.6925760507583618, -2.0, 0.8284652382135391, -2.0, -2.0, 0.9271722435951233, -2.0, -2.0, 0.8986760377883911, 0.9955658614635468, -2.0, -2.0, 0.605702131986618, -2.0, -2.0, -0.24573476240038872, -2.0, -2.0, 0.7874680683016777, -1.3535338640213013, -2.0, -2.0, -2.0, -1.354117214679718, -2.0, -0.4839483052492142, -0.4711548089981079, -2.0, -2.0, -2.0, -0.8561542332172394, -0.5913405120372772, -2.0, -2.0, -2.0, -0.8838277757167816, -0.16555464267730713, -2.0, -2.0, -0.731904000043869, 1.0852567553520203, 0.9030312597751617, -0.6192587316036224, 0.13485360145568848, -2.0, -2.0, 0.7480739951133728, -2.0, 0.43382031470537186, -2.0, -2.0, -1.1825876235961914, -1.533151924610138, -2.0, -2.0, -2.0, -1.1230978965759277, -2.0, -2.0, -0.13395003974437714, -2.0, 1.1114429831504822, -0.6985669732093811, -2.0, 0.3825075179338455, -1.0788931250572205, -2.0, -2.0, -2.0, -2.0], "value": [[[1579.0, 1667.0]], [[1497.0, 1202.0]], [[190.0, 36.0]], [[188.0, 14.0]], [[188.0, 7.0]], [[163.0, 0.0]], [[25.0, 7.0]], [[24.0, 0.0]], [[1.0, 7.0]], [[0.0, 7.0]], [[1.0, 0.0]], [[0.0, 7.0]], [[2.0, 22.0]], [[1.0, 21.0]], [[0.0, 18.0]], [[1.0, 3.0]], [[1.0, 0.0]], [[0.0, 3.0]], [[1.0, 1.0]], [[1.0, 0.0]], [[0.0, 1.0]], [[1307.0, 1166.0]], [[774.0, 1165.0]], [[761.0, 816.0]], [[714.0, 565.0]], [[42.0, 156.0]], [[35.0, 15.0]], [[0.0, 12.0]], [[35.0, 3.0]], [[1.0, 3.0]], [[1.0, 0.0]], [[0.0, 3.0]], [[34.0, 0.0]], [[7.0, 141.0]], [[4.0, 3.0]], [[4.0, 0.0]], [[0.0, 3.0]], [[3.0, 138.0]], [[3.0, 18.0]], [[0.0, 18.0]], [[3.0, 0.0]], [[0.0, 120.0]], [[672.0, 409.0]], [[49.0, 128.0]], [[48.0, 61.0]], [[0.0, 18.0]], [[48.0, 43.0]], [[19.0, 3.0]], [[19.0, 1.0]], [[3.0, 1.0]], [[3.0, 0.0]], [[0.0, 1.0]], [[16.0, 0.0]], [[0.0, 2.0]], [[29.0, 40.0]], [[0.0, 11.0]], [[29.0, 29.0]], [[14.0, 4.0]], [[0.0, 4.0]], [[14.0, 0.0]], [[15.0, 25.0]], [[8.0, 25.0]], [[5.0, 25.0]], [[2.0, 24.0]], [[0.0, 23.0]], [[2.0, 1.0]], [[0.0, 1.0]], [[2.0, 0.0]], [[3.0, 1.0]], [[0.0, 1.0]], [[3.0, 0.0]], [[3.0, 0.0]], [[7.0, 0.0]], [[1.0, 67.0]], [[0.0, 67.0]], [[1.0, 0.0]], [[623.0, 281.0]], [[3.0, 26.0]], [[0.0, 26.0]], [[3.0, 0.0]], [[620.0, 255.0]], [[238.0, 40.0]], [[144.0, 0.0]], [[94.0, 40.0]], [[94.0, 27.0]], [[89.0, 6.0]], [[0.0, 2.0]], [[89.0, 4.0]], [[0.0, 3.0]], [[89.0, 1.0]], [[6.0, 1.0]], [[6.0, 0.0]], [[0.0, 1.0]], [[83.0, 0.0]], [[5.0, 21.0]], [[1.0, 21.0]], [[0.0, 19.0]], [[1.0, 2.0]], [[0.0, 2.0]], [[1.0, 0.0]], [[4.0, 0.0]], [[0.0, 13.0]], [[382.0, 215.0]], [[313.0, 105.0]], [[313.0, 89.0]], [[309.0, 67.0]], [[229.0, 20.0]], [[48.0, 12.0]], [[46.0, 2.0]], [[40.0, 0.0]], [[6.0, 2.0]], [[6.0, 0.0]], [[0.0, 2.0]], [[2.0, 10.0]], [[2.0, 0.0]], [[0.0, 10.0]], [[181.0, 8.0]], [[61.0, 7.0]], [[61.0, 6.0]], [[60.0, 1.0]], [[60.0, 0.0]], [[0.0, 1.0]], [[1.0, 5.0]], [[0.0, 5.0]], [[1.0, 0.0]], [[0.0, 1.0]], [[120.0, 1.0]], [[0.0, 1.0]], [[120.0, 0.0]], [[80.0, 47.0]], [[49.0, 13.0]], [[49.0, 3.0]], [[2.0, 2.0]], [[0.0, 2.0]], [[2.0, 0.0]], [[47.0, 1.0]], [[0.0, 1.0]], [[47.0, 0.0]], [[0.0, 10.0]], [[31.0, 34.0]], [[17.0, 1.0]], [[1.0, 1.0]], [[1.0, 0.0]], [[0.0, 1.0]], [[16.0, 0.0]], [[14.0, 33.0]], [[5.0, 31.0]], [[2.0, 30.0]], [[1.0, 2.0]], [[1.0, 0.0]], [[0.0, 2.0]], [[1.0, 28.0]], [[1.0, 0.0]], [[0.0, 28.0]], [[3.0, 1.0]], [[3.0, 0.0]], [[0.0, 1.0]], [[9.0, 2.0]], [[0.0, 2.0]], [[9.0, 0.0]], [[4.0, 22.0]], [[3.0, 0.0]], [[1.0, 22.0]], [[1.0, 0.0]], [[0.0, 22.0]], [[0.0, 16.0]], [[69.0, 110.0]], [[17.0, 2.0]], [[0.0, 1.0]], [[17.0, 1.0]], [[0.0, 1.0]], [[17.0, 0.0]], [[52.0, 108.0]], [[18.0, 1.0]], [[18.0, 0.0]], [[0.0, 1.0]], [[34.0, 107.0]], [[27.0, 42.0]], [[14.0, 41.0]], [[0.0, 36.0]], [[14.0, 5.0]], [[11.0, 1.0]], [[0.0, 1.0]], [[11.0, 0.0]], [[3.0, 4.0]], [[3.0, 0.0]], [[0.0, 4.0]], [[13.0, 1.0]], [[13.0, 0.0]], [[0.0, 1.0]], [[7.0, 65.0]], [[7.0, 17.0]], [[4.0, 17.0]], [[4.0, 6.0]], [[0.0, 5.0]], [[4.0, 1.0]], [[1.0, 1.0]], [[0.0, 1.0]], [[1.0, 0.0]], [[3.0, 0.0]], [[0.0, 11.0]], [[3.0, 0.0]], [[0.0, 48.0]], [[47.0, 251.0]], [[43.0, 69.0]], [[24.0, 67.0]], [[5.0, 50.0]], [[1.0, 0.0]], [[4.0, 50.0]], [[2.0, 47.0]], [[0.0, 43.0]], [[2.0, 4.0]], [[2.0, 0.0]], [[0.0, 4.0]], [[2.0, 3.0]], [[2.0, 0.0]], [[0.0, 3.0]], [[19.0, 17.0]], [[2.0, 15.0]], [[2.0, 0.0]], [[0.0, 15.0]], [[17.0, 2.0]], [[17.0, 0.0]], [[0.0, 2.0]], [[19.0, 2.0]], [[0.0, 2.0]], [[19.0, 0.0]], [[4.0, 182.0]], [[1.0, 182.0]], [[1.0, 0.0]], [[0.0, 182.0]], [[3.0, 0.0]], [[13.0, 349.0]], [[7.0, 0.0]], [[6.0, 349.0]], [[6.0, 25.0]], [[0.0, 25.0]], [[6.0, 0.0]], [[0.0, 324.0]], [[533.0, 1.0]], [[26.0, 1.0]], [[0.0, 1.0]], [[26.0, 0.0]], [[507.0, 0.0]], [[82.0, 465.0]], [[33.0, 3.0]], [[0.0, 3.0]], [[33.0, 0.0]], [[49.0, 462.0]], [[16.0, 438.0]], [[7.0, 424.0]], [[3.0, 367.0]], [[2.0, 2.0]], [[2.0, 0.0]], [[0.0, 2.0]], [[1.0, 365.0]], [[0.0, 318.0]], [[1.0, 47.0]], [[1.0, 0.0]], [[0.0, 47.0]], [[4.0, 57.0]], [[4.0, 1.0]], [[0.0, 1.0]], [[4.0, 0.0]], [[0.0, 56.0]], [[9.0, 14.0]], [[9.0, 0.0]], [[0.0, 14.0]], [[33.0, 24.0]], [[0.0, 8.0]], [[33.0, 16.0]], [[15.0, 16.0]], [[0.0, 14.0]], [[15.0, 2.0]], [[1.0, 2.0]], [[1.0, 0.0]], [[0.0, 2.0]], [[14.0, 0.0]], [[18.0, 0.0]]]}, {"children_left": [1, 2, 3, 4, 5, 6, 7, 8, 9, -1, -1, -1, -1, 14, -1, 16, -1, 18, -1, -1, -1, 22, 23, 24, 25, 26, -1, 28, -1, 30, -1, -1, 33, -1, 35, 36, 37, 38, 39, 40, -1, -1, -1, 44, -1, -1, 47, 48, 49, 50, 51, -1, -1, 54, 55, 56, -1, -1, 59, 60, -1, -1, -1, 64, 65, -1, -1, -1, 69, 70, -1, -1, 73, -1, 75, 76, -1, 78, -1, -1, 81, 82, -1, -1, 85, 86, 87, 88, -1, 90, 91, -1, 93, -1, 95, -1, -1, 98, -1, -1, 101, 102, 103, 104, -1, -1, -1, -1, -1, 110, -1, -1, -1, -1, -1, -1, 117, 118, 119, -1, -1, 122, -1, 124, 125, -1, -1, -1, 129, 130, 131, 132, -1, -1, -1, 136, -1, 138, 139, -1, 141, -1, -1, -1, 145, -1, 147, 148, -1, -1, 151, 152, -1, -1, -1, 156, 157, 158, 159, 160, 161, 162, -1, 164, -1, -1, -1, 168, -1, 170, -1, 172, -1, 174, -1, -1, 177, 178, -1, 180, -1, 182, -1, -1, 185, -1, -1, 188, -1, -1, -1, 192, 193, -1, 195, 196, -1, 198, -1, -1, -1, 202, -1, -1, 205, 206, -1, -1, -1, 210, 211, 212, -1, 214, -1, -1, 217, 218, -1, -1, -1, 222, -1, -1, 225, 226, 227, 228, -1, 230, -1, 232, -1, 234, 235, -1, -1, -1, 239, 240, 241, 242, 243, -1, 245, -1, 247, -1, 249, -1, -1, -1, 253, -1, -1, 256, 257, -1, -1, -1, 261, -1, 263, 264, 265, -1, 267, 268, -1, 270, -1, -1, 273, 274, 275, -1, 277, -1, -1, 280, -1, -1, -1, 284, 285, -1, -1, -1, 289, -1, -1, 292, 293, 294, -1, 296, -1, -1, -1, -1, 301, 302, -1, -1, 305, -1, -1, 308, 309, 310, -1, -1, 313, 314, -1, -1, -1, 318, -1, -1, 321, 322, 323, 324, -1, -1, 327, -1, 329, -1, -1, 332, 333, -1, 335, -1, 337, -1, -1, -1, 341, -1, -1], "children_right": [320, 307, 224, 21, 20, 13, 12, 11, 10, -1, -1, -1, -1, 15, -1, 17, -1, 19, -1, -1, -1, 209, 204, 155, 32, 27, -1, 29, -1, 31, -1, -1, 34, -1, 116, 115, 46, 43, 42, 41, -1, -1, -1, 45, -1, -1, 114, 113, 68, 53, 52, -1, -1, 63, 58, 57, -1, -1, 62, 61, -1, -1, -1, 67, 66, -1, -1, -1, 72, 71, -1, -1, 74, -1, 80, 77, -1, 79, -1, -1, 84, 83, -1, -1, 112, 109, 100, 89, -1, 97, 92, -1, 94, -1, 96, -1, -1, 99, -1, -1, 108, 107, 106, 105, -1, -1, -1, -1, -1, 111, -1, -1, -1, -1, -1, -1, 128, 121, 120, -1, -1, 123, -1, 127, 126, -1, -1, -1, 144, 135, 134, 133, -1, -1, -1, 137, -1, 143, 140, -1, 142, -1, -1, -1, 146, -1, 150, 149, -1, -1, 154, 153, -1, -1, -1, 191, 190, 187, 176, 167, 166, 163, -1, 165, -1, -1, -1, 169, -1, 171, -1, 173, -1, 175, -1, -1, 184, 179, -1, 181, -1, 183, -1, -1, 186, -1, -1, 189, -1, -1, -1, 201, 194, -1, 200, 197, -1, 199, -1, -1, -1, 203, -1, -1, 208, 207, -1, -1, -1, 221, 216, 213, -1, 215, -1, -1, 220, 219, -1, -1, -1, 223, -1, -1, 300, 291, 238, 229, -1, 231, -1, 233, -1, 237, 236, -1, -1, -1, 260, 255, 252, 251, 244, -1, 246, -1, 248, -1, 250, -1, -1, -1, 254, -1, -1, 259, 258, -1, -1, -1, 262, -1, 288, 283, 266, -1, 272, 269, -1, 271, -1, -1, 282, 279, 276, -1, 278, -1, -1, 281, -1, -1, -1, 287, 286, -1, -1, -1, 290, -1, -1, 299, 298, 295, -1, 297, -1, -1, -1, -1, 304, 303, -1, -1, 306, -1, -1, 317, 312, 311, -1, -1, 316, 315, -1, -1, -1, 319, -1, -1, 340, 331, 326, 325, -1, -1, 328, -1, 330, -1, -1, 339, 334, -1, 336, -1, 338, -1, -1, -1, 342, -1, -1], "feature": [10, 3, 12, 12, 15, 1, 12, 2, 6, -2, -2, -2, -2, 3, -2, 7, -2, 6, -2, -2, -2, 15, 7, 7, 4, 1, -2, 11, -2, 5, -2, -2, 9, -2, 9, 1, 12, 9, 5, 11, -2, -2, -2, 0, -2, -2, 14, 8, 2, 3, 2, -2, -2, 14, 8, 12, -2, -2, 9, 9, -2, -2, -2, 8, 14, -2, -2, -2, 9, 6, -2, -2, 2, -2, 11, 4, -2, 10, -2, -2, 12, 11, -2, -2, 14, 10, 8, 14, -2, 5, 7, -2, 7, -2, 9, -2, -2, 13, -2, -2, 7, 11, 10, 7, -2, -2, -2, -2, -2, 10, -2, -2, -2, -2, -2, -2, 15, 12, 0, -2, -2, 15, -2, 1, 12, -2, -2, -2, 13, 6, 15, 9, -2, -2, -2, 4, -2, 4, 11, -2, 12, -2, -2, -2, 7, -2, 3, 14, -2, -2, 0, 15, -2, -2, -2, 1, 2, 14, 15, 0, 11, 5, -2, 14, -2, -2, -2, 5, -2, 15, -2, 8, -2, 15, -2, -2, 16, 9, -2, 8, -2, 6, -2, -2, 10, -2, -2, 16, -2, -2, -2, 15, 14, -2, 2, 6, -2, 9, -2, -2, -2, 5, -2, -2, 16, 15, -2, -2, -2, 12, 5, 14, -2, 7, -2, -2, 5, 4, -2, -2, -2, 11, -2, -2, 15, 3, 11, 5, -2, 6, -2, 0, -2, 3, 10, -2, -2, -2, 3, 15, 10, 16, 14, -2, 14, -2, 14, -2, 11, -2, -2, -2, 4, -2, -2, 4, 15, -2, -2, -2, 8, -2, 0, 9, 7, -2, 4, 5, -2, 14, -2, -2, 16, 2, 8, -2, 8, -2, -2, 3, -2, -2, -2, 2, 16, -2, -2, -2, 8, -2, -2, 1, 15, 6, -2, 4, -2, -2, -2, -2, 11, 7, -2, -2, 8, -2, -2, 0, 4, 12, -2, -2, 12, 12, -2, -2, -2, 0, -2, -2, 15, 6, 14, 7, -2, -2, 8, -2, 11, -2, -2, 7, 4, -2, 13, -2, 5, -2, -2, -2, 7, -2, -2], "threshold": [0.903801292181015, 1.1153278946876526, 0.2987464368343353, -1.173757016658783, 0.852611780166626, -1.0363549590110779, -1.3532211184501648, 0.26934637129306793, -1.409089207649231, -2.0, -2.0, -2.0, -2.0, 1.0131558179855347, -2.0, 0.5867169499397278, -2.0, 0.8542694598436356, -2.0, -2.0, -2.0, -0.06694872677326202, 0.7341181039810181, 0.6555560231208801, -1.5565310716629028, 0.8940962553024292, -2.0, -2.0164551734924316, -2.0, 0.730506956577301, -2.0, -2.0, -1.961659550666809, -2.0, 0.2941172122955322, 1.9397062063217163, -1.0660784840583801, -0.1338907778263092, 0.2603912800550461, 0.35598335415124893, -2.0, -2.0, -2.0, -2.3896340131759644, -2.0, -2.0, 1.3526837825775146, 1.1870753169059753, -0.62424236536026, -0.9557735025882721, -0.6619448661804199, -2.0, -2.0, -0.32235826551914215, -1.2200820446014404, 0.032242149114608765, -2.0, -2.0, -0.9003744721412659, -0.922211617231369, -2.0, -2.0, -2.0, -0.09865693520987406, -0.10955830290913582, -2.0, -2.0, -2.0, -0.5329645574092865, -0.6440102458000183, -2.0, -2.0, -0.6223857998847961, -2.0, -1.1735764145851135, -0.6425864100456238, -2.0, -1.0423618704080582, -2.0, -2.0, -0.9059067368507385, 0.07305900752544403, -2.0, -2.0, 1.3510456085205078, 0.1771770492196083, 0.4126485735177994, 0.6097678244113922, -2.0, 0.42019912600517273, 0.627164751291275, -2.0, 0.6329985857009888, -2.0, 0.15392275899648666, -2.0, -2.0, 0.05726177059113979, -2.0, -2.0, 0.6376656293869019, 0.34419484436511993, -1.662754476070404, 0.6224976778030396, -2.0, -2.0, -2.0, -2.0, -2.0, 0.48949798941612244, -2.0, -2.0, -2.0, -2.0, -2.0, -2.0, -0.5811915397644043, -0.9853196442127228, -0.005653101950883865, -2.0, -2.0, -0.6370090544223785, -2.0, -1.577568531036377, -0.7452863156795502, -2.0, -2.0, -2.0, -0.3515041768550873, -1.1221845746040344, -0.32963715493679047, 0.42350228130817413, -2.0, -2.0, -2.0, -1.259899914264679, -2.0, 0.1965323742479086, -0.5856242477893829, -2.0, -0.15978450328111649, -2.0, -2.0, -2.0, 0.5746603608131409, -2.0, 1.0135443210601807, 1.0127608329057693, -2.0, -2.0, -0.2756204381585121, -0.5665096640586853, -2.0, -2.0, -2.0, 0.42774438858032227, 0.5012518912553787, 0.9259371161460876, -0.449734091758728, 0.1576223373413086, 1.201809287071228, 0.7176593542098999, -2.0, -0.729364812374115, -2.0, -2.0, -2.0, 0.5168442279100418, -2.0, -0.4787958711385727, -2.0, 0.3276224881410599, -2.0, -0.4561503231525421, -2.0, -2.0, 0.38596341013908386, -0.6072108447551727, -2.0, 0.8917820155620575, -2.0, 1.3643221259117126, -2.0, -2.0, 0.18355094641447067, -2.0, -2.0, 1.8926223516464233, -2.0, -2.0, -2.0, -0.4320705533027649, -0.9737817347049713, -2.0, -0.5851666629314423, -0.0383226927369833, -2.0, 0.20513087511062622, -2.0, -2.0, -2.0, -1.0151874870061874, -2.0, -2.0, -0.8193638026714325, -0.6846024692058563, -2.0, -2.0, -2.0, 0.21170631051063538, 0.5734521150588989, 0.11012202873826027, -2.0, -1.2935621738433838, -2.0, -2.0, 0.7048118114471436, -0.09475408494472504, -2.0, -2.0, -2.0, 0.7052180767059326, -2.0, -2.0, 1.3511914610862732, 1.0924071669578552, -1.2708316445350647, -0.28864509612321854, -2.0, -1.4409675002098083, -2.0, 0.14267949759960175, -2.0, 1.0275298357009888, -1.0211155414581299, -2.0, -2.0, -2.0, -0.9205377399921417, -0.4910622388124466, -0.3029898405075073, 0.5868512764573097, -0.8322427272796631, -2.0, -0.8091443479061127, -2.0, -0.19408856332302094, -2.0, 0.13642227184027433, -2.0, -2.0, -2.0, 0.5973852723836899, -2.0, -2.0, -1.126282274723053, 0.1425226591527462, -2.0, -2.0, -2.0, -1.6118914484977722, -2.0, 0.7463702857494354, 1.6305503249168396, -1.266998827457428, -2.0, -1.0915416479110718, 0.731555700302124, -2.0, -0.9246362149715424, -2.0, -2.0, -0.8193638026714325, -0.6409514248371124, 0.5792537331581116, -2.0, 0.6206177771091461, -2.0, -2.0, 0.05775001645088196, -2.0, -2.0, -2.0, -0.6869150698184967, -0.11625627428293228, -2.0, -2.0, -2.0, -0.18138501700013876, -2.0, -2.0, 1.3764022588729858, -0.4541122317314148, -1.0265497267246246, -2.0, -0.8991322815418243, -2.0, -2.0, -2.0, -2.0, 0.9542504549026489, 0.722450464963913, -2.0, -2.0, 1.7500858306884766, -2.0, -2.0, 0.6527284681797028, -0.8750810921192169, 0.9129625260829926, -2.0, -2.0, 0.20632238686084747, 0.20004113763570786, -2.0, -2.0, -2.0, 0.7523474097251892, -2.0, -2.0, 1.467061161994934, 2.19315767288208, 1.7753350138664246, 0.862851083278656, -2.0, -2.0, 0.521803691983223, -2.0, 0.24988672882318497, -2.0, -2.0, 0.8476831614971161, 1.6823605298995972, -2.0, 2.5974502563476562, -2.0, 0.2689388245344162, -2.0, -2.0, -2.0, 0.6847251057624817, -2.0, -2.0], "value": [[[1564.0, 1682.0]], [[1352.0, 1084.0]], [[1107.0, 1074.0]], [[924.0, 444.0]], [[313.0, 20.0]], [[313.0, 16.0]], [[18.0, 9.0]], [[18.0, 3.0]], [[18.0, 1.0]], [[0.0, 1.0]], [[18.0, 0.0]], [[0.0, 2.0]], [[0.0, 6.0]], [[295.0, 7.0]], [[276.0, 0.0]], [[19.0, 7.0]], [[18.0, 0.0]], [[1.0, 7.0]], [[0.0, 7.0]], [[1.0, 0.0]], [[0.0, 4.0]], [[611.0, 424.0]], [[581.0, 281.0]], [[453.0, 280.0]], [[356.0, 149.0]], [[5.0, 21.0]], [[0.0, 18.0]], [[5.0, 3.0]], [[0.0, 2.0]], [[5.0, 1.0]], [[0.0, 1.0]], [[5.0, 0.0]], [[351.0, 128.0]], [[0.0, 12.0]], [[351.0, 116.0]], [[262.0, 55.0]], [[262.0, 50.0]], [[11.0, 10.0]], [[4.0, 9.0]], [[1.0, 9.0]], [[0.0, 9.0]], [[1.0, 0.0]], [[3.0, 0.0]], [[7.0, 1.0]], [[0.0, 1.0]], [[7.0, 0.0]], [[251.0, 40.0]], [[182.0, 40.0]], [[182.0, 36.0]], [[103.0, 7.0]], [[2.0, 2.0]], [[0.0, 2.0]], [[2.0, 0.0]], [[101.0, 5.0]], [[97.0, 3.0]], [[5.0, 2.0]], [[5.0, 0.0]], [[0.0, 2.0]], [[92.0, 1.0]], [[29.0, 1.0]], [[29.0, 0.0]], [[0.0, 1.0]], [[63.0, 0.0]], [[4.0, 2.0]], [[1.0, 2.0]], [[0.0, 2.0]], [[1.0, 0.0]], [[3.0, 0.0]], [[79.0, 29.0]], [[1.0, 8.0]], [[1.0, 0.0]], [[0.0, 8.0]], [[78.0, 21.0]], [[0.0, 2.0]], [[78.0, 19.0]], [[4.0, 4.0]], [[3.0, 0.0]], [[1.0, 4.0]], [[1.0, 0.0]], [[0.0, 4.0]], [[74.0, 15.0]], [[2.0, 3.0]], [[0.0, 3.0]], [[2.0, 0.0]], [[72.0, 12.0]], [[72.0, 11.0]], [[70.0, 8.0]], [[64.0, 4.0]], [[30.0, 0.0]], [[34.0, 4.0]], [[32.0, 2.0]], [[22.0, 0.0]], [[10.0, 2.0]], [[0.0, 1.0]], [[10.0, 1.0]], [[10.0, 0.0]], [[0.0, 1.0]], [[2.0, 2.0]], [[0.0, 2.0]], [[2.0, 0.0]], [[6.0, 4.0]], [[6.0, 2.0]], [[6.0, 1.0]], [[1.0, 1.0]], [[0.0, 1.0]], [[1.0, 0.0]], [[5.0, 0.0]], [[0.0, 1.0]], [[0.0, 2.0]], [[2.0, 3.0]], [[0.0, 3.0]], [[2.0, 0.0]], [[0.0, 1.0]], [[0.0, 4.0]], [[69.0, 0.0]], [[0.0, 5.0]], [[89.0, 61.0]], [[49.0, 10.0]], [[5.0, 7.0]], [[5.0, 0.0]], [[0.0, 7.0]], [[44.0, 3.0]], [[0.0, 2.0]], [[44.0, 1.0]], [[6.0, 1.0]], [[0.0, 1.0]], [[6.0, 0.0]], [[38.0, 0.0]], [[40.0, 51.0]], [[29.0, 12.0]], [[3.0, 8.0]], [[1.0, 8.0]], [[1.0, 0.0]], [[0.0, 8.0]], [[2.0, 0.0]], [[26.0, 4.0]], [[0.0, 2.0]], [[26.0, 2.0]], [[26.0, 1.0]], [[17.0, 0.0]], [[9.0, 1.0]], [[9.0, 0.0]], [[0.0, 1.0]], [[0.0, 1.0]], [[11.0, 39.0]], [[5.0, 0.0]], [[6.0, 39.0]], [[4.0, 2.0]], [[4.0, 0.0]], [[0.0, 2.0]], [[2.0, 37.0]], [[2.0, 3.0]], [[0.0, 3.0]], [[2.0, 0.0]], [[0.0, 34.0]], [[97.0, 131.0]], [[88.0, 77.0]], [[88.0, 58.0]], [[40.0, 56.0]], [[32.0, 23.0]], [[21.0, 3.0]], [[21.0, 2.0]], [[16.0, 0.0]], [[5.0, 2.0]], [[5.0, 0.0]], [[0.0, 2.0]], [[0.0, 1.0]], [[11.0, 20.0]], [[0.0, 15.0]], [[11.0, 5.0]], [[0.0, 4.0]], [[11.0, 1.0]], [[10.0, 0.0]], [[1.0, 1.0]], [[1.0, 0.0]], [[0.0, 1.0]], [[8.0, 33.0]], [[2.0, 32.0]], [[1.0, 0.0]], [[1.0, 32.0]], [[0.0, 30.0]], [[1.0, 2.0]], [[1.0, 0.0]], [[0.0, 2.0]], [[6.0, 1.0]], [[6.0, 0.0]], [[0.0, 1.0]], [[48.0, 2.0]], [[48.0, 0.0]], [[0.0, 2.0]], [[0.0, 19.0]], [[9.0, 54.0]], [[3.0, 52.0]], [[1.0, 0.0]], [[2.0, 52.0]], [[1.0, 52.0]], [[0.0, 50.0]], [[1.0, 2.0]], [[0.0, 2.0]], [[1.0, 0.0]], [[1.0, 0.0]], [[6.0, 2.0]], [[0.0, 2.0]], [[6.0, 0.0]], [[128.0, 1.0]], [[18.0, 1.0]], [[0.0, 1.0]], [[18.0, 0.0]], [[110.0, 0.0]], [[30.0, 143.0]], [[9.0, 141.0]], [[3.0, 139.0]], [[2.0, 0.0]], [[1.0, 139.0]], [[1.0, 0.0]], [[0.0, 139.0]], [[6.0, 2.0]], [[2.0, 2.0]], [[2.0, 0.0]], [[0.0, 2.0]], [[4.0, 0.0]], [[21.0, 2.0]], [[21.0, 0.0]], [[0.0, 2.0]], [[183.0, 630.0]], [[122.0, 613.0]], [[84.0, 606.0]], [[35.0, 24.0]], [[21.0, 0.0]], [[14.0, 24.0]], [[0.0, 15.0]], [[14.0, 9.0]], [[7.0, 0.0]], [[7.0, 9.0]], [[1.0, 9.0]], [[1.0, 0.0]], [[0.0, 9.0]], [[6.0, 0.0]], [[49.0, 582.0]], [[36.0, 125.0]], [[29.0, 27.0]], [[12.0, 26.0]], [[12.0, 7.0]], [[7.0, 0.0]], [[5.0, 7.0]], [[0.0, 6.0]], [[5.0, 1.0]], [[4.0, 0.0]], [[1.0, 1.0]], [[0.0, 1.0]], [[1.0, 0.0]], [[0.0, 19.0]], [[17.0, 1.0]], [[17.0, 0.0]], [[0.0, 1.0]], [[7.0, 98.0]], [[7.0, 16.0]], [[7.0, 0.0]], [[0.0, 16.0]], [[0.0, 82.0]], [[13.0, 457.0]], [[2.0, 0.0]], [[11.0, 457.0]], [[8.0, 446.0]], [[6.0, 432.0]], [[3.0, 0.0]], [[3.0, 432.0]], [[1.0, 19.0]], [[0.0, 18.0]], [[1.0, 1.0]], [[0.0, 1.0]], [[1.0, 0.0]], [[2.0, 413.0]], [[2.0, 62.0]], [[1.0, 60.0]], [[0.0, 52.0]], [[1.0, 8.0]], [[1.0, 0.0]], [[0.0, 8.0]], [[1.0, 2.0]], [[0.0, 2.0]], [[1.0, 0.0]], [[0.0, 351.0]], [[2.0, 14.0]], [[2.0, 1.0]], [[2.0, 0.0]], [[0.0, 1.0]], [[0.0, 13.0]], [[3.0, 11.0]], [[3.0, 0.0]], [[0.0, 11.0]], [[38.0, 7.0]], [[38.0, 5.0]], [[8.0, 5.0]], [[7.0, 0.0]], [[1.0, 5.0]], [[1.0, 0.0]], [[0.0, 5.0]], [[30.0, 0.0]], [[0.0, 2.0]], [[61.0, 17.0]], [[60.0, 2.0]], [[0.0, 2.0]], [[60.0, 0.0]], [[1.0, 15.0]], [[0.0, 15.0]], [[1.0, 0.0]], [[245.0, 10.0]], [[238.0, 5.0]], [[2.0, 3.0]], [[2.0, 0.0]], [[0.0, 3.0]], [[236.0, 2.0]], [[48.0, 2.0]], [[48.0, 0.0]], [[0.0, 2.0]], [[188.0, 0.0]], [[7.0, 5.0]], [[0.0, 5.0]], [[7.0, 0.0]], [[212.0, 598.0]], [[48.0, 546.0]], [[8.0, 518.0]], [[4.0, 504.0]], [[0.0, 504.0]], [[4.0, 0.0]], [[4.0, 14.0]], [[0.0, 13.0]], [[4.0, 1.0]], [[0.0, 1.0]], [[4.0, 0.0]], [[40.0, 28.0]], [[3.0, 28.0]], [[2.0, 0.0]], [[1.0, 28.0]], [[0.0, 26.0]], [[1.0, 2.0]], [[1.0, 0.0]], [[0.0, 2.0]], [[37.0, 0.0]], [[164.0, 52.0]], [[0.0, 52.0]], [[164.0, 0.0]]]}, {"children_left": [1, 2, 3, 4, 5, 6, 7, 8, 9, -1, -1, 12, 13, 14, 15, 16, -1, 18, -1, -1, 21, 22, 23, -1, -1, 26, -1, -1, -1, -1, -1, 32, -1, 34, 35, 36, 37, -1, -1, 40, -1, 42, -1, -1, 45, 46, -1, -1, 49, -1, 51, -1, -1, 54, 55, 56, 57, 58, 59, -1, -1, 62, 63, -1, -1, 66, -1, 68, -1, -1, 71, 72, 73, -1, 75, -1, -1, -1, 79, 80, -1, -1, -1, -1, -1, -1, 87, 88, 89, 90, -1, 92, -1, -1, -1, -1, 97, 98, 99, -1, 101, -1, -1, -1, 105, 106, -1, -1, -1, 110, 111, 112, -1, -1, 115, -1, -1, -1, 119, 120, 121, 122, -1, 124, -1, -1, -1, 128, -1, -1, -1, 132, 133, 134, 135, 136, 137, 138, 139, -1, -1, 142, 143, -1, 145, -1, -1, -1, 149, -1, 151, -1, -1, 154, 155, 156, -1, 158, -1, 160, -1, -1, 163, 164, 165, -1, 167, 168, -1, -1, -1, -1, 173, 174, -1, -1, -1, 178, 179, -1, 181, -1, 183, -1, -1, -1, 187, 188, 189, -1, 191, -1, -1, 194, -1, 196, -1, 198, 199, -1, 201, -1, -1, -1, 205, 206, 207, 208, 209, 210, -1, -1, -1, 214, -1, 216, -1, -1, -1, 220, -1, -1, -1, -1, 225, 226, -1, -1, -1, 230, -1, 232, -1, -1, 235, 236, 237, 238, -1, -1, -1, -1, -1, 244, 245, 246, 247, -1, 249, -1, -1, -1, 253, -1, 255, -1, -1, 258, 259, 260, -1, -1, 263, 264, -1, 266, -1, -1, 269, -1, -1, 272, -1, -1, 275, 276, 277, 278, -1, 280, -1, -1, -1, 284, 285, 286, -1, -1, 289, 290, -1, -1, -1, 294, -1, -1, 297, 298, -1, -1, 301, 302, -1, -1, 305, 306, 307, -1, -1, 310, -1, 312, -1, -1, -1], "children_right": [274, 243, 234, 131, 118, 109, 86, 11, 10, -1, -1, 31, 30, 29, 20, 17, -1, 19, -1, -1, 28, 25, 24, -1, -1, 27, -1, -1, -1, -1, -1, 33, -1, 53, 44, 39, 38, -1, -1, 41, -1, 43, -1, -1, 48, 47, -1, -1, 50, -1, 52, -1, -1, 85, 84, 83, 70, 61, 60, -1, -1, 65, 64, -1, -1, 67, -1, 69, -1, -1, 78, 77, 74, -1, 76, -1, -1, -1, 82, 81, -1, -1, -1, -1, -1, -1, 96, 95, 94, 91, -1, 93, -1, -1, -1, -1, 104, 103, 100, -1, 102, -1, -1, -1, 108, 107, -1, -1, -1, 117, 114, 113, -1, -1, 116, -1, -1, -1, 130, 127, 126, 123, -1, 125, -1, -1, -1, 129, -1, -1, -1, 229, 224, 223, 186, 153, 148, 141, 140, -1, -1, 147, 144, -1, 146, -1, -1, -1, 150, -1, 152, -1, -1, 177, 162, 157, -1, 159, -1, 161, -1, -1, 172, 171, 166, -1, 170, 169, -1, -1, -1, -1, 176, 175, -1, -1, -1, 185, 180, -1, 182, -1, 184, -1, -1, -1, 204, 193, 190, -1, 192, -1, -1, 195, -1, 197, -1, 203, 200, -1, 202, -1, -1, -1, 222, 219, 218, 213, 212, 211, -1, -1, -1, 215, -1, 217, -1, -1, -1, 221, -1, -1, -1, -1, 228, 227, -1, -1, -1, 231, -1, 233, -1, -1, 242, 241, 240, 239, -1, -1, -1, -1, -1, 257, 252, 251, 248, -1, 250, -1, -1, -1, 254, -1, 256, -1, -1, 271, 262, 261, -1, -1, 268, 265, -1, 267, -1, -1, 270, -1, -1, 273, -1, -1, 296, 283, 282, 279, -1, 281, -1, -1, -1, 293, 288, 287, -1, -1, 292, 291, -1, -1, -1, 295, -1, -1, 300, 299, -1, -1, 304, 303, -1, -1, 314, 309, 308, -1, -1, 311, -1, 313, -1, -1, -1], "feature": [3, 14, 13, 8, 12, 2, 14, 3, 15, -2, -2, 1, 4, 12, 10, 1, -2, 0, -2, -2, 16, 13, 0, -2, -2, 13, -2, -2, -2, -2, -2, 9, -2, 10, 11, 12, 5, -2, -2, 15, -2, 1, -2, -2, 14, 3, -2, -2, 5, -2, 10, -2, -2, 13, 16, 14, 4, 15, 7, -2, -2, 6, 10, -2, -2, 12, -2, 12, -2, -2, 8, 16, 11, -2, 15, -2, -2, -2, 13, 6, -2, -2, -2, -2, -2, -2, 15, 0, 13, 8, -2, 0, -2, -2, -2, -2, 11, 10, 1, -2, 3, -2, -2, -2, 1, 8, -2, -2, -2, 12, 5, 4, -2, -2, 3, -2, -2, -2, 2, 1, 13, 10, -2, 7, -2, -2, -2, 16, -2, -2, -2, 10, 4, 7, 12, 3, 1, 5, 8, -2, -2, 9, 14, -2, 10, -2, -2, -2, 14, -2, 10, -2, -2, 5, 15, 1, -2, 12, -2, 11, -2, -2, 12, 4, 1, -2, 7, 15, -2, -2, -2, -2, 9, 15, -2, -2, -2, 5, 0, -2, 15, -2, 11, -2, -2, -2, 9, 5, 0, -2, 11, -2, -2, 7, -2, 15, -2, 13, 9, -2, 9, -2, -2, -2, 6, 14, 14, 8, 2, 6, -2, -2, -2, 11, -2, 6, -2, -2, -2, 16, -2, -2, -2, -2, 6, 7, -2, -2, -2, 15, -2, 7, -2, -2, 2, 6, 4, 0, -2, -2, -2, -2, -2, 1, 10, 13, 8, -2, 4, -2, -2, -2, 14, -2, 5, -2, -2, 5, 13, 13, -2, -2, 1, 13, -2, 8, -2, -2, 2, -2, -2, 6, -2, -2, 9, 5, 2, 16, -2, 1, -2, -2, -2, 14, 6, 7, -2, -2, 8, 2, -2, -2, -2, 15, -2, -2, 4, 8, -2, -2, 3, 5, -2, -2, 3, 2, 8, -2, -2, 10, -2, 15, -2, -2, -2], "threshold": [1.0539469122886658, 1.4403265714645386, 1.458745002746582, -0.11244494467973709, 0.5665966868400574, 0.34965094923973083, 0.10275020264089108, -0.9508785605430603, -0.15466250851750374, -2.0, -2.0, -0.8264966309070587, -0.11880526319146156, 0.45084230601787567, -0.9063854217529297, -2.7851743698120117, -2.0, 0.37379543483257294, -2.0, -2.0, 0.38596341013908386, -0.03033093363046646, 0.5013076663017273, -2.0, -2.0, 0.6412131190299988, -2.0, -2.0, -2.0, -2.0, -2.0, -1.3829753398895264, -2.0, -1.4949085712432861, -1.6068043112754822, 0.10627111792564392, 0.17412911355495453, -2.0, -2.0, -0.6252522170543671, -2.0, 2.3410142064094543, -2.0, -2.0, -0.9683757126331329, 1.0255873799324036, -2.0, -2.0, 0.7698361873626709, -2.0, -1.6861254572868347, -2.0, -2.0, 0.34923745691776276, 0.6872951984405518, -0.4557063728570938, -0.8937875926494598, -0.6340689063072205, 0.6586673557758331, -2.0, -2.0, -2.2060465812683105, -1.1825876235961914, -2.0, -2.0, 0.5010922700166702, -2.0, 0.5091681480407715, -2.0, -2.0, -0.5651513934135437, 0.1850755363702774, -1.0719004273414612, -2.0, -0.578247606754303, -2.0, -2.0, -2.0, -0.8186652660369873, -0.8990365564823151, -2.0, -2.0, -2.0, -2.0, -2.0, -2.0, -0.4267866015434265, 3.7000718116760254, 1.1375717520713806, -0.38475821912288666, -2.0, 1.9597289562225342, -2.0, -2.0, -2.0, -2.0, -1.0321142077445984, -0.655678778886795, -1.1799423024058342, -2.0, 0.9968393743038177, -2.0, -2.0, -2.0, -0.19078543037176132, -0.43301627039909363, -2.0, -2.0, -2.0, 0.2534317225217819, 0.5165295749902725, -0.5062964111566544, -2.0, -2.0, 0.023096948862075806, -2.0, -2.0, -2.0, -0.6856517493724823, 0.64987513422966, -1.0522457659244537, -1.0678574442863464, -2.0, 0.7150609493255615, -2.0, -2.0, -2.0, 0.5366292893886566, -2.0, -2.0, -2.0, 0.8995520174503326, 0.7764329314231873, 0.8756854832172394, 0.031299964524805546, 1.0046091079711914, -0.8093152344226837, 0.30312904715538025, 0.10241826251149178, -2.0, -2.0, 0.040751767344772816, 1.06682088971138, -2.0, -0.511203795671463, -2.0, -2.0, -2.0, 1.237191915512085, -2.0, -1.618137240409851, -2.0, -2.0, 0.5925923585891724, -0.44222332537174225, -1.0142646133899689, -2.0, -0.7327238023281097, -2.0, -0.7786611616611481, -2.0, -2.0, -0.20150990784168243, -0.25776761025190353, -1.9715131521224976, -2.0, 0.6240533590316772, -0.12427971512079239, -2.0, -2.0, -2.0, -2.0, -0.02044682390987873, -0.4127463400363922, -2.0, -2.0, -2.0, 0.9030312299728394, -0.04022087366320193, -2.0, -0.45467837154865265, -2.0, 0.058323370292782784, -2.0, -2.0, -2.0, 0.04834017530083656, -0.29913289844989777, 0.5172467082738876, -2.0, 0.10400386154651642, -2.0, -2.0, -1.341282844543457, -2.0, -0.7006921172142029, -2.0, 1.0791766047477722, -0.400849848985672, -2.0, -0.2212393544614315, -2.0, -2.0, -2.0, 0.8861477673053741, 0.9152889251708984, -0.7920253276824951, 0.48733365535736084, -0.6946379244327545, -0.3571056127548218, -2.0, -2.0, -2.0, 0.21010050177574158, -2.0, 0.5036082714796066, -2.0, -2.0, -2.0, 0.33574143797159195, -2.0, -2.0, -2.0, -2.0, 0.7267563343048096, -1.2960124015808105, -2.0, -2.0, -2.0, 1.5300912857055664, -2.0, 0.6645012199878693, -2.0, -2.0, 1.872581422328949, 2.7350887060165405, 1.2788352370262146, 0.10362887382507324, -2.0, -2.0, -2.0, -2.0, -2.0, -0.9332666993141174, 0.21329579502344131, 0.1156569104641676, -0.03890887461602688, -2.0, -0.25242289481684566, -2.0, -2.0, -2.0, 1.4788239002227783, -2.0, -0.8140839189291, -2.0, -2.0, 0.958092212677002, -1.5194069147109985, -1.7237898707389832, -2.0, -2.0, 0.17652801424264908, 0.7580033838748932, -2.0, -1.3326841592788696, -2.0, -2.0, 0.7933583855628967, -2.0, -2.0, -0.48461878299713135, -2.0, -2.0, -0.15627384930849075, -0.027236666530370712, -0.5149248838424683, 0.5366292893886566, -2.0, 0.7173734307289124, -2.0, -2.0, -2.0, -0.5615330040454865, -0.0383226927369833, 0.6835583448410034, -2.0, -2.0, -0.09635892882943153, -0.6762810349464417, -2.0, -2.0, -2.0, 0.758330762386322, -2.0, -2.0, -0.7895658314228058, 0.14378230273723602, -2.0, -2.0, 1.0593857765197754, 0.4677875265479088, -2.0, -2.0, 1.0873568058013916, -0.6799502372741699, -0.7225645259022713, -2.0, -2.0, 1.485950529575348, -2.0, 0.6036993712186813, -2.0, -2.0, -2.0], "value": [[[1592.0, 1654.0]], [[1169.0, 1586.0]], [[819.0, 1535.0]], [[657.0, 1477.0]], [[341.0, 391.0]], [[313.0, 238.0]], [[304.0, 197.0]], [[197.0, 167.0]], [[1.0, 28.0]], [[0.0, 28.0]], [[1.0, 0.0]], [[196.0, 139.0]], [[21.0, 47.0]], [[12.0, 47.0]], [[10.0, 47.0]], [[5.0, 5.0]], [[4.0, 0.0]], [[1.0, 5.0]], [[0.0, 5.0]], [[1.0, 0.0]], [[5.0, 42.0]], [[4.0, 42.0]], [[1.0, 37.0]], [[0.0, 37.0]], [[1.0, 0.0]], [[3.0, 5.0]], [[3.0, 0.0]], [[0.0, 5.0]], [[1.0, 0.0]], [[2.0, 0.0]], [[9.0, 0.0]], [[175.0, 92.0]], [[0.0, 26.0]], [[175.0, 66.0]], [[25.0, 35.0]], [[19.0, 10.0]], [[4.0, 8.0]], [[4.0, 0.0]], [[0.0, 8.0]], [[15.0, 2.0]], [[0.0, 1.0]], [[15.0, 1.0]], [[15.0, 0.0]], [[0.0, 1.0]], [[6.0, 25.0]], [[4.0, 3.0]], [[4.0, 0.0]], [[0.0, 3.0]], [[2.0, 22.0]], [[0.0, 21.0]], [[2.0, 1.0]], [[2.0, 0.0]], [[0.0, 1.0]], [[150.0, 31.0]], [[150.0, 21.0]], [[114.0, 21.0]], [[114.0, 17.0]], [[85.0, 4.0]], [[2.0, 2.0]], [[0.0, 2.0]], [[2.0, 0.0]], [[83.0, 2.0]], [[2.0, 1.0]], [[2.0, 0.0]], [[0.0, 1.0]], [[81.0, 1.0]], [[74.0, 0.0]], [[7.0, 1.0]], [[0.0, 1.0]], [[7.0, 0.0]], [[29.0, 13.0]], [[24.0, 5.0]], [[24.0, 3.0]], [[14.0, 0.0]], [[10.0, 3.0]], [[10.0, 0.0]], [[0.0, 3.0]], [[0.0, 2.0]], [[5.0, 8.0]], [[5.0, 2.0]], [[5.0, 0.0]], [[0.0, 2.0]], [[0.0, 6.0]], [[0.0, 4.0]], [[36.0, 0.0]], [[0.0, 10.0]], [[107.0, 30.0]], [[64.0, 3.0]], [[64.0, 2.0]], [[64.0, 1.0]], [[60.0, 0.0]], [[4.0, 1.0]], [[4.0, 0.0]], [[0.0, 1.0]], [[0.0, 1.0]], [[0.0, 1.0]], [[43.0, 27.0]], [[6.0, 19.0]], [[6.0, 5.0]], [[0.0, 3.0]], [[6.0, 2.0]], [[6.0, 0.0]], [[0.0, 2.0]], [[0.0, 14.0]], [[37.0, 8.0]], [[9.0, 8.0]], [[9.0, 0.0]], [[0.0, 8.0]], [[28.0, 0.0]], [[9.0, 41.0]], [[3.0, 41.0]], [[1.0, 40.0]], [[1.0, 0.0]], [[0.0, 40.0]], [[2.0, 1.0]], [[2.0, 0.0]], [[0.0, 1.0]], [[6.0, 0.0]], [[28.0, 153.0]], [[28.0, 34.0]], [[10.0, 32.0]], [[10.0, 13.0]], [[7.0, 0.0]], [[3.0, 13.0]], [[0.0, 13.0]], [[3.0, 0.0]], [[0.0, 19.0]], [[18.0, 2.0]], [[18.0, 0.0]], [[0.0, 2.0]], [[0.0, 119.0]], [[316.0, 1086.0]], [[297.0, 640.0]], [[296.0, 515.0]], [[213.0, 515.0]], [[160.0, 107.0]], [[121.0, 11.0]], [[13.0, 8.0]], [[11.0, 1.0]], [[0.0, 1.0]], [[11.0, 0.0]], [[2.0, 7.0]], [[1.0, 7.0]], [[0.0, 6.0]], [[1.0, 1.0]], [[1.0, 0.0]], [[0.0, 1.0]], [[1.0, 0.0]], [[108.0, 3.0]], [[95.0, 0.0]], [[13.0, 3.0]], [[0.0, 3.0]], [[13.0, 0.0]], [[39.0, 96.0]], [[17.0, 81.0]], [[13.0, 8.0]], [[8.0, 0.0]], [[5.0, 8.0]], [[3.0, 0.0]], [[2.0, 8.0]], [[2.0, 0.0]], [[0.0, 8.0]], [[4.0, 73.0]], [[2.0, 67.0]], [[2.0, 11.0]], [[1.0, 0.0]], [[1.0, 11.0]], [[1.0, 4.0]], [[1.0, 0.0]], [[0.0, 4.0]], [[0.0, 7.0]], [[0.0, 56.0]], [[2.0, 6.0]], [[2.0, 2.0]], [[0.0, 2.0]], [[2.0, 0.0]], [[0.0, 4.0]], [[22.0, 15.0]], [[22.0, 11.0]], [[0.0, 3.0]], [[22.0, 8.0]], [[16.0, 0.0]], [[6.0, 8.0]], [[0.0, 8.0]], [[6.0, 0.0]], [[0.0, 4.0]], [[53.0, 408.0]], [[40.0, 158.0]], [[1.0, 115.0]], [[0.0, 108.0]], [[1.0, 7.0]], [[1.0, 0.0]], [[0.0, 7.0]], [[39.0, 43.0]], [[0.0, 25.0]], [[39.0, 18.0]], [[0.0, 16.0]], [[39.0, 2.0]], [[39.0, 1.0]], [[33.0, 0.0]], [[6.0, 1.0]], [[0.0, 1.0]], [[6.0, 0.0]], [[0.0, 1.0]], [[13.0, 250.0]], [[11.0, 250.0]], [[7.0, 248.0]], [[7.0, 48.0]], [[1.0, 42.0]], [[1.0, 9.0]], [[0.0, 9.0]], [[1.0, 0.0]], [[0.0, 33.0]], [[6.0, 6.0]], [[5.0, 0.0]], [[1.0, 6.0]], [[0.0, 6.0]], [[1.0, 0.0]], [[0.0, 200.0]], [[4.0, 2.0]], [[4.0, 0.0]], [[0.0, 2.0]], [[2.0, 0.0]], [[83.0, 0.0]], [[1.0, 125.0]], [[1.0, 23.0]], [[1.0, 0.0]], [[0.0, 23.0]], [[0.0, 102.0]], [[19.0, 446.0]], [[0.0, 401.0]], [[19.0, 45.0]], [[0.0, 45.0]], [[19.0, 0.0]], [[162.0, 58.0]], [[15.0, 58.0]], [[7.0, 58.0]], [[7.0, 4.0]], [[0.0, 4.0]], [[7.0, 0.0]], [[0.0, 54.0]], [[8.0, 0.0]], [[147.0, 0.0]], [[350.0, 51.0]], [[53.0, 41.0]], [[51.0, 8.0]], [[51.0, 2.0]], [[47.0, 0.0]], [[4.0, 2.0]], [[0.0, 2.0]], [[4.0, 0.0]], [[0.0, 6.0]], [[2.0, 33.0]], [[1.0, 0.0]], [[1.0, 33.0]], [[1.0, 0.0]], [[0.0, 33.0]], [[297.0, 10.0]], [[296.0, 7.0]], [[1.0, 4.0]], [[1.0, 0.0]], [[0.0, 4.0]], [[295.0, 3.0]], [[275.0, 1.0]], [[257.0, 0.0]], [[18.0, 1.0]], [[0.0, 1.0]], [[18.0, 0.0]], [[20.0, 2.0]], [[20.0, 0.0]], [[0.0, 2.0]], [[1.0, 3.0]], [[1.0, 0.0]], [[0.0, 3.0]], [[423.0, 68.0]], [[57.0, 48.0]], [[10.0, 35.0]], [[3.0, 35.0]], [[0.0, 33.0]], [[3.0, 2.0]], [[3.0, 0.0]], [[0.0, 2.0]], [[7.0, 0.0]], [[47.0, 13.0]], [[46.0, 7.0]], [[4.0, 4.0]], [[4.0, 0.0]], [[0.0, 4.0]], [[42.0, 3.0]], [[3.0, 3.0]], [[3.0, 0.0]], [[0.0, 3.0]], [[39.0, 0.0]], [[1.0, 6.0]], [[0.0, 6.0]], [[1.0, 0.0]], [[366.0, 20.0]], [[28.0, 12.0]], [[28.0, 0.0]], [[0.0, 12.0]], [[338.0, 8.0]], [[8.0, 5.0]], [[8.0, 0.0]], [[0.0, 5.0]], [[330.0, 3.0]], [[40.0, 3.0]], [[6.0, 2.0]], [[6.0, 0.0]], [[0.0, 2.0]], [[34.0, 1.0]], [[27.0, 0.0]], [[7.0, 1.0]], [[0.0, 1.0]], [[7.0, 0.0]], [[290.0, 0.0]]]}, {"children_left": [1, 2, -1, 4, 5, 6, 7, 8, 9, 10, -1, -1, 13, 14, -1, -1, -1, 18, 19, 20, 21, 22, 23, 24, -1, -1, 27, 28, -1, 30, -1, 32, -1, -1, -1, 36, -1, -1, 39, 40, 41, 42, -1, -1, 45, 46, -1, -1, 49, 50, 51, 52, 53, -1, 55, 56, -1, 58, -1, -1, -1, -1, -1, 64, 65, 66, -1, 68, -1, -1, -1, 72, 73, 74, -1, 76, -1, -1, -1, 80, 81, -1, -1, 84, 85, -1, -1, -1, 89, 90, 91, -1, -1, 94, -1, -1, 97, -1, -1, 100, 101, -1, -1, -1, 105, -1, 107, 108, -1, -1, -1, 112, 113, 114, -1, -1, -1, -1, 119, 120, 121, -1, -1, -1, 125, 126, 127, 128, -1, -1, -1, 132, 133, 134, -1, -1, -1, -1, 139, -1, 141, -1, -1, 144, 145, -1, 147, -1, 149, -1, -1, 152, 153, -1, 155, -1, -1, 158, 159, 160, -1, -1, 163, 164, 165, 166, -1, -1, -1, -1, 171, 172, -1, -1, -1, 176, -1, 178, -1, -1, 181, 182, 183, 184, 185, 186, 187, -1, -1, -1, -1, 192, -1, -1, 195, -1, -1, 198, -1, -1, 201, -1, -1, 204, -1, -1, 207, 208, 209, 210, -1, -1, 213, 214, -1, -1, 217, 218, 219, -1, -1, -1, 223, -1, -1, 226, 227, -1, -1, -1, 231, 232, 233, 234, -1, 236, -1, -1, -1, 240, -1, 242, -1, -1, 245, 246, -1, -1, -1, 250, 251, 252, 253, 254, -1, -1, 257, -1, 259, -1, -1, -1, -1, 264, 265, -1, -1, 268, -1, 270, -1, -1, 273, 274, -1, -1, 277, 278, -1, 280, -1, -1, 283, -1, 285, -1, -1], "children_right": [272, 3, -1, 249, 206, 203, 180, 17, 12, 11, -1, -1, 16, 15, -1, -1, -1, 143, 118, 111, 38, 35, 26, 25, -1, -1, 34, 29, -1, 31, -1, 33, -1, -1, -1, 37, -1, -1, 104, 99, 44, 43, -1, -1, 48, 47, -1, -1, 88, 63, 62, 61, 54, -1, 60, 57, -1, 59, -1, -1, -1, -1, -1, 71, 70, 67, -1, 69, -1, -1, -1, 79, 78, 75, -1, 77, -1, -1, -1, 83, 82, -1, -1, 87, 86, -1, -1, -1, 96, 93, 92, -1, -1, 95, -1, -1, 98, -1, -1, 103, 102, -1, -1, -1, 106, -1, 110, 109, -1, -1, -1, 117, 116, 115, -1, -1, -1, -1, 124, 123, 122, -1, -1, -1, 138, 131, 130, 129, -1, -1, -1, 137, 136, 135, -1, -1, -1, -1, 140, -1, 142, -1, -1, 151, 146, -1, 148, -1, 150, -1, -1, 157, 154, -1, 156, -1, -1, 175, 162, 161, -1, -1, 170, 169, 168, 167, -1, -1, -1, -1, 174, 173, -1, -1, -1, 177, -1, 179, -1, -1, 200, 197, 194, 191, 190, 189, 188, -1, -1, -1, -1, 193, -1, -1, 196, -1, -1, 199, -1, -1, 202, -1, -1, 205, -1, -1, 230, 225, 212, 211, -1, -1, 216, 215, -1, -1, 222, 221, 220, -1, -1, -1, 224, -1, -1, 229, 228, -1, -1, -1, 244, 239, 238, 235, -1, 237, -1, -1, -1, 241, -1, 243, -1, -1, 248, 247, -1, -1, -1, 263, 262, 261, 256, 255, -1, -1, 258, -1, 260, -1, -1, -1, -1, 267, 266, -1, -1, 269, -1, 271, -1, -1, 276, 275, -1, -1, 282, 279, -1, 281, -1, -1, 284, -1, 286, -1, -1], "feature": [12, 5, -2, 14, 3, 15, 10, 7, 13, 3, -2, -2, 11, 4, -2, -2, -2, 11, 8, 2, 5, 10, 15, 4, -2, -2, 0, 14, -2, 8, -2, 9, -2, -2, -2, 2, -2, -2, 12, 5, 4, 12, -2, -2, 6, 13, -2, -2, 9, 4, 11, 3, 14, -2, 5, 11, -2, 7, -2, -2, -2, -2, -2, 7, 4, 4, -2, 0, -2, -2, -2, 9, 3, 3, -2, 1, -2, -2, -2, 8, 2, -2, -2, 12, 0, -2, -2, -2, 4, 8, 0, -2, -2, 15, -2, -2, 15, -2, -2, 15, 4, -2, -2, -2, 7, -2, 4, 5, -2, -2, -2, 16, 3, 13, -2, -2, -2, -2, 7, 5, 7, -2, -2, -2, 7, 16, 15, 12, -2, -2, -2, 15, 9, 2, -2, -2, -2, -2, 14, -2, 14, -2, -2, 8, 4, -2, 5, -2, 13, -2, -2, 12, 0, -2, 4, -2, -2, 5, 16, 7, -2, -2, 10, 16, 3, 4, -2, -2, -2, -2, 1, 6, -2, -2, -2, 14, -2, 15, -2, -2, 15, 13, 15, 13, 15, 1, 8, -2, -2, -2, -2, 6, -2, -2, 15, -2, -2, 4, -2, -2, 7, -2, -2, 7, -2, -2, 1, 9, 6, 11, -2, -2, 8, 2, -2, -2, 14, 3, 11, -2, -2, -2, 15, -2, -2, 3, 12, -2, -2, -2, 9, 5, 8, 5, -2, 7, -2, -2, -2, 3, -2, 4, -2, -2, 15, 6, -2, -2, -2, 6, 4, 5, 2, 10, -2, -2, 9, -2, 9, -2, -2, -2, -2, 8, 4, -2, -2, 4, -2, 2, -2, -2, 15, 4, -2, -2, 2, 3, -2, 9, -2, -2, 10, -2, 7, -2, -2], "threshold": [1.033652126789093, -2.008644461631775, -2.0, 1.4403265714645386, 1.0516160130500793, 1.684835970401764, 0.4937472492456436, -1.2691767811775208, -1.5194069147109985, -0.9710798859596252, -2.0, -2.0, 1.117816150188446, -2.7403833866119385, -2.0, -2.0, -2.0, -0.08755949884653091, -0.09061392396688461, 0.33031633496284485, 0.3395741581916809, 0.14530757069587708, -0.6066224873065948, -0.8857705295085907, -2.0, -2.0, 2.1938334703445435, 0.9505098760128021, -2.0, -0.43416526913642883, -2.0, -0.16227906197309494, -2.0, -2.0, -2.0, -0.47623369097709656, -2.0, -2.0, 0.38309457898139954, 1.145561695098877, -1.8264386653900146, 0.17940276116132736, -2.0, -2.0, -1.9510202407836914, -2.804099917411804, -2.0, -2.0, 1.3248303532600403, -0.8937875926494598, -0.27322860062122345, 1.0325801968574524, -0.9247181415557861, -2.0, 0.7918605506420135, -0.884757786989212, -2.0, 0.6559449136257172, -2.0, -2.0, -2.0, -2.0, -2.0, 0.5902172327041626, -0.1482011415064335, -0.7468082010746002, -2.0, 0.11777476593852043, -2.0, -2.0, -2.0, 0.45134463906288147, 1.0201485753059387, 0.9980047941207886, -2.0, -0.5913571268320084, -2.0, -2.0, -2.0, -1.733685553073883, -0.6730183362960815, -2.0, -2.0, -0.9077014029026031, 0.028117720037698746, -2.0, -2.0, -2.0, -0.6906887590885162, -1.897992730140686, -0.1374489590525627, -2.0, -2.0, -0.44622403383255005, -2.0, -2.0, -0.5256910473108292, -2.0, -2.0, -0.45467835664749146, -1.631356954574585, -2.0, -2.0, -2.0, 0.7092271447181702, -2.0, -0.8643917143344879, 0.7648544907569885, -2.0, -2.0, -2.0, 2.143732249736786, 1.0077170133590698, -0.6434798538684845, -2.0, -2.0, -2.0, -2.0, 0.6287204325199127, 0.46542777121067047, 0.6221087574958801, -2.0, -2.0, -2.0, 0.7348959445953369, 0.38596341013908386, -0.4561503231525421, 0.09483027830719948, -2.0, -2.0, -2.0, -0.449734091758728, -0.15288909524679184, 0.305708646774292, -2.0, -2.0, -2.0, -2.0, -0.7454189956188202, -2.0, -0.09252119064331055, -2.0, -2.0, -1.1626319885253906, -0.6399140506982803, -2.0, 0.32672660052776337, -2.0, 1.0499790906906128, -2.0, -2.0, -0.3055991232395172, 0.10372849553823471, -2.0, 0.4798017591238022, -2.0, -2.0, 0.6521106362342834, -1.2211395502090454, 0.7271175384521484, -2.0, -2.0, 0.041200585663318634, -0.8193638026714325, -0.9234513938426971, -0.2684570252895355, -2.0, -2.0, -2.0, -2.0, -0.6375014185905457, 0.8861477598547935, -2.0, -2.0, -2.0, -0.86459681391716, -2.0, -0.33231689035892487, -2.0, -2.0, 1.3859145641326904, 2.5974502563476562, 1.2485315203666687, 2.101091504096985, -0.5277857482433319, -1.994830846786499, 1.033109188079834, -2.0, -2.0, -2.0, -2.0, 1.8424964547157288, -2.0, -2.0, 1.2643834352493286, -2.0, -2.0, 1.6102070212364197, -2.0, -2.0, 0.6909478604793549, -2.0, -2.0, -0.3111079931259155, -2.0, -2.0, 0.5946492552757263, 0.051615746691823006, -0.3571056127548218, 0.4900777190923691, -2.0, -2.0, -0.15265998244285583, -0.6762810349464417, -2.0, -2.0, 0.5188486874103546, 1.0776446461677551, 1.6306164860725403, -2.0, -2.0, -2.0, 0.7662567496299744, -2.0, -2.0, 1.064047634601593, 0.21080899238586426, -2.0, -2.0, -2.0, -0.6399665474891663, -0.027236666530370712, 0.10012025758624077, -0.056078119203448296, -2.0, 0.6672236323356628, -2.0, -2.0, -2.0, 1.0885222554206848, -2.0, 0.10300001874566078, -2.0, -2.0, -0.4569806754589081, -1.0903063714504242, -2.0, -2.0, -2.0, -0.2295924425125122, 1.1826305985450745, 1.0642812252044678, -0.5614597797393799, -0.7619104310870171, -2.0, -2.0, 1.2101853489875793, -2.0, 1.2702375054359436, -2.0, -2.0, -2.0, -2.0, 0.37932753562927246, 0.012140023289248347, -2.0, -2.0, 0.3862694054841995, -2.0, 1.4296429753303528, -2.0, -2.0, -0.5870794057846069, -0.47957291454076767, -2.0, -2.0, -0.6500474810600281, 1.1060041785240173, -2.0, 0.5288664847612381, -2.0, -2.0, -1.0083677470684052, -2.0, 0.8659624457359314, -2.0, -2.0], "value": [[[1545.0, 1701.0]], [[1528.0, 1353.0]], [[298.0, 0.0]], [[1230.0, 1353.0]], [[930.0, 1307.0]], [[735.0, 1254.0]], [[565.0, 1197.0]], [[523.0, 664.0]], [[204.0, 15.0]], [[4.0, 6.0]], [[4.0, 0.0]], [[0.0, 6.0]], [[200.0, 9.0]], [[200.0, 1.0]], [[0.0, 1.0]], [[200.0, 0.0]], [[0.0, 8.0]], [[319.0, 649.0]], [[276.0, 316.0]], [[235.0, 198.0]], [[233.0, 173.0]], [[120.0, 34.0]], [[117.0, 24.0]], [[2.0, 11.0]], [[2.0, 0.0]], [[0.0, 11.0]], [[115.0, 13.0]], [[115.0, 8.0]], [[96.0, 0.0]], [[19.0, 8.0]], [[15.0, 0.0]], [[4.0, 8.0]], [[0.0, 8.0]], [[4.0, 0.0]], [[0.0, 5.0]], [[3.0, 10.0]], [[0.0, 10.0]], [[3.0, 0.0]], [[113.0, 139.0]], [[104.0, 100.0]], [[103.0, 87.0]], [[1.0, 12.0]], [[0.0, 12.0]], [[1.0, 0.0]], [[102.0, 75.0]], [[2.0, 12.0]], [[2.0, 0.0]], [[0.0, 12.0]], [[100.0, 63.0]], [[70.0, 55.0]], [[43.0, 13.0]], [[43.0, 9.0]], [[43.0, 6.0]], [[33.0, 0.0]], [[10.0, 6.0]], [[10.0, 3.0]], [[9.0, 0.0]], [[1.0, 3.0]], [[0.0, 3.0]], [[1.0, 0.0]], [[0.0, 3.0]], [[0.0, 3.0]], [[0.0, 4.0]], [[27.0, 42.0]], [[18.0, 4.0]], [[18.0, 2.0]], [[0.0, 1.0]], [[18.0, 1.0]], [[18.0, 0.0]], [[0.0, 1.0]], [[0.0, 2.0]], [[9.0, 38.0]], [[7.0, 5.0]], [[2.0, 5.0]], [[1.0, 0.0]], [[1.0, 5.0]], [[1.0, 0.0]], [[0.0, 5.0]], [[5.0, 0.0]], [[2.0, 33.0]], [[1.0, 1.0]], [[1.0, 0.0]], [[0.0, 1.0]], [[1.0, 32.0]], [[1.0, 6.0]], [[1.0, 0.0]], [[0.0, 6.0]], [[0.0, 26.0]], [[30.0, 8.0]], [[28.0, 3.0]], [[1.0, 2.0]], [[0.0, 2.0]], [[1.0, 0.0]], [[27.0, 1.0]], [[27.0, 0.0]], [[0.0, 1.0]], [[2.0, 5.0]], [[2.0, 0.0]], [[0.0, 5.0]], [[1.0, 13.0]], [[1.0, 2.0]], [[1.0, 0.0]], [[0.0, 2.0]], [[0.0, 11.0]], [[9.0, 39.0]], [[0.0, 32.0]], [[9.0, 7.0]], [[9.0, 1.0]], [[0.0, 1.0]], [[9.0, 0.0]], [[0.0, 6.0]], [[2.0, 25.0]], [[1.0, 25.0]], [[1.0, 2.0]], [[1.0, 0.0]], [[0.0, 2.0]], [[0.0, 23.0]], [[1.0, 0.0]], [[41.0, 118.0]], [[23.0, 10.0]], [[23.0, 4.0]], [[0.0, 4.0]], [[23.0, 0.0]], [[0.0, 6.0]], [[18.0, 108.0]], [[8.0, 106.0]], [[2.0, 96.0]], [[2.0, 6.0]], [[2.0, 0.0]], [[0.0, 6.0]], [[0.0, 90.0]], [[6.0, 10.0]], [[6.0, 4.0]], [[1.0, 4.0]], [[1.0, 0.0]], [[0.0, 4.0]], [[5.0, 0.0]], [[0.0, 6.0]], [[10.0, 2.0]], [[9.0, 0.0]], [[1.0, 2.0]], [[0.0, 2.0]], [[1.0, 0.0]], [[43.0, 333.0]], [[20.0, 11.0]], [[0.0, 6.0]], [[20.0, 5.0]], [[0.0, 2.0]], [[20.0, 3.0]], [[20.0, 0.0]], [[0.0, 3.0]], [[23.0, 322.0]], [[10.0, 15.0]], [[0.0, 13.0]], [[10.0, 2.0]], [[10.0, 0.0]], [[0.0, 2.0]], [[13.0, 307.0]], [[5.0, 289.0]], [[1.0, 4.0]], [[0.0, 4.0]], [[1.0, 0.0]], [[4.0, 285.0]], [[1.0, 212.0]], [[1.0, 25.0]], [[1.0, 2.0]], [[0.0, 2.0]], [[1.0, 0.0]], [[0.0, 23.0]], [[0.0, 187.0]], [[3.0, 73.0]], [[3.0, 1.0]], [[3.0, 0.0]], [[0.0, 1.0]], [[0.0, 72.0]], [[8.0, 18.0]], [[0.0, 12.0]], [[8.0, 6.0]], [[8.0, 0.0]], [[0.0, 6.0]], [[42.0, 533.0]], [[24.0, 508.0]], [[7.0, 507.0]], [[4.0, 492.0]], [[1.0, 480.0]], [[1.0, 42.0]], [[1.0, 3.0]], [[0.0, 3.0]], [[1.0, 0.0]], [[0.0, 39.0]], [[0.0, 438.0]], [[3.0, 12.0]], [[3.0, 0.0]], [[0.0, 12.0]], [[3.0, 15.0]], [[3.0, 0.0]], [[0.0, 15.0]], [[17.0, 1.0]], [[17.0, 0.0]], [[0.0, 1.0]], [[18.0, 25.0]], [[0.0, 25.0]], [[18.0, 0.0]], [[170.0, 57.0]], [[0.0, 57.0]], [[170.0, 0.0]], [[195.0, 53.0]], [[133.0, 15.0]], [[40.0, 14.0]], [[1.0, 4.0]], [[0.0, 4.0]], [[1.0, 0.0]], [[39.0, 10.0]], [[6.0, 7.0]], [[6.0, 0.0]], [[0.0, 7.0]], [[33.0, 3.0]], [[30.0, 1.0]], [[2.0, 1.0]], [[0.0, 1.0]], [[2.0, 0.0]], [[28.0, 0.0]], [[3.0, 2.0]], [[0.0, 2.0]], [[3.0, 0.0]], [[93.0, 1.0]], [[3.0, 1.0]], [[3.0, 0.0]], [[0.0, 1.0]], [[90.0, 0.0]], [[62.0, 38.0]], [[14.0, 34.0]], [[2.0, 31.0]], [[1.0, 31.0]], [[0.0, 27.0]], [[1.0, 4.0]], [[1.0, 0.0]], [[0.0, 4.0]], [[1.0, 0.0]], [[12.0, 3.0]], [[0.0, 2.0]], [[12.0, 1.0]], [[12.0, 0.0]], [[0.0, 1.0]], [[48.0, 4.0]], [[3.0, 4.0]], [[3.0, 0.0]], [[0.0, 4.0]], [[45.0, 0.0]], [[300.0, 46.0]], [[226.0, 8.0]], [[226.0, 5.0]], [[226.0, 3.0]], [[3.0, 1.0]], [[0.0, 1.0]], [[3.0, 0.0]], [[223.0, 2.0]], [[221.0, 0.0]], [[2.0, 2.0]], [[0.0, 2.0]], [[2.0, 0.0]], [[0.0, 2.0]], [[0.0, 3.0]], [[74.0, 38.0]], [[5.0, 30.0]], [[5.0, 0.0]], [[0.0, 30.0]], [[69.0, 8.0]], [[0.0, 6.0]], [[69.0, 2.0]], [[69.0, 0.0]], [[0.0, 2.0]], [[17.0, 348.0]], [[4.0, 2.0]], [[0.0, 2.0]], [[4.0, 0.0]], [[13.0, 346.0]], [[4.0, 329.0]], [[0.0, 328.0]], [[4.0, 1.0]], [[4.0, 0.0]], [[0.0, 1.0]], [[9.0, 17.0]], [[7.0, 0.0]], [[2.0, 17.0]], [[0.0, 17.0]], [[2.0, 0.0]]]}, {"children_left": [1, 2, -1, 4, 5, 6, 7, 8, 9, 10, -1, 12, -1, -1, 15, 16, -1, 18, -1, -1, 21, 22, 23, 24, 25, -1, 27, -1, -1, 30, -1, 32, 33, 34, -1, -1, 37, 38, 39, -1, -1, -1, 43, -1, -1, -1, -1, 48, 49, -1, 51, 52, 53, 54, -1, -1, -1, -1, -1, 60, -1, 62, -1, -1, 65, -1, -1, 68, -1, -1, 71, 72, 73, -1, 75, 76, 77, -1, -1, -1, 81, 82, 83, -1, -1, 86, -1, -1, 89, 90, -1, 92, -1, -1, 95, 96, 97, 98, -1, -1, 101, -1, -1, 104, -1, 106, 107, -1, -1, -1, -1, 112, 113, 114, -1, 116, 117, 118, -1, -1, -1, 122, -1, 124, 125, -1, -1, -1, 129, -1, -1, -1, 133, 134, 135, -1, 137, -1, 139, 140, -1, 142, 143, -1, -1, -1, -1, 148, 149, 150, 151, -1, 153, 154, -1, -1, 157, -1, 159, -1, 161, 162, -1, -1, -1, 166, 167, -1, -1, -1, -1, -1, 173, 174, 175, -1, -1, 178, -1, -1, 181, 182, -1, 184, -1, 186, -1, -1, -1, 190, 191, -1, 193, -1, -1, 196, -1, -1, 199, 200, -1, 202, 203, 204, 205, -1, -1, -1, 209, 210, -1, -1, 213, 214, 215, 216, 217, -1, -1, -1, -1, -1, 223, -1, -1, -1, 227, -1, -1, 230, 231, -1, 233, 234, 235, -1, -1, -1, 239, -1, -1, -1, 243, 244, 245, 246, -1, -1, -1, 250, -1, 252, -1, 254, -1, -1, 257, 258, 259, 260, 261, -1, -1, -1, 265, -1, 267, -1, 269, -1, 271, -1, 273, -1, -1, -1, 277, -1, 279, 280, -1, 282, -1, -1, -1], "children_right": [242, 3, -1, 229, 198, 189, 70, 67, 14, 11, -1, 13, -1, -1, 20, 17, -1, 19, -1, -1, 64, 47, 46, 29, 26, -1, 28, -1, -1, 31, -1, 45, 36, 35, -1, -1, 42, 41, 40, -1, -1, -1, 44, -1, -1, -1, -1, 59, 50, -1, 58, 57, 56, 55, -1, -1, -1, -1, -1, 61, -1, 63, -1, -1, 66, -1, -1, 69, -1, -1, 132, 111, 74, -1, 80, 79, 78, -1, -1, -1, 88, 85, 84, -1, -1, 87, -1, -1, 94, 91, -1, 93, -1, -1, 110, 103, 100, 99, -1, -1, 102, -1, -1, 105, -1, 109, 108, -1, -1, -1, -1, 131, 128, 115, -1, 121, 120, 119, -1, -1, -1, 123, -1, 127, 126, -1, -1, -1, 130, -1, -1, -1, 172, 147, 136, -1, 138, -1, 146, 141, -1, 145, 144, -1, -1, -1, -1, 171, 170, 165, 152, -1, 156, 155, -1, -1, 158, -1, 160, -1, 164, 163, -1, -1, -1, 169, 168, -1, -1, -1, -1, -1, 180, 177, 176, -1, -1, 179, -1, -1, 188, 183, -1, 185, -1, 187, -1, -1, -1, 195, 192, -1, 194, -1, -1, 197, -1, -1, 226, 201, -1, 225, 208, 207, 206, -1, -1, -1, 212, 211, -1, -1, 222, 221, 220, 219, 218, -1, -1, -1, -1, -1, 224, -1, -1, -1, 228, -1, -1, 241, 232, -1, 238, 237, 236, -1, -1, -1, 240, -1, -1, -1, 256, 249, 248, 247, -1, -1, -1, 251, -1, 253, -1, 255, -1, -1, 276, 275, 264, 263, 262, -1, -1, -1, 266, -1, 268, -1, 270, -1, 272, -1, 274, -1, -1, -1, 278, -1, 284, 281, -1, 283, -1, -1, -1], "feature": [3, 5, -2, 14, 12, 15, 15, 11, 9, 15, -2, 10, -2, -2, 7, 13, -2, 11, -2, -2, 4, 7, 7, 6, 9, -2, 13, -2, -2, 2, -2, 13, 4, 11, -2, -2, 4, 12, 9, -2, -2, -2, 3, -2, -2, -2, -2, 11, 14, -2, 5, 3, 15, 15, -2, -2, -2, -2, -2, 4, -2, 5, -2, -2, 14, -2, -2, 7, -2, -2, 1, 10, 3, -2, 7, 14, 5, -2, -2, -2, 3, 14, 6, -2, -2, 12, -2, -2, 12, 7, -2, 8, -2, -2, 1, 0, 14, 11, -2, -2, 6, -2, -2, 9, -2, 6, 5, -2, -2, -2, -2, 7, 4, 12, -2, 0, 3, 7, -2, -2, -2, 4, -2, 4, 9, -2, -2, -2, 7, -2, -2, -2, 15, 6, 8, -2, 1, -2, 8, 5, -2, 11, 12, -2, -2, -2, -2, 12, 0, 13, 12, -2, 15, 6, -2, -2, 2, -2, 13, -2, 7, 4, -2, -2, -2, 10, 14, -2, -2, -2, -2, -2, 2, 9, 4, -2, -2, 0, -2, -2, 7, 15, -2, 6, -2, 13, -2, -2, -2, 13, 3, -2, 11, -2, -2, 2, -2, -2, 13, 11, -2, 7, 13, 2, 15, -2, -2, -2, 11, 9, -2, -2, 14, 10, 1, 6, 15, -2, -2, -2, -2, -2, 2, -2, -2, -2, 7, -2, -2, 4, 7, -2, 10, 15, 2, -2, -2, -2, 1, -2, -2, -2, 9, 8, 0, 15, -2, -2, -2, 7, -2, 16, -2, 15, -2, -2, 8, 12, 12, 5, 9, -2, -2, -2, 8, -2, 11, -2, 1, -2, 2, -2, 3, -2, -2, -2, 11, -2, 15, 7, -2, 9, -2, -2, -2], "threshold": [1.0535584688186646, -2.032241940498352, -2.0, 1.4534320831298828, 0.5665966868400574, 1.7101234793663025, -0.4607549160718918, 0.9085699915885925, -1.0008253157138824, -0.6784806251525879, -2.0, 0.8910534977912903, -2.0, -2.0, 0.579327404499054, 0.6412131190299988, -2.0, -0.14797563664615154, -2.0, -2.0, 0.3461841195821762, 0.6154971122741699, 0.5902172327041626, -1.249697744846344, 1.0939025282859802, -2.0, -2.3953338861465454, -2.0, -2.0, -0.6942248940467834, -2.0, 1.1375717520713806, -0.9766305088996887, -0.30859415233135223, -2.0, -2.0, -0.1989758461713791, -1.393600583076477, 0.237067683134228, -2.0, -2.0, -2.0, 1.0306376814842224, -2.0, -2.0, -2.0, -2.0, -0.16713197529315948, -0.729364812374115, -2.0, 0.7373240292072296, 1.02791827917099, -0.4759274423122406, -0.49166610836982727, -2.0, -2.0, -2.0, -2.0, -2.0, -0.4181087911128998, -2.0, -1.0490106455981731, -2.0, -2.0, -0.007253780961036682, -2.0, -2.0, -0.3238257169723511, -2.0, -2.0, 0.12707016989588737, 0.13468440622091293, 0.9948969185352325, -2.0, 0.6213309168815613, 0.366497665643692, 0.22735469043254852, -2.0, -2.0, -2.0, 1.0147097706794739, 0.10275020636618137, 0.6948780417442322, -2.0, -2.0, -0.2266348972916603, -2.0, -2.0, -0.857900083065033, 0.6341653168201447, -2.0, -0.7834616303443909, -2.0, -2.0, -0.7540893852710724, 0.16658804565668106, -0.170171070843935, 0.4620799869298935, -2.0, -2.0, 0.9817826300859451, -2.0, -2.0, 0.25835889391601086, -2.0, -0.8034017086029053, 0.9051288366317749, -2.0, -2.0, -2.0, -2.0, 0.855850487947464, 0.7871223390102386, -1.9005868434906006, -2.0, -0.39526277780532837, -0.9731000065803528, -1.353767216205597, -2.0, -2.0, -2.0, 0.7096241116523743, -2.0, 0.7256582081317902, -0.12466458688140847, -2.0, -2.0, -2.0, 0.7263396978378296, -2.0, -2.0, -2.0, -0.20093492418527603, -0.48461878299713135, -1.8899496793746948, -2.0, 0.2215677797794342, -2.0, -0.43531426787376404, 0.7360130250453949, -2.0, -1.3798754215240479, -0.03353146091103554, -2.0, -2.0, -2.0, -2.0, 0.505578875541687, 2.5594350695610046, 0.34923745691776276, -0.9341723322868347, -2.0, -0.4570561498403549, -0.3571056127548218, -2.0, -2.0, -0.5666889101266861, -2.0, -0.6434798538684845, -2.0, 0.6236644387245178, -0.19363114051520824, -2.0, -2.0, -2.0, -0.5898151844739914, -0.6843967288732529, -2.0, -2.0, -2.0, -2.0, -2.0, 0.18047307431697845, -1.148226022720337, -0.6025011129677296, -2.0, -2.0, -2.582894742488861, -2.0, -2.0, 0.8402936458587646, -0.17330735176801682, -2.0, 0.12106876261532307, -2.0, -0.08872606605291367, -2.0, -2.0, -2.0, 0.40763258934020996, -0.9498685002326965, -2.0, 2.6591644287109375, -2.0, -2.0, 1.8593986630439758, -2.0, -2.0, 1.458745002746582, -2.831336259841919, -2.0, 0.8756854832172394, -1.5194069147109985, -0.6885519325733185, -0.4650575816631317, -2.0, -2.0, -2.0, -1.2840937376022339, -1.2568658590316772, -2.0, -2.0, -0.6858710646629333, -0.8044030666351318, 0.8499155342578888, 0.6629997044801712, -0.26305923238396645, -2.0, -2.0, -2.0, -2.0, -2.0, -0.687211662530899, -2.0, -2.0, -2.0, -0.12909281253814697, -2.0, -2.0, 1.1826305985450745, -1.3500335812568665, -2.0, 0.43425755202770233, -0.28359121084213257, -0.557889461517334, -2.0, -2.0, -2.0, -1.7923359274864197, -2.0, -2.0, -2.0, -0.6399665474891663, -0.18023601174354553, 0.8021568953990936, -0.43399542570114136, -2.0, -2.0, -2.0, 0.6847251057624817, -2.0, 0.03440962731838226, -2.0, -0.43399542570114136, -2.0, -2.0, 0.3126854747533798, 2.37963330745697, -0.5057016462087631, 0.14659862965345383, -0.11423734948039055, -2.0, -2.0, -2.0, -0.23768606781959534, -2.0, -0.5605736374855042, -2.0, 0.40148141980171204, -2.0, -0.6902436912059784, -2.0, 1.1425219178199768, -2.0, -2.0, -2.0, 0.35008910298347473, -2.0, -0.16092777252197266, 0.666056901216507, -2.0, -0.3904771953821182, -2.0, -2.0, -2.0], "value": [[[1559.0, 1687.0]], [[1154.0, 1621.0]], [[95.0, 0.0]], [[1059.0, 1621.0]], [[757.0, 1579.0]], [[692.0, 987.0]], [[550.0, 947.0]], [[262.0, 216.0]], [[254.0, 117.0]], [[19.0, 39.0]], [[0.0, 34.0]], [[19.0, 5.0]], [[19.0, 0.0]], [[0.0, 5.0]], [[235.0, 78.0]], [[118.0, 1.0]], [[111.0, 0.0]], [[7.0, 1.0]], [[0.0, 1.0]], [[7.0, 0.0]], [[117.0, 77.0]], [[116.0, 61.0]], [[38.0, 42.0]], [[38.0, 20.0]], [[2.0, 10.0]], [[0.0, 9.0]], [[2.0, 1.0]], [[0.0, 1.0]], [[2.0, 0.0]], [[36.0, 10.0]], [[0.0, 2.0]], [[36.0, 8.0]], [[36.0, 6.0]], [[8.0, 4.0]], [[8.0, 0.0]], [[0.0, 4.0]], [[28.0, 2.0]], [[26.0, 1.0]], [[3.0, 1.0]], [[3.0, 0.0]], [[0.0, 1.0]], [[23.0, 0.0]], [[2.0, 1.0]], [[0.0, 1.0]], [[2.0, 0.0]], [[0.0, 2.0]], [[0.0, 22.0]], [[78.0, 19.0]], [[63.0, 9.0]], [[30.0, 0.0]], [[33.0, 9.0]], [[33.0, 3.0]], [[33.0, 2.0]], [[2.0, 2.0]], [[2.0, 0.0]], [[0.0, 2.0]], [[31.0, 0.0]], [[0.0, 1.0]], [[0.0, 6.0]], [[15.0, 10.0]], [[0.0, 8.0]], [[15.0, 2.0]], [[0.0, 2.0]], [[15.0, 0.0]], [[1.0, 16.0]], [[1.0, 0.0]], [[0.0, 16.0]], [[8.0, 99.0]], [[8.0, 0.0]], [[0.0, 99.0]], [[288.0, 731.0]], [[86.0, 455.0]], [[66.0, 128.0]], [[0.0, 34.0]], [[66.0, 94.0]], [[1.0, 27.0]], [[1.0, 5.0]], [[1.0, 0.0]], [[0.0, 5.0]], [[0.0, 22.0]], [[65.0, 67.0]], [[34.0, 5.0]], [[6.0, 4.0]], [[0.0, 4.0]], [[6.0, 0.0]], [[28.0, 1.0]], [[28.0, 0.0]], [[0.0, 1.0]], [[31.0, 62.0]], [[15.0, 4.0]], [[12.0, 0.0]], [[3.0, 4.0]], [[3.0, 0.0]], [[0.0, 4.0]], [[16.0, 58.0]], [[16.0, 18.0]], [[13.0, 6.0]], [[3.0, 5.0]], [[0.0, 5.0]], [[3.0, 0.0]], [[10.0, 1.0]], [[10.0, 0.0]], [[0.0, 1.0]], [[3.0, 12.0]], [[1.0, 0.0]], [[2.0, 12.0]], [[2.0, 5.0]], [[2.0, 0.0]], [[0.0, 5.0]], [[0.0, 7.0]], [[0.0, 40.0]], [[20.0, 327.0]], [[10.0, 327.0]], [[9.0, 123.0]], [[2.0, 0.0]], [[7.0, 123.0]], [[5.0, 31.0]], [[5.0, 10.0]], [[5.0, 0.0]], [[0.0, 10.0]], [[0.0, 21.0]], [[2.0, 92.0]], [[0.0, 87.0]], [[2.0, 5.0]], [[2.0, 1.0]], [[2.0, 0.0]], [[0.0, 1.0]], [[0.0, 4.0]], [[1.0, 204.0]], [[0.0, 204.0]], [[1.0, 0.0]], [[10.0, 0.0]], [[202.0, 276.0]], [[28.0, 152.0]], [[7.0, 94.0]], [[2.0, 0.0]], [[5.0, 94.0]], [[1.0, 0.0]], [[4.0, 94.0]], [[4.0, 25.0]], [[0.0, 18.0]], [[4.0, 7.0]], [[1.0, 7.0]], [[0.0, 7.0]], [[1.0, 0.0]], [[3.0, 0.0]], [[0.0, 69.0]], [[21.0, 58.0]], [[16.0, 58.0]], [[12.0, 58.0]], [[11.0, 25.0]], [[5.0, 0.0]], [[6.0, 25.0]], [[4.0, 2.0]], [[0.0, 2.0]], [[4.0, 0.0]], [[2.0, 23.0]], [[0.0, 17.0]], [[2.0, 6.0]], [[1.0, 0.0]], [[1.0, 6.0]], [[1.0, 1.0]], [[1.0, 0.0]], [[0.0, 1.0]], [[0.0, 5.0]], [[1.0, 33.0]], [[1.0, 1.0]], [[0.0, 1.0]], [[1.0, 0.0]], [[0.0, 32.0]], [[4.0, 0.0]], [[5.0, 0.0]], [[174.0, 124.0]], [[126.0, 17.0]], [[1.0, 16.0]], [[1.0, 0.0]], [[0.0, 16.0]], [[125.0, 1.0]], [[0.0, 1.0]], [[125.0, 0.0]], [[48.0, 107.0]], [[7.0, 107.0]], [[6.0, 0.0]], [[1.0, 107.0]], [[0.0, 80.0]], [[1.0, 27.0]], [[1.0, 0.0]], [[0.0, 27.0]], [[41.0, 0.0]], [[142.0, 40.0]], [[23.0, 33.0]], [[0.0, 30.0]], [[23.0, 3.0]], [[23.0, 0.0]], [[0.0, 3.0]], [[119.0, 7.0]], [[0.0, 7.0]], [[119.0, 0.0]], [[65.0, 592.0]], [[34.0, 590.0]], [[18.0, 0.0]], [[16.0, 590.0]], [[14.0, 590.0]], [[7.0, 33.0]], [[7.0, 10.0]], [[0.0, 10.0]], [[7.0, 0.0]], [[0.0, 23.0]], [[7.0, 557.0]], [[2.0, 7.0]], [[2.0, 0.0]], [[0.0, 7.0]], [[5.0, 550.0]], [[3.0, 532.0]], [[3.0, 44.0]], [[2.0, 44.0]], [[1.0, 44.0]], [[0.0, 44.0]], [[1.0, 0.0]], [[1.0, 0.0]], [[1.0, 0.0]], [[0.0, 488.0]], [[2.0, 18.0]], [[2.0, 0.0]], [[0.0, 18.0]], [[2.0, 0.0]], [[31.0, 2.0]], [[0.0, 2.0]], [[31.0, 0.0]], [[302.0, 42.0]], [[302.0, 22.0]], [[207.0, 0.0]], [[95.0, 22.0]], [[92.0, 7.0]], [[92.0, 1.0]], [[0.0, 1.0]], [[92.0, 0.0]], [[0.0, 6.0]], [[3.0, 15.0]], [[3.0, 0.0]], [[0.0, 15.0]], [[0.0, 20.0]], [[405.0, 66.0]], [[51.0, 43.0]], [[10.0, 35.0]], [[6.0, 35.0]], [[0.0, 35.0]], [[6.0, 0.0]], [[4.0, 0.0]], [[41.0, 8.0]], [[38.0, 0.0]], [[3.0, 8.0]], [[0.0, 7.0]], [[3.0, 1.0]], [[0.0, 1.0]], [[3.0, 0.0]], [[354.0, 23.0]], [[326.0, 7.0]], [[326.0, 6.0]], [[6.0, 2.0]], [[1.0, 2.0]], [[0.0, 2.0]], [[1.0, 0.0]], [[5.0, 0.0]], [[320.0, 4.0]], [[247.0, 0.0]], [[73.0, 4.0]], [[0.0, 2.0]], [[73.0, 2.0]], [[49.0, 0.0]], [[24.0, 2.0]], [[0.0, 1.0]], [[24.0, 1.0]], [[24.0, 0.0]], [[0.0, 1.0]], [[0.0, 1.0]], [[28.0, 16.0]], [[0.0, 12.0]], [[28.0, 4.0]], [[8.0, 4.0]], [[7.0, 0.0]], [[1.0, 4.0]], [[1.0, 0.0]], [[0.0, 4.0]], [[20.0, 0.0]]]}, {"children_left": [1, 2, 3, 4, 5, 6, 7, 8, 9, 10, -1, 12, -1, 14, -1, 16, 17, 18, -1, -1, 21, 22, -1, -1, -1, -1, -1, 28, 29, 30, 31, -1, 33, -1, 35, -1, -1, -1, 39, 40, 41, 42, -1, 44, 45, -1, -1, 48, -1, 50, -1, -1, 53, -1, -1, 56, 57, 58, -1, -1, -1, 62, -1, -1, 65, 66, 67, 68, -1, -1, 71, 72, 73, 74, 75, 76, -1, -1, -1, -1, 81, -1, 83, -1, 85, -1, -1, -1, 89, -1, -1, 92, -1, -1, 95, 96, 97, -1, -1, -1, 101, -1, -1, 104, 105, 106, 107, -1, -1, 110, 111, -1, -1, 114, 115, -1, 117, -1, 119, 120, -1, -1, -1, 124, 125, -1, 127, 128, -1, 130, -1, 132, -1, 134, -1, -1, -1, 138, -1, -1, -1, 142, 143, 144, 145, -1, 147, -1, -1, 150, -1, 152, -1, -1, -1, -1, 157, 158, -1, 160, -1, 162, -1, -1, -1, 166, 167, -1, 169, 170, -1, -1, 173, -1, -1, 176, -1, 178, 179, -1, -1, -1, 183, 184, -1, -1, 187, 188, -1, -1, 191, 192, 193, -1, -1, -1, 197, 198, 199, 200, -1, -1, -1, 204, -1, 206, -1, -1, -1, -1, 211, -1, 213, -1, -1, 216, 217, 218, 219, 220, -1, -1, 223, -1, 225, -1, -1, -1, 229, 230, -1, -1, -1, 234, 235, 236, -1, -1, 239, -1, -1, 242, -1, 244, -1, -1, 247, 248, 249, -1, 251, -1, -1, 254, -1, -1, 257, -1, 259, 260, 261, -1, -1, -1, -1], "children_right": [246, 215, 210, 209, 182, 165, 156, 27, 26, 11, -1, 13, -1, 15, -1, 25, 20, 19, -1, -1, 24, 23, -1, -1, -1, -1, -1, 103, 38, 37, 32, -1, 34, -1, 36, -1, -1, -1, 64, 55, 52, 43, -1, 47, 46, -1, -1, 49, -1, 51, -1, -1, 54, -1, -1, 61, 60, 59, -1, -1, -1, 63, -1, -1, 94, 91, 70, 69, -1, -1, 88, 87, 80, 79, 78, 77, -1, -1, -1, -1, 82, -1, 84, -1, 86, -1, -1, -1, 90, -1, -1, 93, -1, -1, 100, 99, 98, -1, -1, -1, 102, -1, -1, 141, 140, 109, 108, -1, -1, 113, 112, -1, -1, 123, 116, -1, 118, -1, 122, 121, -1, -1, -1, 137, 126, -1, 136, 129, -1, 131, -1, 133, -1, 135, -1, -1, -1, 139, -1, -1, -1, 155, 154, 149, 146, -1, 148, -1, -1, 151, -1, 153, -1, -1, -1, -1, 164, 159, -1, 161, -1, 163, -1, -1, -1, 175, 168, -1, 172, 171, -1, -1, 174, -1, -1, 177, -1, 181, 180, -1, -1, -1, 186, 185, -1, -1, 190, 189, -1, -1, 196, 195, 194, -1, -1, -1, 208, 203, 202, 201, -1, -1, -1, 205, -1, 207, -1, -1, -1, -1, 212, -1, 214, -1, -1, 233, 228, 227, 222, 221, -1, -1, 224, -1, 226, -1, -1, -1, 232, 231, -1, -1, -1, 241, 238, 237, -1, -1, 240, -1, -1, 243, -1, 245, -1, -1, 256, 253, 250, -1, 252, -1, -1, 255, -1, -1, 258, -1, 264, 263, 262, -1, -1, -1, -1], "feature": [14, 3, 15, 7, 12, 2, 10, 3, 1, 15, -2, 1, -2, 4, -2, 1, 0, 5, -2, -2, 16, 5, -2, -2, -2, -2, -2, 8, 5, 2, 9, -2, 15, -2, 8, -2, -2, -2, 6, 0, 7, 11, -2, 1, 5, -2, -2, 12, -2, 5, -2, -2, 11, -2, -2, 12, 16, 5, -2, -2, -2, 0, -2, -2, 9, 0, 1, 13, -2, -2, 13, 4, 15, 7, 16, 1, -2, -2, -2, -2, 14, -2, 11, -2, 11, -2, -2, -2, 9, -2, -2, 6, -2, -2, 13, 11, 15, -2, -2, -2, 10, -2, -2, 9, 12, 7, 14, -2, -2, 15, 15, -2, -2, 7, 14, -2, 3, -2, 3, 10, -2, -2, -2, 16, 10, -2, 0, 11, -2, 4, -2, 6, -2, 13, -2, -2, -2, 10, -2, -2, -2, 7, 8, 9, 11, -2, 6, -2, -2, 7, -2, 7, 